-6.576083600521087646e-02
-4.972181096673011780e-02
-6.452411413192749023e-02
-1.737453415989875793e-02
-9.508469142019748688e-03
5.858662351965904236e-02
2.761771716177463531e-02
1.178829092532396317e-02
1.408070027828216553e-01
-3.861714387312531471e-03
6.626059114933013916e-02
6.654936820268630981e-02
1.620513945817947388e-02
5.599488690495491028e-02
7.193609327077865601e-02
1.073107938282191753e-03
1.702795922756195068e-01
-1.301514334045350552e-03
-3.112412756308913231e-03
2.389017678797245026e-02
-6.279496848583221436e-02
9.076110273599624634e-02
-5.633722618222236633e-02
-4.061986878514289856e-02
1.174611374735832214e-01
4.230177775025367737e-02
1.651810705661773682e-01
1.899344176054000854e-01
1.864563114941120148e-02
5.669066682457923889e-02
-8.343257009983062744e-02
2.180614694952964783e-02
1.090713217854499817e-01
-2.201567403972148895e-02
-2.613386884331703186e-02
1.054818630218505859e-01
-1.281811819353606552e-05
-3.281665034592151642e-03
-3.307024538516998291e-01
-2.815843187272548676e-02
