-2.010464854538440704e-02
4.182514920830726624e-02
2.248226851224899292e-02
-4.419035091996192932e-02
-7.483210414648056030e-02
1.633173972368240356e-02
2.266791462898254395e-02
1.005674898624420166e-02
4.016293212771415710e-02
7.270560599863529205e-04
3.036726824939250946e-02
-2.025995403528213501e-02
2.816459164023399353e-02
3.982065618038177490e-02
-7.696344051510095596e-03
-8.066526614129543304e-03
-2.517384104430675507e-02
-1.155775692313909531e-02
-5.507869180291891098e-03
-1.204921025782823563e-02
-1.439065951853990555e-02
7.959291338920593262e-02
-1.032542996108531952e-02
1.546484977006912231e-02
2.849340206012129784e-03
2.652820199728012085e-03
8.167391642928123474e-03
7.483977358788251877e-03
4.068876057863235474e-02
-1.457596663385629654e-03
-1.799800060689449310e-02
-2.642142586410045624e-02
-5.238097906112670898e-02
1.815812103450298309e-02
1.497659552842378616e-02
2.865274436771869659e-02
3.526303917169570923e-02
-2.077374421060085297e-02
2.195950597524642944e-02
2.164092101156711578e-02
2.605894580483436584e-02
-2.832852303981781006e-03
-4.837447777390480042e-02
1.203264389187097549e-02
-2.950014546513557434e-03
-1.845092140138149261e-02
1.661459798924624920e-03
-2.145070210099220276e-02
2.182970754802227020e-02
-2.035562694072723389e-02
-8.293736726045608521e-03
2.013446763157844543e-03
-5.342576280236244202e-02
-2.109056524932384491e-02
-3.513160347938537598e-02
7.055643945932388306e-03
-1.688687916612252593e-04
-2.570710331201553345e-02
3.535922616720199585e-02
-9.858218953013420105e-03
-3.642899915575981140e-02
-1.014334522187709808e-02
1.352886203676462173e-02
-3.762439638376235962e-02
-7.066891063004732132e-03
1.598308421671390533e-02
2.670590532943606377e-03
1.366612873971462250e-02
-1.676623336970806122e-02
-1.299971062690019608e-02
-1.706417649984359741e-02
-1.159470342099666595e-02
1.856119744479656219e-02
3.332972293719649315e-03
2.645424194633960724e-02
8.848148398101329803e-03
-1.849511265754699707e-02
-1.345883309841156006e-02
-1.942485943436622620e-02
3.223897889256477356e-02
6.021274253726005554e-03
6.623873487114906311e-03
4.569367691874504089e-02
2.194139407947659492e-03
3.156666876748204231e-03
-1.718242652714252472e-03
-3.606924787163734436e-03
7.025703787803649902e-03
1.109420787543058395e-02
2.330469340085983276e-02
-1.072266488336026669e-03
3.340444713830947876e-02
5.143678188323974609e-02
4.517703503370285034e-02
9.202326647937297821e-03
4.627936985343694687e-03
4.158667847514152527e-02
3.223691508173942566e-02
-3.801582381129264832e-02
7.909129373729228973e-03
