5.097065567970275879e-01 1.304763704538345337e-01 -1.537418216466903687e-01 -7.669436931610107422e-01 -7.897071838378906250e-01 2.394070290029048920e-02 -2.025046944618225098e-01 -1.102330088615417480e-01 8.629320859909057617e-01 8.832834959030151367e-01 -1.508069276809692383e+00 -5.512658134102821350e-02 5.622904896736145020e-01 -5.641428828239440918e-01 2.614429295063018799e-01 6.391544342041015625e-01 1.080065011978149414e+00 1.720788180828094482e-01 -4.105035960674285889e-02 -3.475680202245712280e-02 2.981531023979187012e-01 1.215311288833618164e-01 -4.869907200336456299e-01 -4.906614124774932861e-01 -8.551848530769348145e-01 -6.572109460830688477e-01 -4.222674965858459473e-01 -8.907889574766159058e-02 -2.789714038372039795e-01 4.685318171977996826e-01 5.623375773429870605e-01 -9.840732067823410034e-02 4.241103529930114746e-01 3.715446591377258301e-01 -4.876206517219543457e-01 -1.726689189672470093e-01 -8.919584751129150391e-01 2.222076654434204102e-01 -8.429533988237380981e-02 -1.178435012698173523e-01
-9.189887344837188721e-02 2.537655644118785858e-02 1.711595654487609863e-01 1.381882429122924805e-01 3.873211443424224854e-01 1.540695875883102417e-01 -3.594084084033966064e-01 1.513601392507553101e-01 -1.554650664329528809e-01 1.462144851684570312e-01 3.971516489982604980e-01 -1.781914383172988892e-01 -8.285348117351531982e-02 4.927136003971099854e-01 5.473072826862335205e-02 1.274065375328063965e-01 -9.107782691717147827e-02 2.518324851989746094e-01 4.559654369950294495e-02 -1.708996146917343140e-01 1.477346103638410568e-02 -4.311296343803405762e-01 9.840171039104461670e-02 -2.640944160521030426e-02 3.626009225845336914e-01 3.774901926517486572e-01 -3.859400004148483276e-02 -1.313504427671432495e-01 -3.861448764801025391e-01 -3.763043880462646484e-01 1.784622520208358765e-01 -1.467997580766677856e-01 -2.250457108020782471e-01 8.012350648641586304e-02 -9.581444412469863892e-02 1.138508319854736328e-01 -1.126886457204818726e-01 -9.759937226772308350e-02 1.201974302530288696e-01 -1.449621468782424927e-01
1.482274830341339111e-01 -1.094353720545768738e-01 1.341227591037750244e-01 3.101373016834259033e-01 -4.460415616631507874e-02 -1.663865149021148682e-01 -2.206921391189098358e-02 6.281404197216033936e-02 1.022711675614118576e-02 -4.188759028911590576e-01 -2.322386801242828369e-01 3.000212134793400764e-03 6.565745472908020020e-01 -9.817188233137130737e-02 -4.495742917060852051e-02 -2.390072941780090332e-01 -2.904069125652313232e-01 5.844698473811149597e-02 -2.069230824708938599e-01 1.213738992810249329e-01 -2.843342125415802002e-01 -2.634370625019073486e-01 -1.870755255222320557e-01 2.858150191605091095e-02 -1.529564708471298218e-01 -2.325609177350997925e-01 6.955780088901519775e-02 1.336077451705932617e-01 -4.797566533088684082e-01 1.526923198252916336e-02 3.161713480949401855e-01 3.669907152652740479e-01 2.985769510269165039e-01 -9.381818585097789764e-03 2.138394266366958618e-01 7.085144519805908203e-02 -1.778385341167449951e-01 1.434264052659273148e-02 1.199619248509407043e-01 1.048724651336669922e-01
4.454463720321655273e-01 -7.136970758438110352e-02 1.405122876167297363e-01 3.274680972099304199e-01 8.840121626853942871e-01 5.621258020401000977e-01 4.275870621204376221e-01 5.646529421210289001e-02 -2.643417418003082275e-01 -5.876687169075012207e-01 -1.181812360882759094e-01 1.183111593127250671e-01 -2.666587829589843750e-01 3.260678797960281372e-02 -8.907488584518432617e-01 -2.955594956874847412e-01 -2.557215690612792969e-01 4.113575220108032227e-01 -4.913859441876411438e-02 -2.160801887512207031e-01 -2.137024998664855957e-01 -1.355885416269302368e-01 -1.890649199485778809e-01 3.852531611919403076e-01 3.753891289234161377e-01 -4.390126466751098633e-01 -2.720059752464294434e-01 -8.018122315406799316e-01 -1.438294053077697754e+00 5.453749001026153564e-02 -5.430380254983901978e-02 -1.734716147184371948e-01 1.710210144519805908e-01 3.447333574295043945e-01 -3.340465128421783447e-01 -1.121013537049293518e-01 -9.156412445008754730e-03 3.165309131145477295e-01 1.542352437973022461e-01 4.714980721473693848e-01
2.291479110717773438e-01 -3.975018262863159180e-01 4.651834443211555481e-02 -6.452070176601409912e-02 -1.223243102431297302e-01 2.143897563219070435e-01 -9.056920185685157776e-03 3.492202982306480408e-02 -2.174387872219085693e-01 6.967540830373764038e-02 1.472845077514648438e-01 4.857859760522842407e-02 9.369518607854843140e-02 2.824495732784271240e-01 2.533172667026519775e-01 5.499268174171447754e-01 -2.109428867697715759e-03 4.882969260215759277e-01 -4.270860925316810608e-02 -1.922579854726791382e-01 -1.609841883182525635e-01 5.068054795265197754e-02 3.991315513849258423e-02 6.851229816675186157e-02 1.518257614225149155e-02 2.827741764485836029e-02 4.415856674313545227e-02 1.675443053245544434e-01 4.438544511795043945e-01 -6.054181605577468872e-02 -8.680368214845657349e-02 -2.334290742874145508e-01 -4.982460290193557739e-02 1.877350807189941406e-01 7.353582885116338730e-03 1.830093115568161011e-01 -9.656569361686706543e-02 1.614175736904144287e-01 1.601103693246841431e-03 1.186395511031150818e-01
1.758768409490585327e-01 2.725096344947814941e-01 -8.065342158079147339e-02 -9.524689316749572754e-01 -9.034972190856933594e-01 -2.624929137527942657e-02 -2.482301890850067139e-01 -4.086040854454040527e-01 9.066566824913024902e-01 1.119470238685607910e+00 -1.550616621971130371e+00 -1.548820883035659790e-01 3.152162432670593262e-01 -7.553936243057250977e-01 -3.483246266841888428e-01 5.491985678672790527e-01 8.485921025276184082e-01 4.738872945308685303e-01 -1.063808351755142212e-01 1.389076560735702515e-01 2.792822718620300293e-01 -2.004002630710601807e-01 -8.043935298919677734e-01 -4.335341155529022217e-01 -9.336100220680236816e-01 -7.738412618637084961e-01 -7.218087911605834961e-01 -2.265502065420150757e-01 -1.463501155376434326e-01 6.952776312828063965e-01 1.897751986980438232e-01 -9.320525825023651123e-02 5.514261126518249512e-01 3.704653382301330566e-01 -7.613661289215087891e-01 -2.132250219583511353e-01 -9.955925345420837402e-01 4.240597132593393326e-03 3.222002387046813965e-01 3.199745118618011475e-01
-5.800959467887878418e-02 -1.593416631221771240e-01 -1.143054515123367310e-01 -6.889217346906661987e-02 1.133699342608451843e-02 -9.320279955863952637e-02 -2.250101268291473389e-01 -1.076861619949340820e-01 1.520043909549713135e-01 3.077841550111770630e-02 -6.568253040313720703e-01 9.494902938604354858e-02 3.078615665435791016e-01 -2.708179950714111328e-01 6.728232651948928833e-02 8.055415749549865723e-02 -1.560650169849395752e-01 6.150799617171287537e-02 1.306858509778976440e-01 1.411006748676300049e-01 2.966864109039306641e-01 1.982459425926208496e-01 -2.280343323945999146e-02 -9.296279400587081909e-02 2.439965456724166870e-01 -4.968929290771484375e-01 2.761455811560153961e-02 1.334564238786697388e-01 -5.398296192288398743e-02 -1.155612617731094360e-01 3.187589943408966064e-01 2.972913440316915512e-03 1.149105355143547058e-01 4.413452744483947754e-02 -4.275631010532379150e-01 -3.548917174339294434e-01 -3.143745362758636475e-01 1.450718343257904053e-01 2.176605910062789917e-01 2.884589731693267822e-01
-2.778518795967102051e-01 -5.394111871719360352e-01 3.796862065792083740e-01 2.155594527721405029e-01 8.612557314336299896e-03 8.117029070854187012e-02 3.517520129680633545e-01 -2.411121577024459839e-01 3.033144457731395960e-04 1.431159079074859619e-01 2.947786748409271240e-01 2.459688037633895874e-01 -7.182164192199707031e-01 4.991881921887397766e-02 -8.872760087251663208e-02 4.037198126316070557e-01 -8.927292227745056152e-01 -2.858658730983734131e-01 3.182019889354705811e-01 6.528636217117309570e-01 8.381327614188194275e-03 -6.474263034760951996e-03 5.105795860290527344e-01 2.845000326633453369e-01 4.774873852729797363e-01 8.664250373840332031e-01 1.015221104025840759e-01 1.661830097436904907e-01 1.355116963386535645e-01 -2.508780360221862793e-01 -9.805513918399810791e-02 1.716610491275787354e-01 -3.182167708873748779e-01 -3.177564144134521484e-01 4.167387485504150391e-01 -6.055600941181182861e-02 4.292345643043518066e-01 2.520579993724822998e-01 -3.047726750373840332e-01 7.172276824712753296e-02
-1.469937860965728760e-01 -1.507832705974578857e-01 -1.409524232149124146e-01 2.854492068290710449e-01 7.409958197968080640e-05 3.594641108065843582e-03 3.120656907558441162e-01 1.824147105216979980e-01 -5.689973756670951843e-02 2.100398391485214233e-02 3.565519452095031738e-01 -1.623394638299942017e-01 -2.951118350028991699e-01 2.822256684303283691e-01 -1.233503073453903198e-01 -7.993293553590774536e-02 -6.173246502876281738e-01 -6.798949092626571655e-02 -6.392609328031539917e-03 -2.375228703022003174e-01 -4.616972208023071289e-01 -3.073488362133502960e-02 2.421456277370452881e-01 -8.594350889325141907e-03 -1.087010800838470459e-01 6.343694925308227539e-01 1.351619660854339600e-01 -1.055147945880889893e-01 1.410172432661056519e-01 -2.294147461652755737e-01 -3.791858255863189697e-01 -1.255405694246292114e-01 -2.316362410783767700e-01 2.109634429216384888e-01 9.359701722860336304e-02 -3.119358234107494354e-02 2.885306477546691895e-01 5.792681500315666199e-02 -2.742393910884857178e-01 -1.966917216777801514e-01
3.353263735771179199e-01 3.737709820270538330e-01 -3.946802765130996704e-02 -8.834444731473922729e-02 -5.308655500411987305e-01 5.353275537490844727e-01 -3.529870212078094482e-01 1.298870295286178589e-01 3.349514305591583252e-01 2.441752403974533081e-01 -3.075310587882995605e-01 -2.639084458351135254e-01 2.398163676261901855e-01 2.321415841579437256e-01 -2.322914451360702515e-01 3.673052489757537842e-01 9.568939208984375000e-01 2.971957921981811523e-01 -5.181868746876716614e-02 -5.623894929885864258e-01 -2.285814732313156128e-01 2.288132533431053162e-02 -9.925077855587005615e-02 -1.397951543331146240e-01 -3.222014009952545166e-01 -1.717691868543624878e-01 -2.471307069063186646e-01 -1.518472135066986084e-01 -5.420001968741416931e-02 1.998959630727767944e-01 3.986751437187194824e-01 -1.871093660593032837e-01 -8.561910130083560944e-03 2.105071693658828735e-01 -8.533761650323867798e-02 -3.255927190184593201e-02 -4.587981700897216797e-01 -3.806459307670593262e-01 3.454049527645111084e-01 -4.184801597148180008e-03
3.174771070480346680e-01 -7.147476077079772949e-02 -3.763874620199203491e-02 -3.538349866867065430e-01 -9.506855159997940063e-03 9.894938766956329346e-02 -5.462932959198951721e-02 2.181294709444046021e-01 7.143172621726989746e-02 3.041423559188842773e-01 1.307910829782485962e-01 3.910963982343673706e-02 -1.222518980503082275e-01 1.868426501750946045e-01 -7.573093473911285400e-02 -5.518580600619316101e-02 3.605355322360992432e-01 4.663446545600891113e-01 -5.146564170718193054e-02 7.843730598688125610e-02 3.383240401744842529e-01 -2.992607057094573975e-01 -3.041120171546936035e-01 -2.763004414737224579e-02 8.188740350306034088e-03 1.541095674037933350e-01 2.558191074058413506e-03 -3.390679657459259033e-01 -3.725966513156890869e-01 -2.887121029198169708e-02 3.405577540397644043e-01 -2.371037453413009644e-01 2.767672538757324219e-01 2.643395662307739258e-01 -3.138758838176727295e-01 7.448914647102355957e-02 -3.068916201591491699e-01 5.094058439135551453e-02 3.310957252979278564e-01 -1.426398605108261108e-01
3.035389780998229980e-01 2.309161573648452759e-01 7.865468040108680725e-03 -4.301015436649322510e-01 -4.272963404655456543e-01 4.725151658058166504e-01 -4.529406130313873291e-01 1.801285333931446075e-02 6.122419834136962891e-01 3.706499636173248291e-01 -5.826401114463806152e-01 -2.380946725606918335e-01 8.688200712203979492e-01 -5.610759854316711426e-01 -5.150592923164367676e-01 -7.000999897718429565e-02 1.686172723770141602e+00 5.462855696678161621e-01 -1.717565655708312988e-01 -3.011776208877563477e-01 -1.022144407033920288e-01 3.917835056781768799e-01 1.729047298431396484e-02 -3.602679371833801270e-01 -2.722355127334594727e-01 -3.645077645778656006e-01 -9.442158043384552002e-02 2.160899639129638672e-01 -2.697283923625946045e-01 2.208921462297439575e-01 4.473230540752410889e-01 1.525611337274312973e-02 6.302890181541442871e-01 -1.213749945163726807e-01 -5.882368683815002441e-01 -2.416333928704261780e-02 -8.223209977149963379e-01 -2.602034211158752441e-01 2.787761688232421875e-01 3.234235048294067383e-01
1.277278810739517212e-01 2.903725504875183105e-01 -2.705902457237243652e-01 1.810293197631835938e-01 -1.583311557769775391e-01 4.038640856742858887e-01 2.391818538308143616e-02 -1.245366632938385010e-01 4.078392684459686279e-01 4.346982538700103760e-01 -5.566040277481079102e-01 -5.263929814100265503e-02 8.058742284774780273e-01 -2.592186629772186279e-01 -4.769884645938873291e-01 2.272562682628631592e-02 1.436147212982177734e+00 4.844914376735687256e-02 -2.103341817855834961e-01 -2.388123795390129089e-02 -1.165207028388977051e-01 -1.598050296306610107e-01 -1.417414397001266479e-01 -3.015202581882476807e-01 -6.872541308403015137e-01 -8.948175311088562012e-01 -6.164104342460632324e-01 -2.290794509463012218e-04 -6.102741360664367676e-01 1.720497459173202515e-01 4.259560108184814453e-01 -1.057482957839965820e-01 5.553242564201354980e-01 1.224599108099937439e-01 -4.983237087726593018e-01 7.144953589886426926e-03 -8.215520381927490234e-01 -1.834923624992370605e-01 2.372730970382690430e-01 2.106281928718090057e-02
-9.871044754981994629e-02 -1.499401628971099854e-01 3.182700872421264648e-01 5.145576596260070801e-01 5.794245004653930664e-01 -3.993994295597076416e-01 5.586529374122619629e-01 9.181234240531921387e-02 -4.569456577301025391e-01 -8.342247009277343750e-01 6.744046807289123535e-01 -9.891094267368316650e-02 -1.916425675153732300e-01 2.755927443504333496e-01 -1.149229332804679871e-01 -8.210372328758239746e-01 -1.110342144966125488e+00 -2.778267860412597656e-01 -4.754811525344848633e-02 4.744490981101989746e-01 -4.643070697784423828e-01 -2.998523786664009094e-02 4.525749385356903076e-01 -9.468550980091094971e-02 3.482808172702789307e-02 1.070582047104835510e-01 2.868191003799438477e-01 -8.470246568322181702e-03 -8.257465362548828125e-01 -3.779532611370086670e-01 -5.076403543353080750e-02 8.505064994096755981e-02 -3.862358331680297852e-01 3.630492091178894043e-02 -4.261132702231407166e-02 -3.939577341079711914e-01 3.648902177810668945e-01 -2.081660777330398560e-01 -7.584744691848754883e-02 -3.744369372725486755e-02
5.793970823287963867e-02 -9.722025692462921143e-02 -3.306115278974175453e-03 3.817349374294281006e-01 -9.504035115242004395e-03 -2.216345518827438354e-01 3.000612556934356689e-01 9.968381375074386597e-02 3.109869174659252167e-02 3.904552664607763290e-03 -1.298280507326126099e-01 -3.758572041988372803e-01 -1.008124276995658875e-01 -2.987336516380310059e-01 -1.456325203180313110e-01 -6.011353135108947754e-01 1.580063849687576294e-01 -3.093199245631694794e-02 1.125642210245132446e-01 3.626082465052604675e-02 -7.105588167905807495e-02 1.132882088422775269e-01 1.306570414453744888e-02 2.921938002109527588e-01 8.316141366958618164e-02 -3.053186535835266113e-01 8.109442889690399170e-03 2.231014817953109741e-01 -1.215884927660226822e-02 1.103118062019348145e-01 9.419116377830505371e-02 3.668205440044403076e-01 -4.751191660761833191e-02 -1.872505545616149902e-01 -1.248114481568336487e-01 8.966166526079177856e-02 1.413276493549346924e-01 -6.625799089670181274e-02 -1.435654312372207642e-01 -1.679564863443374634e-01
-1.529887132346630096e-02 3.310196995735168457e-01 -2.271393127739429474e-02 -1.600408107042312622e-01 2.101852148771286011e-01 -1.267763376235961914e-01 1.702116429805755615e-01 -4.303308427333831787e-01 3.808460831642150879e-01 2.883846163749694824e-01 -2.719372808933258057e-01 2.091934382915496826e-01 -3.485248088836669922e-01 -2.900441288948059082e-01 -6.625345349311828613e-02 6.065670251846313477e-01 -2.713969647884368896e-01 -4.623419046401977539e-01 -3.414250612258911133e-01 2.282194793224334717e-01 5.370039343833923340e-01 1.486748456954956055e-01 -2.505609989166259766e-01 -2.529374361038208008e-01 -5.072214640676975250e-03 -5.223249793052673340e-01 -4.169059991836547852e-01 6.724411249160766602e-02 4.242497682571411133e-02 -1.439387798309326172e-01 2.972631156444549561e-01 2.521490454673767090e-01 -1.364379972219467163e-01 -2.588128745555877686e-01 -2.106925398111343384e-01 -9.651734679937362671e-02 -3.577587604522705078e-01 -7.631272822618484497e-02 1.202730908989906311e-01 -1.743543446063995361e-01
6.380175054073333740e-02 1.798729300498962402e-01 3.008496388792991638e-02 1.888361126184463501e-01 2.182377278804779053e-01 -3.403382599353790283e-01 3.668480515480041504e-01 5.870260298252105713e-02 -2.809085845947265625e-01 -2.278937697410583496e-01 -1.222606003284454346e-01 -2.695582807064056396e-01 1.169000267982482910e-01 -1.164731308817863464e-01 -4.457431659102439880e-02 -5.941235423088073730e-01 1.075089499354362488e-01 -9.136866033077239990e-02 -5.830004811286926270e-02 -4.225997254252433777e-02 -2.027989923954010010e-01 -2.996541857719421387e-01 1.986589729785919189e-01 2.224884033203125000e-01 5.150355771183967590e-02 -1.167412623763084412e-01 3.802225589752197266e-01 -1.537060886621475220e-01 -1.255516409873962402e-01 4.284356720745563507e-03 -9.985934197902679443e-02 -2.808884382247924805e-01 3.117430396378040314e-02 -2.688623666763305664e-01 8.416206389665603638e-02 4.685892164707183838e-02 1.466946005821228027e-01 1.627894639968872070e-01 -3.982891440391540527e-01 2.643125653266906738e-01
-2.001323550939559937e-01 -2.025612629950046539e-02 3.380509018898010254e-01 5.098435878753662109e-01 1.142061278223991394e-01 -3.950576186180114746e-01 -7.584480196237564087e-02 8.993679285049438477e-02 -1.579420119524002075e-01 -4.070625901222229004e-01 6.858924776315689087e-02 1.601953953504562378e-01 2.462344020605087280e-01 -1.202146988362073898e-02 1.041053608059883118e-02 -2.674878835678100586e-01 -1.055051758885383606e-01 -2.026735693216323853e-01 4.261266067624092102e-02 -1.895674914121627808e-01 6.137420982122421265e-02 1.766514033079147339e-01 -3.072304092347621918e-02 -1.166346296668052673e-01 -8.908431977033615112e-02 -1.258043646812438965e-01 2.441931329667568207e-02 6.659831851720809937e-02 -2.731157243251800537e-01 1.629035919904708862e-01 -8.519759029150009155e-02 1.294660568237304688e-01 -1.589903533458709717e-01 -2.249508202075958252e-01 6.305383145809173584e-02 -5.704231560230255127e-02 -1.224716678261756897e-01 -3.437130451202392578e-01 2.822755575180053711e-01 1.386085003614425659e-01
3.947381675243377686e-01 2.818664312362670898e-01 -7.770945876836776733e-02 5.543404817581176758e-01 6.724996566772460938e-01 7.519880309700965881e-03 2.947912216186523438e-01 2.495717257261276245e-01 1.857966184616088867e-02 -4.503320753574371338e-01 1.255523227155208588e-02 -4.609177708625793457e-01 4.739746749401092529e-01 -2.423067539930343628e-01 -2.369683831930160522e-01 -9.468047618865966797e-01 -2.904895506799221039e-02 4.248708486557006836e-02 2.567592561244964600e-01 1.486149430274963379e-01 -2.426113747060298920e-02 1.615614891052246094e-01 4.797426983714103699e-02 -2.372213453054428101e-01 1.887528300285339355e-01 -2.648903429508209229e-01 1.679826825857162476e-01 -1.240172088146209717e-01 -5.400540232658386230e-01 -2.209739685058593750e-01 -3.177535533905029297e-01 -2.652499377727508545e-01 8.122134208679199219e-02 -1.222747638821601868e-01 1.848446726799011230e-01 5.478949844837188721e-02 -2.543039023876190186e-01 -1.217295899987220764e-01 -3.354393541812896729e-01 2.488118112087249756e-01
2.651722133159637451e-01 1.077701598405838013e-01 -1.147646382451057434e-01 -9.133970737457275391e-02 -3.659940958023071289e-01 3.675859570503234863e-01 -1.789478659629821777e-01 -5.449884012341499329e-02 3.442964553833007812e-01 1.812450736761093140e-01 -2.078509926795959473e-01 -2.771065235137939453e-01 2.495340704917907715e-01 3.039122819900512695e-01 -9.752226062119007111e-03 7.420579195022583008e-01 2.897410392761230469e-01 4.566915631294250488e-01 1.136193200945854187e-01 -1.904727220535278320e-01 1.250609010457992554e-01 1.551472097635269165e-01 1.813614368438720703e-01 -6.961952149868011475e-02 2.577790617942810059e-01 -5.479735881090164185e-02 -2.947372794151306152e-01 1.932179629802703857e-01 -1.487697660923004150e-01 5.994701385498046875e-02 1.940687149763107300e-01 -2.397643588483333588e-02 9.040646255016326904e-02 2.360028773546218872e-01 -1.587999910116195679e-01 -1.695812307298183441e-02 -1.555532962083816528e-01 -3.390691056847572327e-02 1.829955130815505981e-01 1.231087595224380493e-01
