-1.013584667816758156e-03
-1.685961979092098773e-05
1.000254899263381958e-01
5.705401673913002014e-02
1.561558097600936890e-01
1.110630035400390625e-01
5.546069517731666565e-02
-2.579695546955917962e-06
3.323671966791152954e-02
-6.542865186929702759e-02
2.417713031172752380e-02
-7.139170169830322266e-02
4.795324057340621948e-02
-2.319188229739665985e-02
-1.265514492988586426e-01
1.014651283621788025e-01
8.149881660938262939e-02
5.079820379614830017e-02
-3.896175697445869446e-02
7.134465128183364868e-02
2.537364512681961060e-02
2.672688849270343781e-02
-3.379399701952934265e-02
4.048885405063629150e-02
-3.880511969327926636e-02
2.765857800841331482e-02
7.999678701162338257e-02
3.049474023282527924e-02
4.717510938644409180e-02
9.494398534297943115e-02
9.658751636743545532e-02
2.804507315158843994e-02
1.134314239025115967e-01
-3.303135558962821960e-02
5.278527364134788513e-02
2.735039032995700836e-02
1.932568550109863281e-01
2.658353000879287720e-02
6.824399530887603760e-02
3.241118788719177246e-02
2.375146932899951935e-02
-1.011533141136169434e-01
1.095969309972133487e-05
1.815447956323623657e-02
1.066084802150726318e-01
4.129978269338607788e-02
3.343383222818374634e-02
3.259002417325973511e-02
2.909258566796779633e-02
2.272655963897705078e-01
6.423036754131317139e-02
8.205998688936233521e-02
9.534483402967453003e-02
3.505626460537314415e-03
5.714109647669829428e-05
-1.734149191179312766e-05
1.658502407371997833e-02
1.844621263444423676e-02
4.227049648761749268e-03
4.318483115639537573e-05
