-2.001244872808456421e-01 -2.086587250232696533e-01 -1.538937538862228394e-01 1.797156780958175659e-01 3.090237081050872803e-01 -2.284156978130340576e-01 -1.287881750613451004e-02 1.282088272273540497e-02 -1.204116940498352051e-01 7.069378625601530075e-03 1.243558600544929504e-01 2.541074343025684357e-02 9.158577024936676025e-02 1.402159184217453003e-01 -2.982870936393737793e-01 -3.029146790504455566e-02 4.742757230997085571e-02 -8.980898559093475342e-02 2.407149821519851685e-01 3.498322144150733948e-02 3.012767806649208069e-02 1.248392313718795776e-01 8.787474781274795532e-02 -1.585748046636581421e-01 1.536743938922882080e-01 -3.737703338265419006e-02 1.785482615232467651e-01 -1.587272062897682190e-02 -4.843415692448616028e-02 -1.759439110755920410e-01 4.871458560228347778e-02 -1.231958940625190735e-01 -2.561123482882976532e-02 -1.406194269657135010e-01 5.556216463446617126e-02 -1.147486269474029541e-01 -5.823980271816253662e-02 -1.108077391982078552e-01 -1.591075509786605835e-01 1.209864765405654907e-01 3.082252144813537598e-01 -2.463787607848644257e-02 4.550526663661003113e-02 -2.656919360160827637e-01 -1.119392290711402893e-01 1.126559637486934662e-02 -3.407527208328247070e-01 -2.176474481821060181e-01 -3.005381301045417786e-02 1.220560893416404724e-01 -1.340853422880172729e-01 -1.353514008224010468e-02 -8.403904736042022705e-02 1.655589789152145386e-01 1.320342868566513062e-01 2.788340789265930653e-04 3.101969361305236816e-01 -1.585054844617843628e-01 1.840656064450740814e-02 1.840064972639083862e-01
9.534292854368686676e-03 -6.561432033777236938e-02 1.469657570123672485e-01 -2.020681649446487427e-01 3.784869611263275146e-01 1.064220145344734192e-01 1.194792538881301880e-01 -2.880275845527648926e-01 -8.276885747909545898e-02 -1.686407178640365601e-01 -3.083599209785461426e-01 -4.483758658170700073e-02 2.589564323425292969e-01 8.204281330108642578e-02 -1.761314868927001953e-01 -1.638391017913818359e-01 3.665313422679901123e-01 -7.614444196224212646e-02 1.213242635130882263e-01 3.247978091239929199e-01 -9.111964702606201172e-02 1.456557661294937134e-01 -3.565900921821594238e-01 -6.339003145694732666e-02 3.722330927848815918e-02 1.859991550445556641e-01 -2.830849587917327881e-01 9.199708700180053711e-02 -1.264022588729858398e-01 1.091354787349700928e-01 -2.012273669242858887e-02 -9.743721038103103638e-02 3.536249324679374695e-02 -3.771154979403945617e-07 -1.021314486861228943e-01 1.974236518144607544e-01 6.137271597981452942e-02 -5.849955487065017223e-04 -1.335465610027313232e-01 1.460747867822647095e-01 -3.491924703121185303e-01 3.623996675014495850e-01 7.769205141812562943e-03 -9.355644136667251587e-02 1.247749999165534973e-01 -4.147239774465560913e-02 -2.157980948686599731e-01 -1.248204708099365234e-01 -1.398312002420425415e-01 -8.521304279565811157e-02 -3.245523869991302490e-01 -1.058785393834114075e-01 -3.463804349303245544e-02 -1.019387841224670410e-01 -8.511012792587280273e-02 1.331951767206192017e-01 -3.190777301788330078e-01 3.699297904968261719e-01 -1.567360609769821167e-01 -1.426261067390441895e-01
1.448442190885543823e-01 -1.201785281300544739e-01 -1.761084198951721191e-01 1.194826588034629822e-01 -1.738500297069549561e-01 -2.773811109364032745e-02 -3.558220565319061279e-01 1.550178676843643188e-01 9.649983793497085571e-02 -3.776884451508522034e-02 -2.175152301788330078e-01 3.686295449733734131e-02 1.212919354438781738e-01 2.351214587688446045e-01 -1.343465894460678101e-01 3.922209888696670532e-02 -3.148404061794281006e-01 -1.250812560319900513e-01 1.639275401830673218e-01 -1.151436790823936462e-01 -1.041078120470046997e-01 -8.666060119867324829e-02 5.443354323506355286e-02 2.442675381898880005e-01 2.116659730672836304e-01 2.791102826595306396e-01 8.402305096387863159e-02 5.549691990017890930e-02 -2.112523652613162994e-02 -1.018030643463134766e-01 -2.280292659997940063e-01 -1.388389468193054199e-01 -7.946140249259769917e-04 5.565720796585083008e-02 -2.662265002727508545e-01 3.820381462574005127e-01 -7.217592746019363403e-02 2.480047643184661865e-01 7.370326668024063110e-02 -4.359865561127662659e-02 -1.205469667911529541e-01 -4.794343933463096619e-02 7.970307022333145142e-03 -4.010343924164772034e-02 1.497818976640701294e-01 7.688046991825103760e-02 -2.940992712974548340e-01 -2.975479364395141602e-01 -1.230068132281303406e-01 -2.051389217376708984e-02 1.364046782255172729e-01 4.263248667120933533e-02 -2.565615773200988770e-01 3.576032221317291260e-01 -4.584721475839614868e-02 -3.138581514358520508e-01 6.380741298198699951e-02 1.571371406316757202e-01 1.134084463119506836e-01 -1.570832580327987671e-01
-3.245182142563862726e-06 -1.224908009171485901e-01 5.601047305390238762e-04 -5.853777751326560974e-02 -3.278792500495910645e-01 -1.375224441289901733e-02 -6.674705073237419128e-03 4.545708000659942627e-02 -2.073009908199310303e-01 1.049087271094322205e-01 1.875096112489700317e-01 -2.331201881170272827e-01 -2.674001455307006836e-01 2.263785153627395630e-01 1.337011009454727173e-01 -2.744939327239990234e-01 -1.162916049361228943e-01 1.635750979185104370e-01 1.334059536457061768e-01 1.209218874573707581e-01 -1.096397340297698975e-01 -1.266250163316726685e-01 5.158776275493437424e-06 -6.925950199365615845e-02 -3.268050029873847961e-02 1.090918779373168945e-01 4.261201247572898865e-03 1.075841635465621948e-01 -2.184880524873733521e-01 -1.723957975627854466e-04 1.688113659620285034e-01 1.100508570671081543e-01 -1.091185305267572403e-02 -1.935313642024993896e-01 -1.187749877572059631e-01 -1.905289292335510254e-02 8.722066879272460938e-02 -3.928666189312934875e-02 -4.824062064290046692e-02 -2.806020677089691162e-01 -4.505910724401473999e-02 1.097341030836105347e-01 -2.760362327098846436e-01 -6.272490322589874268e-02 1.552752102725207806e-03 -1.995735466480255127e-01 -4.335001856088638306e-02 2.581317176009179093e-06 1.608990877866744995e-02 -2.244790270924568176e-02 -3.039580211043357849e-02 -8.664013445377349854e-02 -5.692438036203384399e-02 7.028769701719284058e-03 2.683425843715667725e-01 1.188371777534484863e-01 1.242750287055969238e-01 1.353536546230316162e-01 1.413151025772094727e-01 2.315993607044219971e-01
-1.249215006828308105e-01 1.268852204084396362e-01 -3.456677077338099480e-03 2.857305407524108887e-01 9.391672909259796143e-03 -3.030997216701507568e-01 -1.467044204473495483e-01 2.349499017000198364e-01 -2.170777767896652222e-01 -1.617510244250297546e-02 -1.066784709692001343e-01 -6.263265013694763184e-02 -1.794281229376792908e-02 -8.438996970653533936e-02 -7.320626080036163330e-02 -9.643968939781188965e-02 6.102735921740531921e-02 -3.084986805915832520e-01 1.285253316164016724e-01 -1.381353586912155151e-01 2.181434184312820435e-01 1.905817836523056030e-01 -8.867286890745162964e-02 1.646807789802551270e-02 1.523286253213882446e-01 -2.213478088378906250e-01 3.647759184241294861e-02 -8.452622569166123867e-04 3.784818947315216064e-01 -9.026895463466644287e-02 1.384118050336837769e-01 -3.143579885363578796e-02 7.929755002260208130e-02 -4.719382524490356445e-02 1.005500555038452148e-01 1.109389811754226685e-01 5.980051308870315552e-02 1.099651679396629333e-01 3.321483358740806580e-02 -3.002390451729297638e-02 -1.404800713062286377e-01 7.151971012353897095e-02 2.220495641231536865e-01 9.409424965269863605e-04 1.221000105142593384e-01 9.158927947282791138e-02 -7.121962426026584581e-06 2.768196910619735718e-02 6.800274550914764404e-02 2.619368135929107666e-01 -3.297465145587921143e-01 1.216851249337196350e-01 4.353054240345954895e-02 2.145231664180755615e-01 -2.836287021636962891e-01 -1.820252686738967896e-01 1.439703106880187988e-01 -1.846231371164321899e-01 2.207740545272827148e-01 -3.730666264891624451e-02
-5.261604115366935730e-02 2.868162691593170166e-01 2.132524549961090088e-01 -2.022018730640411377e-01 -9.008919447660446167e-02 2.864213287830352783e-01 2.302175909280776978e-01 2.278372049331665039e-01 -1.311134994029998779e-01 -1.484224647283554077e-01 -3.499823808670043945e-02 -1.036996468901634216e-01 2.535450160503387451e-01 -1.881796307861804962e-02 8.082079887390136719e-02 -8.390869200229644775e-02 -1.749961525201797485e-01 -6.035019084811210632e-02 -2.608438953757286072e-02 -5.839381483383476734e-04 1.786181144416332245e-02 -2.622993588447570801e-01 1.824878505431115627e-03 -7.604608684778213501e-02 -6.056712009012699127e-03 -1.490710824728012085e-01 -3.850712180137634277e-01 -1.550543904304504395e-01 -9.003964066505432129e-02 -2.872314453125000000e-01 7.742031663656234741e-02 1.405932754278182983e-01 1.953285336494445801e-01 1.966970413923263550e-02 1.214525476098060608e-01 -5.237521231174468994e-02 3.202741742134094238e-01 6.448590755462646484e-02 1.806005835533142090e-01 -2.895072698593139648e-01 1.002224460244178772e-01 -1.540961712598800659e-01 -2.766207754611968994e-01 -2.814156934618949890e-02 1.604395955801010132e-01 -1.939868927001953125e-01 -1.992933903238736093e-06 -1.424480527639389038e-01 4.910529404878616333e-02 9.686896950006484985e-02 -1.121815070509910583e-01 2.670731246471405029e-01 1.887079328298568726e-01 -5.272011086344718933e-02 3.406964242458343506e-02 -2.527344524860382080e-01 -1.802902854979038239e-02 1.625191718339920044e-01 7.275083661079406738e-02 -1.544220447540283203e-01
-6.353498902171850204e-04 2.870121598243713379e-01 3.901398181915283203e-01 -1.023557484149932861e-01 -1.171766147017478943e-01 2.004431635141372681e-01 -1.997728198766708374e-01 1.240355297923088074e-01 -5.167775228619575500e-02 -5.562804639339447021e-02 2.510932981967926025e-01 2.343168854713439941e-01 1.436679214239120483e-01 -1.161192879080772400e-01 2.996163666248321533e-01 -4.834763531107455492e-04 -2.756861969828605652e-02 -1.177464649081230164e-01 -3.754966333508491516e-02 -1.212264746427536011e-01 -2.025709897279739380e-01 -9.265980124473571777e-02 1.553719341754913330e-01 -2.030279785394668579e-01 -5.327436956577003002e-04 3.427096605300903320e-01 -1.807002723217010498e-02 -2.254204005002975464e-01 -9.156916290521621704e-02 -2.319636940956115723e-01 3.084942698478698730e-01 1.934916973114013672e-01 1.360416114330291748e-01 -3.276486495451536030e-06 -1.874176412820816040e-01 -3.943274915218353271e-01 -9.772592037916183472e-02 3.501882553100585938e-01 3.150910437107086182e-01 1.245692148804664612e-01 7.136723399162292480e-02 1.730345636606216431e-01 -9.569603204727172852e-02 -1.490485221147537231e-01 -2.902812659740447998e-01 4.877579340245574713e-05 1.064922958612442017e-01 3.596040233969688416e-02 -8.270077407360076904e-02 -1.485986262559890747e-01 -1.168086193501949310e-02 -2.374016493558883667e-01 1.421905159950256348e-01 -1.562530174851417542e-02 -3.092135190963745117e-01 -1.384697258472442627e-01 1.721665076911449432e-02 1.826341748237609863e-01 -1.230644062161445618e-01 7.923600263893604279e-03
-2.875922024250030518e-01 -1.780206710100173950e-01 -3.573093712329864502e-01 -1.751635521650314331e-01 2.861749827861785889e-01 9.235511720180511475e-02 -7.842269726097583771e-03 -1.853555142879486084e-01 -2.969115786254405975e-02 1.111219599843025208e-01 -2.061612010002136230e-01 2.890383601188659668e-01 -2.781084179878234863e-01 3.283748030662536621e-01 2.360223978757858276e-01 1.536829322576522827e-01 -1.054861918091773987e-01 2.174495309591293335e-01 3.371072113513946533e-01 -1.835265457630157471e-01 -9.384866803884506226e-02 1.480389386415481567e-02 -1.273355167359113693e-02 -7.693234831094741821e-02 -4.015141129493713379e-01 -1.862120181322097778e-01 1.584512144327163696e-01 1.808137744665145874e-01 2.551812827587127686e-01 -1.496794968843460083e-01 -2.201628386974334717e-01 1.394432187080383301e-01 8.047241717576980591e-02 4.392767697572708130e-02 -1.397609151899814606e-02 -3.541117608547210693e-01 3.131068348884582520e-01 -7.849662005901336670e-02 1.555218826979398727e-02 2.038380652666091919e-01 -3.878607228398323059e-02 3.633515834808349609e-01 9.661768376827239990e-02 2.825764119625091553e-01 3.793324530124664307e-01 -1.496825069189071655e-01 -4.851767793297767639e-03 2.798014879226684570e-01 -2.510070800781250000e-01 6.563797593116760254e-02 1.520030647516250610e-01 1.077113226056098938e-01 2.274243533611297607e-01 -1.980152279138565063e-01 8.037411421537399292e-02 1.072507798671722412e-01 -1.893378347158432007e-01 -1.011042445898056030e-01 1.092391647398471832e-02 -1.132733300328254700e-01
2.184526692872168496e-07 2.158457972109317780e-02 1.166344285011291504e-01 -3.208743333816528320e-01 -2.706188559532165527e-01 6.115760654211044312e-02 1.116115376353263855e-01 2.302796244621276855e-01 1.134883984923362732e-01 -1.901135444641113281e-01 -2.666083574295043945e-01 -9.849399328231811523e-02 -7.483654469251632690e-02 -3.793965559452772141e-03 -4.802718013525009155e-02 -2.118760794401168823e-01 -9.825977683067321777e-02 1.275367935704707634e-07 3.569680154323577881e-01 -1.081929430365562439e-01 8.500309288501739502e-02 -1.650620251893997192e-01 1.168881207704544067e-01 8.927159756422042847e-02 -1.159564852714538574e-01 2.559140324592590332e-01 -6.645123008638620377e-03 -4.727155715227127075e-02 1.217063888907432556e-01 6.747431308031082153e-02 2.872301936149597168e-01 2.996208667755126953e-01 -2.799359261989593506e-01 3.941080719232559204e-02 -2.214277349412441254e-02 1.247598677873611450e-01 -2.820816040039062500e-01 -9.997771680355072021e-02 8.473846130073070526e-03 2.043319195508956909e-01 -1.021428406238555908e-02 1.372683644294738770e-01 -1.716351211071014404e-01 -6.831392645835876465e-02 -1.049698740243911743e-01 -1.215924546122550964e-01 -1.380281336605548859e-02 2.099979668855667114e-02 3.882814943790435791e-02 2.447726577520370483e-02 2.176825255155563354e-01 1.263553947210311890e-01 3.628468513488769531e-01 1.890279538929462433e-02 -1.663020998239517212e-01 -3.508776426315307617e-01 -1.598439663648605347e-01 1.834740489721298218e-02 -1.434206217527389526e-01 6.799940019845962524e-02
1.174840703606605530e-02 -9.736251085996627808e-02 -1.875405311584472656e-01 3.939183056354522705e-02 9.782894514501094818e-03 2.596751749515533447e-01 2.264101952314376831e-01 3.315818309783935547e-01 -9.791805595159530640e-02 3.135302066802978516e-01 3.786862269043922424e-02 -6.694681197404861450e-02 -1.932972669601440430e-01 -1.950466781854629517e-01 -8.270661532878875732e-02 9.852249920368194580e-02 7.678349316120147705e-02 1.322554647922515869e-01 1.465401649475097656e-01 6.327629834413528442e-02 1.629056967794895172e-02 2.811253964900970459e-01 1.971753686666488647e-02 -1.556676579639315605e-03 -2.303463667631149292e-01 1.250631213188171387e-01 -6.878784298896789551e-02 -2.578437124611809850e-05 1.698266714811325073e-01 8.925512433052062988e-02 2.204119563102722168e-01 -5.811390653252601624e-02 -3.136455416679382324e-01 -5.827351287007331848e-02 -1.106551811099052429e-01 -4.938365891575813293e-02 -2.782644703984260559e-03 6.586892157793045044e-02 2.354715615510940552e-01 2.530709803104400635e-01 2.394907325506210327e-01 -1.082081943750381470e-01 -1.558610200881958008e-01 -1.879421174526214600e-01 2.985514104366302490e-01 1.284129768610000610e-01 -1.258931388292694464e-05 -3.113898932933807373e-01 3.677462637424468994e-01 2.028357088565826416e-01 -1.530351936817169189e-01 3.653896972537040710e-02 3.068429417908191681e-02 -1.859385147690773010e-02 5.319897551089525223e-03 -2.977124154567718506e-01 6.166251003742218018e-02 -3.204869925975799561e-01 -1.330059766769409180e-01 -5.806737765669822693e-02
-2.747333049774169922e-01 2.814797163009643555e-01 1.084233000874519348e-01 2.360960692167282104e-01 1.199939996004104614e-01 -5.090183019638061523e-02 2.883887290954589844e-02 1.095482730306684971e-06 -1.309754401445388794e-01 -1.280797719955444336e-01 2.694464847445487976e-02 -9.950111806392669678e-02 5.345047637820243835e-02 3.136576618999242783e-03 1.648993194103240967e-01 2.484427019953727722e-02 -5.795345641672611237e-03 5.602043122053146362e-02 -5.530731379985809326e-02 2.715570628643035889e-01 3.428923189640045166e-01 8.586672693490982056e-02 1.532712280750274658e-01 1.375366896390914917e-01 -8.974628895521163940e-02 -1.592658907175064087e-01 -2.557739987969398499e-02 1.414160877466201782e-01 -1.741021573543548584e-01 -8.353627473115921021e-02 -2.067267335951328278e-02 -7.874916493892669678e-02 -2.312093079090118408e-01 -1.858017593622207642e-02 5.944633856415748596e-02 7.904307916760444641e-03 3.069670684635639191e-02 -2.061442285776138306e-01 -3.749880790710449219e-01 -1.497502326965332031e-01 -2.829689681529998779e-01 4.647485911846160889e-02 -2.260532081127166748e-01 -1.739027798175811768e-01 -1.647278815507888794e-01 2.352907359600067139e-01 -1.076687872409820557e-01 -7.248953729867935181e-02 -2.604357525706291199e-02 -1.409360170364379883e-01 2.757357060909271240e-01 2.522969543933868408e-01 2.120169848203659058e-01 -2.973651513457298279e-02 1.106822267174720764e-01 -1.137465354986488819e-03 -1.859989762306213379e-01 1.307221967726945877e-02 -1.895454972982406616e-01 3.202454149723052979e-01
-1.622001826763153076e-01 -8.346308022737503052e-02 2.497854642570018768e-02 -2.222330272197723389e-01 1.560405194759368896e-01 -2.835527956485748291e-01 2.472403086721897125e-02 -8.571060001850128174e-02 2.108747512102127075e-01 -1.183385666081449017e-05 9.203276038169860840e-02 3.158764168620109558e-02 3.324824571609497070e-01 -3.926908373832702637e-01 -6.801681220531463623e-02 -6.784337013959884644e-02 -8.683869987726211548e-02 2.622518539428710938e-01 -2.333020418882369995e-01 -2.604047656059265137e-01 -1.238978430628776550e-01 2.576838433742523193e-01 -5.989355221390724182e-02 2.650568485260009766e-01 1.273894011974334717e-01 -1.024511009454727173e-01 -1.235113069415092468e-01 -1.550014317035675049e-01 -1.595152169466018677e-01 3.165160119533538818e-02 -2.390279434621334076e-03 2.766962647438049316e-01 2.965911328792572021e-01 1.024302840232849121e-01 1.553593873977661133e-01 -8.026067167520523071e-02 1.637823432683944702e-01 1.412841528654098511e-01 -2.696003317832946777e-01 1.825271099805831909e-01 -2.400898039340972900e-01 -2.124240100383758545e-01 -4.967420920729637146e-02 2.988466024398803711e-01 -1.545965522527694702e-01 -1.523953080177307129e-01 2.618016302585601807e-02 -1.197449192404747009e-01 -1.292080730199813843e-01 -1.078133732080459595e-01 1.210585236549377441e-01 -3.039012849330902100e-01 -1.894755214452743530e-01 -1.988598555326461792e-01 2.103706896305084229e-01 -2.749100327491760254e-01 6.026646867394447327e-02 3.513731062412261963e-01 -5.881324410438537598e-02 -2.439624667167663574e-01
1.165381148457527161e-01 -6.288085877895355225e-02 -1.138407154940068722e-03 4.345827549695968628e-02 2.562311291694641113e-01 1.172545626759529114e-01 1.635804772377014160e-01 -2.115005850791931152e-01 1.512699723243713379e-01 -1.000850126147270203e-01 8.733677864074707031e-02 1.267347484827041626e-02 -2.092739343643188477e-01 -1.140408962965011597e-01 -1.396036893129348755e-01 3.699399828910827637e-01 -3.653816580772399902e-01 1.467488985508680344e-02 -1.559991240501403809e-01 -1.556860059499740601e-01 1.912153661251068115e-01 1.465547978878021240e-01 -1.819355785846710205e-01 2.227915637195110321e-02 -3.726787120103836060e-02 -2.104788422584533691e-01 2.580796778202056885e-01 1.193441972136497498e-01 -2.136293053627014160e-01 3.380237519741058350e-01 1.516808122396469116e-01 -2.929397821426391602e-01 2.696735560894012451e-01 5.042928023613058031e-06 -6.382898986339569092e-02 3.278044164180755615e-01 -2.607275545597076416e-01 2.916985750198364258e-02 1.204325351864099503e-02 6.786374002695083618e-02 1.327156787738204002e-04 -6.732735782861709595e-02 6.173341348767280579e-02 -2.032914906740188599e-01 6.091828271746635437e-02 -1.477198302745819092e-01 2.422443181276321411e-01 -1.770491898059844971e-01 -1.486296951770782471e-01 -2.426913231611251831e-01 -7.704880833625793457e-02 -6.974547356367111206e-02 6.867367774248123169e-02 7.031657546758651733e-02 1.548372656106948853e-01 4.041762650012969971e-02 9.655190259218215942e-02 6.940615177154541016e-02 -3.497936427593231201e-01 5.695414543151855469e-02
1.911038309335708618e-01 -2.281386852264404297e-01 3.868130967020988464e-02 1.351147331297397614e-02 9.205094724893569946e-02 -2.121456563472747803e-01 -1.582464724779129028e-01 1.461018808186054230e-02 -3.769567906856536865e-01 -5.314695090055465698e-02 2.829359769821166992e-01 1.769698262214660645e-01 1.123959198594093323e-01 -4.081088304519653320e-01 -1.394489258527755737e-01 8.151970058679580688e-02 1.343734562397003174e-01 -3.389337658882141113e-01 2.815332030877470970e-03 1.524327397346496582e-01 -6.995458900928497314e-02 1.369436457753181458e-02 -5.555468797683715820e-02 9.726232290267944336e-02 3.590135648846626282e-02 -2.683148086071014404e-01 -3.021704852581024170e-01 1.091360375285148621e-01 -1.233672872185707092e-01 1.207647547125816345e-01 -2.706934213638305664e-01 -1.391050666570663452e-01 -1.733817011117935181e-01 -6.410146597772836685e-03 -1.292699128389358521e-01 1.295568495988845825e-01 -3.062452562153339386e-02 2.693945467472076416e-01 5.648486781865358353e-03 -4.231664910912513733e-02 -2.859675884246826172e-02 -3.767520487308502197e-01 -3.466317653656005859e-01 1.803854480385780334e-02 2.228610962629318237e-01 -1.996234357357025146e-01 2.396979198238113895e-06 -3.412048518657684326e-01 -3.320509493350982666e-01 5.153295025229454041e-02 -2.766856551170349121e-01 -1.307616680860519409e-01 -4.032624140381813049e-02 1.030018106102943420e-01 -1.544454693794250488e-01 2.188479751348495483e-01 -2.288422919809818268e-02 -9.248666465282440186e-03 -1.073298677802085876e-01 1.996996700763702393e-01
-2.024410218000411987e-01 1.710832417011260986e-01 -1.561242938041687012e-01 -6.523390114307403564e-02 -1.494855284690856934e-01 2.179823070764541626e-01 2.362819910049438477e-01 -7.896633446216583252e-02 1.887577325105667114e-01 1.801945865154266357e-01 -2.340018376708030701e-02 -2.230384498834609985e-01 5.328877270221710205e-02 9.533898532390594482e-02 2.127611190080642700e-01 -1.996689140796661377e-01 -1.594014316797256470e-01 -2.407203614711761475e-01 4.358467459678649902e-02 -5.391411110758781433e-02 -9.039007872343063354e-02 -4.609429091215133667e-02 1.352072358131408691e-01 -1.712870746850967407e-01 -7.536629587411880493e-02 -3.419171869754791260e-01 5.236721783876419067e-02 2.402330636978149414e-01 3.601272776722908020e-02 -6.900300830602645874e-02 -3.755872696638107300e-02 1.439030189067125320e-02 1.754287779331207275e-01 -7.028039544820785522e-02 -2.482397854328155518e-01 3.029891848564147949e-01 -1.216536015272140503e-01 -8.129857480525970459e-03 -2.471963465213775635e-01 -1.013014465570449829e-01 -1.349923610687255859e-01 -1.620799154043197632e-01 5.169498547911643982e-02 -2.154133766889572144e-01 7.714986801147460938e-02 1.087432578206062317e-01 2.806271053850650787e-02 1.763236075639724731e-01 -1.020576879382133484e-01 -9.005922824144363403e-02 8.000581711530685425e-02 -1.741757243871688843e-01 -1.421271264553070068e-01 1.174861714243888855e-01 1.350642293691635132e-01 1.618790179491043091e-01 1.309883501380681992e-02 -2.298421114683151245e-01 2.165454626083374023e-02 1.006837282329797745e-02
-6.334871798753738403e-02 -9.185840934514999390e-02 -2.285389006137847900e-01 2.194475829601287842e-01 1.003594622015953064e-01 -1.147986128926277161e-01 -2.178904861211776733e-01 -1.166824847459793091e-01 1.780096888542175293e-01 9.626796096563339233e-02 -2.146891802549362183e-01 -3.525956869125366211e-01 -6.636095792055130005e-02 1.990697085857391357e-01 6.063403189182281494e-02 -2.072013318538665771e-01 1.180367618799209595e-01 -9.021181613206863403e-02 -2.372949868440628052e-01 1.187543570995330811e-01 -2.962685227394104004e-01 1.455755829811096191e-01 3.328957781195640564e-02 -3.202244442945811898e-07 3.004188835620880127e-01 -2.132022678852081299e-01 6.907465867698192596e-03 -2.585711777210235596e-01 1.651862710714340210e-01 -2.005419582128524780e-01 1.238081380724906921e-01 -1.234111860394477844e-01 -8.038195222616195679e-02 -1.521765291690826416e-01 -3.060617148876190186e-01 3.045336343348026276e-02 -4.676986918639158830e-06 4.783203080296516418e-02 6.656495481729507446e-02 -3.934591263532638550e-02 2.413257807493209839e-01 -1.363656222820281982e-01 -3.038979507982730865e-02 2.087127566337585449e-01 6.022087484598159790e-02 -1.321438103914260864e-01 1.574613004922866821e-01 -6.484600901603698730e-02 1.327694952487945557e-01 -3.856483697891235352e-01 1.572866290807723999e-01 -1.699712425470352173e-01 -1.122110411524772644e-01 9.863795712590217590e-03 3.615007102489471436e-01 2.254400216042995453e-02 -1.731675118207931519e-01 1.951548904180526733e-01 2.458516210317611694e-01 1.107620671391487122e-01
-1.310670631937682629e-05 3.987262770533561707e-02 1.814344525337219238e-01 6.345076113939285278e-02 1.607421636581420898e-01 -2.987941354513168335e-02 -1.785748600959777832e-01 3.077517747879028320e-01 1.309755891561508179e-01 2.022142522037029266e-03 -1.087278053164482117e-01 -8.294376730918884277e-02 2.040248215198516846e-01 -2.075644135475158691e-01 3.047854639589786530e-03 -3.053513169288635254e-01 -7.073116023093461990e-03 -2.156087160110473633e-01 9.056779555976390839e-03 1.893256753683090210e-01 -5.586354434490203857e-02 7.105626910924911499e-02 2.480979561805725098e-01 1.249125525355339050e-01 8.326847106218338013e-02 4.814356099814176559e-03 -1.352521181106567383e-01 1.830568537116050720e-02 -2.298573106527328491e-01 1.078984215855598450e-01 -8.715789020061492920e-02 -3.779296875000000000e-01 -2.629617154598236084e-01 1.168847680091857910e-01 1.317637860774993896e-01 -1.135962065745843574e-06 -1.542469114065170288e-01 -1.153348609805107117e-01 -3.038281500339508057e-01 2.318665356142446399e-04 3.164646029472351074e-02 9.006058424711227417e-02 2.669786512851715088e-01 3.904529288411140442e-02 2.692518830299377441e-01 1.525170542299747467e-02 9.123884886503219604e-02 8.830938488245010376e-03 -1.398617625236511230e-01 -2.083676494657993317e-02 3.009392619132995605e-01 4.001282155513763428e-02 -2.765294909477233887e-01 -1.534512042999267578e-01 -5.767032131552696228e-02 1.082524657249450684e-01 1.145267784595489502e-01 -3.153187930583953857e-01 9.957469068467617035e-03 -7.650949060916900635e-02
-9.800300002098083496e-02 3.231494426727294922e-01 1.896007172763347626e-02 -2.359103560447692871e-01 -3.169846832752227783e-01 1.146138180047273636e-02 -1.117153372615575790e-02 -1.622014045715332031e-01 7.584924250841140747e-02 1.888264715671539307e-01 -3.125928938388824463e-01 1.744766980409622192e-01 1.655617915093898773e-02 -1.026719510555267334e-01 -1.515677422285079956e-01 -1.505221277475357056e-01 -4.112548008561134338e-02 -2.674197256565093994e-01 6.850451231002807617e-02 -1.515606939792633057e-01 -8.433160930871963501e-02 2.688296735286712646e-01 -4.948654398322105408e-02 -1.530720740556716919e-01 -5.143219232559204102e-02 -1.122165620326995850e-01 -1.827836781740188599e-01 -5.511746276170015335e-03 2.234620451927185059e-01 -1.102871969342231750e-01 -1.633007526397705078e-01 -2.436860650777816772e-01 2.212291806936264038e-01 3.566537052392959595e-02 3.937280923128128052e-02 -3.602544367313385010e-01 -8.858207613229751587e-03 -2.806648015975952148e-01 -1.928508281707763672e-01 -4.904862120747566223e-02 1.992721259593963623e-01 1.970697790384292603e-01 2.297245860099792480e-01 2.909331321716308594e-01 -1.947170123457908630e-03 -1.663922369480133057e-01 -2.537400424480438232e-01 -1.031665578484535217e-01 1.706209033727645874e-01 7.927447557449340820e-02 -3.439950756728649139e-03 3.723127394914627075e-02 6.845299899578094482e-02 1.504641473293304443e-01 1.038858592510223389e-01 -1.091448403894901276e-02 2.263967096805572510e-01 -7.491150870919227600e-03 -1.297780126333236694e-01 5.968559160828590393e-02
1.976844668388366699e-01 -4.645586386322975159e-02 -7.995259761810302734e-02 3.587266057729721069e-02 3.860312402248382568e-01 -1.398359537124633789e-01 -1.582357734441757202e-01 -1.026302799582481384e-01 -1.526453644037246704e-01 -5.020965263247489929e-02 -8.153570443391799927e-02 3.377802968025207520e-01 3.461701795458793640e-02 -8.476899564266204834e-02 -2.463464289903640747e-01 1.952928453683853149e-01 8.179969340562820435e-02 -1.440034508705139160e-01 3.850594460964202881e-01 1.742213815450668335e-01 -8.509372174739837646e-02 1.001727804541587830e-01 -2.663876712322235107e-01 7.634469121694564819e-02 -9.008306264877319336e-02 1.468525081872940063e-01 -2.229847311973571777e-01 6.826308369636535645e-02 -4.665982350707054138e-02 -1.850344687700271606e-01 4.258450120687484741e-02 2.137239277362823486e-01 6.588018685579299927e-02 2.582401633262634277e-01 -8.607287704944610596e-02 -2.702507972717285156e-01 3.756391704082489014e-01 1.502887606620788574e-01 -3.442553104832768440e-03 1.910170465707778931e-01 2.947189658880233765e-02 2.001390904188156128e-01 -8.507854491472244263e-02 1.003398001194000244e-01 -1.042897477746009827e-01 4.445900768041610718e-02 8.051201002672314644e-04 -2.284878864884376526e-02 -4.006236046552658081e-02 1.655824333429336548e-01 1.730149984359741211e-01 3.329292535781860352e-01 -3.560943529009819031e-02 -1.979479789733886719e-01 3.833813965320587158e-01 1.102871373295783997e-01 -2.194471843540668488e-02 1.763366013765335083e-01 -1.537428945302963257e-01 -7.597871124744415283e-02
1.037909612059593201e-01 3.204124271869659424e-01 -8.671382069587707520e-02 -1.819620095193386078e-02 -1.818512529134750366e-01 -2.233932027593255043e-03 2.733002901077270508e-01 -5.943710729479789734e-02 -1.323305815458297729e-01 -5.508126318454742432e-02 9.959874302148818970e-02 1.085063628852367401e-02 -5.342228687368333340e-04 -3.647832572460174561e-02 -2.604261040687561035e-01 -2.847119271755218506e-01 -2.000706493854522705e-01 -1.990602351725101471e-02 9.852366894483566284e-02 -7.023720536381006241e-03 4.868427291512489319e-02 -2.678264677524566650e-01 -5.964448675513267517e-02 -1.229582652449607849e-01 6.676049530506134033e-02 1.686938852071762085e-01 2.609533071517944336e-01 -1.497542113065719604e-01 -3.736052215099334717e-01 1.458994895219802856e-01 -1.356920450925827026e-01 2.909735776484012604e-02 -4.361856356263160706e-02 -8.007591217756271362e-02 -1.902760267257690430e-01 -6.175488606095314026e-02 -2.345822751522064209e-02 2.081962078809738159e-01 -3.821578621864318848e-01 -2.546123862266540527e-01 1.663741171360015869e-01 -1.221753004938364029e-02 -3.418374061584472656e-01 1.386040151119232178e-01 -1.142050605267286301e-02 1.156157329678535461e-01 2.448120117187500000e-01 1.316694729030132294e-02 -1.501505374908447266e-01 1.285851895809173584e-01 -4.297062754631042480e-02 4.298302531242370605e-02 1.319452524185180664e-01 -9.902713447809219360e-02 -1.619173288345336914e-01 -4.539960250258445740e-02 1.012044399976730347e-01 2.769597768783569336e-01 -7.312061637639999390e-02 3.062494993209838867e-01
-6.216668337583541870e-02 1.723002940416336060e-01 -2.228332683444023132e-02 -9.092305600643157959e-02 4.312047362327575684e-02 -1.085474714636802673e-01 -1.385705322027206421e-01 1.952915340662002563e-01 -5.756956711411476135e-02 -3.558559417724609375e-01 5.322331935167312622e-02 6.270125042647123337e-03 9.146732836961746216e-02 2.065227031707763672e-01 -1.362491846084594727e-01 1.566516980528831482e-02 -1.424976289272308350e-01 2.118181139230728149e-01 1.020983979105949402e-01 -3.876050114631652832e-01 -5.995253473520278931e-02 1.801970005035400391e-01 9.145353920757770538e-03 2.135201096534729004e-01 1.663870364427566528e-01 -6.059598177671432495e-02 -2.792333625257015228e-02 2.487730830907821655e-01 -1.906005442142486572e-01 2.274137884378433228e-01 -2.999741733074188232e-01 7.258833199739456177e-02 2.980979382991790771e-01 -2.914851605892181396e-01 3.420622944831848145e-01 -7.939413189888000488e-02 3.011038601398468018e-01 -2.928482592105865479e-01 3.907712996006011963e-01 1.396046876907348633e-01 2.555835619568824768e-02 -1.356768608093261719e-01 -7.783757150173187256e-02 -3.344099223613739014e-01 -2.322679571807384491e-02 -9.264840185642242432e-02 -1.653163849368866067e-06 1.799454679712653160e-03 7.754843682050704956e-02 -9.919269382953643799e-02 2.043043524026870728e-01 -1.702560111880302429e-02 -1.445343941450119019e-01 1.772731542587280273e-01 4.602450877428054810e-02 7.981457561254501343e-02 -7.356730103492736816e-02 -1.255380064249038696e-01 -1.576055958867073059e-02 3.051513619720935822e-02
-1.270712614059448242e-01 7.499931752681732178e-02 -1.634469255805015564e-02 -9.298603236675262451e-02 2.517038024961948395e-02 2.543801963329315186e-01 1.371373422443866730e-03 -2.229174822568893433e-01 -9.800995141267776489e-02 -1.563156247138977051e-01 -1.068970859050750732e-01 3.270292580127716064e-01 -2.527953125536441803e-02 1.434922665357589722e-01 -7.057077251374721527e-03 1.311579346656799316e-01 -1.094847023487091064e-01 1.498221158981323242e-01 1.048588473349809647e-02 -2.414087802171707153e-01 1.429547071456909180e-01 -1.582009196281433105e-01 -3.130523264408111572e-01 -5.805750563740730286e-02 2.169966548681259155e-01 1.165733486413955688e-01 -9.365645051002502441e-02 9.476917237043380737e-02 1.216902881860733032e-01 5.176300927996635437e-02 1.040064394474029541e-01 3.061797022819519043e-01 1.007053181529045105e-01 -6.625525653362274170e-03 -3.053489886224269867e-02 3.428165614604949951e-01 1.567857116460800171e-01 -3.521794676780700684e-01 3.362176120281219482e-01 -2.171059399843215942e-01 5.971664562821388245e-02 9.671007841825485229e-02 -7.139984518289566040e-02 3.209125995635986328e-01 -4.157136008143424988e-02 1.600039601325988770e-01 -3.191407024860382080e-02 1.241251081228256226e-02 -1.846085637807846069e-01 5.408070981502532959e-02 2.719569802284240723e-01 -6.742811948060989380e-02 -3.862297534942626953e-01 2.863930352032184601e-02 -1.360925566405057907e-02 3.684737160801887512e-02 2.509113848209381104e-01 9.333172440528869629e-02 -1.281782984733581543e-01 -7.102843374013900757e-02
3.848334029316902161e-02 -2.479979544878005981e-01 -1.329525858163833618e-01 -5.582999810576438904e-02 -4.875387251377105713e-02 5.978115275502204895e-02 -1.734133660793304443e-01 3.091366402804851532e-02 -8.788255508989095688e-04 4.444738104939460754e-02 -2.479900838807225227e-03 -8.209994435310363770e-02 -1.711010038852691650e-01 5.983160343021154404e-03 -1.124107241630554199e-01 -1.662480831146240234e-01 -1.066953316330909729e-01 1.142305061221122742e-01 -7.032205164432525635e-02 1.494105160236358643e-01 -4.194173496216535568e-03 7.362723350524902344e-02 2.887453436851501465e-01 -2.284863889217376709e-01 1.293226331472396851e-01 -2.388942837715148926e-01 -4.622855037450790405e-02 7.288849353790283203e-02 -2.675107121467590332e-01 -1.725625433027744293e-02 -3.547134995460510254e-01 -1.608526110649108887e-01 -2.169612348079681396e-01 4.015273589175194502e-06 -3.079115180298686028e-03 -1.583516001701354980e-01 2.222182303667068481e-01 1.683331876993179321e-01 -3.155426681041717529e-01 -2.997792363166809082e-01 -2.561652660369873047e-01 -2.987524494528770447e-02 -2.216456644237041473e-02 1.599860340356826782e-01 5.489318165928125381e-03 -1.498342771083116531e-02 -1.430116444826126099e-01 9.274707175791263580e-03 1.581030711531639099e-02 1.604712903499603271e-01 -7.142142206430435181e-02 -8.602978289127349854e-02 4.010724723339080811e-01 -1.641616108827292919e-03 -8.090103976428508759e-03 3.421316742897033691e-01 -8.743514865636825562e-02 4.813273996114730835e-02 -2.002576440572738647e-01 4.588490724563598633e-02
1.101275235414505005e-01 1.789483129978179932e-01 -7.972931116819381714e-02 -5.903736129403114319e-02 -1.089559346437454224e-01 -2.798933684825897217e-01 -2.166555076837539673e-01 3.511088192462921143e-01 1.201957389712333679e-01 -3.309235572814941406e-01 3.382880389690399170e-01 1.631507724523544312e-01 -2.995076179504394531e-01 5.099290981888771057e-02 -1.938386112451553345e-01 2.257966399192810059e-01 2.093202471733093262e-01 -1.135747879743576050e-01 -3.497153148055076599e-02 1.313157230615615845e-01 -1.289545446634292603e-01 -5.786464735865592957e-02 -3.193238973617553711e-01 -1.378777772188186646e-01 1.511169224977493286e-01 -5.392030812799930573e-03 -9.936645627021789551e-02 3.670311346650123596e-02 -3.035519272089004517e-02 9.602916985750198364e-02 7.052264362573623657e-02 -1.301422417163848877e-01 -2.298819646239280701e-02 1.395342200994491577e-01 -9.259114414453506470e-02 2.125218510627746582e-01 -8.882767707109451294e-02 -1.062463000416755676e-01 -1.366886496543884277e-01 -1.894992031157016754e-02 1.052856072783470154e-01 3.554832041263580322e-01 -2.154451012611389160e-01 -1.816841959953308105e-02 -3.087962865829467773e-01 3.283615037798881531e-02 -6.977646052837371826e-02 1.411285698413848877e-01 -7.078759372234344482e-02 -3.263752162456512451e-02 1.263233926147222519e-02 3.381159901618957520e-01 -9.046536684036254883e-02 -7.553533464670181274e-02 1.121265739202499390e-01 1.278627067804336548e-01 -1.057139560580253601e-01 5.494886636734008789e-02 -1.761650890111923218e-01 -4.120526090264320374e-02
1.322448497376171872e-05 -1.268238425254821777e-01 -8.078274875879287720e-02 -6.963659822940826416e-02 2.359330505132675171e-01 1.630937606096267700e-01 3.314123749732971191e-01 4.927621036767959595e-02 3.681495189666748047e-01 3.860413283109664917e-02 -4.392532166093587875e-03 1.848836988210678101e-01 1.932681202888488770e-01 1.291836332529783249e-02 2.983570694923400879e-01 1.705074869096279144e-02 -1.933537572622299194e-01 -2.434059530496597290e-01 7.622821629047393799e-02 -1.904044598340988159e-01 2.906129956245422363e-01 -3.390022218227386475e-01 -1.698007732629776001e-01 -1.230757310986518860e-01 -2.258263081312179565e-01 3.573881685733795166e-01 -1.791707724332809448e-01 2.869368791580200195e-01 2.156457602977752686e-01 -3.096625208854675293e-01 -3.305304795503616333e-02 -3.334717452526092529e-01 -3.515791296958923340e-01 2.167741954326629639e-01 -1.849906593561172485e-01 2.781414091587066650e-01 -6.362131237983703613e-02 5.605829134583473206e-02 -1.200954318046569824e-01 -3.438211977481842041e-01 -6.631124764680862427e-02 -8.679675310850143433e-02 -1.819724738597869873e-01 -6.322753429412841797e-02 2.286965250968933105e-01 3.900818154215812683e-02 4.870032891631126404e-02 3.332960605621337891e-02 2.407615929841995239e-01 -9.836301614996045828e-06 -1.243117675185203552e-01 -1.029318049550056458e-01 1.380226761102676392e-01 1.176050975918769836e-01 5.808847770094871521e-02 3.425216972827911377e-01 2.368447184562683105e-01 2.523910701274871826e-01 3.088372647762298584e-01 2.185631729662418365e-02
1.448548436164855957e-01 -7.101531326770782471e-02 -1.070159394294023514e-02 -9.734988957643508911e-02 1.890716850757598877e-01 -1.455884575843811035e-01 -3.082784414291381836e-01 3.674180433154106140e-02 2.806505560874938965e-01 -5.854522809386253357e-02 3.618085756897926331e-02 -8.171094208955764771e-02 1.141216605901718140e-01 -2.615898251533508301e-01 -1.230544969439506531e-01 -9.478601068258285522e-02 3.227986097335815430e-01 -4.226077795028686523e-01 -4.485736135393381119e-04 3.949145674705505371e-01 -2.082675546407699585e-01 2.393946945667266846e-01 -4.404537007212638855e-02 -9.698479622602462769e-02 1.303939968347549438e-01 -1.326014660298824310e-02 7.452680915594100952e-02 1.024833992123603821e-01 -1.328889280557632446e-01 -4.975601658225059509e-02 7.880104333162307739e-02 -1.345408381894230843e-03 3.184501826763153076e-01 3.116813600063323975e-01 -3.503009378910064697e-01 -9.521862864494323730e-02 1.636215895414352417e-01 3.377664089202880859e-01 -2.813456021249294281e-02 3.700147271156311035e-01 -7.759220898151397705e-02 -2.508648112416267395e-02 -1.419727690517902374e-02 -1.564163118600845337e-01 -8.496947586536407471e-02 2.067688554525375366e-01 -6.305654346942901611e-02 -4.126482903957366943e-01 3.295704722404479980e-01 -2.984739467501640320e-02 -2.035054415464401245e-01 3.101528882980346680e-01 -2.316079288721084595e-01 -7.407752424478530884e-02 -1.340355724096298218e-01 1.441876590251922607e-01 1.628452092409133911e-01 -1.121711581945419312e-01 5.452471598982810974e-02 -2.270125746726989746e-01
1.931493878364562988e-01 2.073880434036254883e-01 -1.993639953434467316e-02 1.380214933305978775e-02 -5.952158942818641663e-02 1.420902907848358154e-01 1.301030963659286499e-01 1.220884770154953003e-01 -1.029194220900535583e-01 -1.352039575576782227e-01 1.407252550125122070e-01 -2.238102853298187256e-01 -1.954642981290817261e-01 -2.652809023857116699e-02 -1.097963675856590271e-01 -1.986417546868324280e-02 8.108279854059219360e-02 -5.022178962826728821e-02 -5.997612699866294861e-02 -5.098158493638038635e-02 2.921315729618072510e-01 1.066457703709602356e-01 1.493356823921203613e-01 2.224709093570709229e-01 -9.458044916391372681e-02 -1.633363217115402222e-01 2.837928570806980133e-02 6.898571550846099854e-02 2.667365670204162598e-01 9.384942799806594849e-02 -9.185890853404998779e-02 2.223459482192993164e-01 -1.693898066878318787e-02 -2.101211398839950562e-01 1.095672845840454102e-01 2.445029765367507935e-01 -7.325099408626556396e-02 2.390158623456954956e-01 -2.702543139457702637e-02 -9.002900868654251099e-02 -2.604962885379791260e-01 5.170832388103008270e-03 2.294927090406417847e-01 4.450637474656105042e-02 2.213230170309543610e-02 -3.892603330314159393e-03 7.102841977030038834e-03 -2.209340929985046387e-01 6.925909966230392456e-02 -4.039583262056112289e-03 1.532011181116104126e-01 1.678348332643508911e-01 -3.264739513397216797e-01 2.086920291185379028e-02 1.159617230296134949e-01 -1.631876379251480103e-01 5.522368103265762329e-02 -7.637802511453628540e-02 -2.773198187351226807e-01 1.485890001058578491e-01
3.387497067451477051e-01 -1.131465360522270203e-01 -2.478198558092117310e-01 -1.984549015760421753e-01 9.925026446580886841e-02 -1.889790035784244537e-02 9.272454679012298584e-02 -2.894300222396850586e-02 -2.004592567682266235e-01 1.511218845844268799e-01 8.284738287329673767e-03 1.425109058618545532e-02 -1.233212202787399292e-01 -1.026820912957191467e-01 -6.757009029388427734e-02 1.257752776145935059e-01 3.621643118094652891e-04 6.985428929328918457e-02 -1.501939743757247925e-01 -9.340822696685791016e-02 1.893534362316131592e-01 -4.163223877549171448e-02 -2.912111878395080566e-01 8.490894734859466553e-02 4.810475275007775053e-06 -1.827194541692733765e-01 -2.867036461830139160e-01 2.773990668356418610e-02 -6.279996782541275024e-02 3.790855109691619873e-01 2.396114021539688110e-01 -4.002819657325744629e-01 1.663058698177337646e-01 -3.558659255504608154e-01 7.415771484375000000e-02 -2.867747843265533447e-01 3.200851976871490479e-01 -2.283532731235027313e-02 2.518636407330632210e-03 -1.734363436698913574e-01 1.350736245512962341e-02 1.176538541913032532e-01 2.433898448944091797e-01 -2.017141133546829224e-01 9.314954280853271484e-02 -7.886765524744987488e-03 -2.931554317474365234e-01 -1.086322218179702759e-01 -8.087668567895889282e-02 6.330157816410064697e-02 2.826955914497375488e-01 3.932292014360427856e-02 1.949435621500015259e-01 -1.328657567501068115e-01 -1.839293539524078369e-01 1.212015599012374878e-01 8.493334054946899414e-03 -4.061875864863395691e-02 -2.817541658878326416e-01 1.844112128019332886e-01
-1.476593934057746083e-05 -7.324373722076416016e-02 8.468608558177947998e-02 2.211320698261260986e-01 -1.232378631830215454e-01 -3.286511600017547607e-01 -4.018948227167129517e-02 -7.177405059337615967e-02 1.459748297929763794e-01 1.984141021966934204e-01 9.005696326494216919e-02 -8.430311828851699829e-02 3.155062794685363770e-01 2.595348954200744629e-01 -1.092186719179153442e-01 1.107530742883682251e-01 1.258172541856765747e-01 -3.505629003047943115e-01 -2.418922930955886841e-01 -4.927337914705276489e-02 -1.012906581163406372e-01 -2.312350422143936157e-01 2.495142864063382149e-03 3.310193419456481934e-01 -1.120672896504402161e-01 7.630443572998046875e-02 -2.715561389923095703e-01 -1.010248735547065735e-01 -4.158181697130203247e-02 1.491258293390274048e-01 -1.576727256178855896e-02 -1.138258576393127441e-01 2.232147753238677979e-01 -7.302315533161163330e-02 -4.760278016328811646e-02 -1.536171436309814453e-01 -5.312993004918098450e-02 -4.194492474198341370e-02 9.012494236230850220e-02 3.676190972328186035e-01 1.194379031658172607e-01 2.370399087667465210e-01 -2.401522733271121979e-02 -4.854360595345497131e-02 -1.906362324953079224e-01 -2.159654945135116577e-01 -2.657488919794559479e-02 -1.223529130220413208e-01 8.457820862531661987e-02 2.536849863827228546e-02 2.005221322178840637e-02 -2.987298369407653809e-01 -5.752435326576232910e-02 -1.230933517217636108e-01 -7.884990773163735867e-04 -4.475542809814214706e-03 -1.493463851511478424e-02 -1.905585676431655884e-01 -1.239559426903724670e-01 1.558108534663915634e-02
3.333355113863945007e-02 3.361314535140991211e-01 6.837367266416549683e-02 2.271202802658081055e-01 -9.159167855978012085e-02 3.142918273806571960e-02 2.581730782985687256e-01 -3.290742933750152588e-01 -1.641658544540405273e-01 -2.966783642768859863e-01 5.706245824694633484e-02 -8.336280286312103271e-02 1.265333741903305054e-01 1.427430212497711182e-01 1.487173885107040405e-02 1.776589006185531616e-01 -3.228438645601272583e-02 1.922592818737030029e-01 -6.935422122478485107e-02 -2.967751920223236084e-01 -6.579852662980556488e-03 -9.933842718601226807e-02 -6.639518588781356812e-02 3.199307918548583984e-01 3.010501861572265625e-01 1.898457556962966919e-01 3.960306290537118912e-03 1.616337448358535767e-01 1.577115952968597412e-01 2.548478543758392334e-01 -9.327885927632451057e-04 -9.835773706436157227e-02 6.990941613912582397e-02 -1.547462940216064453e-01 -2.517724931240081787e-01 6.418048590421676636e-02 1.217838823795318604e-01 -6.599345803260803223e-02 1.953878849744796753e-01 -3.792868927121162415e-02 3.413939848542213440e-02 7.319781184196472168e-02 -6.196888163685798645e-02 -3.936112299561500549e-02 9.175990521907806396e-02 1.709400713443756104e-01 -2.376546114683151245e-01 -1.267773658037185669e-01 1.252462714910507202e-01 5.689857527613639832e-02 5.219191312789916992e-02 2.437774688005447388e-01 -1.707658022642135620e-01 6.610051542520523071e-02 -8.216561749577522278e-03 1.250496953725814819e-01 2.655938151292502880e-04 -1.664183884859085083e-01 -2.511403262615203857e-01 1.385317593812942505e-01
5.928205326199531555e-02 -2.401603162288665771e-01 -8.396753109991550446e-03 2.051053494215011597e-01 -2.956810779869556427e-02 -1.061398088932037354e-01 1.493740826845169067e-01 -8.905468881130218506e-02 -1.514661218971014023e-02 3.507650457322597504e-03 1.112996861338615417e-01 -1.638231277465820312e-01 -1.716256439685821533e-01 -1.705015450716018677e-01 8.328787982463836670e-02 2.447130531072616577e-01 -1.697347871959209442e-02 6.632686406373977661e-02 -1.096644252538681030e-01 -1.246166080236434937e-01 4.070687294006347656e-02 2.832848392426967621e-02 9.102911502122879028e-02 2.936590276658535004e-02 -3.251756429672241211e-01 1.775586903095245361e-01 -2.759514749050140381e-01 -1.948110945522785187e-02 -2.726549804210662842e-01 6.488712877035140991e-02 -1.111387237906455994e-01 2.819616347551345825e-02 2.161799669265747070e-01 1.248827874660491943e-01 1.345704197883605957e-01 -1.317247468978166580e-02 -2.382752597332000732e-01 1.570011675357818604e-01 -2.391699999570846558e-01 1.032204627990722656e-01 -3.671222180128097534e-02 -1.158111821860074997e-02 -1.174662709236145020e-01 -1.232716515660285950e-01 1.374630182981491089e-01 5.029974132776260376e-02 6.187541037797927856e-02 1.400658767670392990e-02 2.994764745235443115e-01 -7.644796371459960938e-02 -2.412958629429340363e-02 9.005063772201538086e-02 2.065648883581161499e-01 -3.140768408775329590e-01 -1.280223429203033447e-01 8.820370584726333618e-02 -6.464794743806123734e-03 -1.357570886611938477e-01 1.458719819784164429e-01 4.728329554200172424e-02
1.116684302687644958e-01 2.611579895019531250e-01 -3.410311043262481689e-01 1.042061746120452881e-01 -2.055869437754154205e-02 6.410469114780426025e-02 5.740811303257942200e-02 1.376785635948181152e-01 -2.420920133590698242e-01 2.105154991149902344e-01 5.161432549357414246e-02 -2.879207395017147064e-02 -8.390377461910247803e-02 -9.847921878099441528e-02 -3.146855160593986511e-03 -2.850688695907592773e-01 2.781688794493675232e-02 6.100895628333091736e-02 8.415871113538742065e-02 -5.721022188663482666e-02 1.309822797775268555e-01 -1.141100078821182251e-01 2.998410463333129883e-01 -2.618976496160030365e-02 -1.184353679418563843e-01 -9.825632721185684204e-02 -4.226934537291526794e-02 -1.262231916189193726e-01 3.970728218555450439e-01 1.850508302450180054e-01 8.035554736852645874e-02 -6.312157958745956421e-02 2.203487325459718704e-03 -4.014386981725692749e-02 -6.949102133512496948e-02 -9.715112298727035522e-02 9.924385696649551392e-02 1.343238055706024170e-01 2.054840326309204102e-02 3.473082557320594788e-02 2.309915423393249512e-01 8.808646351099014282e-02 -3.249991312623023987e-02 -8.432539552450180054e-02 1.697783321142196655e-01 3.316940739750862122e-02 -9.688182175159454346e-02 1.193250194191932678e-01 1.781931519508361816e-01 -1.607663333415985107e-01 -2.308110296726226807e-01 -3.306139633059501648e-02 -7.536928355693817139e-02 -9.830540418624877930e-02 7.944256067276000977e-02 -4.433283209800720215e-02 1.404111925512552261e-02 2.147146165370941162e-01 3.287572762928903103e-04 -2.253640145063400269e-01
1.607315242290496826e-01 8.287539333105087280e-02 -3.114011585712432861e-01 2.503019571304321289e-01 1.740502566099166870e-01 -3.206209838390350342e-01 -4.563702642917633057e-02 1.047921832650899887e-03 -1.291322801262140274e-02 -2.751137316226959229e-01 4.374999087303876877e-03 1.085540950298309326e-01 -5.204679816961288452e-02 1.676169224083423615e-02 4.384524002671241760e-02 -1.521425880491733551e-02 -2.896468900144100189e-02 9.044055826961994171e-03 -1.153740473091602325e-02 -2.295708358287811279e-01 3.787637129426002502e-02 5.941837280988693237e-02 -1.520017385482788086e-01 1.303654760122299194e-01 1.164513081312179565e-01 -1.120020002126693726e-01 3.223050236701965332e-01 -1.217113360762596130e-01 -5.766337364912033081e-02 1.732106208801269531e-01 -1.342996209859848022e-01 2.193308323621749878e-01 1.643881499767303467e-01 -4.243457169650355354e-06 5.308337137103080750e-02 -1.197892501950263977e-01 1.672274805605411530e-02 1.253911256790161133e-01 -1.735742390155792236e-01 -2.795208096504211426e-01 1.406402885913848877e-02 -2.449180632829666138e-01 -3.449364751577377319e-02 1.089562326669692993e-01 2.583036720752716064e-01 1.457643881440162659e-02 1.724615003695362248e-06 3.192525207996368408e-01 7.015418261289596558e-02 -7.499323785305023193e-02 -7.894293218851089478e-02 -1.461413800716400146e-01 2.789531350135803223e-01 4.267945140600204468e-02 -1.378913223743438721e-01 -1.872919946908950806e-01 1.214375346899032593e-01 2.132525593042373657e-01 1.604470163583755493e-01 1.204407587647438049e-02
-1.229211166501045227e-01 1.920538991689682007e-01 1.139973402023315430e-01 -1.519761681556701660e-01 -1.996015608310699463e-01 9.160004556179046631e-02 -1.331747472286224365e-01 6.717820465564727783e-02 -2.253794576972723007e-03 -7.635601214133203030e-04 -1.414617449045181274e-01 -2.067302912473678589e-01 2.901690006256103516e-01 -4.500259179621934891e-03 -2.376989573240280151e-01 -3.424989879131317139e-01 1.463936716318130493e-01 2.427064776420593262e-01 3.833372890949249268e-02 -9.669662266969680786e-02 1.185808107256889343e-01 -1.662606149911880493e-01 3.761298023164272308e-03 2.234134376049041748e-01 2.143892943859100342e-01 -3.302626013755798340e-01 -1.522775292396545410e-01 -1.650250256061553955e-01 -5.188037082552909851e-02 1.293981820344924927e-01 4.907049983739852905e-02 3.273981511592864990e-01 -2.631881088018417358e-02 -1.156027242541313171e-01 -4.590744152665138245e-02 1.253026574850082397e-01 -1.775220930576324463e-01 -2.029644325375556946e-02 1.597051918506622314e-01 2.847210168838500977e-01 8.039124310016632080e-02 1.398313641548156738e-01 -2.112557590007781982e-01 -1.518780589103698730e-01 2.610619962215423584e-01 3.404374420642852783e-02 1.588459610939025879e-01 -2.998923063278198242e-01 -2.351558208465576172e-02 -1.642371341586112976e-02 2.782629728317260742e-01 3.403846323490142822e-01 -3.070298731327056885e-01 1.441138535737991333e-01 -1.037996858358383179e-01 -1.260605454444885254e-01 -2.117096930742263794e-01 4.784945026040077209e-02 -7.660356909036636353e-02 2.931584417819976807e-01
3.187034726142883301e-01 -1.149190142750740051e-01 -4.051434248685836792e-02 4.467836022377014160e-02 6.145265884697437286e-03 2.509186975657939911e-02 -1.784811764955520630e-01 -1.302271634340286255e-01 3.541248291730880737e-02 -9.505849331617355347e-02 2.896025776863098145e-01 9.889888018369674683e-02 -8.093545585870742798e-02 -1.025240346789360046e-01 7.186469435691833496e-02 1.989928036928176880e-01 -5.823763087391853333e-03 8.858065120875835419e-05 -1.349093765020370483e-01 1.808624416589736938e-01 8.708024770021438599e-02 1.851185858249664307e-01 2.284762740600854158e-04 5.651772022247314453e-02 -1.822703927755355835e-01 -8.535934984683990479e-02 3.056159019470214844e-01 9.471324086189270020e-02 1.655696704983711243e-02 -4.920781403779983521e-02 1.533416062593460083e-01 1.749638617038726807e-01 3.962232768535614014e-01 -1.654025912284851074e-01 7.813286781311035156e-02 -4.154480695724487305e-01 -1.941268146038055420e-02 -1.079440638422966003e-01 9.401421248912811279e-02 -1.050790864974260330e-02 -2.382927387952804565e-01 -3.271022066473960876e-02 2.293395698070526123e-01 2.836664319038391113e-01 -1.021935120224952698e-01 1.757502555847167969e-02 3.703745827078819275e-02 2.582429647445678711e-01 -1.048238575458526611e-01 2.731290087103843689e-02 3.466386720538139343e-02 2.157772183418273926e-01 -1.746459677815437317e-02 1.770601272583007812e-01 -3.555437326431274414e-01 1.485791057348251343e-01 -1.773793399333953857e-01 2.993998825550079346e-01 2.779001593589782715e-01 -1.777330189943313599e-01
6.497964932350441813e-06 -3.201619386672973633e-01 -6.569252163171768188e-02 1.110845711082220078e-03 4.261831194162368774e-02 -2.162028402090072632e-01 9.183548390865325928e-02 9.381221979856491089e-02 -2.094452381134033203e-01 -2.962241880595684052e-02 1.103361137211322784e-03 6.336402148008346558e-02 -3.508801162242889404e-01 1.164970099925994873e-01 1.067073792219161987e-01 2.844619452953338623e-01 1.289243437349796295e-02 -1.611868664622306824e-02 -1.133218631148338318e-01 -8.827826008200645447e-03 -2.899357378482818604e-01 -6.721237301826477051e-02 4.760476201772689819e-02 8.893021196126937866e-02 -1.459247432649135590e-02 2.108497470617294312e-01 3.531463146209716797e-01 2.801116928458213806e-02 -5.076327174901962280e-02 -8.901044726371765137e-02 1.055251955986022949e-01 -2.936871945858001709e-01 6.389067322015762329e-02 -2.224351465702056885e-01 1.882009804248809814e-01 -2.936179935932159424e-02 -3.352511227130889893e-01 -5.719861388206481934e-02 2.471320517361164093e-02 -3.046135045588016510e-02 6.071083247661590576e-03 1.499136239290237427e-01 1.551316231489181519e-01 -1.478992123156785965e-02 -3.281447887420654297e-01 1.526273041963577271e-01 1.087677478790283203e-01 2.460618019104003906e-01 8.173781633377075195e-02 -3.707227110862731934e-02 3.754585236310958862e-02 1.598378866910934448e-01 1.608160138130187988e-01 -7.569797337055206299e-02 3.322791755199432373e-01 2.064261138439178467e-01 -9.652167558670043945e-02 -1.237940266728401184e-01 5.466922000050544739e-02 -4.520983621478080750e-02
-8.963295817375183105e-02 -4.554597288370132446e-02 1.287207156419754028e-01 -3.121409118175506592e-01 -5.224218330113217235e-05 -2.689743340015411377e-01 -5.083080753684043884e-02 2.938488721847534180e-01 2.713982760906219482e-01 7.193161547183990479e-02 1.715364679694175720e-02 3.098970353603363037e-01 -2.893549501895904541e-01 -8.650767058134078979e-02 7.897427305579185486e-03 8.200341463088989258e-02 5.185053497552871704e-02 -1.997068822383880615e-01 2.825850546360015869e-01 -8.282081782817840576e-02 -2.390972077846527100e-01 2.288743853569030762e-01 2.715229690074920654e-01 8.221659809350967407e-03 1.652600914239883423e-01 2.963507315143942833e-03 -2.760201692581176758e-01 1.785095185041427612e-01 -1.482992619276046753e-01 -1.187613308429718018e-01 1.097237616777420044e-01 -2.206596583127975464e-01 1.091496348381042480e-01 2.525483369827270508e-01 -3.173127174377441406e-01 1.940479576587677002e-01 -1.806011646986007690e-01 1.126770004630088806e-01 8.129484951496124268e-02 -3.246862813830375671e-02 1.392434686422348022e-01 1.155027449131011963e-01 6.596519611775875092e-03 -7.325365208089351654e-03 2.664083056151866913e-02 -2.964738756418228149e-02 -1.763679236173629761e-01 1.617396175861358643e-01 1.832032203674316406e-01 -5.055401846766471863e-02 5.935268476605415344e-02 1.149426996707916260e-01 1.995304077863693237e-01 1.215308625251054764e-02 -9.535054117441177368e-02 3.600005209445953369e-01 -1.925541460514068604e-02 2.781316041946411133e-01 -1.404063403606414795e-01 1.530950218439102173e-01
-2.377405613660812378e-01 -2.928202738985419273e-03 8.120927214622497559e-02 -8.951558172702789307e-02 -2.365440689027309418e-02 2.593898177146911621e-01 -6.704157590866088867e-02 1.122713759541511536e-01 -1.166277602314949036e-01 -1.270367354154586792e-01 2.173061519861221313e-01 -2.660455740988254547e-02 2.176410853862762451e-01 2.598407678306102753e-02 9.196083992719650269e-02 -1.633019149303436279e-01 -7.882805168628692627e-02 -1.110382452607154846e-01 7.923032157123088837e-03 1.422752290964126587e-01 -9.137015044689178467e-02 1.817151010036468506e-01 -3.083450198173522949e-01 -3.201391994953155518e-01 2.179540693759918213e-01 -1.206579133868217468e-01 1.007739305496215820e-01 -3.363518416881561279e-01 -1.141730025410652161e-01 -5.629659816622734070e-02 3.047985024750232697e-02 2.101136744022369385e-01 -2.250278741121292114e-01 -1.745582520961761475e-01 -1.374085694551467896e-01 -2.764807939529418945e-01 -6.820377707481384277e-02 -3.216506242752075195e-01 1.456797122955322266e-01 3.601572290062904358e-02 2.480827271938323975e-01 -5.893518403172492981e-02 -2.312613129615783691e-01 -1.156956553459167480e-01 6.034502014517784119e-02 9.650551527738571167e-02 7.088827341794967651e-02 3.453266248106956482e-02 -2.205852270126342773e-01 1.817800104618072510e-01 -2.959173619747161865e-01 -1.587658226490020752e-01 2.172836959362030029e-01 1.228564828634262085e-01 5.376981943845748901e-02 -1.006333976984024048e-01 3.494022190570831299e-01 2.289275228977203369e-01 7.434036582708358765e-02 1.777980476617813110e-01
-6.398690491914749146e-02 2.875576019287109375e-01 -2.479069977998733521e-01 2.915894389152526855e-01 7.031837105751037598e-02 -1.026629731059074402e-01 -1.609119623899459839e-01 -2.807617783546447754e-01 -1.170828565955162048e-01 -5.039647594094276428e-02 -8.062639608397148550e-06 -1.381883919239044189e-01 1.293784862355096266e-06 7.264729589223861694e-02 -1.920788690767949447e-06 2.058906257152557373e-01 -5.799695849418640137e-02 9.926925599575042725e-02 3.412433341145515442e-02 -3.783089816570281982e-01 -1.499199420213699341e-01 -1.513195130974054337e-02 -1.580459773540496826e-01 7.288228720426559448e-02 -2.039732486009597778e-01 -2.722214460372924805e-01 -2.181058377027511597e-02 1.468608081340789795e-01 1.215351279824972153e-02 -1.494284123182296753e-01 5.621496587991714478e-02 -1.552434514451306313e-05 -4.925063252449035645e-02 1.363916844129562378e-01 -1.113945692777633667e-01 7.733578979969024658e-02 1.088393852114677429e-01 5.616869777441024780e-03 1.570444554090499878e-01 1.557983607053756714e-01 -1.923160813748836517e-02 1.166133284568786621e-01 1.460049897432327271e-01 1.932385712862014771e-01 1.427611112594604492e-01 1.131694167852401733e-01 2.161271423101425171e-01 -1.443383097648620605e-01 -1.316857188940048218e-01 1.596729308366775513e-01 1.465883702039718628e-01 1.188319921493530273e-01 2.946110034827142954e-04 -1.138135045766830444e-01 -5.214221775531768799e-02 8.740882575511932373e-02 -1.349343359470367432e-01 5.726905539631843567e-02 -9.870932251214981079e-02 2.672034800052642822e-01
2.052999138832092285e-01 -2.626179903745651245e-02 6.410707555914996192e-07 3.592922538518905640e-02 1.954289823770523071e-01 3.142421841621398926e-01 -3.571796417236328125e-02 -2.596121132373809814e-01 3.221226036548614502e-01 -1.361522674560546875e-01 1.392839998006820679e-01 -1.416786015033721924e-01 -1.881819218397140503e-01 3.312262892723083496e-01 -1.572719365358352661e-01 -1.556036919355392456e-01 -7.190165668725967407e-02 3.845060765743255615e-01 5.155336484313011169e-02 -1.723906546831130981e-01 2.387266457080841064e-01 2.198030948638916016e-01 -5.695379897952079773e-02 -2.538531646132469177e-02 2.445176392793655396e-01 5.895991623401641846e-02 -1.031521558761596680e-01 5.171133950352668762e-02 -9.701681137084960938e-02 1.914391666650772095e-01 2.640322148799896240e-01 2.446630038321018219e-03 1.410444360226392746e-02 2.207999378442764282e-01 2.288270145654678345e-01 2.735832519829273224e-02 1.530729532241821289e-01 -2.371198087930679321e-01 1.854994148015975952e-01 2.234133929014205933e-01 1.499414145946502686e-01 3.812393060798058286e-06 2.891156449913978577e-02 -2.470719516277313232e-01 1.289307475090026855e-01 4.190000295639038086e-01 -8.184530586004257202e-02 1.984339356422424316e-01 3.113008141517639160e-01 1.757773011922836304e-01 1.930418014526367188e-01 -1.115560755133628845e-01 5.625412613153457642e-02 -1.488070562481880188e-02 -2.707079946994781494e-01 1.316228359937667847e-01 1.686020195484161377e-01 1.526468694210052490e-01 3.589374711737036705e-03 2.399736493825912476e-01
