-2.000587582588195801e-01 4.457958042621612549e-01 5.798341035842895508e-01 3.934652209281921387e-01 1.453623622655868530e-01 -1.166745871305465698e-01 4.719445705413818359e-01 -1.136830151081085205e-01 -1.118047475814819336e+00 -7.034972310066223145e-01 4.119355976581573486e-02 5.829332768917083740e-02 1.439900249242782593e-01 -1.010500416159629822e-01 -1.206923052668571472e-01 2.814054787158966064e-01 6.146669853478670120e-03 4.269903600215911865e-01 -2.950242459774017334e-01 1.891924738883972168e-01 -3.747870326042175293e-01 -3.033783733844757080e-01 5.721763968467712402e-01 -5.649157762527465820e-01 3.307690098881721497e-02 1.386531144380569458e-01 4.437133967876434326e-01 8.000981807708740234e-02 -2.995414733886718750e-01 -1.330487877130508423e-01 8.052302151918411255e-02 -1.901869773864746094e-01 -4.014269709587097168e-01 4.104540050029754639e-01 -5.774228572845458984e-01 1.929317265748977661e-01 -4.194369614124298096e-01 -1.854378581047058105e-01 -2.335617505013942719e-02 2.377614676952362061e-01 1.200218349695205688e-01 -7.802450060844421387e-01 -2.128917425870895386e-01 9.322098642587661743e-02 -4.180509746074676514e-01 7.053303122520446777e-01 4.287690389901399612e-03 -1.513999104499816895e+00 -6.845903396606445312e-02 1.748818159103393555e-01 2.898416519165039062e-01 1.062574386596679688e+00 -3.339084386825561523e-01 1.474899500608444214e-01 5.942929163575172424e-02 -1.859172880649566650e-01 9.130448848009109497e-02 -1.863519847393035889e-01 5.679442882537841797e-01 -2.021172940731048584e-01
4.580062031745910645e-01 -9.902110695838928223e-02 -1.022653505206108093e-01 -2.070778161287307739e-01 5.441353321075439453e-01 -1.457663923501968384e-01 -3.100381195545196533e-01 -3.968297243118286133e-01 1.205318644642829895e-01 -3.893918097019195557e-01 8.400883525609970093e-02 1.307889521121978760e-01 9.228130429983139038e-02 -1.860287338495254517e-01 -4.106435477733612061e-01 -1.575129926204681396e-01 4.748100042343139648e-01 -4.048396348953247070e-01 1.082436889410018921e-01 8.448872715234756470e-02 -1.221202388405799866e-01 -6.973002851009368896e-02 1.395120471715927124e-01 3.980509042739868164e-01 -4.425125420093536377e-01 1.872463524341583252e-01 7.708564400672912598e-03 8.666373789310455322e-03 5.025230646133422852e-01 6.836878508329391479e-02 8.737564831972122192e-02 -5.012210458517074585e-04 -3.244942128658294678e-01 2.214857637882232666e-01 1.947985738515853882e-01 1.582966595888137817e-01 -2.917442843317985535e-02 1.815397143363952637e-01 -4.009153842926025391e-01 -1.573191732168197632e-01 -5.391557812690734863e-01 -4.842975437641143799e-01 1.448332518339157104e-01 -5.130927562713623047e-01 1.181671991944313049e-01 -3.818989098072052002e-01 -1.632519811391830444e-01 -2.727462351322174072e-01 -2.360061742365360260e-02 1.470154970884323120e-01 1.443839222192764282e-01 6.085092201828956604e-02 -3.382904529571533203e-01 -1.640371978282928467e-01 2.890640795230865479e-01 2.233294993638992310e-01 -1.968262493610382080e-01 1.729892641305923462e-01 2.207493036985397339e-01 -2.259647659957408905e-02
-4.879745244979858398e-01 -2.381728887557983398e-01 1.766107417643070221e-02 6.113840341567993164e-01 1.620670706033706665e-01 8.198877424001693726e-02 3.666557371616363525e-01 3.524952754378318787e-02 9.415090607944875956e-05 -1.823996752500534058e-01 2.481292188167572021e-01 -3.632360100746154785e-01 -3.277694880962371826e-01 -1.142120286822319031e-01 3.161957859992980957e-01 -7.079872488975524902e-02 -5.971134305000305176e-01 4.551882147789001465e-01 5.794413685798645020e-01 8.746513724327087402e-02 3.571563363075256348e-01 9.540039114654064178e-03 1.158117353916168213e-01 -3.184256851673126221e-01 2.076885104179382324e-01 2.947752773761749268e-01 -8.776418864727020264e-02 3.121704459190368652e-01 -2.914906442165374756e-01 -9.160355664789676666e-03 2.459269464015960693e-01 -3.148137032985687256e-02 2.254626750946044922e-01 7.136941701173782349e-02 -1.092903985409066081e-04 -3.340864777565002441e-01 -4.103249311447143555e-01 -8.813764899969100952e-03 3.496243059635162354e-01 1.318724751472473145e-01 4.685616493225097656e-01 -8.483409881591796875e-03 5.377331376075744629e-02 5.560055971145629883e-01 -3.575305044651031494e-01 2.829475104808807373e-01 -2.875476181507110596e-01 -1.239259168505668640e-02 -4.847270548343658447e-01 5.246270913630723953e-03 2.448475174605846405e-02 2.754343673586845398e-02 -3.874384164810180664e-01 -3.000462055206298828e-01 -2.641936838626861572e-01 -1.232278198003768921e-01 -1.189525723457336426e-01 -5.823546648025512695e-02 3.220979273319244385e-01 9.103669226169586182e-02
-5.173671245574951172e-01 5.853475332260131836e-01 6.873808801174163818e-02 5.082293748855590820e-01 -1.611699932254850864e-03 4.587354063987731934e-01 -2.371948659420013428e-01 -1.244423240423202515e-01 -3.431933745741844177e-02 3.461729884147644043e-01 -5.066737532615661621e-01 -3.350884020328521729e-01 3.349468111991882324e-01 -6.969329118728637695e-01 2.506329417228698730e-01 1.886217445135116577e-01 -4.443469643592834473e-01 1.532007157802581787e-01 6.735153496265411377e-02 1.930836588144302368e-01 1.321470737457275391e-01 6.766335964202880859e-01 -6.738030314445495605e-01 -2.802453935146331787e-01 7.244163751602172852e-02 2.008872479200363159e-01 2.339986413717269897e-01 -1.217620819807052612e-01 -1.989896409213542938e-02 -6.871303915977478027e-01 -6.034288555383682251e-02 -4.640639126300811768e-01 -3.017207141965627670e-03 8.976789563894271851e-02 8.470319956541061401e-02 5.777660608291625977e-01 -3.355206549167633057e-01 -5.303643941879272461e-01 -1.918770372867584229e-01 1.491814255714416504e-01 5.417239069938659668e-01 3.522218018770217896e-02 2.569288611412048340e-01 2.197194658219814301e-02 -1.903992742300033569e-01 -9.207132458686828613e-02 3.055657446384429932e-01 3.833850920200347900e-01 -2.516423910856246948e-02 -2.184055000543594360e-01 2.241429314017295837e-02 1.348943859338760376e-01 1.461185812950134277e-01 -6.792955398559570312e-01 6.348380446434020996e-01 -3.258718550205230713e-01 -1.473745852708816528e-01 -7.089652419090270996e-01 -5.034228563308715820e-01 -3.154336810111999512e-01
-4.840228706598281860e-02 4.710246622562408447e-01 -3.455666452646255493e-02 2.529829442501068115e-01 -2.016009241342544556e-01 2.283533290028572083e-02 3.227594867348670959e-02 6.776474118232727051e-01 4.730369895696640015e-02 2.051655352115631104e-01 2.368537038564682007e-01 -2.909806370735168457e-01 -3.305585682392120361e-01 3.004841804504394531e-01 3.692968189716339111e-01 4.097780585289001465e-01 -7.076581567525863647e-02 7.093234062194824219e-01 1.062462329864501953e+00 2.991940081119537354e-01 -1.855292469263076782e-01 -6.506293267011642456e-02 -3.765891492366790771e-01 -1.575488001108169556e-01 2.838080227375030518e-01 9.532383084297180176e-02 2.742460966110229492e-01 -3.112135827541351318e-01 -5.006195306777954102e-01 -2.401108294725418091e-01 -1.358979344367980957e-01 -3.765476942062377930e-01 -2.425831407308578491e-01 2.418147325515747070e-01 -1.400874853134155273e-01 -4.972898960113525391e-01 -2.612417936325073242e-01 -2.654510140419006348e-01 4.105288386344909668e-01 2.086865752935409546e-01 3.771821409463882446e-02 -6.857784837484359741e-02 -2.870772778987884521e-01 7.123515009880065918e-02 -8.858940005302429199e-01 2.608712911605834961e-01 -3.871683180332183838e-01 1.402514815330505371e+00 -1.477436572313308716e-01 -1.139253303408622742e-01 2.007906585931777954e-01 2.673754701390862465e-03 -3.933801352977752686e-01 -6.719978153705596924e-02 -3.250246345996856689e-01 3.653685748577117920e-01 6.315945386886596680e-01 -9.064840674400329590e-01 7.293885946273803711e-01 2.160668522119522095e-01
-7.678095698356628418e-01 3.995705861598253250e-03 5.010766163468360901e-02 1.014907717704772949e+00 1.830553859472274780e-01 -4.334830045700073242e-01 4.284916222095489502e-01 -3.282914757728576660e-01 -6.031876802444458008e-01 -3.708621561527252197e-01 -8.621839880943298340e-01 -2.524165809154510498e-01 3.892784938216209412e-02 1.090330481529235840e-01 -2.313574254512786865e-01 2.057301998138427734e-01 -2.535386085510253906e-01 6.793068349361419678e-02 -1.041057467460632324e+00 1.875379830598831177e-01 1.455788910388946533e-01 -7.033336162567138672e-01 4.202758371829986572e-01 -1.221917986869812012e+00 2.095270901918411255e-01 -2.200011163949966431e-01 7.115337252616882324e-01 -1.064867526292800903e-01 -7.754287719726562500e-01 6.172823905944824219e-01 -9.831904619932174683e-02 8.349050581455230713e-02 1.848592758178710938e-01 2.407232299447059631e-02 -8.849745392799377441e-01 -4.007993265986442566e-02 -1.019616052508354187e-01 4.746853709220886230e-01 -2.615805268287658691e-01 6.288086175918579102e-01 3.833281099796295166e-01 -3.170193731784820557e-01 4.905615746974945068e-02 7.832390815019607544e-02 9.101201891899108887e-01 2.344478815793991089e-01 5.866430997848510742e-01 -4.303102016448974609e+00 3.269295394420623779e-02 9.198583662509918213e-03 4.422655403614044189e-01 8.742510080337524414e-01 4.429760575294494629e-01 5.533076524734497070e-01 1.123211756348609924e-01 -4.515680670738220215e-01 -2.509917318820953369e-01 6.314897537231445312e-01 -4.444000720977783203e-01 -2.980693578720092773e-01
-1.894767731428146362e-01 1.241496801376342773e-01 5.744190141558647156e-02 3.012649156153202057e-02 -7.511410117149353027e-02 2.288162261247634888e-01 -5.520846247673034668e-01 -1.646576225757598877e-01 2.710944712162017822e-01 -1.222788617014884949e-01 5.909336358308792114e-02 9.231507033109664917e-02 2.437971830368041992e-01 -1.714601665735244751e-01 -5.919717717915773392e-03 2.202155813574790955e-02 -2.082134038209915161e-02 -3.632233142852783203e-01 -3.840221166610717773e-01 2.213587462902069092e-01 -2.179304659366607666e-01 -3.248566687107086182e-01 3.777289986610412598e-01 7.854476571083068848e-02 9.403998032212257385e-03 -2.906266972422599792e-02 8.463301509618759155e-02 2.909933328628540039e-01 6.251093745231628418e-02 -1.162185706198215485e-02 -2.835344076156616211e-01 7.869213074445724487e-02 -3.980483710765838623e-01 1.815961003303527832e-01 1.347925700247287750e-02 9.572685509920120239e-02 3.757183849811553955e-01 -2.934100478887557983e-02 -1.914523392915725708e-01 -5.864365696907043457e-01 8.306744694709777832e-02 -2.877798080444335938e-01 2.797202169895172119e-01 -4.325532615184783936e-01 1.441866606473922729e-01 -5.428043659776449203e-04 2.599537372589111328e-01 -4.367810487747192383e-01 1.001147776842117310e-01 4.763506054878234863e-01 3.338453173637390137e-01 1.782426238059997559e-01 -2.260756790637969971e-01 1.785198599100112915e-02 3.881033658981323242e-01 4.360124841332435608e-02 -2.319754511117935181e-01 7.748354226350784302e-02 1.238714233040809631e-01 9.302964806556701660e-02
3.691228926181793213e-01 -4.123591482639312744e-01 1.730982363224029541e-01 4.771781712770462036e-02 3.755185008049011230e-01 -5.887654423713684082e-01 -6.768039613962173462e-02 3.318345546722412109e-01 -1.473749708384275436e-02 -4.314908683300018311e-01 9.040164202451705933e-02 2.858647406101226807e-01 1.447060853242874146e-01 3.855192661285400391e-01 -9.406963735818862915e-02 -4.430308640003204346e-01 3.678444921970367432e-01 -3.565285205841064453e-01 -6.398953795433044434e-01 -3.820459544658660889e-01 -2.949251532554626465e-01 -4.632716476917266846e-01 2.054744809865951538e-01 -1.524990200996398926e-01 -1.396393477916717529e-01 -1.771666556596755981e-01 4.941440746188163757e-02 -1.084193512797355652e-01 6.295540183782577515e-02 5.274896025657653809e-01 9.315723925828933716e-02 -1.437838226556777954e-01 -2.147464752197265625e-01 -2.159161120653152466e-01 -2.401695102453231812e-01 -3.840110301971435547e-01 -2.713018655776977539e-01 5.944462120532989502e-02 4.086511954665184021e-02 -2.741099298000335693e-01 -8.802848458290100098e-01 6.946042925119400024e-02 -4.909403920173645020e-01 -8.594817668199539185e-02 -2.525447309017181396e-01 2.399595528841018677e-01 -4.608403518795967102e-02 -5.267493128776550293e-01 5.273013114929199219e-01 1.401410251855850220e-01 7.807218283414840698e-02 1.588635891675949097e-02 -2.202497981488704681e-02 5.781058669090270996e-01 -1.827763766050338745e-01 -2.420615702867507935e-01 6.219891656655818224e-05 4.087067842483520508e-01 1.149626448750495911e-01 1.928403824567794800e-01
-2.673216164112091064e-01 -3.120793700218200684e-01 3.178054988384246826e-01 -1.833349913358688354e-01 5.576977133750915527e-02 -9.398470818996429443e-02 3.404339253902435303e-01 8.373918533325195312e-01 -2.720179259777069092e-01 -2.871395051479339600e-01 5.656051039695739746e-01 -3.589409887790679932e-01 -6.243245601654052734e-01 6.746380776166915894e-02 1.128854826092720032e-01 -6.726492196321487427e-02 -1.507716774940490723e-01 1.209667399525642395e-01 4.775254428386688232e-01 1.270042508840560913e-01 -2.057477831840515137e-02 -1.014697626233100891e-01 4.040563404560089111e-01 -1.746541559696197510e-01 3.833116963505744934e-02 2.558943033218383789e-01 -1.027433294802904129e-02 1.408319920301437378e-01 -8.068665266036987305e-01 2.455525398254394531e-01 -1.568493247032165527e-01 4.938426315784454346e-01 -1.818470656871795654e-01 4.098169803619384766e-01 -3.458119332790374756e-01 -4.932645559310913086e-01 -2.412514388561248779e-01 1.099838614463806152e-01 2.826209366321563721e-01 5.422770380973815918e-01 2.524212598800659180e-01 -3.271315097808837891e-01 -6.570496559143066406e-01 4.080874621868133545e-01 -6.496616005897521973e-01 3.133981227874755859e-01 -7.492014765739440918e-01 4.912356436252593994e-01 2.707928046584129333e-02 3.265100419521331787e-01 -6.170752644538879395e-02 4.711012542247772217e-01 -5.469639897346496582e-01 1.518803648650646210e-02 -2.941637933254241943e-01 4.160336777567863464e-02 2.927787899971008301e-01 1.341572403907775879e-02 9.140701293945312500e-01 1.708992570638656616e-01
6.940746307373046875e-01 -1.594731509685516357e-01 -5.793274380266666412e-03 -5.264621973037719727e-01 1.128237023949623108e-01 -2.983257472515106201e-01 -3.926638066768646240e-01 3.028000295162200928e-01 3.074765801429748535e-01 -2.330385148525238037e-01 1.141036394983530045e-02 1.299879699945449829e-01 1.793029755353927612e-01 3.108272850513458252e-01 -2.409784682095050812e-02 -6.598725914955139160e-02 3.751139342784881592e-01 -4.802597761154174805e-01 -7.882659882307052612e-02 -1.950513571500778198e-01 2.794703282415866852e-02 3.347972035408020020e-02 -2.946337498724460602e-02 3.318181931972503662e-01 -3.249831795692443848e-01 -2.403244525194168091e-01 1.913038641214370728e-01 -4.794051349163055420e-01 4.372591674327850342e-01 1.222531944513320923e-01 -7.301738858222961426e-02 -4.135652258992195129e-02 -2.521821260452270508e-01 -1.555283069610595703e-01 8.379788696765899658e-02 1.964886635541915894e-01 -6.771039962768554688e-02 3.853933513164520264e-01 1.629023440182209015e-02 -1.339861005544662476e-01 -7.872691154479980469e-01 2.768430672585964203e-02 -1.116877570748329163e-01 -2.811704874038696289e-01 -7.357252389192581177e-02 1.143720094114542007e-02 -8.633816987276077271e-02 -2.622294053435325623e-02 5.210027694702148438e-01 2.572179771959781647e-02 -1.501111984252929688e-01 5.062367022037506104e-02 2.151952981948852539e-01 1.143149137496948242e-01 7.762302458286285400e-02 9.377698414027690887e-03 1.578447669744491577e-01 1.131842732429504395e-01 4.910848438739776611e-01 2.113021314144134521e-01
5.888865590095520020e-01 -3.330685198307037354e-01 -7.893612235784530640e-02 -2.622892260551452637e-01 -4.874056279659271240e-01 4.703914374113082886e-02 2.136327773332595825e-01 1.006283640861511230e+00 -7.658511996269226074e-01 -4.973436892032623291e-02 3.590081632137298584e-01 -2.661098241806030273e-01 -4.731181561946868896e-01 4.990372955799102783e-01 2.456639409065246582e-01 5.082572102546691895e-01 8.075442165136337280e-02 -1.631397902965545654e-01 1.308298230171203613e+00 5.184730514883995056e-02 1.798002719879150391e-01 -2.460591793060302734e-01 3.218542635440826416e-01 7.956523299217224121e-01 -2.212230265140533447e-01 -2.107683196663856506e-02 3.292203247547149658e-01 -5.583301186561584473e-01 2.401854284107685089e-02 4.513854160904884338e-02 -8.675817400217056274e-02 6.826896667480468750e-01 -7.243056595325469971e-02 -9.543822705745697021e-02 -3.681395947933197021e-02 -7.527403831481933594e-01 1.397168189287185669e-01 3.640451133251190186e-01 5.097894668579101562e-01 3.370720148086547852e-01 8.263851404190063477e-01 7.164340466260910034e-02 -6.511134505271911621e-01 6.394270807504653931e-03 -5.412173271179199219e-01 6.149154305458068848e-01 -1.518060326576232910e+00 1.351132392883300781e+00 1.639716327190399170e-01 3.078965470194816589e-02 -2.381092458963394165e-01 2.074004616588354111e-03 -6.974935531616210938e-01 4.822185337543487549e-01 -3.462878763675689697e-01 6.797829866409301758e-01 5.746617317199707031e-01 5.939065217971801758e-01 1.088486075401306152e+00 6.470244526863098145e-01
6.139442324638366699e-01 -1.598844528198242188e-01 -4.623124375939369202e-02 -3.850167989730834961e-01 -1.124361827969551086e-01 -4.449363648891448975e-01 -4.548515081405639648e-01 1.947790235280990601e-01 -4.856272637844085693e-01 -5.393322706222534180e-01 1.903111934661865234e-01 -1.137395575642585754e-02 -1.460763663053512573e-01 1.256141811609268188e-01 -1.840352565050125122e-01 3.109681047499179840e-02 3.038158118724822998e-01 -2.066691517829895020e-01 3.929864466190338135e-01 -2.051858156919479370e-01 1.467240899801254272e-01 -9.599424898624420166e-02 8.796708285808563232e-02 4.608610570430755615e-01 -3.098311424255371094e-01 -1.091523543000221252e-01 6.184135749936103821e-02 -1.252765506505966187e-01 5.308983102440834045e-02 -2.895167097449302673e-02 -4.149661064147949219e-01 -1.439486294984817505e-01 -3.260727524757385254e-01 -1.052379161119461060e-01 -5.606652796268463135e-02 -3.722221851348876953e-01 1.799752935767173767e-02 1.166281998157501221e-01 -1.382743380963802338e-02 7.130680978298187256e-02 -6.702493429183959961e-01 -6.239737197756767273e-02 -8.631709218025207520e-02 -3.276629149913787842e-01 -1.726018637418746948e-01 2.986874617636203766e-02 -6.802326440811157227e-01 2.910254597663879395e-01 1.299275159835815430e-01 -6.335754413157701492e-03 -2.380098998546600342e-01 1.868160367012023926e-01 -2.310412377119064331e-01 6.638036668300628662e-02 -1.961629092693328857e-01 1.763790845870971680e-01 3.915076553821563721e-01 6.388350739143788815e-04 2.808216810226440430e-01 4.798542708158493042e-02
6.045573353767395020e-01 -1.936612874269485474e-01 -3.751412034034729004e-01 -4.623289704322814941e-01 -3.884648978710174561e-01 -1.749393343925476074e-02 -5.363080501556396484e-01 -7.340885698795318604e-02 -3.906631767749786377e-01 -3.940249681472778320e-01 6.448305845260620117e-01 3.962640166282653809e-01 -3.178059756755828857e-01 1.846958696842193604e-01 -1.080150231719017029e-01 1.994025111198425293e-01 3.044179379940032959e-01 -5.435544252395629883e-01 9.152616560459136963e-02 1.902995854616165161e-01 9.151341766119003296e-02 1.477354317903518677e-01 1.571886986494064331e-01 2.366167008876800537e-01 -3.649369776248931885e-01 8.977055549621582031e-03 2.890474796295166016e-01 1.082390546798706055e-01 2.691548764705657959e-01 3.799771666526794434e-01 -2.007543742656707764e-01 2.895052134990692139e-01 -3.565156161785125732e-01 -1.096278503537178040e-01 2.043338865041732788e-01 -1.634091436862945557e-01 3.239020407199859619e-01 -3.868080377578735352e-01 -6.064357981085777283e-02 -4.890739172697067261e-02 -6.448341608047485352e-01 -5.707167983055114746e-01 -1.141425818204879761e-01 -3.042971491813659668e-01 -2.714842092245817184e-03 -2.442983537912368774e-02 -5.368112921714782715e-01 -4.666327312588691711e-02 1.289641857147216797e-01 1.314257979393005371e-01 -2.106310427188873291e-01 4.814946949481964111e-01 1.396037936210632324e-01 1.126230210065841675e-01 6.344517320394515991e-02 6.553035229444503784e-02 1.966549158096313477e-01 4.091569781303405762e-01 2.819071114063262939e-01 7.641659677028656006e-02
-7.177062034606933594e-01 2.206833660602569580e-02 5.219578146934509277e-01 3.586479127407073975e-01 2.392153590917587280e-01 -2.695808708667755127e-01 2.058244794607162476e-01 1.911061704158782959e-01 -4.061447679996490479e-01 -1.516273170709609985e-01 -6.921672075986862183e-02 -4.062340259552001953e-01 -4.352140724658966064e-01 1.446531116962432861e-01 -1.150399222970008850e-01 -3.617635965347290039e-01 9.403516352176666260e-02 5.347687005996704102e-01 -3.438895642757415771e-01 -2.697045207023620605e-01 -2.434735298156738281e-01 -3.297604992985725403e-02 2.074412815272808075e-02 -9.813720583915710449e-01 1.021679341793060303e-01 5.203763842582702637e-01 3.157758414745330811e-01 -4.649172350764274597e-02 -2.387781739234924316e-01 -1.481108367443084717e-03 5.326650738716125488e-01 -1.361052691936492920e-01 -6.591493636369705200e-02 4.570216536521911621e-01 -5.579618811607360840e-01 8.439090102910995483e-02 -1.623629778623580933e-01 -2.039354294538497925e-01 2.369385063648223877e-01 3.763007223606109619e-01 2.811752259731292725e-01 -4.901066422462463379e-02 -4.625761806964874268e-01 1.130511388182640076e-01 -6.291928887367248535e-01 -3.803004324436187744e-02 1.347768306732177734e-01 -6.376647353172302246e-01 2.885074615478515625e-01 4.445133805274963379e-01 -1.185987889766693115e-01 7.252338528633117676e-01 -5.285627245903015137e-01 -2.120892107486724854e-01 2.303683906793594360e-01 -4.932174086570739746e-01 1.659625954926013947e-02 -3.743235766887664795e-01 1.423339545726776123e-01 5.774187669157981873e-02
-3.019219338893890381e-01 -8.352365344762802124e-02 1.543909907341003418e-01 6.073704957962036133e-01 -2.566532194614410400e-01 1.308668553829193115e-01 3.276337683200836182e-01 -1.103116665035486221e-02 -2.148036807775497437e-01 2.942430078983306885e-01 -3.895569443702697754e-01 1.023131087422370911e-01 -3.568838536739349365e-02 1.159789413213729858e-01 -4.143282026052474976e-02 1.279126703739166260e-01 -3.393312990665435791e-01 4.594310522079467773e-01 -1.972223818302154541e-01 -1.870051622390747070e-01 -5.160889029502868652e-02 1.428065001964569092e-01 -3.374139368534088135e-01 -4.512918889522552490e-01 -6.481914222240447998e-02 6.055982708930969238e-01 1.652950942516326904e-01 -1.516630649566650391e-01 -7.731930911540985107e-02 -9.998283535242080688e-02 2.884206473827362061e-01 -4.237425625324249268e-01 2.927623875439167023e-02 4.651529192924499512e-01 -2.077273428440093994e-01 3.149371743202209473e-01 -2.274894863367080688e-01 -3.672945126891136169e-02 5.081544071435928345e-02 2.898627519607543945e-01 8.095527291297912598e-01 -2.824999094009399414e-01 -1.882106959819793701e-01 2.955078780651092529e-01 -1.815324276685714722e-01 5.910559892654418945e-01 2.763114273548126221e-01 1.318833827972412109e-01 7.688512653112411499e-02 1.153624355792999268e-01 -3.727785348892211914e-01 6.472397595643997192e-02 -8.829516917467117310e-02 -6.216529011726379395e-02 3.736633360385894775e-01 1.147787868976593018e-01 -1.026801066473126411e-03 1.205070763826370239e-01 -2.747835516929626465e-01 -3.449295759201049805e-01
-1.082007363438606262e-01 -1.414836943149566650e-01 1.450563073158264160e-01 -9.192033112049102783e-02 7.377296090126037598e-01 2.216297388076782227e-01 5.685805678367614746e-01 -3.737034797668457031e-01 1.084603428840637207e+00 3.687646687030792236e-01 -9.321659803390502930e-01 3.160952404141426086e-02 -3.643507137894630432e-02 -2.248744480311870575e-02 -5.599773302674293518e-02 -3.084235787391662598e-01 4.234916269779205322e-01 5.737786889076232910e-01 -3.441734910011291504e-01 4.591167345643043518e-02 -5.558158159255981445e-01 -1.585645228624343872e-01 -2.176743000745773315e-01 -3.882022500038146973e-01 -5.112152174115180969e-02 -5.499488711357116699e-01 -1.362703144550323486e-01 3.670056462287902832e-01 4.550876095890998840e-02 7.772196840960532427e-05 1.675828695297241211e-01 -5.572993755340576172e-01 -2.005765140056610107e-01 -8.006426692008972168e-02 3.236258774995803833e-02 4.166587293148040771e-01 -3.013318181037902832e-01 3.794505894184112549e-01 -1.640009284019470215e-01 -4.323795139789581299e-01 -9.464060664176940918e-01 3.334258794784545898e-01 5.936802625656127930e-01 8.928999304771423340e-02 2.225364446640014648e-01 -7.267526984214782715e-01 1.088938236236572266e+00 -1.069311857223510742e+00 5.475928187370300293e-01 -3.965638577938079834e-01 5.454438924789428711e-01 4.928987100720405579e-02 2.007495909929275513e-01 -1.791304051876068115e-01 2.661830782890319824e-01 -3.114423751831054688e-01 -2.895668148994445801e-01 -1.668452471494674683e-01 -7.540758252143859863e-01 -1.451432853937149048e-01
1.421309560537338257e-01 -9.768354706466197968e-03 -2.616774439811706543e-01 -4.895649850368499756e-01 3.269097208976745605e-01 -4.629586264491081238e-02 1.576661467552185059e-01 -5.032869428396224976e-02 2.373283356428146362e-02 -4.654162526130676270e-01 2.025725543498992920e-01 1.654055118560791016e-01 4.008587598800659180e-01 -8.624006062746047974e-02 8.347436785697937012e-02 -2.698918879032135010e-01 2.860452830791473389e-01 -2.536767423152923584e-01 -3.611300587654113770e-01 -1.301030963659286499e-01 -3.387686610221862793e-02 -3.002221286296844482e-01 8.720622956752777100e-02 2.014751583337783813e-01 -1.300527006387710571e-01 5.153132975101470947e-02 3.054340183734893799e-01 1.654462143778800964e-02 -8.768696337938308716e-02 1.726079136133193970e-01 2.405505925416946411e-01 -2.137957513332366943e-01 -3.858657777309417725e-01 2.781805098056793213e-01 1.548722200095653534e-02 2.383989393711090088e-01 1.335945874452590942e-01 1.094253584742546082e-01 -3.580679884180426598e-03 -9.640572965145111084e-02 -8.845921158790588379e-01 -1.506652384996414185e-01 6.685928255319595337e-02 -2.556388676166534424e-01 -5.058110356330871582e-01 -1.786577887833118439e-02 -1.204926241189241409e-02 -1.379213482141494751e-01 8.511248975992202759e-02 3.222730457782745361e-01 1.340664923191070557e-01 3.587223291397094727e-01 -1.634370386600494385e-01 3.655759394168853760e-01 -6.046256050467491150e-02 -3.685560524463653564e-01 -8.330283313989639282e-02 -1.286931335926055908e-01 4.473668932914733887e-01 1.119002178311347961e-01
-2.056479007005691528e-01 1.074277423322200775e-02 -1.121347770094871521e-01 1.649439930915832520e-01 6.053715199232101440e-02 2.194868475198745728e-01 -8.667949587106704712e-02 -2.236274927854537964e-01 3.290443420410156250e-01 6.462092995643615723e-01 -6.442076563835144043e-01 -3.485401272773742676e-01 2.256608754396438599e-01 -3.388857245445251465e-01 2.073636800050735474e-01 3.629112243652343750e-01 -9.090073406696319580e-02 6.742435097694396973e-01 1.555761396884918213e-01 4.736508801579475403e-02 3.500084877014160156e-01 2.315089851617813110e-01 -7.652695178985595703e-01 -6.695105433464050293e-01 6.609098315238952637e-01 -1.524983644485473633e-01 -5.219983458518981934e-01 4.535079002380371094e-01 -1.652944386005401611e-01 -2.512025833129882812e-01 -1.103937402367591858e-01 -7.353901863098144531e-01 5.482994318008422852e-01 -3.452062308788299561e-01 2.259116023778915405e-01 8.296631574630737305e-01 -1.515440046787261963e-01 -2.167387753725051880e-01 -3.875559866428375244e-01 1.796262562274932861e-01 -1.505282986909151077e-02 7.071278691291809082e-01 6.826002001762390137e-01 -9.124530851840972900e-02 2.919794917106628418e-01 -5.316927656531333923e-02 1.107617378234863281e+00 2.807207107543945312e-01 -3.491992354393005371e-01 -4.821200370788574219e-01 5.379687249660491943e-02 -4.747012853622436523e-01 7.097213864326477051e-01 -3.905654251575469971e-01 3.070002794265747070e-01 7.183592300862073898e-03 -4.496414065361022949e-01 -1.854403167963027954e-01 -9.830788373947143555e-01 -2.660459280014038086e-01
-2.362339049577713013e-01 3.916317224502563477e-01 5.268673598766326904e-02 6.553787738084793091e-02 -5.777376294136047363e-01 5.903865694999694824e-01 -2.092267721891403198e-01 -9.271110594272613525e-02 8.378117084503173828e-01 6.087442636489868164e-01 -3.064534664154052734e-01 -1.990027911961078644e-02 -1.618129163980484009e-01 8.318469673395156860e-02 -3.436362370848655701e-02 1.528423465788364410e-02 -1.061675474047660828e-01 -2.358170971274375916e-02 -9.473335742950439453e-02 1.790075600147247314e-01 4.161377847194671631e-01 1.793532222509384155e-01 -6.472226381301879883e-01 -6.845466494560241699e-01 4.449062049388885498e-01 1.994146555662155151e-01 -5.690311193466186523e-01 1.140644252300262451e-01 5.235268473625183105e-01 -1.019963324069976807e-01 -1.174672767519950867e-01 -2.833370268344879150e-01 5.876385569572448730e-01 -3.557302653789520264e-01 2.667188048362731934e-01 4.407601058483123779e-01 -5.483688041567802429e-02 2.271841764450073242e-01 7.261405233293771744e-03 -4.257977306842803955e-01 -1.383388787508010864e-01 4.312086105346679688e-01 -4.757346585392951965e-02 6.733015924692153931e-02 3.154704272747039795e-01 -1.984932869672775269e-01 1.198551893234252930e+00 6.265377998352050781e-01 -1.477328389883041382e-01 -2.294061183929443359e-01 1.877408325672149658e-01 -4.365802705287933350e-01 7.098396420478820801e-01 -1.535727828741073608e-01 2.574332356452941895e-01 2.190644890069961548e-01 -3.234436511993408203e-01 -2.646939754486083984e-01 -7.911416888236999512e-01 -4.773184359073638916e-01
-2.221247702836990356e-01 -1.762767881155014038e-01 4.523467421531677246e-01 3.952186703681945801e-01 -3.369974195957183838e-01 3.407734632492065430e-01 -7.837806642055511475e-02 1.747280657291412354e-01 -1.997816860675811768e-01 -5.011620000004768372e-02 3.136792480945587158e-01 3.408876061439514160e-02 -4.950287342071533203e-01 -1.927221566438674927e-01 3.189495205879211426e-01 4.501667618751525879e-02 -1.344771087169647217e-01 3.349254727363586426e-01 4.237471148371696472e-02 1.335350275039672852e-01 2.415497601032257080e-01 1.083003953099250793e-01 -4.286798834800720215e-01 -3.355035483837127686e-01 8.927345275878906250e-02 -6.466998159885406494e-02 2.103471308946609497e-01 1.264665275812149048e-01 -2.886255681514739990e-01 -1.276272982358932495e-01 2.802789509296417236e-01 -2.818851470947265625e-01 1.926762014627456665e-01 -1.384642273187637329e-01 -8.404839783906936646e-02 -1.386840492486953735e-01 -3.240252435207366943e-01 -1.117335259914398193e-01 1.486673355102539062e-01 2.276660501956939697e-01 4.048810005187988281e-01 3.392606079578399658e-01 8.180699497461318970e-02 1.922180354595184326e-01 2.760918736457824707e-01 4.311078041791915894e-02 4.438884854316711426e-01 -1.449898630380630493e-01 -2.505747079849243164e-01 2.384662069380283356e-02 3.608436286449432373e-01 -3.362720087170600891e-02 -5.289998371154069901e-03 8.316554874181747437e-02 2.231590896844863892e-01 3.472711145877838135e-01 5.489750206470489502e-02 1.064250022172927856e-01 -2.206668406724929810e-01 -2.911162003874778748e-02
