3.664920032024383545e-01 2.365212514996528625e-02 1.936647822731174529e-05 8.673906449985224754e-06 9.602209180593490601e-02 -1.849742233753204346e-02 1.208998784422874451e-01 1.171231046319007874e-01 2.178044915199279785e-01 4.071247875690460205e-01 -3.561116158962249756e-01 -3.855380117893218994e-01 2.184059470891952515e-01 4.278492033481597900e-01 1.456951815634965897e-02 1.317480653524398804e-01 -3.359331935644149780e-02 -8.249502629041671753e-02 -3.598308935761451721e-02 -3.640269637107849121e-01 1.441135108470916748e-01 -2.984808012843132019e-02 3.582609295845031738e-01 8.440698683261871338e-02 5.400666221976280212e-02 -9.849191457033157349e-02 -1.355472356081008911e-01 -4.097437858581542969e-02 2.368292808532714844e-01 4.770262837409973145e-01 1.922212988138198853e-01 2.034013569355010986e-01 4.482328146696090698e-02 -4.822838306427001953e-02 4.609299004077911377e-01 9.870689362287521362e-03 4.136107265949249268e-01 -1.867315769195556641e-01 8.390132337808609009e-02 1.742558032274246216e-01 4.245715439319610596e-01 -2.467615902423858643e-01 4.100750386714935303e-02 1.403322163969278336e-02 4.515359103679656982e-01 4.059777036309242249e-02 -5.948862805962562561e-02 1.999415457248687744e-02 3.245836123824119568e-02 -2.044032961130142212e-01 5.042307748226448894e-05 -1.106431335210800171e-02 -1.690415889024734497e-01 9.151436388492584229e-02 -7.647971063852310181e-02 1.784047186374664307e-01 -6.362950801849365234e-02 -4.640929028391838074e-02 2.362827025353908539e-02 -1.625219583511352539e-01 -5.026815459132194519e-02 3.691214919090270996e-01 2.347594946622848511e-01 -3.082346171140670776e-02 -3.603470325469970703e-02 -3.749095499515533447e-01 7.387331873178482056e-02 -1.087971404194831848e-02 -1.646688133478164673e-01 -4.143671691417694092e-02 -6.090087294578552246e-01 -3.330007493495941162e-01 -9.755711257457733154e-02 -1.534715015441179276e-02 -2.126015573740005493e-01 1.063980832695960999e-01 -1.951611018739640713e-03 -1.687344163656234741e-01 7.077124714851379395e-02 1.180663239210844040e-02 2.893375605344772339e-02 -1.599670648574829102e-01 -1.370626240968704224e-01 2.803935203701257706e-03 9.714426845312118530e-02 -2.392940223217010498e-01 1.118797883391380310e-01 -1.742987483739852905e-01 1.501646765973418951e-04 5.338548123836517334e-02 -9.009329974651336670e-02 -1.380859781056642532e-02 5.240877345204353333e-02 7.107540369033813477e-01 -2.587181925773620605e-01 1.476365476846694946e-01 1.541369056212715805e-05 -5.667735263705253601e-02 -4.543276429176330566e-01 -1.279494445770978928e-02
-9.249236434698104858e-02 3.591661453247070312e-01 1.986077222682069987e-05 -4.251731559634208679e-03 2.718162834644317627e-01 -4.340915009379386902e-02 -7.588231563568115234e-02 -4.426152631640434265e-02 3.330710232257843018e-01 -4.612369835376739502e-01 -1.285881735384464264e-02 2.761228382587432861e-01 -4.219538066536188126e-03 -1.144106462597846985e-01 3.391076326370239258e-01 -9.160976856946945190e-02 5.947186425328254700e-02 1.364601124078035355e-02 2.551810443401336670e-01 1.851201951503753662e-01 -3.699997365474700928e-01 1.398026794195175171e-01 -3.213937878608703613e-01 -7.673713564872741699e-02 -4.298332706093788147e-02 1.078689191490411758e-02 1.710027307271957397e-01 1.220836266875267029e-01 -5.177533030509948730e-01 -3.083562850952148438e-01 1.045104786753654480e-01 1.364180594682693481e-01 -4.539489164017140865e-04 6.626521348953247070e-01 -5.722115039825439453e-01 5.923156812787055969e-02 -3.884144127368927002e-01 -5.093328952789306641e-01 1.991571038961410522e-01 2.599734067916870117e-01 -9.640944190323352814e-03 -5.648032426834106445e-01 -5.706690549850463867e-01 -8.052314817905426025e-02 -3.612211942672729492e-01 -4.813228920102119446e-02 2.869761548936367035e-02 9.717811644077301025e-02 -1.496947556734085083e-02 5.719466507434844971e-02 -7.907632738351821899e-02 -1.144597083330154419e-01 4.459278192371129990e-03 1.250288188457489014e-01 -1.473574340343475342e-01 4.890082776546478271e-02 6.649382114410400391e-01 3.472291231155395508e-01 -4.447604417800903320e-01 1.859783232212066650e-01 5.711436271667480469e-02 9.247148036956787109e-02 2.381415665149688721e-01 5.225016269832849503e-03 -1.366854459047317505e-02 2.701713144779205322e-01 -4.549492150545120239e-02 9.535802155733108521e-02 -1.653169095516204834e-02 1.248667761683464050e-01 4.255351722240447998e-01 -9.707935154438018799e-02 3.056016564369201660e-02 -5.777288675308227539e-01 2.521384954452514648e-01 6.081328168511390686e-02 -1.201745006255805492e-03 3.403641581535339355e-01 -5.457508563995361328e-02 -3.683957830071449280e-02 -9.550482034683227539e-02 1.339902430772781372e-01 -2.746454179286956787e-01 -3.863177895545959473e-01 -5.439775586128234863e-01 4.738915339112281799e-02 -1.919938176870346069e-01 -5.158089846372604370e-02 -2.697064883250277489e-05 -2.160946279764175415e-01 1.089718043804168701e-01 4.284783825278282166e-02 4.615034908056259155e-02 -7.896812558174133301e-01 4.864214360713958740e-01 3.824088349938392639e-02 -2.511371299624443054e-02 -4.039101302623748779e-01 2.441276162862777710e-01 -7.938029617071151733e-02
-7.134510576725006104e-02 -3.053525686264038086e-01 -2.073808354907669127e-05 2.900026738643646240e-01 3.915378153324127197e-01 5.665978416800498962e-02 5.287885069847106934e-01 2.522241175174713135e-01 -6.168538704514503479e-02 9.306934475898742676e-02 -5.156353861093521118e-02 2.454022318124771118e-01 -8.488887548446655273e-02 8.180542290210723877e-02 -1.716875731945037842e-01 5.139715075492858887e-01 2.848417758941650391e-01 -1.088252663612365723e-01 -5.617297720164060593e-03 2.635073959827423096e-01 4.722413420677185059e-02 1.771692000329494476e-02 -2.171026468276977539e-01 3.578381240367889404e-01 9.352522343397140503e-02 -7.245424389839172363e-02 1.201736330986022949e-01 1.131284311413764954e-01 -1.297087501734495163e-02 3.714278712868690491e-02 -4.530722741037607193e-03 -1.160887032747268677e-01 -2.038992345333099365e-01 2.692926488816738129e-02 -1.194401830434799194e-01 -2.169322222471237183e-01 1.457778811454772949e-01 2.425933023914694786e-03 3.538615535944700241e-03 2.363032698631286621e-01 7.459121942520141602e-02 1.638676971197128296e-01 4.195810854434967041e-01 -1.506770998239517212e-01 -1.503678113222122192e-01 -2.786525487899780273e-01 3.175686299800872803e-01 -4.688244462013244629e-01 -1.058640554547309875e-01 1.274152398109436035e-01 -8.115503937005996704e-02 4.391974583268165588e-02 1.940490752458572388e-01 3.782191574573516846e-01 1.219641193747520447e-01 -7.345524430274963379e-01 -1.840056180953979492e-01 -2.932949066162109375e-01 -3.082877099514007568e-01 -1.184305828064680099e-02 -6.103755906224250793e-02 -6.372567266225814819e-03 -8.180654048919677734e-02 -9.412232786417007446e-02 4.130387604236602783e-01 1.420552469789981842e-02 2.576002478599548340e-01 1.055288314819335938e-02 4.944644123315811157e-02 -1.111500188708305359e-01 1.603305786848068237e-01 -2.909733653068542480e-01 -1.465146392583847046e-01 1.751781105995178223e-01 -1.354978680610656738e-01 6.283886730670928955e-02 -1.561731845140457153e-01 -4.229925572872161865e-01 2.426417469978332520e-01 -1.039133667945861816e-01 -9.967073053121566772e-02 -1.241640895605087280e-01 4.037748649716377258e-02 1.345281209796667099e-02 -3.329192101955413818e-02 -1.458357870578765869e-01 3.012315034866333008e-01 -4.420864570420235395e-06 -6.549397855997085571e-02 6.361847370862960815e-02 3.769849985837936401e-02 -9.836525470018386841e-02 3.886046707630157471e-01 -1.754008084535598755e-01 -4.420004785060882568e-03 1.679681372479535639e-05 3.912613913416862488e-02 -9.560744464397430420e-02 7.764768270135391504e-06 -1.344428255833918229e-05
1.148677431046962738e-03 1.242933720350265503e-01 -6.102897226810455322e-03 2.933609485626220703e-01 -9.353583306074142456e-02 -1.012475267052650452e-01 -3.201989531517028809e-01 -2.079368382692337036e-01 2.748040258884429932e-01 2.575942277908325195e-01 -3.676772117614746094e-01 6.384868756867945194e-04 1.676423400640487671e-01 3.794154524803161621e-02 -3.999089002609252930e-01 -3.777191340923309326e-01 -6.337093561887741089e-02 -1.482478925026953220e-03 2.072728276252746582e-01 1.011812910437583923e-01 -2.676555812358856201e-01 3.098212182521820068e-02 2.310582995414733887e-01 5.489513278007507324e-02 1.946032196283340454e-01 -2.165727466344833374e-01 3.452289998531341553e-01 4.018567502498626709e-01 2.956213355064392090e-01 7.144926488399505615e-02 1.812356859445571899e-01 2.484331130981445312e-01 2.002519518136978149e-01 2.182068228721618652e-01 1.719916760921478271e-01 -1.221457794308662415e-01 -7.976683229207992554e-02 -4.936448112130165100e-02 9.586273878812789917e-02 -4.731754958629608154e-02 -1.193808689713478088e-01 1.980504840612411499e-01 -3.789921104907989502e-02 1.291196197271347046e-01 1.670913100242614746e-01 1.119739338755607605e-01 -9.482023864984512329e-02 7.624627556651830673e-03 7.076764013618230820e-03 4.056262597441673279e-02 2.818844914436340332e-01 4.433378577232360840e-01 1.377392411231994629e-01 -1.591621786355972290e-01 -1.470971852540969849e-01 3.431482613086700439e-01 1.249444484710693359e-01 -2.377834618091583252e-01 3.076791577041149139e-02 4.398670494556427002e-01 -5.591036379337310791e-02 -6.121924519538879395e-02 -1.556460112333297729e-01 5.207391083240509033e-02 -1.332032531499862671e-01 -4.087950289249420166e-01 -1.667262166738510132e-01 -6.710921227931976318e-02 -1.258092932403087616e-02 -7.294029928743839264e-03 -1.715902239084243774e-01 4.105161130428314209e-01 1.776882261037826538e-02 6.737504154443740845e-02 -1.406785938888788223e-02 2.529101073741912842e-02 1.893812268972396851e-01 -1.733141988515853882e-01 -4.190522134304046631e-01 -3.769808262586593628e-02 2.395830154418945312e-01 1.744155138731002808e-01 2.236294001340866089e-01 -2.062010020017623901e-01 1.455124169588088989e-01 5.342682823538780212e-02 -4.122583661228418350e-03 8.967160433530807495e-02 5.478272959589958191e-02 -7.221794128417968750e-02 1.657676845788955688e-01 8.482164889574050903e-02 -3.210171163082122803e-01 6.144185662269592285e-01 -2.635645270347595215e-01 2.069246619939804077e-01 1.860429620137438178e-05 1.125129535794258118e-01 -1.432083249092102051e-01 3.822982311248779297e-01
2.634261362254619598e-02 1.830206811428070068e-01 2.063559804810211062e-05 2.024182826280593872e-01 -1.247291788458824158e-01 -2.431820034980773926e-01 -5.201314091682434082e-01 -1.707271039485931396e-01 -2.164900004863739014e-01 5.591882392764091492e-02 -1.066277325153350830e-01 -8.013223111629486084e-02 -1.880432367324829102e-01 1.020996794104576111e-01 1.346624922007322311e-02 -2.821712791919708252e-01 -1.413005888462066650e-01 2.771730907261371613e-02 -3.740063607692718506e-01 -1.521802395582199097e-01 -1.047865860164165497e-02 -1.595195829868316650e-01 -4.965695366263389587e-02 1.076389104127883911e-01 1.192788109183311462e-01 -1.829849034547805786e-01 -3.651985824108123779e-01 3.442000448703765869e-01 -1.977722942829132080e-01 2.058000862598419189e-01 1.585873216390609741e-01 -5.001253262162208557e-02 1.414700150489807129e-01 1.341052651405334473e-01 5.809683203697204590e-01 5.600405484437942505e-02 -1.853011697530746460e-01 -8.490548282861709595e-02 3.356705605983734131e-01 -1.142282262444496155e-01 9.626209735870361328e-03 -3.817513957619667053e-02 1.575116217136383057e-01 -9.212137013673782349e-02 1.891813576221466064e-01 2.652638219296932220e-02 2.491061203181743622e-02 2.375553175806999207e-02 -7.654883712530136108e-02 1.806735992431640625e-01 1.557432264089584351e-01 -1.543924212455749512e-01 2.144333273172378540e-01 -8.780051022768020630e-02 -1.773550063371658325e-01 2.106412649154663086e-01 -3.235179483890533447e-01 -1.097538396716117859e-01 3.666077554225921631e-02 5.706102773547172546e-02 -5.873585119843482971e-02 2.773173451423645020e-01 -3.985458314418792725e-01 -1.178172528743743896e-01 -7.239805907011032104e-02 -5.214121937751770020e-01 -1.905102431774139404e-01 4.059738814830780029e-01 2.458329079672694206e-03 5.883921985514461994e-04 -1.912951320409774780e-01 1.363215446472167969e-01 -1.775386184453964233e-01 -3.468835055828094482e-01 2.585194706916809082e-01 -3.502419888973236084e-01 -3.684362471103668213e-01 8.715869486331939697e-02 1.468710750341415405e-01 2.831963263452053070e-02 6.905033439397811890e-02 1.610844284296035767e-01 -4.900239035487174988e-02 2.254374697804450989e-02 -9.582702815532684326e-02 -1.551185250282287598e-01 4.923909902572631836e-02 6.147817149758338928e-02 1.291631907224655151e-01 1.144952885806560516e-02 -1.286015510559082031e-01 -2.798982858657836914e-01 -3.720438480377197266e-01 1.165699288249015808e-01 1.601578667759895325e-02 1.238464564085006714e-02 1.876068017736542970e-05 -2.879734635353088379e-01 -1.773193776607513428e-01 -1.179198101162910461e-01
-3.106777369976043701e-02 6.537564098834991455e-02 -1.702196459518745542e-05 2.224916219711303711e-02 -3.279635217040777206e-03 6.854154914617538452e-02 4.311672747135162354e-01 4.908970091491937637e-03 -1.077720522880554199e-01 -1.711886972188949585e-01 -5.856835097074508667e-02 -7.704636454582214355e-02 1.274854093790054321e-01 2.342084497213363647e-01 2.099689394235610962e-01 2.632336616516113281e-01 -2.117934855050407350e-05 -1.918268352746963501e-01 -8.000340312719345093e-03 -8.252737671136856079e-02 -4.846890270709991455e-02 1.615063250064849854e-01 -4.807262448593974113e-04 2.998110093176364899e-02 -1.578438282012939453e-02 -1.024201363325119019e-01 4.059536755084991455e-01 -3.393399119377136230e-01 -4.598912596702575684e-02 -5.069638043642044067e-02 -9.667313098907470703e-02 7.161801308393478394e-02 2.217343899246770889e-05 -1.921928226947784424e-01 -2.523578703403472900e-02 -1.744110137224197388e-01 1.601359248161315918e-01 3.818501532077789307e-02 1.504809260368347168e-01 7.190474122762680054e-02 2.100063413381576538e-01 -2.668457292020320892e-02 -2.172442376613616943e-01 2.672483921051025391e-01 1.884374916553497314e-01 3.973845243453979492e-01 4.406488314270973206e-02 -3.006640821695327759e-02 1.925030946731567383e-01 2.896097004413604736e-01 2.013403900491539389e-05 9.635877609252929688e-02 8.482307195663452148e-03 -1.489056367427110672e-02 3.933863341808319092e-01 -3.384312614798545837e-02 1.760889887809753418e-01 -3.406317830085754395e-01 9.863347560167312622e-02 2.468072921037673950e-01 -3.968149721622467041e-01 -1.442728444089880213e-05 -1.678837686777114868e-01 -2.443824559450149536e-01 -8.047728985548019409e-02 9.165470488369464874e-03 5.057059228420257568e-02 9.584661573171615601e-02 5.435064807534217834e-02 1.130513995885848999e-01 1.706172674894332886e-01 7.852745801210403442e-02 -5.270582810044288635e-02 4.389762505888938904e-02 -3.778155520558357239e-02 1.902236491441726685e-01 8.784712008491624147e-06 1.653860999795142561e-05 -4.473144933581352234e-02 1.031493470072746277e-01 -3.993748500943183899e-02 -1.772139519453048706e-01 4.303336936573032290e-06 3.216728568077087402e-01 -1.147127896547317505e-01 2.702087163925170898e-01 -4.651252925395965576e-02 -1.117287956731161103e-05 -1.112150475382804871e-01 -2.040549516677856445e-01 -2.854519188404083252e-01 -4.033160621474962682e-06 6.728778779506683350e-02 2.995733022689819336e-01 -1.294097900390625000e-01 -1.529735475778579712e-01 -1.627146048122085631e-05 -2.242733687162399292e-01 3.236001066397875547e-04 5.103025585412979126e-02
3.722373545169830322e-01 7.023999840021133423e-02 -1.881695970951113850e-05 -3.726156865013763309e-05 -1.081488579511642456e-01 1.099403202533721924e-02 3.656294569373130798e-02 3.495116233825683594e-01 3.006861516041681170e-05 -7.822340726852416992e-02 -2.975997631438076496e-05 2.400631783530116081e-03 2.207335091952700168e-05 2.429864980513229966e-05 -1.840380579233169556e-01 -2.775110304355621338e-01 -1.665133684873580933e-01 -5.604848731309175491e-03 3.006548583507537842e-01 5.190574005246162415e-02 -2.512615901650860906e-05 4.264055490493774414e-01 -2.888894975185394287e-01 -3.636445403099060059e-01 4.578295350074768066e-02 5.811293423175811768e-02 2.340373992919921875e-01 3.521349281072616577e-02 2.631966173648834229e-01 3.482776135206222534e-02 -2.752392319962382317e-03 4.981125704944133759e-03 1.984266600629780442e-05 -5.471559241414070129e-02 1.531186401844024658e-01 -3.653578460216522217e-01 -6.169150583446025848e-03 2.051215469837188721e-01 4.967724904417991638e-02 -1.102337986230850220e-02 -1.527583301067352295e-01 -2.394394762814044952e-02 2.907666265964508057e-01 -1.911098882555961609e-02 4.694589599967002869e-02 1.902045309543609619e-01 1.463341050111921504e-05 -1.291162669658660889e-01 2.502166479825973511e-02 -5.798435956239700317e-02 1.263515514438040555e-05 -1.955074816942214966e-02 -2.346024814414704451e-07 1.693190932273864746e-01 2.877171635627746582e-01 -3.314677815069444478e-05 1.634200960397720337e-01 2.474069595336914062e-02 5.059029161930084229e-02 2.168535254895687103e-02 -4.252957403659820557e-01 -1.385792195796966553e-01 1.742278337478637695e-01 -2.430403232574462891e-01 -9.036120027303695679e-04 -1.772886216640472412e-01 2.393291470070835203e-05 -8.047562092542648315e-03 3.438248112797737122e-02 8.788610994815826416e-02 1.587725419085472822e-04 2.599833905696868896e-01 7.940427213907241821e-02 1.993692964315414429e-01 -1.173227429389953613e-01 7.660149130970239639e-03 2.053215205669403076e-01 -2.775249443948268890e-02 2.161594602512195706e-05 1.273447275161743164e-02 -1.460321694612503052e-01 5.353711172938346863e-02 2.858896255493164062e-01 1.059090495109558105e-01 8.823611587285995483e-02 5.306773260235786438e-02 -2.457060851156711578e-02 -1.519119359727483243e-05 -1.152951419353485107e-01 -7.423558831214904785e-02 4.489102866500616074e-05 3.668800368905067444e-02 -2.330159954726696014e-02 6.533415317535400391e-01 -1.743169128894805908e-01 -1.016312018036842346e-01 -1.591486761753913015e-05 1.704498082399368286e-01 2.592316595837473869e-04 8.983047337096650153e-06
9.708997607231140137e-02 -4.342448338866233826e-02 7.160994755395222455e-06 -4.712466306955320761e-06 -2.818861305713653564e-01 -1.057547926902770996e-01 -2.897978015244007111e-02 1.158340051770210266e-01 -7.817815989255905151e-02 -8.826142549514770508e-02 -1.533591896295547485e-01 -3.013188540935516357e-01 3.565443456172943115e-01 -1.964789181947708130e-01 2.147031389176845551e-02 -6.363698095083236694e-02 -4.311167867854237556e-05 5.587053950875997543e-03 1.177506819367408752e-01 1.384070608764886856e-03 5.494757206179201603e-04 2.628620564937591553e-01 -9.104253695113584399e-05 -1.121636796597158536e-05 -2.078054100275039673e-01 6.118242815136909485e-02 5.266711115837097168e-02 2.228248305618762970e-02 -8.958676457405090332e-02 9.265292435884475708e-02 -6.072180345654487610e-03 -9.497753530740737915e-02 6.096110120415687561e-02 7.596272043883800507e-03 8.388169109821319580e-02 -2.670539319515228271e-01 -8.495309390127658844e-03 -1.130820289254188538e-01 2.174136489629745483e-01 1.883784830570220947e-01 -3.810023888945579529e-02 8.294354379177093506e-02 -4.042471647262573242e-01 3.805105760693550110e-02 2.909438312053680420e-01 4.140827432274818420e-02 -4.237530007958412170e-02 1.943127252161502838e-02 -2.158222645521163940e-01 3.842752277851104736e-01 5.573279395321151242e-06 7.861707359552383423e-02 1.771553605794906616e-02 -1.596113741397857666e-01 1.483610123395919800e-01 9.910794347524642944e-02 5.851926207542419434e-01 -1.637284308671951294e-01 -7.634886354207992554e-02 2.837094068527221680e-01 1.415934675605967641e-04 7.852341234683990479e-02 3.778160512447357178e-01 -1.968385875225067139e-01 -1.290887892246246338e-01 -7.971012592315673828e-01 6.417415534087922424e-06 1.114030852913856506e-01 -3.207093849778175354e-02 8.233312517404556274e-02 -5.176104903221130371e-01 -2.115859240293502808e-01 1.270764321088790894e-01 -2.733434140682220459e-01 2.759886719286441803e-02 -1.271135658025741577e-01 -8.087291568517684937e-02 -2.770029306411743164e-01 3.993211430497467518e-05 2.690590372367296368e-05 -2.319391444325447083e-02 1.527539938688278198e-01 1.307047437876462936e-02 -1.816536649130284786e-03 -5.902671441435813904e-02 -1.734771430492401123e-01 2.722840011119842529e-01 -1.797496952349320054e-05 9.764684364199638367e-06 3.945013135671615601e-02 -1.762958765029907227e-01 -1.013145074248313904e-01 -4.301153868436813354e-02 7.439343929290771484e-01 -5.688348039984703064e-02 -8.392026938963681459e-05 -9.628070074541028589e-07 4.415979981422424316e-02 -2.955011129379272461e-01 3.242558985948562622e-02
-1.731814295053482056e-01 3.331184759736061096e-02 4.684507803176529706e-05 1.893170177936553955e-01 -1.797473728656768799e-01 -3.814802467823028564e-01 -4.625176489353179932e-01 -1.199274882674217224e-01 -3.273488581180572510e-01 -3.895507454872131348e-01 1.604375690221786499e-01 -1.941447556018829346e-01 1.649815738201141357e-01 -1.220992133021354675e-01 -1.405029296875000000e-01 1.587554812431335449e-02 1.289842277765274048e-01 -7.234788965433835983e-03 8.995445817708969116e-02 3.050848245620727539e-01 -2.224151194095611572e-01 4.506885260343551636e-02 -2.094159722328186035e-01 4.846747592091560364e-02 5.850020647048950195e-01 1.743544042110443115e-01 2.835232615470886230e-01 3.276083171367645264e-01 -2.390239834785461426e-01 -1.828415393829345703e-01 -1.346758306026458740e-01 8.787850290536880493e-02 -3.566199447959661484e-03 3.916330039501190186e-01 -9.924813359975814819e-02 -1.819442331907339394e-06 -2.852335274219512939e-01 -4.676439464092254639e-01 1.954997479915618896e-01 3.693237900733947754e-02 -2.205530852079391479e-01 3.116735443472862244e-02 -8.536702953279018402e-03 1.290981844067573547e-02 1.204529032111167908e-02 2.506425417959690094e-02 -1.076497846952406690e-05 -5.356305278837680817e-03 1.605222350917756557e-03 -5.042748898267745972e-02 -4.285432770848274231e-02 -3.035081681446172297e-05 1.213718056678771973e-01 -2.481060475111007690e-01 -3.288005888462066650e-01 2.461984902620315552e-01 -1.696583777666091919e-01 -1.570971012115478516e-01 -9.554979205131530762e-02 4.192901849746704102e-01 9.507079422473907471e-02 1.130118593573570251e-01 3.409226536750793457e-01 -5.241199210286140442e-02 -1.989606618881225586e-01 -1.490459591150283813e-01 -1.504441350698471069e-01 -9.276543557643890381e-02 1.602603495121002197e-01 3.794924914836883545e-01 -9.539136290550231934e-02 -9.306422621011734009e-02 -1.212199106812477112e-01 -6.181790828704833984e-01 1.963179558515548706e-01 2.525738999247550964e-02 -3.249768633395433426e-03 5.296338200569152832e-01 -3.047478757798671722e-02 -3.155776858329772949e-02 1.212688237428665161e-01 -4.089851398020982742e-03 1.090000290423631668e-02 -3.087546527385711670e-01 1.214934854942839593e-06 4.002335295081138611e-02 -3.019793629646301270e-01 -4.377659410238265991e-02 -1.931714177771937102e-05 -3.601582646369934082e-01 1.755429655313491821e-01 2.261624187231063843e-01 3.657511994242668152e-02 4.728095829486846924e-01 -1.063838079571723938e-01 -1.023807004094123840e-02 4.884379814029671252e-05 -3.860028088092803955e-01 5.640305113047361374e-03 -3.355906903743743896e-02
3.500711871311068535e-03 -8.803183585405349731e-02 -1.145074384112376720e-05 -1.127624958753585815e-01 2.530153989791870117e-01 -1.883192658424377441e-01 2.960382401943206787e-01 -2.789609432220458984e-01 3.674075752496719360e-02 -1.284682601690292358e-01 1.474456638097763062e-01 5.247272253036499023e-01 -2.015096545219421387e-01 -2.031526565551757812e-01 2.005932480096817017e-01 2.715874910354614258e-01 1.179352849721908569e-01 -1.244927421212196350e-01 3.680432215332984924e-02 3.779971273615956306e-03 -4.647684097290039062e-02 1.786238849163055420e-01 1.130507960915565491e-01 -2.059568911790847778e-01 2.155042588710784912e-01 1.981206983327865601e-01 -2.332425490021705627e-02 3.724917041836306453e-05 6.214260682463645935e-02 -8.638517558574676514e-02 1.446056514978408813e-01 2.978036552667617798e-02 -4.735673719551414251e-04 8.650387823581695557e-02 -2.661103606224060059e-01 -2.869368791580200195e-01 -1.010078266263008118e-01 -1.110951900482177734e-01 -5.323864817619323730e-01 2.465473562479019165e-01 -2.125191092491149902e-01 -2.218564152717590332e-01 -4.207913950085639954e-02 -4.043360054492950439e-01 -1.195341646671295166e-01 1.086945012211799622e-01 8.338859677314758301e-02 -1.155291870236396790e-02 -2.692964699235744774e-05 -1.222475543618202209e-01 2.922731709986692294e-07 -3.252339065074920654e-01 -2.678105235099792480e-01 1.071582287549972534e-01 -2.814565002918243408e-01 -3.782205749303102493e-03 3.688507527112960815e-02 3.246387243270874023e-01 1.666215509176254272e-01 -2.416496537625789642e-02 -9.957821667194366455e-02 1.908710598945617676e-01 2.958668768405914307e-01 2.536555257393047214e-05 2.408685088157653809e-01 9.640077948570251465e-01 -6.460321601480245590e-03 -4.144133627414703369e-02 6.083878502249717712e-02 -8.936650305986404419e-02 3.886905014514923096e-01 -5.268002748489379883e-01 -1.061528101563453674e-01 -1.054129078984260559e-01 -5.097736716270446777e-01 3.261818364262580872e-02 1.567461639642715454e-01 1.444108635187149048e-01 1.403484027832746506e-02 6.207674741744995117e-02 1.532280594110488892e-01 -2.759030759334564209e-01 -1.349649876356124878e-01 -1.895072013139724731e-01 -2.979979151859879494e-03 1.483208388090133667e-01 2.680841684341430664e-01 1.271394648938439786e-05 -2.250275015830993652e-02 -1.009101420640945435e-01 -4.144509434700012207e-01 3.363239169120788574e-01 9.549886733293533325e-02 -4.634648561477661133e-01 2.461086213588714600e-02 2.235293835401535034e-01 -4.267299118509981781e-06 -2.247830331325531006e-01 6.768094748258590698e-02 -4.631621241569519043e-01
-2.126236408948898315e-01 -2.152874618768692017e-01 -1.212824281537905335e-05 -2.945864945650100708e-02 4.720878899097442627e-01 -3.154853358864784241e-02 5.297770351171493530e-02 2.862413227558135986e-01 1.646549999713897705e-01 1.152417734265327454e-01 1.405256539583206177e-01 3.900017440319061279e-01 -6.187353748828172684e-03 3.573881834745407104e-02 -1.839627884328365326e-02 4.931749776005744934e-03 -1.593665331602096558e-01 -6.192964315414428711e-02 1.468248963356018066e-01 -2.173355408012866974e-02 3.033620119094848633e-02 2.126799225807189941e-01 2.855437994003295898e-01 9.151807427406311035e-02 -3.032926656305789948e-02 -1.182371303439140320e-01 -1.123722549527883530e-02 6.217452511191368103e-02 3.386626839637756348e-01 -4.634846746921539307e-01 3.865298256278038025e-02 5.236001312732696533e-02 -2.877358794212341309e-01 1.376723498106002808e-01 -3.352949279360473156e-04 -8.469720929861068726e-02 5.000984296202659607e-03 -1.256974488496780396e-01 -1.621431410312652588e-01 9.791474789381027222e-02 1.013054028153419495e-01 -6.152284741401672363e-01 -9.661753475666046143e-02 -1.746824532747268677e-01 -2.132161110639572144e-01 -3.937615454196929932e-02 -3.241437952965497971e-03 -1.172197386622428894e-01 3.161224722862243652e-01 -1.767332851886749268e-02 1.870031701400876045e-05 -3.394268751144409180e-01 -4.406609237194061279e-01 2.284994870424270630e-01 -3.612382337450981140e-02 2.780481800436973572e-02 -7.718476653099060059e-02 2.029445469379425049e-01 3.695419430732727051e-01 -4.791111499071121216e-02 -1.050935015082359314e-01 9.333255887031555176e-02 2.037741796812042594e-04 -3.008637018501758575e-02 2.300519645214080811e-01 7.047243714332580566e-01 -8.616049587726593018e-02 -2.018324732780456543e-01 1.640413552522659302e-01 -1.650479137897491455e-01 2.418942898511886597e-01 -2.793075144290924072e-01 5.728533118963241577e-02 3.596422970294952393e-01 -3.234199285507202148e-01 8.285965770483016968e-02 2.476987540721893311e-01 3.374832868576049805e-01 2.469608634710311890e-01 6.850040790595812723e-06 9.634894132614135742e-02 -1.411174535751342773e-01 -1.410210728645324707e-01 -4.367446005344390869e-01 2.546058567531872541e-06 -1.705388575792312622e-01 1.510990783572196960e-03 -1.239043846726417542e-02 -3.975460003857733682e-06 -3.556343317031860352e-01 -1.042264886200428009e-02 2.822340428829193115e-01 3.606063127517700195e-02 -2.681180834770202637e-01 1.197587624192237854e-01 3.095533251762390137e-01 -4.542950136965373531e-06 -1.863458007574081421e-01 1.805998831987380981e-01 -3.958797752857208252e-01
5.432059522718191147e-03 1.791880279779434204e-01 3.861921413772506639e-06 1.506262196926400065e-05 7.486981749534606934e-01 1.415120495948940516e-04 2.108522206544876099e-01 4.797425493597984314e-02 2.931951284408569336e-01 2.030232176184654236e-02 2.150138765573501587e-01 -1.426007896661758423e-01 -2.027974091470241547e-02 2.833312451839447021e-01 -2.513729631900787354e-01 3.730879351496696472e-02 -1.366197019815444946e-01 4.064732929691672325e-04 -4.909994095214642584e-05 6.447891891002655029e-02 2.130814573320094496e-05 -2.633194923400878906e-01 -1.421203762292861938e-01 -1.351548880338668823e-01 2.508172094821929932e-01 -1.395457386970520020e-01 -3.795659542083740234e-01 -3.442623019218444824e-01 2.179029732942581177e-01 -3.057916462421417236e-01 8.790832012891769409e-02 1.779427379369735718e-01 2.403406688245013356e-05 1.242508143186569214e-01 1.874042674899101257e-02 -3.804602101445198059e-02 3.510712981224060059e-01 -4.233034327626228333e-02 -5.674201995134353638e-03 3.578653931617736816e-01 9.563609212636947632e-02 -2.389513701200485229e-01 -1.651562154293060303e-01 -2.517359098419547081e-03 -8.126190304756164551e-02 -1.801210083067417145e-02 1.303661018610000610e-01 -3.626571893692016602e-01 8.482261002063751221e-02 1.453888416290283203e-01 2.962739393115043640e-02 -9.521804749965667725e-02 -1.293730884790420532e-01 1.994045823812484741e-02 4.775622114539146423e-02 -1.086712405085563660e-01 -5.691947415471076965e-02 -5.905023217201232910e-02 -1.064854767173528671e-02 -8.719481527805328369e-02 2.607765495777130127e-01 9.907149069476872683e-05 -3.638168796896934509e-02 -3.321100175380706787e-01 2.010776102542877197e-01 4.564103484153747559e-01 6.422662734985351562e-02 6.648009642958641052e-03 -4.706529155373573303e-02 -1.226358711719512939e-01 8.301692456007003784e-02 -5.955317020416259766e-01 2.910496108233928680e-02 2.100075185298919678e-01 6.269564479589462280e-02 -4.306500405073165894e-02 -5.540715530514717102e-02 -4.143091384321451187e-03 6.522840261459350586e-02 1.868181116878986359e-02 7.111109880497679114e-05 -1.030506119132041931e-01 -1.619942635297775269e-01 -4.461125656962394714e-02 -6.269582360982894897e-02 2.145085716620087624e-03 1.990018934011459351e-01 1.963521754078101367e-05 1.784238666296005249e-01 -2.100175060331821442e-02 -7.527989149093627930e-02 2.074852958321571350e-02 4.708605110645294189e-01 -3.376989960670471191e-01 1.207304596900939941e-01 6.305499374866485596e-02 1.128078110923524946e-05 -3.172519505023956299e-01 5.189875606447458267e-03 1.736106425523757935e-01
6.583070158958435059e-01 2.492527663707733154e-02 -3.691902747959829867e-06 -2.096182480454444885e-02 1.595149636268615723e-01 5.285798033582977951e-05 -4.166235029697418213e-02 -1.056378096109256148e-07 -3.354382887482643127e-02 3.965801298618316650e-01 -3.865186572074890137e-01 -5.981061458587646484e-01 3.737862408161163330e-02 4.558751881122589111e-01 -1.246799230575561523e-01 -1.877100467681884766e-01 -1.144235429819673300e-04 2.195084244012832642e-01 -1.691225320100784302e-01 -5.205726027488708496e-01 8.838378562359139323e-07 -1.197732686996459961e-01 -1.095306215574964881e-04 2.851610481739044189e-01 -2.692859470844268799e-01 -5.229417234659194946e-02 -3.620823025703430176e-01 1.441634446382522583e-01 7.377161830663681030e-02 2.025455981492996216e-02 -4.598000273108482361e-02 8.885154873132705688e-02 1.188239380717277527e-01 -8.182694017887115479e-02 3.229975402355194092e-01 3.326140716671943665e-02 -1.099058333784341812e-02 2.635571956634521484e-01 1.580709069967269897e-01 -1.853345185518264771e-01 4.140360057353973389e-01 -4.878322407603263855e-02 3.877238929271697998e-01 -2.169962413609027863e-02 2.359515726566314697e-01 -8.273417502641677856e-02 -7.180024683475494385e-02 1.248065456748008728e-01 2.582406401634216309e-01 -1.908131688833236694e-01 1.485476084053516388e-02 8.401127904653549194e-02 3.248300927225500345e-04 -3.244529664516448975e-01 3.510105311870574951e-01 6.011015502735972404e-04 -3.264767229557037354e-01 -6.614772230386734009e-02 -7.899354211986064911e-03 -1.125176772475242615e-01 1.529039721935987473e-02 1.473059058189392090e-01 -1.519798040390014648e-01 5.832465467392466962e-05 1.123710647225379944e-01 -8.595358133316040039e-01 -4.243889078497886658e-02 4.024695605039596558e-02 -8.680236642248928547e-04 -6.417267024517059326e-02 -8.040457367897033691e-01 -1.283549517393112183e-02 4.759717732667922974e-03 3.196540176868438721e-01 -1.140118688344955444e-01 3.545489534735679626e-02 2.619670331478118896e-02 -4.364784359931945801e-01 2.964372038841247559e-01 1.299127042293548584e-01 9.073982015252113342e-03 2.116940170526504517e-01 5.187790957279503345e-04 2.191476672887802124e-01 1.368812024593353271e-01 -1.280605345964431763e-01 2.675824463367462158e-01 -1.927397534018382430e-05 4.632596755982376635e-05 9.022621065378189087e-02 7.455763220787048340e-02 -6.104377657175064087e-02 -2.629209160804748535e-01 5.046753883361816406e-01 -3.923874795436859131e-01 -4.616159014403820038e-03 -1.225970027007861063e-05 2.571771144866943359e-01 -3.429797887802124023e-01 -2.331420546397566795e-05
-3.446047306060791016e-01 5.404365062713623047e-01 -1.468486618250608444e-02 2.401515245437622070e-01 -2.638811767101287842e-01 3.331212401390075684e-01 2.373637706041336060e-01 1.810362190008163452e-01 -5.797050148248672485e-02 -6.508728265762329102e-01 1.506457924842834473e-01 7.007749676704406738e-01 1.688056737184524536e-01 -5.359718799591064453e-01 3.564542829990386963e-01 -1.767917275428771973e-01 -1.690877377986907959e-01 -1.293318867683410645e-01 1.110148504376411438e-01 5.649912357330322266e-01 -8.742281794548034668e-02 1.141921093221753836e-04 -1.367088109254837036e-01 -4.881281852722167969e-01 2.573867142200469971e-01 -2.078097313642501831e-01 6.513073444366455078e-01 -1.180880069732666016e-01 -7.007692009210586548e-02 -1.007249020040035248e-02 2.535494863986968994e-01 -6.934750080108642578e-02 -9.817723184823989868e-02 -1.723840087652206421e-01 -4.176529347896575928e-01 -1.073365956544876099e-01 -5.150541067123413086e-01 -3.560227751731872559e-01 2.246801108121871948e-01 -5.349779874086380005e-02 -5.420215725898742676e-01 2.452560216188430786e-01 -1.759088635444641113e-01 1.164807751774787903e-01 -4.656897783279418945e-01 4.717087149620056152e-01 2.780376188457012177e-02 -4.350907169282436371e-03 -1.808485686779022217e-01 3.972942829132080078e-01 -5.959146074019372463e-05 2.846682667732238770e-01 1.136085838079452515e-01 -2.434319350868463516e-03 5.849353596568107605e-02 -1.447184234857559204e-01 4.039666056632995605e-01 1.330276876688003540e-01 3.902260959148406982e-01 4.903220236301422119e-01 -3.476857244968414307e-01 -2.777238488197326660e-01 4.783671200275421143e-01 -6.944166123867034912e-02 -6.876270473003387451e-02 9.067323803901672363e-01 1.951350569725036621e-01 -9.254664182662963867e-02 4.008759856224060059e-01 8.002535104751586914e-01 9.895839691162109375e-01 2.963089346885681152e-01 7.135038822889328003e-02 -6.972847133874893188e-02 1.593877375125885010e-01 -2.580551505088806152e-01 2.096397280693054199e-01 -1.564570665359497070e-01 2.678208611905574799e-02 5.396524071693420410e-02 -1.318772137165069580e-01 2.644132673740386963e-01 5.710493028163909912e-02 -3.700762987136840820e-02 -4.873029589653015137e-01 1.152910478413105011e-02 -1.832587867975234985e-01 -1.699186395853757858e-05 -4.917245730757713318e-02 -2.420761734247207642e-01 -2.973229289054870605e-01 2.344330213963985443e-02 9.813328273594379425e-03 -5.484307408332824707e-01 6.982676684856414795e-03 -6.064073368906974792e-02 -2.292625867994502187e-05 -2.145349979400634766e-01 4.549169540405273438e-01 -2.086844593286514282e-01
-3.596974015235900879e-01 -2.151334136724472046e-01 2.664420026121661067e-05 1.373751182109117508e-02 -2.795361876487731934e-01 -5.345267802476882935e-02 -2.274750173091888428e-01 -3.940077722072601318e-01 3.780266940593719482e-01 7.078549358993768692e-03 -3.418166041374206543e-01 -1.194638386368751526e-01 -1.635862886905670166e-01 -1.078315898776054382e-01 8.873372524976730347e-02 -3.500431776046752930e-01 2.220348505943547934e-05 -4.463605291675776243e-04 -3.689499199390411377e-01 2.741607129573822021e-01 -6.698973942548036575e-03 -2.949486076831817627e-01 5.332276970148086548e-02 8.870616555213928223e-02 -2.163405567407608032e-01 2.561883032321929932e-01 8.777485229074954987e-03 1.093174889683723450e-01 1.136196624429430813e-05 -6.852403283119201660e-02 2.789942026138305664e-01 4.504995048046112061e-02 6.831385940313339233e-02 1.809364706277847290e-01 5.159072950482368469e-02 1.506299227476119995e-01 -2.144522517919540405e-01 -1.596411168575286865e-01 -1.942637115716934204e-01 8.222615718841552734e-02 1.034302487969398499e-01 1.292142421007156372e-01 -2.252354472875595093e-01 7.436643540859222412e-02 2.268162183463573456e-02 -4.085962474346160889e-01 1.826639026403427124e-01 2.656152844429016113e-01 2.398374974727630615e-01 -7.870048284530639648e-02 -4.768845246871933341e-05 2.097896635532379150e-01 2.838663458824157715e-01 -6.315750535577535629e-03 -1.617132313549518585e-02 3.730221688747406006e-01 -8.025638014078140259e-02 1.251616328954696655e-01 -1.253478974103927612e-01 2.222257666289806366e-02 1.183123290538787842e-01 2.824929952621459961e-01 2.278320640325546265e-01 -8.722722530364990234e-02 3.787918016314506531e-02 -2.011121958494186401e-01 -5.833856761455535889e-02 3.273411691188812256e-01 2.338685244321823120e-01 8.936765044927597046e-02 8.873253315687179565e-02 1.374800801277160645e-01 -4.482701048254966736e-02 -7.367930561304092407e-02 2.594878673553466797e-01 -4.999633133411407471e-02 -1.674993932247161865e-01 2.343210726976394653e-01 -6.651892513036727905e-02 -9.015950374305248260e-03 -7.481809734599664807e-05 1.832314431667327881e-01 1.010685935616493225e-01 -1.555019298393744975e-05 -2.150940895080566406e-01 5.013390327803790569e-04 -1.534209847450256348e-01 1.198641166411107406e-05 -9.960452094674110413e-03 5.894259629712905735e-06 -8.567440509796142578e-02 -6.068805232644081116e-02 -1.916676610708236694e-01 -2.395869791507720947e-02 -2.166142016649246216e-01 -4.890852421522140503e-02 2.775235589069779962e-05 -1.267400383949279785e-02 -1.594511419534683228e-01 1.237667500972747803e-01
7.791798114776611328e-01 1.730929315090179443e-01 6.006575858918949962e-06 -1.105113979429006577e-02 -1.820724606513977051e-01 5.853196489624679089e-05 -1.409944333136081696e-02 1.769877821207046509e-01 2.797724604606628418e-01 -4.248033091425895691e-02 -5.774880051612854004e-01 -4.367127120494842529e-01 1.254684329032897949e-01 5.944099426269531250e-01 1.260430663824081421e-01 -8.929123729467391968e-02 -7.912581349955871701e-05 -1.161877512931823730e-01 1.615861058235168457e-01 -3.354581892490386963e-01 1.547483354806900024e-01 -1.286098062992095947e-01 -3.961729630827903748e-02 -2.528309226036071777e-01 2.099840094160754234e-05 -5.538257755688391626e-05 1.392479836940765381e-01 -3.541650176048278809e-01 6.481055635958909988e-03 2.621152698993682861e-01 -3.323390781879425049e-01 1.634447574615478516e-01 3.440963849425315857e-02 1.074802353978157043e-01 9.427659511566162109e-01 5.171976611018180847e-02 5.474118515849113464e-02 -2.957999110221862793e-01 4.072779119014739990e-01 6.263124942779541016e-02 6.098405122756958008e-01 1.154555939137935638e-02 2.124724835157394409e-01 1.192240864038467407e-01 4.778993781656026840e-03 -1.717142164707183838e-01 2.903161048889160156e-01 3.876597061753273010e-02 -3.368782252073287964e-02 1.210108473896980286e-01 4.726065162685699761e-05 1.761840432882308960e-01 2.545458972454071045e-01 8.912957459688186646e-02 4.662304222583770752e-01 9.590438008308410645e-02 1.502657532691955566e-01 -3.585271239280700684e-01 -2.271517962217330933e-01 3.300620019435882568e-01 2.657388709485530853e-02 7.179614156484603882e-02 5.248726531863212585e-02 4.117989167571067810e-02 -1.024680212140083313e-01 -1.153693199157714844e+00 1.041460856795310974e-01 -2.659024670720100403e-02 -4.300487637519836426e-01 -1.516098082065582275e-01 -7.096543908119201660e-01 -4.224003478884696960e-02 1.014377847313880920e-01 -2.143173515796661377e-01 -1.484619826078414917e-02 1.168968155980110168e-02 -5.027225241065025330e-03 -5.421877373009920120e-03 -3.726667538285255432e-02 1.725160703063011169e-02 1.638574758544564247e-06 -7.539211306720972061e-03 7.772022485733032227e-02 7.777135074138641357e-02 -8.459667861461639404e-02 -2.622295320034027100e-01 -1.587998718023300171e-01 -1.440338655811501667e-05 2.764993041637353599e-05 -9.321324527263641357e-02 9.836394339799880981e-02 -2.332801520824432373e-01 2.038961797952651978e-01 6.145008206367492676e-01 -2.971741557121276855e-01 -1.977305859327316284e-01 -1.244759005203377455e-06 2.114261835813522339e-01 -8.546240329742431641e-01 2.484450787305831909e-01
3.467952609062194824e-01 -2.834621071815490723e-01 8.780009011388756335e-06 4.535134881734848022e-03 -1.663243956863880157e-02 1.057466790080070496e-01 -1.454375777393579483e-02 -1.230465471744537354e-01 2.119544296874664724e-05 4.244879260659217834e-02 -4.469441473484039307e-01 -5.936309695243835449e-01 2.407482564449310303e-01 2.571198940277099609e-01 1.767191737890243530e-01 6.258696317672729492e-02 3.233110532164573669e-02 -2.338461428880691528e-01 -1.847946494817733765e-01 -4.113374352455139160e-01 1.965181082487106323e-01 -1.798689365386962891e-01 1.455560624599456787e-01 3.022290207445621490e-02 -4.026148021221160889e-01 9.863071143627166748e-02 -1.156574487686157227e-01 2.906830422580242157e-02 -2.970125339925289154e-02 -1.003138720989227295e-02 -4.276097118854522705e-01 -2.330566346645355225e-01 -3.291692584753036499e-02 8.245603740215301514e-02 3.026820123195648193e-01 9.585311263799667358e-02 2.215610444545745850e-01 1.878380030393600464e-01 1.972851753234863281e-01 6.317020952701568604e-02 3.387719094753265381e-01 -1.535002291202545166e-01 -1.596060842275619507e-01 -3.109904825687408447e-01 3.080185949802398682e-01 -3.039305098354816437e-03 -6.191381812095642090e-02 1.830987632274627686e-01 -2.430199086666107178e-01 3.760069906711578369e-01 2.449595922371372581e-05 -2.353585511445999146e-01 2.370549887418746948e-01 1.292657572776079178e-02 3.246318548917770386e-02 6.148662790656089783e-02 -2.147731781005859375e-01 -2.198945730924606323e-01 -4.685770869255065918e-01 -1.349029541015625000e-01 4.534189356490969658e-04 1.335020512342453003e-01 1.014235094189643860e-01 3.176833987236022949e-01 -3.452747315168380737e-02 -1.271524906158447266e+00 -1.773098111152648926e-02 -7.584282755851745605e-02 -3.038879632949829102e-01 -6.516472250223159790e-02 -4.458596706390380859e-01 -2.875021994113922119e-01 3.347989171743392944e-02 -1.182883679866790771e-01 2.584466934204101562e-01 -6.252907961606979370e-02 1.217856537550687790e-02 -1.864945143461227417e-02 -1.186146661639213562e-01 3.499999642372131348e-03 1.398446038365364075e-02 -1.054921746253967285e-01 -8.269727975130081177e-02 -1.860731989145278931e-01 -1.842510104179382324e-01 3.228620886802673340e-01 3.985529243946075439e-01 -1.576876820763573050e-05 -4.966136068105697632e-03 -2.343593910336494446e-02 2.488169372081756592e-01 -1.789416670799255371e-01 9.310991317033767700e-02 3.565461933612823486e-01 4.046875610947608948e-02 9.969599545001983643e-02 -1.032509356737136841e-01 2.793682217597961426e-01 -3.706618845462799072e-01 1.612606495618820190e-01
4.934453219175338745e-02 -2.162715047597885132e-01 2.926571323769167066e-05 1.853008987382054329e-03 -1.792655326426029205e-02 -3.032643198966979980e-01 -2.385330647230148315e-01 -2.226406931877136230e-01 9.918547421693801880e-02 -3.030911646783351898e-02 -1.240838989615440369e-01 -1.076908782124519348e-01 1.603648364543914795e-01 1.695448905229568481e-01 -1.126967146992683411e-01 -1.310349851846694946e-01 1.908169388771057129e-01 2.040546238422393799e-01 -4.446520209312438965e-01 -2.753355205059051514e-01 -2.541220560669898987e-02 -1.061228588223457336e-01 6.004431471228599548e-02 5.731910094618797302e-02 -4.321083128452301025e-01 2.752500474452972412e-01 -4.368313848972320557e-01 3.367323055863380432e-02 8.366140536963939667e-03 6.349202245473861694e-02 8.615470677614212036e-02 3.321455419063568115e-01 2.102843075990676880e-01 4.541324973106384277e-01 8.892245590686798096e-02 2.528198957443237305e-01 -2.870371341705322266e-01 -7.350134849548339844e-02 1.990637779235839844e-01 -4.421206414699554443e-01 1.839429736137390137e-01 5.060240253806114197e-02 -1.066897585988044739e-01 -2.152086496353149414e-01 4.234050512313842773e-01 -3.046489357948303223e-01 1.926297992467880249e-01 1.814701110124588013e-01 -9.265784919261932373e-02 -2.015208452939987183e-02 -4.571042489260435104e-03 -9.499311447143554688e-03 6.011060997843742371e-02 -4.036855399608612061e-01 -1.180440038442611694e-01 3.383359909057617188e-01 -4.136520624160766602e-01 2.885403335094451904e-01 -1.619380861520767212e-01 -1.785433292388916016e-01 1.944531053304672241e-01 3.590300977230072021e-01 -1.390604227781295776e-01 1.974148117005825043e-02 -1.052022203803062439e-01 -3.756732642650604248e-01 -2.902852594852447510e-01 -5.851023644208908081e-02 -2.075874805450439453e-02 -1.381843686103820801e-01 -6.421032547950744629e-02 -1.279558092355728149e-01 1.938742995262145996e-01 4.990009218454360962e-02 8.998276293277740479e-02 -2.144157700240612030e-02 4.520448390394449234e-03 -1.690637320280075073e-01 -2.598561160266399384e-02 2.313551157712936401e-01 2.483204156160354614e-01 2.943496406078338623e-01 1.585892140865325928e-01 -2.534804940223693848e-01 7.181166112422943115e-02 -2.527779638767242432e-01 -1.200679764151573181e-01 2.000556742132175714e-05 2.853864617645740509e-02 -1.790300607681274414e-01 -6.002105772495269775e-02 -5.422173440456390381e-02 -2.510727941989898682e-01 -7.808423042297363281e-02 2.560294866561889648e-01 1.091044992208480835e-01 2.923413012467790395e-05 -2.718077898025512695e-01 -2.502082586288452148e-01 2.081321328878402710e-01
-1.587174832820892334e-02 1.500090509653091431e-01 8.554563464713282883e-06 2.318915911018848419e-03 -2.508259713649749756e-01 -1.470826864242553711e-01 -1.069292575120925903e-01 3.850122168660163879e-02 -9.038911014795303345e-02 1.890942081809043884e-02 -1.465760357677936554e-02 1.437679678201675415e-01 -5.375503003597259521e-02 -3.044945597648620605e-01 1.412388086318969727e-01 -2.685283124446868896e-01 1.314186010858975351e-05 5.243076011538505554e-02 8.715788275003433228e-02 3.363237157464027405e-02 -4.936328157782554626e-03 3.913784027099609375e-01 2.280695140361785889e-01 -6.985136121511459351e-02 7.135464251041412354e-02 -1.154602468013763428e-01 -1.037275046110153198e-01 2.416687756776809692e-01 3.673331812024116516e-02 3.955740854144096375e-02 -1.878108233213424683e-01 -1.251958310604095459e-01 7.044538110494613647e-02 2.440317906439304352e-02 3.518167138099670410e-02 -1.192555297166109085e-02 -6.000522058457136154e-03 -3.114528357982635498e-01 -1.066951081156730652e-01 3.634756505489349365e-01 3.600088894017972052e-05 2.733978927135467529e-01 -1.925384551286697388e-01 6.702887266874313354e-02 4.415736198425292969e-01 2.568340003490447998e-01 -2.547647058963775635e-01 -1.559574455022811890e-01 -1.030577793717384338e-01 3.453445732593536377e-01 -7.071781874401494861e-05 -1.836060136556625366e-01 6.431297212839126587e-02 -2.125504165887832642e-01 2.688404023647308350e-01 1.045381501317024231e-01 2.657862007617950439e-01 -2.926765680313110352e-01 -4.348703660070896149e-03 4.045597910881042480e-01 -1.025103703141212463e-01 -4.986366257071495056e-02 3.961746990680694580e-01 -2.084207385778427124e-01 -2.664232254028320312e-01 -5.208626985549926758e-01 -1.817770680645480752e-06 -3.300086855888366699e-01 -1.701587140560150146e-01 2.122868448495864868e-01 1.715238839387893677e-01 5.227724313735961914e-01 2.253842502832412720e-01 -1.021320670843124390e-01 3.737406805157661438e-02 -9.107249975204467773e-02 6.345883011817932129e-02 1.906734704971313477e-01 -9.608376026153564453e-02 -5.202434584498405457e-02 -1.004905402660369873e-01 3.026940524578094482e-01 1.614806801080703735e-01 -4.158688170718960464e-05 -3.379296958446502686e-01 -9.363347664475440979e-03 1.170916855335235596e-01 -1.894222805276513100e-05 -1.428059395402669907e-02 -8.415875956416130066e-03 2.741446495056152344e-01 -9.148531407117843628e-02 -3.486820459365844727e-01 5.223034024238586426e-01 1.556293666362762451e-01 6.479695439338684082e-02 -5.731153115630149841e-02 3.455904498696327209e-02 -2.308278381824493408e-01 1.789081434253603220e-04
-2.608855664730072021e-01 -1.558588119223713875e-03 -3.527496301103383303e-05 2.146560326218605042e-02 -1.049467921257019043e-01 1.459212005138397217e-01 2.588593363761901855e-01 6.559126973152160645e-01 7.690547406673431396e-02 -4.591681528836488724e-03 2.981746494770050049e-01 -1.099136024713516235e-01 1.776180565357208252e-01 -1.914523839950561523e-01 1.649255901575088501e-01 5.079571157693862915e-02 -2.454404420859646052e-05 -1.642426103353500366e-01 4.339670389890670776e-02 2.175310626626014709e-02 1.827047169208526611e-01 2.285595536231994629e-01 -8.353040367364883423e-02 9.146881848573684692e-02 -1.164349243044853210e-01 -9.207418560981750488e-02 -1.570470817387104034e-02 -1.081301197409629822e-01 2.000538408756256104e-01 2.524844184517860413e-02 2.715641856193542480e-01 -1.700774580240249634e-01 -4.553480148315429688e-01 -6.391913890838623047e-01 -8.818777650594711304e-02 2.978494577109813690e-02 2.404368519783020020e-01 -4.599983990192413330e-02 2.460291534662246704e-01 3.721872568130493164e-01 -4.878332465887069702e-02 4.198967516422271729e-01 2.861753404140472412e-01 -7.343532890081405640e-02 7.721411436796188354e-02 1.163237616419792175e-01 -3.707959353923797607e-01 -2.473819255828857422e-02 -6.022266298532485962e-02 -1.656045019626617432e-01 -3.938258290290832520e-01 2.056059986352920532e-01 -7.760991901159286499e-02 -1.128637790679931641e-01 8.150492608547210693e-02 -4.237104654312133789e-01 -7.386694848537445068e-02 -4.882470518350601196e-02 -7.787679135799407959e-02 -3.853567689657211304e-02 -2.843505330383777618e-02 -4.681505560874938965e-01 5.637086182832717896e-02 2.706845698412507772e-04 -1.868546381592750549e-02 -1.185762360692024231e-01 7.866356521844863892e-02 -3.434519469738006592e-01 -6.679221987724304199e-02 -3.816731646656990051e-02 2.815368771553039551e-01 4.213935881853103638e-02 1.760360449552536011e-01 -1.923093013465404510e-02 2.716205641627311707e-02 8.479854464530944824e-02 7.548008859157562256e-02 -3.477489948272705078e-01 -4.278264008462429047e-03 -3.735081851482391357e-01 -3.285265564918518066e-01 1.306306272745132446e-01 1.148615032434463501e-01 1.994719803333282471e-01 2.723242640495300293e-01 -7.509891409426927567e-03 -4.014291763305664062e-01 9.979878365993499756e-02 -5.955315373284975067e-06 -1.528823096305131912e-02 1.782411634922027588e-01 3.288983702659606934e-01 -2.666043937206268311e-01 -8.462829887866973877e-02 -2.038225829601287842e-01 -8.250506967306137085e-02 -3.868880230584181845e-05 5.780490115284919739e-02 -1.137364208698272705e-01 -7.008531689643859863e-02
1.868322193622589111e-01 3.237473964691162109e-01 1.506373064330546185e-05 5.832350325363222510e-06 -1.356748193502426147e-01 -1.423071920871734619e-01 -1.762451082468032837e-01 -1.510802283883094788e-02 1.052990555763244629e-01 -2.342035025358200073e-01 -2.633499205112457275e-01 -6.635501235723495483e-02 2.078270614147186279e-01 8.304311335086822510e-02 -1.927638612687587738e-02 -1.555037200450897217e-01 -1.948997378349304199e-01 -6.775217503309249878e-02 -8.113219588994979858e-02 -3.361192966622184031e-06 -8.149053901433944702e-03 3.847845643758773804e-02 -2.222861200571060181e-01 -1.506830751895904541e-01 -7.721953094005584717e-02 2.534542977809906006e-01 5.072847381234169006e-02 1.445090025663375854e-01 -2.075963765382766724e-01 -7.320480793714523315e-02 -1.247603297233581543e-01 2.626291513442993164e-01 3.119103014469146729e-01 4.906004965305328369e-01 3.603954613208770752e-01 -7.377260923385620117e-02 -1.473570466041564941e-01 1.818336173892021179e-02 2.123877555131912231e-01 -3.782785311341285706e-02 8.128209970891475677e-03 -2.127650678157806396e-01 -2.238426059484481812e-01 1.415075361728668213e-01 1.977127939462661743e-01 -6.318987347185611725e-03 2.116804942488670349e-03 1.161819696426391602e-02 1.027252078056335449e-01 3.600994497537612915e-02 1.318489909172058105e-01 1.523535847663879395e-01 3.206997280358336866e-05 1.145937517285346985e-01 7.064381986856460571e-02 5.263921618461608887e-01 -6.696991622447967529e-02 -6.487991660833358765e-02 -2.176905423402786255e-01 -3.219733014702796936e-02 -1.658108830451965332e-01 -9.778198545973282307e-06 -3.279285132884979248e-02 -5.178316030651330948e-03 -2.827058546245098114e-02 -4.270870685577392578e-01 -3.123457133769989014e-01 2.519600689411163330e-01 -1.452638953924179077e-01 -6.308448500931262970e-03 -1.319563686847686768e-01 -2.171391546726226807e-01 -1.392464786767959595e-01 -1.405392587184906006e-01 3.249072656035423279e-02 -1.775574982166290283e-01 -3.367908997461199760e-03 4.684433713555335999e-02 1.620587259531021118e-01 8.936365693807601929e-02 1.765866130590438843e-01 3.027846813201904297e-01 1.247948035597801208e-02 -3.608001172542572021e-01 3.888469934463500977e-02 -7.590030878782272339e-02 -1.161759812384843826e-02 9.963616728782653809e-02 1.653625220060348511e-01 -2.122253030538558960e-01 -9.803024120628833771e-03 -1.298430860042572021e-01 1.656328737735748291e-01 1.981635987758636475e-01 8.140049129724502563e-02 4.156714975833892822e-01 1.085477833839831874e-05 -1.754035949707031250e-01 -1.937510073184967041e-01 -2.669902704656124115e-02
8.790140599012374878e-02 -1.473802514374256134e-02 9.897852578433230519e-06 2.042813152074813843e-01 -3.320300579071044922e-01 -3.752463730052113533e-03 -2.756341397762298584e-01 -2.306849360466003418e-01 1.971670426428318024e-02 5.742028355598449707e-01 -4.309244826436042786e-02 9.060569107532501221e-02 -1.641463860869407654e-02 -2.935412048827856779e-04 -5.402209237217903137e-02 -1.900004744529724121e-01 -1.872486621141433716e-01 3.967789411544799805e-01 2.961811050772666931e-02 1.519984751939773560e-01 -6.472496688365936279e-02 -1.111022979021072388e-01 6.247266754508018494e-02 5.623425543308258057e-02 -1.733906716108322144e-01 1.218708381056785583e-01 -1.922789029777050018e-02 7.487870752811431885e-02 2.741862237453460693e-01 2.582361102104187012e-01 1.341053694486618042e-01 -5.584042146801948547e-02 3.406343460083007812e-01 -7.939753681421279907e-02 4.998322725296020508e-01 -1.167938858270645142e-01 1.591704338788986206e-01 1.248802840709686279e-01 -5.982881411910057068e-03 -1.643544882535934448e-01 1.223739013075828552e-01 5.056109428405761719e-01 3.407641351222991943e-01 1.011468619108200073e-01 1.966415345668792725e-01 1.591607332229614258e-01 -5.879609659314155579e-02 2.835726179182529449e-02 1.569051854312419891e-02 -4.694296047091484070e-02 7.682543247938156128e-02 2.147660702466964722e-01 3.020667433738708496e-01 -9.838587790727615356e-02 1.058110743761062622e-01 1.840664148330688477e-01 -9.148740023374557495e-02 3.035326600074768066e-01 2.365513890981674194e-02 2.491824775934219360e-01 1.349801095784641802e-06 -5.205494165420532227e-02 1.452698488719761372e-03 -1.405876427888870239e-01 -5.277822613716125488e-01 -6.580878794193267822e-02 -2.114254385232925415e-01 -6.588835276488680393e-06 1.412042975425720215e-01 -3.835224732756614685e-02 -1.293753236532211304e-01 3.513786196708679199e-01 2.019392848014831543e-01 -3.575561640900559723e-05 -2.113435417413711548e-01 -7.528497371822595596e-03 -2.756773028522729874e-05 2.382134497165679932e-01 9.595131129026412964e-02 1.062769293785095215e-01 8.634276688098907471e-02 4.854231774806976318e-01 1.059267073869705200e-01 3.752278685569763184e-01 1.831257194280624390e-01 -3.839594870805740356e-02 -6.531623005867004395e-02 2.163037508726119995e-01 -5.701304599642753601e-02 -1.321338713169097900e-01 7.643527816981077194e-03 4.001743346452713013e-02 -4.572791159152984619e-01 6.592432260513305664e-01 1.867018342018127441e-01 -3.891852102242410183e-04 8.554046871722675860e-06 1.639857143163681030e-01 -1.071930378675460815e-01 9.895351529121398926e-02
3.272298574447631836e-01 -9.866667538881301880e-02 6.900019478052854538e-03 7.182777673006057739e-02 -3.252078965306282043e-02 -1.525740372017025948e-03 -3.564400374889373779e-01 -3.085236549377441406e-01 2.202411442995071411e-01 2.486568503081798553e-02 -3.075246810913085938e-01 -6.987513916101306677e-05 1.994129717350006104e-01 4.386733472347259521e-01 -2.292646318674087524e-01 -6.914692372083663940e-02 9.330158263765042648e-07 3.381607830524444580e-01 -4.109164234250783920e-03 2.067548781633377075e-01 5.068368464708328247e-02 -2.692555785179138184e-01 4.612565040588378906e-01 3.163372874259948730e-01 -1.868576407432556152e-01 2.515298128128051758e-01 -2.799621522426605225e-01 8.187653124332427979e-02 1.734610497951507568e-01 3.969611227512359619e-01 -1.382015496492385864e-01 -1.410028152167797089e-02 1.900352239608764648e-01 1.005918458104133606e-01 1.965041309595108032e-01 8.870703727006912231e-02 -2.860382664948701859e-04 1.707208156585693359e-01 1.258001029491424561e-01 -1.436465829610824585e-01 2.008184194564819336e-01 1.552734971046447754e-01 -2.697909474372863770e-01 -2.790172584354877472e-02 4.043223857879638672e-01 -1.971592456102371216e-01 -2.876994200050830841e-02 2.951052039861679077e-02 3.781280294060707092e-02 -2.636032700538635254e-01 6.272684913710691035e-06 1.367694585496792570e-05 1.023954078555107117e-01 -9.652526676654815674e-02 -1.542191356420516968e-01 2.431326806545257568e-01 -1.911026388406753540e-01 1.700011268258094788e-02 7.383900135755538940e-02 -1.172737851738929749e-01 1.928110867738723755e-01 2.051328718662261963e-01 -4.580287337303161621e-01 1.816248148679733276e-02 -3.741415441036224365e-01 9.355083853006362915e-02 -4.941205680370330811e-02 -5.173721536993980408e-02 1.584994941949844360e-01 -2.620514929294586182e-01 -2.265097647905349731e-01 -1.936493515968322754e-01 4.441970288753509521e-01 -2.231682837009429932e-02 4.729723557829856873e-02 2.251710593700408936e-01 -1.485288292169570923e-01 -4.730709828436374664e-03 -2.698961179703474045e-05 8.550062030553817749e-02 3.559854626655578613e-01 3.386329710483551025e-01 -2.255712598562240601e-01 5.214536096900701523e-03 2.218628823757171631e-01 -4.912180006504058838e-01 -5.960080772638320923e-02 7.783821225166320801e-02 5.047087371349334717e-02 4.735253453254699707e-01 -2.060605436563491821e-01 -4.289150703698396683e-03 -2.580600045621395111e-02 2.361518330872058868e-02 -1.198282241821289062e-01 1.177018657326698303e-01 4.538462235359475017e-05 -4.081548750400543213e-01 -2.465767413377761841e-01 7.637681812047958374e-02
1.645288318395614624e-01 6.580035388469696045e-02 3.801787897828035057e-07 7.094709575176239014e-02 -4.035421181470155716e-03 8.959705155575647950e-05 -1.906561292707920074e-02 2.351946750422939658e-05 -8.152900636196136475e-02 2.615324556827545166e-01 -3.753317594528198242e-01 -4.567532837390899658e-01 2.502073645591735840e-01 5.232343077659606934e-01 1.181610524654388428e-01 -3.407234847545623779e-01 -9.920454613165929914e-05 -2.339952625334262848e-03 3.326211571693420410e-01 -2.893023192882537842e-01 -1.689790951786562800e-05 -3.148978110402822495e-03 -2.828040122985839844e-01 -4.339965526014566422e-03 -7.212751358747482300e-02 6.640643626451492310e-02 -1.177604123950004578e-01 1.995564161916263402e-06 -1.703418977558612823e-02 2.721284627914428711e-01 -5.059611201286315918e-01 -1.824987679719924927e-02 8.003469556570053101e-02 7.331788074225187302e-03 5.693297982215881348e-01 2.262234501540660858e-02 -1.445045974105596542e-02 6.160993501543998718e-02 1.819444936700165272e-03 -9.151717275381088257e-02 2.331304252147674561e-01 1.181531324982643127e-01 9.590736590325832367e-03 3.607312962412834167e-02 1.467888653278350830e-01 2.585961520671844482e-01 5.914163589477539062e-02 4.982211813330650330e-02 5.604134872555732727e-02 -2.188761681318283081e-01 5.925191726419143379e-05 3.079666930716484785e-04 -1.438926905393600464e-01 -2.369138896465301514e-01 4.143557846546173096e-01 5.254443734884262085e-02 7.278186082839965820e-02 -2.557284832000732422e-01 -6.601580232381820679e-02 1.036131288856267929e-02 1.912372885271906853e-03 -2.355396598577499390e-01 2.874239087104797363e-01 7.757200300693511963e-02 -3.904352430254220963e-03 -7.477701902389526367e-01 -4.457409158931113780e-05 -5.524869635701179504e-02 -2.062215656042098999e-01 6.171848624944686890e-02 -7.451190948486328125e-01 -1.189083158969879150e-01 -1.483236849308013916e-01 3.323211371898651123e-01 9.845194220542907715e-02 7.946039736270904541e-02 -3.353872895240783691e-01 -1.197761957882903516e-04 1.247716043144464493e-02 9.118391200900077820e-03 -1.323478668928146362e-01 6.618464738130569458e-02 -2.313861399888992310e-01 -1.779652014374732971e-02 2.943181991577148438e-01 -1.516425865702331066e-03 6.738461554050445557e-02 -2.490795668563805521e-05 -4.623524844646453857e-02 1.472305227071046829e-02 2.526572048664093018e-01 -8.083741366863250732e-02 -6.435465067625045776e-02 9.407409429550170898e-01 2.325865179300308228e-01 1.032875478267669678e-01 -9.537749065202660859e-06 1.549369394779205322e-01 -4.918426871299743652e-01 3.566528856754302979e-02
3.082341551780700684e-01 -1.235765293240547180e-01 1.692442310741171241e-05 -6.619051418965682387e-05 6.533780097961425781e-01 -4.011302255094051361e-03 -5.409169898484833539e-05 -4.383310079574584961e-01 2.953492403030395508e-01 7.355707883834838867e-01 -7.286492269486188889e-03 -3.135962486267089844e-01 7.590907067060470581e-02 8.133159875869750977e-01 -7.941395044326782227e-01 -1.149002686142921448e-01 -5.235704156802967191e-05 1.504546999931335449e-01 -5.242334008216857910e-01 -3.332654833793640137e-01 2.018319064518436790e-04 -2.438811510801315308e-01 4.136560112237930298e-02 6.218428164720535278e-02 -1.668395102024078369e-01 1.466225683689117432e-01 -3.375148475170135498e-01 -3.856055065989494324e-02 8.137543499469757080e-02 5.056451482232660055e-05 -4.980121552944183350e-02 2.392728924751281738e-01 2.961674630641937256e-01 1.563905626535415649e-01 -8.748652786016464233e-02 2.033704072237014771e-01 -7.174597271841776092e-07 3.437447845935821533e-01 -1.455095112323760986e-01 -2.545616030693054199e-01 4.656359851360321045e-01 -1.960216164588928223e-01 2.298073023557662964e-01 -3.663122653961181641e-02 -1.281385272741317749e-01 -4.513840079307556152e-01 4.531046003103256226e-02 1.906953901052474976e-01 3.228917717933654785e-01 -5.475009679794311523e-01 1.307574711972847581e-04 4.418170647113583982e-05 4.859846740146167576e-05 -4.600371047854423523e-02 5.427221301943063736e-03 1.132526714354753494e-02 -3.004176318645477295e-01 -1.596168726682662964e-01 -1.367701888084411621e-01 -4.067816138267517090e-01 2.898997366428375244e-01 6.739508360624313354e-02 -7.574756145477294922e-01 3.120664358139038086e-01 2.929633259773254395e-01 2.359539419412612915e-01 -1.562992983963340521e-04 2.777678072452545166e-01 -1.789000630378723145e-01 -8.858209848403930664e-01 -5.885863900184631348e-01 -8.831461071968078613e-01 3.872126936912536621e-01 5.434111356735229492e-01 -6.593768298625946045e-02 1.228696927428245544e-01 -2.627548873424530029e-01 -5.074903368949890137e-03 1.383263617753982544e-01 3.414461612701416016e-01 1.571394056081771851e-01 -1.910204142332077026e-01 -1.204647272825241089e-01 -1.478074118494987488e-02 4.690788686275482178e-01 -6.892156600952148438e-02 1.181796342134475708e-01 3.867123814416117966e-05 2.236766926944255829e-02 1.698388755321502686e-01 3.493076264858245850e-01 9.871570020914077759e-02 1.020715236663818359e-01 -6.065559387207031250e-01 -2.839589416980743408e-01 -1.980103254318237305e-01 2.039667560893576592e-05 9.895276743918657303e-04 -2.069339156150817871e-01 -1.512176822870969772e-04
2.469226568937301636e-01 -1.513494700193405151e-01 1.009029969573020935e-01 2.529644072055816650e-01 -2.989293932914733887e-01 -2.229439318180084229e-01 -4.489029347896575928e-01 -5.598130822181701660e-01 5.928158015012741089e-02 -1.842403411865234375e-01 -3.672804683446884155e-02 -2.538944482803344727e-01 1.257342994213104248e-01 1.142029911279678345e-01 -3.187076449394226074e-01 -3.484451174736022949e-01 -1.393315792083740234e-01 4.361718893051147461e-01 -1.959691792726516724e-01 3.158214688301086426e-01 -2.309924177825450897e-02 -1.975213885307312012e-01 -9.387090802192687988e-02 -6.357251852750778198e-02 3.349520564079284668e-01 3.568036556243896484e-01 -1.732244156301021576e-02 2.975923418998718262e-01 -3.431793302297592163e-02 -1.194452643394470215e-01 -2.137954905629158020e-02 -3.800898045301437378e-02 6.852069497108459473e-02 1.425519138574600220e-01 4.223490953445434570e-01 -5.067936610430479050e-03 -3.760084211826324463e-01 -3.406023383140563965e-01 1.754865497350692749e-01 2.041123993694782257e-02 -7.410965114831924438e-02 8.984860032796859741e-03 9.121711627813056111e-05 1.695650070905685425e-02 -1.603262126445770264e-02 1.914038360118865967e-01 -1.227135434746742249e-01 3.514209985733032227e-01 -7.353637367486953735e-02 -3.321247100830078125e-01 2.340215146541595459e-01 2.243564128875732422e-01 1.776633411645889282e-01 -4.918303787708282471e-01 1.123812980949878693e-02 5.828199386596679688e-01 2.374147474765777588e-01 -2.596117556095123291e-01 -5.586303025484085083e-02 -1.706682145595550537e-02 2.883703410625457764e-01 2.337063848972320557e-01 -2.565903663635253906e-01 -8.291708678007125854e-02 1.353035718202590942e-01 -4.171226024627685547e-01 -2.869401872158050537e-01 -7.125423103570938110e-02 1.136843636631965637e-01 -2.093042135238647461e-01 -7.237792015075683594e-02 -1.322004348039627075e-01 1.261217147111892700e-01 -8.941652625799179077e-02 9.304898232221603394e-02 -1.985106766223907471e-01 2.758082747459411621e-01 5.383301759138703346e-04 -3.464674949645996094e-01 2.362576276063919067e-01 2.669582366943359375e-01 1.352120786905288696e-01 3.031722009181976318e-01 6.826584041118621826e-02 7.989129982888698578e-03 -3.836084306240081787e-01 -2.534593045711517334e-01 1.293167042604181916e-05 5.187767744064331055e-02 1.375909429043531418e-02 5.007209628820419312e-02 -2.196410745382308960e-01 -3.972829878330230713e-01 3.270722329616546631e-01 -1.247325073927640915e-02 6.580244004726409912e-02 2.328329980373382568e-01 -1.910580396652221680e-01 -2.453806400299072266e-01 -7.521223276853561401e-02
7.586599141359329224e-02 -2.318131191714201123e-05 1.456367044738726690e-05 -3.796695917844772339e-02 -1.536975800991058350e-01 -1.185088530182838440e-01 -1.358449757099151611e-01 -3.935358822345733643e-01 1.655434817075729370e-01 -1.064808815717697144e-01 -1.886879950761795044e-01 -3.052896857261657715e-01 2.569825053215026855e-01 8.907537907361984253e-02 2.211604416370391846e-01 -4.296189546585083008e-02 -1.686075478792190552e-01 1.591112911701202393e-01 -1.377276778221130371e-01 -2.466092556715011597e-01 -6.107090041041374207e-02 2.239914536476135254e-01 -3.164979815483093262e-01 -2.121178656816482544e-01 -1.432551629841327667e-02 -8.622124791145324707e-02 3.460411727428436279e-02 2.299694567918777466e-01 1.882560104131698608e-01 -1.127894073724746704e-01 -1.120337694883346558e-01 -2.452614344656467438e-02 3.847107291221618652e-01 -1.321458518505096436e-01 4.089064598083496094e-01 2.621227204799652100e-01 1.456452812999486923e-02 -8.590671420097351074e-02 1.212060153484344482e-01 -1.215901412069797516e-02 1.508304625749588013e-01 -1.489402651786804199e-01 -1.614013165235519409e-01 1.942166835069656372e-01 1.570488065481185913e-01 -2.282982766628265381e-01 3.745587076991796494e-03 9.816553443670272827e-02 1.979373842477798462e-01 -1.827913911256473511e-05 9.814239092520438135e-06 -1.037024408578872681e-01 1.656733006238937378e-01 -3.312436044216156006e-01 1.565911108627915382e-03 1.226760670542716980e-01 -2.503243833780288696e-02 -4.323252737522125244e-01 -4.159188866615295410e-01 6.505626440048217773e-02 3.042974472045898438e-01 3.076021075248718262e-01 -1.281578838825225830e-01 1.051747202873229980e-01 2.697977237403392792e-02 -5.468335747718811035e-01 -8.503921329975128174e-02 2.525574862957000732e-01 -1.681778393685817719e-02 -1.158842518925666809e-01 -5.966596603393554688e-01 -2.561260759830474854e-01 -8.903243392705917358e-02 -8.571293950080871582e-02 4.249704778194427490e-01 -2.612517476081848145e-01 1.114657614380121231e-02 -2.570861577987670898e-01 6.452559679746627808e-02 2.025870162469800562e-05 -1.134215926867909729e-04 6.535202264785766602e-02 1.396743115037679672e-02 8.679623156785964966e-02 -3.008283078670501709e-01 -5.698728561401367188e-02 5.645422637462615967e-02 -5.336658432497642934e-06 1.537131538498215377e-05 -1.383083686232566833e-02 3.558868169784545898e-02 -1.545688062906265259e-01 2.560059074312448502e-03 1.359068602323532104e-01 -2.379643768072128296e-01 -2.883171141147613525e-01 7.775822268740739673e-06 2.270975708961486816e-01 -4.739663004875183105e-01 -7.593940943479537964e-02
7.367353886365890503e-02 6.932318955659866333e-02 -3.663339884951710701e-05 -1.834111846983432770e-02 -1.294786483049392700e-01 1.091994624584913254e-02 3.220086693763732910e-01 3.113877773284912109e-01 -5.308590829372406006e-02 3.871637880802154541e-01 -9.215983748435974121e-02 2.405767291784286499e-01 7.480469503207132220e-05 -1.052355207502841949e-02 -2.948652207851409912e-01 2.465145587921142578e-01 -5.271964619169011712e-05 1.287396531552076340e-02 -2.925782203674316406e-01 2.291847765445709229e-01 3.890613317489624023e-01 -1.236446678376523778e-05 -1.701838374137878418e-01 1.652149558067321777e-01 -2.788967192173004150e-01 -1.937757406267337501e-05 -2.622421383857727051e-01 -6.603913061553612351e-05 3.088846504688262939e-01 2.524825036525726318e-01 1.537460535764694214e-01 -1.176225095987319946e-01 -2.236893624067306519e-01 -7.665712833404541016e-01 -1.355457454919815063e-01 -7.963182777166366577e-02 4.744313657283782959e-03 3.033924996852874756e-01 -1.657001823186874390e-01 -6.238494440913200378e-02 -1.143623841926455498e-03 -3.339633718132972717e-02 3.240816593170166016e-01 -1.040909290313720703e-01 -4.958216845989227295e-02 -1.037868633866310120e-01 -1.426127925515174866e-02 1.525123207102296874e-05 1.810487210750579834e-01 2.204412817955017090e-01 1.657666172832250595e-03 -9.402804076671600342e-03 1.889858245849609375e-01 1.958743035793304443e-01 9.562595933675765991e-02 -4.362312555313110352e-01 1.353758126497268677e-01 1.383031606674194336e-01 -5.351911298930644989e-03 -3.632746934890747070e-01 1.062136590480804443e-01 -2.716280519962310791e-01 -1.643182188272476196e-01 -7.075580209493637085e-02 -2.144895046949386597e-01 -1.834105998277664185e-01 2.976954877376556396e-01 1.931542009115219116e-01 3.318790793418884277e-01 -2.495924127288162708e-05 3.010181784629821777e-01 1.331014838069677353e-02 -3.711186349391937256e-02 2.298749834299087524e-01 -9.518613666296005249e-02 -4.047738329973071814e-04 6.037688814103603363e-03 -4.180555343627929688e-01 3.688098192214965820e-01 2.937031351029872894e-02 -5.611926317214965820e-02 2.714751064777374268e-01 3.928936123847961426e-01 3.761132359504699707e-01 2.828373908996582031e-01 -2.307585673406720161e-03 -2.758155167102813721e-01 4.216679930686950684e-02 6.217854206624906510e-06 2.034814953804016113e-01 -1.419121474027633667e-01 -2.344390395592199638e-06 7.345671206712722778e-02 -5.969606572762131691e-04 -5.546866357326507568e-02 1.905819028615951538e-01 -4.365683344076387584e-05 4.321672022342681885e-01 1.086390465497970581e-01 -8.539143891539424658e-06
2.216784805059432983e-01 -2.047139033675193787e-02 4.013144643977284431e-05 1.900825765915215015e-03 2.339365929365158081e-01 -1.853148220106959343e-03 -1.264979243278503418e-01 -3.678052425384521484e-01 7.898892164230346680e-01 2.515327334403991699e-01 1.601784676313400269e-01 -6.996828597038984299e-03 4.218943789601325989e-02 5.937044024467468262e-01 -3.243186771869659424e-01 -2.961319088935852051e-01 1.328059079241938889e-05 2.102242708206176758e-01 -2.931688427925109863e-01 2.532017230987548828e-02 -6.882794201374053955e-03 -2.799737155437469482e-01 -5.358552187681198120e-02 4.214948117733001709e-01 -5.929810181260108948e-02 2.053540945053100586e-02 -6.456738114356994629e-01 -7.926267385482788086e-02 1.126490440219640732e-02 2.492439933121204376e-03 7.427397940773516893e-05 7.105593085289001465e-01 9.582703560590744019e-02 4.868250191211700439e-01 -2.623320184648036957e-02 8.423322439193725586e-02 3.042978278244845569e-05 -2.407831884920597076e-02 -2.537976019084453583e-03 -2.515025734901428223e-01 2.650887072086334229e-01 -7.158632278442382812e-01 -1.655018776655197144e-01 1.235120184719562531e-02 -1.032093241810798645e-01 -3.300101161003112793e-01 -3.744908099179156125e-05 -3.540729267115239054e-06 3.856326341629028320e-01 -8.158545494079589844e-01 3.092232509516179562e-05 4.082848136022221297e-06 3.288414562121033669e-03 -1.188376247882843018e-01 1.318769156932830811e-01 5.268809199333190918e-02 -7.237679362297058105e-01 -2.958709746599197388e-02 -3.516987860202789307e-01 -2.082590162754058838e-01 6.321159601211547852e-01 6.040793284773826599e-02 -8.843610882759094238e-01 5.386317570810206234e-05 -5.024986341595649719e-03 5.260076522827148438e-01 -7.214065408334136009e-05 2.042113542556762695e-01 -1.931726187467575073e-01 -5.510354042053222656e-01 -3.446838557720184326e-01 -5.645156502723693848e-01 1.282993853092193604e-01 -8.849201351404190063e-02 1.335682123899459839e-01 4.036439582705497742e-02 -1.291051208972930908e-01 2.148453146219253540e-01 3.609641641378402710e-02 4.873185232281684875e-02 9.519933909177780151e-02 -1.737425178289413452e-01 -7.006675750017166138e-02 -1.027712970972061157e-01 2.863431721925735474e-02 -4.325143098831176758e-01 2.573574520647525787e-02 5.346595571609213948e-05 3.602397069334983826e-02 1.062220558524131775e-01 2.293982058763504028e-01 -6.621693819761276245e-02 6.023565679788589478e-02 -3.486607968807220459e-01 -2.117012590169906616e-01 -4.044322073459625244e-01 4.502146839513443410e-05 -2.361650615930557251e-01 -1.632976680994033813e-01 -5.215295823290944099e-05
1.879148185253143311e-02 -8.378394693136215210e-02 -1.869191974401473999e-01 -4.893209040164947510e-02 1.817267984151840210e-01 2.056118696928024292e-01 5.686303377151489258e-01 4.587827622890472412e-01 -6.372633576393127441e-02 2.405751943588256836e-01 -1.427383571863174438e-01 7.789034396409988403e-02 -4.905098467133939266e-04 -2.801615931093692780e-02 -2.432154715061187744e-01 3.036402463912963867e-01 2.100891768932342529e-01 -1.973600834608078003e-01 5.806897208094596863e-02 7.534600049257278442e-02 -9.255328029394149780e-02 8.215153217315673828e-02 1.153951063752174377e-01 1.665680855512619019e-01 1.390496492385864258e-01 -5.803786963224411011e-02 3.712754696607589722e-02 -2.354487776756286621e-01 -6.183396652340888977e-02 8.626065403223037720e-02 -2.464145720005035400e-01 1.654152274131774902e-01 -2.355853468179702759e-01 -2.655375562608242035e-02 -1.010237354785203934e-02 -8.050774037837982178e-02 3.158137947320938110e-02 2.189209163188934326e-01 1.978513784706592560e-02 9.155243635177612305e-02 9.390413761138916016e-02 4.751490801572799683e-02 -5.921396426856517792e-03 -1.746202111244201660e-01 8.064385503530502319e-02 2.236132323741912842e-01 -2.880659997463226318e-01 -6.539064645767211914e-02 -8.140954375267028809e-02 -1.037401333451271057e-01 -4.559649899601936340e-02 -1.145593971014022827e-01 1.579068414866924286e-02 3.928269147872924805e-01 -2.983296811580657959e-01 -4.868048727512359619e-01 -6.981877982616424561e-02 -6.529448181390762329e-02 3.524645045399665833e-02 -3.458046615123748779e-01 -2.961932718753814697e-01 -6.623777002096176147e-02 -1.582319885492324829e-01 3.601682838052511215e-03 8.365496993064880371e-02 4.509466886520385742e-01 4.246705472469329834e-01 -3.376955538988113403e-02 -2.822594344615936279e-01 -2.277930267155170441e-02 -9.749136120080947876e-02 -1.441075354814529419e-01 -1.208963915705680847e-01 -2.500555515289306641e-01 6.609248928725719452e-03 3.258322775363922119e-01 1.302503198385238647e-01 -3.419455587863922119e-01 1.280390769243240356e-01 -4.167687296867370605e-01 4.417584836483001709e-02 -2.560147643089294434e-01 -2.619054019451141357e-01 2.026360332965850830e-01 2.475662529468536377e-02 3.772665932774543762e-02 2.051102668046951294e-01 7.744048535823822021e-02 9.140323847532272339e-02 -1.751678287982940674e-01 1.981266140937805176e-01 1.654428094625473022e-01 4.990301653742790222e-02 2.444265484809875488e-01 -8.947082608938217163e-02 -1.390866935253143311e-01 -6.041743978857994080e-02 -3.457649350166320801e-01 2.716292738914489746e-01 1.772588789463043213e-01
-5.547596216201782227e-01 7.446482049999758601e-05 6.667530215054284781e-06 2.147002331912517548e-02 -1.014859452843666077e-01 1.809416264295578003e-01 -1.538325697183609009e-01 9.594684839248657227e-02 -2.661280930042266846e-01 -3.028888106346130371e-01 -1.012478116899728775e-02 2.241992205381393433e-01 1.266916282474994659e-03 -6.116654872894287109e-01 -5.638778954744338989e-02 5.532808899879455566e-01 5.755462218075990677e-03 -1.863873302936553955e-01 7.167272269725799561e-02 5.853479504585266113e-01 -2.949162721633911133e-01 -1.392659246921539307e-01 -4.247954189777374268e-01 -2.914630174636840820e-01 -1.867494545876979828e-02 1.521920710802078247e-01 -6.940393149852752686e-02 1.255043894052505493e-01 -5.900996923446655273e-02 -3.868956118822097778e-02 2.291251718997955322e-01 -2.371810674667358398e-01 -1.591603271663188934e-02 3.394875675439834595e-03 -2.030833661556243896e-01 -2.186371088027954102e-01 -3.692213892936706543e-01 -3.378673195838928223e-01 -1.188198998570442200e-01 2.746269702911376953e-01 -2.490618973970413208e-01 1.719558984041213989e-01 -4.046101123094558716e-02 1.044327840209007263e-01 -2.639790475368499756e-01 2.012547850608825684e-01 5.283240973949432373e-02 -2.263614535331726074e-01 -6.005365774035453796e-02 4.603572785854339600e-01 -6.860665977001190186e-02 -2.479759743437170982e-03 8.144732564687728882e-02 2.906463444232940674e-01 -2.426171898841857910e-01 -8.526892634108662605e-05 3.248461782932281494e-01 2.174973040819168091e-01 -1.096639335155487061e-01 2.661112546920776367e-01 -3.294205367565155029e-01 -1.146186739206314087e-01 3.690693676471710205e-01 -2.405301183462142944e-01 -7.468637824058532715e-02 1.693081557750701904e-01 3.735502436757087708e-02 -8.617922663688659668e-02 2.814607024192810059e-01 5.368750691413879395e-01 6.320332884788513184e-01 3.303640484809875488e-01 -1.550658792257308960e-01 -3.582287132740020752e-01 7.292786240577697754e-02 -2.931277751922607422e-01 6.152161862701177597e-03 -2.360944300889968872e-01 -7.009297609329223633e-02 -2.897081077098846436e-01 -1.854772120714187622e-01 -9.014700353145599365e-02 -6.249127443879842758e-03 -3.760721907019615173e-02 -7.009054720401763916e-02 1.962159126996994019e-01 -3.982753753662109375e-01 1.257284202438313514e-05 -1.311263889074325562e-01 2.455461956560611725e-02 2.163664102554321289e-01 -2.327407151460647583e-02 -5.144123360514640808e-02 -6.460306048393249512e-01 4.176715910434722900e-01 9.444577991962432861e-02 1.668976619839668274e-05 7.951992750167846680e-02 1.769263297319412231e-01 -5.358134210109710693e-02
2.478190064430236816e-01 -1.761111617088317871e-02 1.879325100162532181e-05 -1.970658451318740845e-02 6.326757669448852539e-01 -1.598026603460311890e-01 -2.077132463455200195e-02 -4.753242060542106628e-02 -2.813659012317657471e-01 -3.217193782329559326e-01 -6.000988557934761047e-02 -5.899877846240997314e-02 1.067243982106447220e-02 2.611410319805145264e-01 -3.504040837287902832e-02 2.871280610561370850e-01 1.350712136627407745e-05 9.002316743135452271e-02 -2.334842681884765625e-01 -1.352832764387130737e-01 -5.993479397147893906e-03 -7.710210047662258148e-03 1.893305592238903046e-02 3.113214112818241119e-02 -5.051005259156227112e-02 1.161906197667121887e-01 -7.725037634372711182e-02 -4.930360708385705948e-03 4.685767367482185364e-02 -1.921331882476806641e-01 -1.988427937030792236e-01 1.020023748278617859e-01 4.760687443194910884e-05 5.027933120727539062e-01 -1.276884078979492188e-01 3.197066187858581543e-01 8.581656217575073242e-02 7.437790930271148682e-02 2.166775986552238464e-02 3.728034794330596924e-01 2.731426153331995010e-03 -6.968329548835754395e-01 -2.021958529949188232e-01 -1.489096432924270630e-01 -1.920913159847259521e-02 -2.880263328552246094e-01 1.752827483869623393e-05 -2.145280689001083374e-01 4.625231027603149414e-03 -6.827810406684875488e-02 5.064946162747219205e-05 -1.873453110456466675e-01 -5.004163980484008789e-01 1.008372083306312561e-01 -1.253956854343414307e-01 2.118914760649204254e-02 3.063455224037170410e-02 1.520866304636001587e-01 -2.580175697803497314e-01 -3.589711487293243408e-01 1.551566421985626221e-01 1.672742515802383423e-01 -1.541617348266299814e-05 1.423029880970716476e-02 3.465062677860260010e-01 1.845679283142089844e-01 -1.091291308403015137e-01 -1.147744804620742798e-01 4.757107421755790710e-02 -1.406094452249817550e-05 -4.176500141620635986e-01 -5.488325953483581543e-01 -1.706920117139816284e-01 -8.171992748975753784e-02 -8.356987382285296917e-04 1.604494638741016388e-02 1.282761877519078553e-05 4.333982616662979126e-02 4.996231198310852051e-02 -5.006698518991470337e-02 7.697331905364990234e-02 -6.505988240242004395e-01 -3.965174555778503418e-01 -3.089146912097930908e-01 -1.219572033733129501e-02 6.005049869418144226e-02 3.283817470073699951e-01 2.466601472406182438e-05 2.483866592228878289e-05 2.683764696121215820e-01 -2.230810821056365967e-01 5.631646886467933655e-02 5.717968940734863281e-01 -4.704859256744384766e-01 -6.062826886773109436e-02 -2.537316270172595978e-02 2.196167588408570737e-05 -1.099350750446319580e-01 -1.339674293994903564e-01 -5.911716289119794965e-05
-2.673310339450836182e-01 3.154835850000381470e-02 -1.921460898302029818e-05 -2.793633611872792244e-04 2.163335680961608887e-01 1.311150491237640381e-01 3.567874133586883545e-01 3.035143315792083740e-01 1.272510504350066185e-03 2.019942104816436768e-01 1.030718311667442322e-01 1.025277450680732727e-01 -1.488405913114547729e-01 1.236391142010688782e-01 -2.312346398830413818e-01 2.182149440050125122e-01 -2.022701352834701538e-01 1.111405417323112488e-01 -2.535085380077362061e-01 -2.338911443948745728e-01 1.991229951381683350e-01 -1.671922206878662109e-01 1.343036442995071411e-01 6.421647965908050537e-02 1.179161444306373596e-01 2.454859018325805664e-01 -1.821337491273880005e-01 -2.037239521741867065e-01 1.111386157572269440e-02 -1.364257885143160820e-03 -5.790257081389427185e-02 3.092899620532989502e-01 1.329661607742309570e-01 -3.071572780609130859e-01 -1.348873674869537354e-01 7.267095893621444702e-02 -1.541371643543243408e-01 4.198484122753143311e-01 -3.562127649784088135e-01 -1.142551284283399582e-02 -2.750076726078987122e-02 -3.871035203337669373e-02 3.090278506278991699e-01 -1.624453580006957054e-03 -4.348477125167846680e-01 2.741979658603668213e-01 -1.647829860448837280e-01 -4.145022034645080566e-01 7.966545224189758301e-02 -2.447548210620880127e-01 3.065305948257446289e-02 -1.597993671894073486e-01 -9.091210365295410156e-02 2.386496216058731079e-01 1.371794566512107849e-02 -1.641063690185546875e-01 -6.204768270254135132e-02 1.476037502288818359e-01 2.055099606513977051e-01 -1.393270641565322876e-01 1.575429178774356842e-02 -3.334297537803649902e-01 -2.428978830575942993e-01 5.088340863585472107e-02 1.820000559091567993e-01 3.590439856052398682e-01 3.112772405147552490e-01 3.637303709983825684e-01 -2.914472483098506927e-02 -3.398711085319519043e-01 1.147933378815650940e-01 -1.091384068131446838e-01 -2.907290756702423096e-01 5.092600826174020767e-03 -2.035771030932664871e-04 6.065564975142478943e-02 2.780745550990104675e-02 -3.791519105434417725e-01 -1.332954317331314087e-01 -4.674057289958000183e-02 1.111191958189010620e-01 -1.935056224465370178e-02 -7.833537459373474121e-02 -3.363445401191711426e-02 -9.875333309173583984e-02 2.584946751594543457e-01 3.679807186126708984e-01 -1.321025192737579346e-01 1.138467416167259216e-01 -2.119298726320266724e-01 -8.035555481910705566e-02 3.108844161033630371e-01 -4.761862009763717651e-02 -3.407649993896484375e-01 -1.666458845138549805e-01 5.330857820808887482e-04 -1.577085458848159760e-05 -1.244933977723121643e-01 2.340457737445831299e-01 -3.130532059003598988e-05
-1.495339423418045044e-01 -2.984167449176311493e-02 -2.732874453067779541e-02 -2.100846357643604279e-02 -3.714070320129394531e-01 -2.283226996660232544e-01 -2.391346246004104614e-01 -4.450000226497650146e-01 -2.919428050518035889e-01 2.205954790115356445e-01 -2.708617746829986572e-01 -1.275004912167787552e-02 -1.847533881664276123e-01 3.999662119895219803e-03 -3.042356371879577637e-01 -1.655389666557312012e-01 1.325181592255830765e-02 1.105554848909378052e-01 8.062206953763961792e-02 2.124608755111694336e-01 -2.081316858530044556e-01 1.848935782909393311e-01 2.032723277807235718e-01 -5.346673354506492615e-02 1.478454917669296265e-01 1.381219029426574707e-01 6.018884852528572083e-02 2.974084317684173584e-01 -5.880497395992279053e-02 -1.008246690034866333e-01 1.167653650045394897e-01 4.569270834326744080e-02 1.123081371188163757e-01 -4.172369465231895447e-02 3.721984326839447021e-01 -2.715178132057189941e-01 -3.660700321197509766e-01 1.665804833173751831e-01 1.609822809696197510e-01 5.066143721342086792e-02 -5.643235519528388977e-03 5.730643272399902344e-01 -3.436151146888732910e-02 -4.599893931299448013e-03 1.337978690862655640e-01 3.088852576911449432e-02 -1.757420599460601807e-01 3.471361696720123291e-01 -5.129997432231903076e-02 1.024866923689842224e-01 -1.798319863155484200e-05 1.405558139085769653e-01 2.143125981092453003e-01 -5.666256546974182129e-01 3.403169214725494385e-01 4.151821434497833252e-01 -4.161842912435531616e-02 1.073393747210502625e-01 -2.285865098237991333e-01 5.110519528388977051e-01 -3.309906721115112305e-01 -5.763438344001770020e-02 2.432950288057327271e-01 -1.016773357987403870e-01 -4.158899486064910889e-01 -5.226539969444274902e-01 -1.014338135719299316e-01 8.607309311628341675e-02 5.840710178017616272e-02 3.240154683589935303e-01 2.676454186439514160e-01 5.130629539489746094e-01 3.158921599388122559e-01 -4.579891916364431381e-03 7.038857042789459229e-02 -2.153931558132171631e-01 2.097707092761993408e-01 1.746584773063659668e-01 -1.122859790921211243e-01 1.291670054197311401e-01 1.565527021884918213e-01 4.140939116477966309e-01 2.842512428760528564e-01 -2.141321450471878052e-01 -6.985928118228912354e-02 -2.665874920785427094e-02 -2.547579258680343628e-02 5.687073553417576477e-06 2.250317782163619995e-01 2.800439298152923584e-02 -2.285938709974288940e-02 -2.634156346321105957e-01 2.275048568844795227e-02 4.727031290531158447e-01 5.411704070866107941e-03 -3.197799995541572571e-02 1.482174843549728394e-01 3.866814076900482178e-01 -3.825660794973373413e-02 2.170571982860565186e-01
1.496494710445404053e-01 -1.634606719017028809e-01 -3.964316420024260879e-06 -2.184732854366302490e-01 5.908405780792236328e-01 -2.156632393598556519e-01 -5.176818743348121643e-02 -1.433006227016448975e-01 3.545042360201478004e-03 -1.930688172578811646e-01 1.022227704524993896e-01 2.435175478458404541e-01 -7.524746656417846680e-02 -2.042644843459129333e-02 -2.981784641742706299e-01 -1.673165112733840942e-01 2.905164183175656945e-05 4.671866446733474731e-02 -4.855413499171845615e-05 3.108748793601989746e-02 -4.765276983380317688e-02 1.636735796928405762e-01 -7.161507010459899902e-02 1.178660243749618530e-01 -9.684133343398571014e-03 2.737948438152670860e-03 -1.183157786726951599e-01 8.088099275482818484e-05 1.903438568115234375e-01 -2.727942046476528049e-05 -1.348367035388946533e-01 6.047435477375984192e-02 6.848953664302825928e-02 4.963319897651672363e-01 -2.902392148971557617e-01 8.007534593343734741e-02 1.477710157632827759e-01 -1.546803712844848633e-01 -8.354006707668304443e-02 1.799697726964950562e-01 -1.589408218860626221e-01 -4.205789268016815186e-01 -1.280357688665390015e-01 -1.847336301580071449e-03 -7.786785718053579330e-03 -1.449530292302370071e-02 2.651117043569684029e-03 1.384966969490051270e-01 1.187064424157142639e-01 6.042283773422241211e-02 1.252828224096447229e-05 -2.400800585746765137e-01 -2.404070496559143066e-01 5.425055976957082748e-03 4.319044575095176697e-02 2.172972857952117920e-01 -4.768294095993041992e-01 4.016269370913505554e-02 2.429468333721160889e-01 -5.900087356567382812e-01 -1.366852521896362305e-01 1.219798326492309570e-01 -3.861023485660552979e-01 3.849189306492917240e-05 1.550577133893966675e-01 6.155118942260742188e-01 -3.165623545646667480e-01 -1.255515310913324356e-02 -6.102487444877624512e-02 -3.043388724327087402e-01 1.201657056808471680e-01 -6.836211681365966797e-01 -2.423170655965805054e-01 9.263492375612258911e-02 -5.113404989242553711e-01 1.501339673995971680e-01 1.703568100929260254e-01 8.669234812259674072e-03 3.581067547202110291e-02 -1.413796544075012207e-01 8.121730387210845947e-02 4.747545346617698669e-02 -1.699660569429397583e-01 -1.183981192298233509e-03 7.128351181745529175e-02 -1.503719240427017212e-01 7.924157398520037532e-05 2.350249997107312083e-05 -2.666564658284187317e-03 5.288361385464668274e-02 -2.705828547477722168e-01 3.916783630847930908e-01 -3.299872875213623047e-01 -5.626972317695617676e-01 1.638104170560836792e-01 2.447227686643600464e-01 5.407438948168419302e-06 -1.981864720582962036e-01 2.353222807869315147e-04 -5.925362557172775269e-02
6.604088842868804932e-02 -1.373322308063507080e-01 -3.357936657266691327e-05 -1.485172212123870850e-01 1.768455803394317627e-01 1.924218833446502686e-01 1.192149594426155090e-01 3.789597377181053162e-02 5.148131749592721462e-04 5.036419630050659180e-01 -6.854000687599182129e-02 2.275743335485458374e-02 1.924016885459423065e-02 3.845387399196624756e-01 -2.872679233551025391e-01 -1.718111634254455566e-01 -1.012570937746204436e-04 4.635080695152282715e-02 -5.162643790245056152e-01 -5.680208206176757812e-01 4.322310164570808411e-02 -1.763636320829391479e-01 2.512587606906890869e-01 1.714497432112693787e-02 -6.036818027496337891e-01 1.686691045761108398e-01 -3.490759432315826416e-01 -1.218812167644500732e-01 2.938290834426879883e-01 -3.082242619711905718e-05 9.825008455663919449e-04 4.121430218219757080e-01 -4.697564989328384399e-02 -6.626058220863342285e-01 -1.109092980623245239e-01 1.557306200265884399e-01 1.955109983682632446e-01 2.674306631088256836e-01 -3.842081427574157715e-01 -3.316870331764221191e-02 1.922473013401031494e-01 -2.980799078941345215e-01 3.570855855941772461e-01 2.096439450979232788e-01 -1.208768412470817566e-01 -1.442418545484542847e-01 6.945760105736553669e-06 1.340834796428680420e-01 2.104472517967224121e-01 -1.740964502096176147e-01 1.891441643238067627e-02 -3.759663179516792297e-02 -8.310204371809959412e-03 -2.448465116322040558e-02 7.310144603252410889e-02 -1.838717907667160034e-01 1.642734557390213013e-01 -2.150017619132995605e-01 1.342246085405349731e-01 -2.586421072483062744e-01 2.372047007083892822e-01 1.179169397801160812e-03 -1.011671051383018494e-01 2.959448099136352539e-01 3.306064009666442871e-01 -1.178553327918052673e-01 -2.059106373053509742e-05 4.582164809107780457e-02 2.728410661220550537e-01 -2.351297587156295776e-01 -2.747963666915893555e-01 -6.291455775499343872e-02 3.790930286049842834e-02 8.866305351257324219e-01 -3.735993802547454834e-01 5.141129344701766968e-02 8.175431191921234131e-02 -4.862637221813201904e-01 1.186147406697273254e-01 1.851431094110012054e-02 3.637083247303962708e-02 1.953826993703842163e-01 8.879823726601898670e-04 1.066946387290954590e-01 2.749865949153900146e-01 -1.380856484174728394e-01 6.335879117250442505e-02 -3.219779682694934309e-05 4.213797001284547150e-05 -1.719467341899871826e-01 7.243362814188003540e-02 -1.899396479129791260e-01 8.157625049352645874e-02 -9.536825120449066162e-02 -2.148469686508178711e-01 -1.311244368553161621e-01 -4.078708298038691282e-05 1.559394150972366333e-01 -3.429019078612327576e-02 5.991626158356666565e-02
1.516680121421813965e-01 -3.249114751815795898e-02 8.209202860598452389e-06 1.564561761915683746e-02 -1.592743843793869019e-01 4.196700826287269592e-02 7.183757144957780838e-03 8.974556811153888702e-03 2.003338420763611794e-03 -3.545627295970916748e-01 1.653161234571598470e-05 -1.774698644876480103e-01 -1.788902282714843750e-02 1.955067180097103119e-02 2.236342877149581909e-01 -1.308533698320388794e-01 -2.498356066644191742e-02 -1.345310509204864502e-01 1.785584352910518646e-02 4.837650805711746216e-02 -1.153406426310539246e-01 5.768392607569694519e-02 -3.231339454650878906e-01 -3.744460642337799072e-01 1.357734650373458862e-01 -2.009761035442352295e-01 2.116812914609909058e-01 -2.756647765636444092e-02 -3.554252386093139648e-01 2.237130105495452881e-01 -2.917537987232208252e-01 -1.631084829568862915e-01 6.110917638579849154e-06 4.622378572821617126e-02 9.126225113868713379e-02 -7.149604707956314087e-02 2.461146116256713867e-01 4.477732256054878235e-02 -7.680981885641813278e-03 2.263094633817672729e-01 1.929275840520858765e-01 7.002708315849304199e-02 -1.674457080662250519e-02 3.388357758522033691e-01 4.274711385369300842e-02 1.054018065333366394e-01 8.136456926877144724e-06 -1.676462441682815552e-01 3.537468239665031433e-02 2.237093448638916016e-01 -1.617372163309482858e-06 2.850630283355712891e-01 1.304099857807159424e-01 1.501398980617523193e-01 1.493987590074539185e-01 9.122014744207262993e-04 -7.239294797182083130e-02 -3.407547771930694580e-01 6.357990205287933350e-02 2.795264124870300293e-01 -4.138194620609283447e-01 1.230716407299041748e-01 3.532382473349571228e-02 -4.223104938864707947e-02 -2.609937787055969238e-01 2.961507141590118408e-01 1.846545934677124023e-01 1.674020439386367798e-01 7.264807820320129395e-02 -1.600330919027328491e-01 -5.087725818157196045e-02 -3.436345607042312622e-02 -6.757076829671859741e-03 -4.040539264678955078e-01 7.857844233512878418e-02 2.146236598491668701e-02 6.760941445827484131e-02 3.159075677394866943e-01 2.482984960079193115e-01 8.823466487228870392e-06 -1.710199415683746338e-01 6.690517067909240723e-02 -1.132044419646263123e-01 -9.444648027420043945e-02 -2.848416268825531006e-01 -7.758786529302597046e-02 -2.155349999666213989e-01 1.199470352730713785e-05 8.103392246994189918e-06 -4.069293662905693054e-02 8.415313810110092163e-02 -2.156517654657363892e-01 3.139289095997810364e-02 3.747903406620025635e-01 -9.403602778911590576e-02 3.809623420238494873e-03 1.085370695363963023e-05 -1.629511266946792603e-01 -1.597571372985839844e-01 6.734301149845123291e-02
5.879165232181549072e-02 4.999638721346855164e-02 -2.724161095102317631e-05 -2.082187682390213013e-01 7.160867750644683838e-02 1.998855918645858765e-01 5.441576242446899414e-01 2.729998528957366943e-01 7.938377559185028076e-02 1.644209027290344238e-02 8.129164576530456543e-03 4.439960122108459473e-01 8.981358259916305542e-02 -2.891066670417785645e-01 3.407468795776367188e-01 7.019554078578948975e-02 -5.712989345192909241e-02 -1.071709990501403809e-01 6.272937357425689697e-02 -6.929324567317962646e-02 6.866391748189926147e-02 3.770893439650535583e-03 4.049506410956382751e-02 1.309465989470481873e-02 1.942543983459472656e-01 -2.160362601280212402e-01 5.124901980161666870e-02 6.857535243034362793e-02 2.978835068643093109e-02 5.915092304348945618e-02 3.606143891811370850e-01 3.193960785865783691e-01 -2.333863377571105957e-01 6.199890747666358948e-02 -3.551287651062011719e-01 -3.243955373764038086e-01 6.782377511262893677e-02 1.434849947690963745e-01 -2.513741850852966309e-01 -1.636485010385513306e-01 -1.293968489335384220e-05 -2.499895989894866943e-01 3.437191620469093323e-02 -2.696733772754669189e-01 -3.060442209243774414e-01 3.092618286609649658e-01 1.998705118894577026e-01 -1.603779494762420654e-01 -9.792627394199371338e-02 -3.166530653834342957e-02 -1.295513659715652466e-01 -2.911911904811859131e-01 -7.238546013832092285e-02 7.758127152919769287e-02 -2.464283257722854614e-01 -5.793693065643310547e-01 3.802033066749572754e-01 -8.676230162382125854e-02 3.350593522191047668e-02 4.619498271495103836e-03 -1.482504755258560181e-01 -1.002680733799934387e-01 1.587830334901809692e-01 -4.681524634361267090e-02 3.525426983833312988e-01 4.471476674079895020e-01 6.083891168236732483e-02 1.463005202822387218e-03 1.611238867044448853e-01 3.480757772922515869e-02 3.932797312736511230e-01 -1.887194216251373291e-01 -4.040567278861999512e-01 -4.922502115368843079e-02 5.314355343580245972e-02 -3.652865067124366760e-02 3.863332867622375488e-01 1.048014461994171143e-01 1.146417856216430664e-01 -1.733790338039398193e-01 -1.333093792200088501e-01 2.912923321127891541e-02 -3.071222007274627686e-01 1.100736699299886823e-04 3.000957667827606201e-01 4.952705502510070801e-01 1.275475323200225830e-01 3.982226550579071045e-02 -1.300828754901885986e-01 -3.349319100379943848e-01 -1.101033836603164673e-01 -6.529822200536727905e-02 2.235172539949417114e-01 -2.364671528339385986e-01 -1.825789958238601685e-01 2.203134149312973022e-01 -2.624057015054859221e-05 -2.422533780336380005e-01 1.077962070703506470e-01 4.777117283083498478e-06
-9.023711085319519043e-02 -2.767806947231292725e-01 1.426667869091033936e-01 4.160715267062187195e-02 -3.697917796671390533e-03 -1.584249138832092285e-01 -3.859336376190185547e-01 -2.610255479812622070e-01 6.972373812459409237e-04 -2.210905402898788452e-01 -2.123194485902786255e-01 -2.137618809938430786e-01 -1.338661555200815201e-02 5.917565226554870605e-01 -2.984522283077239990e-01 -3.595986664295196533e-01 -1.097035929560661316e-01 4.906256496906280518e-01 9.404012560844421387e-02 -2.381765246391296387e-01 -3.004279136657714844e-01 -2.614208869636058807e-02 2.045782506465911865e-01 1.965785026550292969e-01 -1.018987074494361877e-01 9.241650998592376709e-02 -3.743661046028137207e-01 2.928337641060352325e-02 1.498962193727493286e-01 1.908364333212375641e-02 -1.439429237507283688e-03 1.212866455316543579e-01 -4.455295391380786896e-03 2.139998674392700195e-01 3.227748721837997437e-02 5.107369273900985718e-02 -2.124273777008056641e-01 -1.952704787254333496e-01 1.473137885332107544e-01 4.886315017938613892e-02 3.315513730049133301e-01 -1.692316979169845581e-01 -2.272829264402389526e-01 2.451649866998195648e-02 4.785446822643280029e-01 -2.903213724493980408e-02 1.420338898897171021e-01 2.818661332130432129e-01 2.707401514053344727e-01 -1.190159767866134644e-01 3.554645478725433350e-01 1.817218959331512451e-01 -2.856347560882568359e-01 -7.554262876510620117e-02 -1.574073731899261475e-01 5.522938966751098633e-01 -3.514116108417510986e-01 3.644558489322662354e-01 -1.485451962798833847e-02 -2.592706084251403809e-01 1.605316549539566040e-01 4.722770750522613525e-01 6.951155513525009155e-02 5.099653266370296478e-03 -9.626049548387527466e-02 -1.167776733636856079e-01 -3.528141081333160400e-01 1.544044613838195801e-01 -2.394644469022750854e-01 -2.407333701848983765e-01 -7.090022321790456772e-03 3.569491207599639893e-02 7.837987691164016724e-02 -4.439280368387699127e-03 2.574149072170257568e-01 1.549930311739444733e-02 8.013195544481277466e-02 -4.342609643936157227e-02 -2.090579420328140259e-01 2.644946873188018799e-01 1.786529719829559326e-01 -2.691861093044281006e-01 -1.312288194894790649e-01 -3.779532313346862793e-01 2.598767168819904327e-02 -2.285376787185668945e-01 5.674006883054971695e-03 1.049166619777679443e-01 4.481315240263938904e-02 1.747915148735046387e-01 2.022092975676059723e-02 1.352216750383377075e-01 2.394999144598841667e-03 2.664178907871246338e-01 -1.116837710142135620e-01 1.949037611484527588e-02 4.294298923923633993e-05 -2.129385471343994141e-01 -2.721671164035797119e-01 1.131971552968025208e-01
