-9.220381826162338257e-02
3.609797731041908264e-02
-1.040837913751602173e-02
1.829408667981624603e-02
-5.363062955439090729e-03
1.291748285293579102e-01
-4.162073601037263870e-03
8.875122666358947754e-02
1.836533248424530029e-01
-1.851517148315906525e-02
6.446858495473861694e-02
9.482951281825080514e-05
-1.288156397640705109e-02
-4.195855557918548584e-02
1.181875541806221008e-01
4.585716128349304199e-02
1.574286967515945435e-01
8.946085721254348755e-02
-6.026467774063348770e-03
9.555614553391933441e-03
1.189388707280158997e-01
1.833141297101974487e-01
-3.357060253620147705e-02
-4.887341335415840149e-02
-8.721021004021167755e-03
3.869105875492095947e-02
2.136849164962768555e-01
2.947156503796577454e-02
9.306403994560241699e-02
3.895511105656623840e-02
-9.175242303172126412e-05
6.371047347784042358e-02
-1.410562396049499512e-01
1.016972362995147705e-01
3.547297045588493347e-02
1.667846739292144775e-02
3.626264259219169617e-02
1.070375647395849228e-02
7.588464766740798950e-02
8.282698690891265869e-02
1.490780115127563477e-01
6.299486267380416393e-05
3.044987022876739502e-01
4.914205148816108704e-02
1.294555217027664185e-01
-1.490124315023422241e-02
3.400677815079689026e-02
-2.304513193666934967e-02
1.693796962499618530e-01
4.343777522444725037e-02
2.078184336423873901e-01
-3.992392867803573608e-02
4.196020960807800293e-02
-1.847014203667640686e-02
3.069217316806316376e-02
-7.971266284584999084e-03
-8.858529850840568542e-03
7.037735730409622192e-02
5.764504522085189819e-02
4.259580746293067932e-02
