1.683415286242961884e-02 3.277900218963623047e-01 -1.135338470339775085e-01 9.520187973976135254e-02 -9.012512862682342529e-02 8.275867253541946411e-02 4.234326258301734924e-02 3.222588300704956055e-01 5.513335391879081726e-02 -2.288952916860580444e-01 1.039451882243156433e-01 2.865922749042510986e-01 2.319749891757965088e-01 -2.838692367076873779e-01 -4.767978191375732422e-02 9.260522201657295227e-03 1.948038190603256226e-01 -3.236120641231536865e-01 2.115626633167266846e-01 -1.991635859012603760e-01
8.947259187698364258e-02 -4.783318564295768738e-02 2.496542036533355713e-01 3.992508351802825928e-01 -8.252229541540145874e-03 3.380867540836334229e-01 -8.814436197280883789e-02 -6.741663068532943726e-02 -7.553156465291976929e-02 -1.214785873889923096e-01 2.065738141536712646e-01 3.705794215202331543e-01 -3.408623933792114258e-01 1.166596561670303345e-01 -1.325020790100097656e-01 3.513691723346710205e-01 4.145471006631851196e-02 -4.226256627589464188e-03 -5.418827012181282043e-02 -1.501128971576690674e-01
