4.976312071084976196e-02
4.224475845694541931e-02
7.717550033703446388e-06
1.477797795087099075e-02
4.656376689672470093e-02
7.878289557993412018e-03
2.479191869497299194e-03
-2.284398302435874939e-02
1.489917635917663574e-01
-1.471357643604278564e-01
4.062088206410408020e-02
-1.334042102098464966e-01
1.404302008450031281e-02
1.859360560774803162e-02
-1.023999825119972229e-01
4.922840371727943420e-02
2.508049607276916504e-01
2.200017869472503662e-02
3.967905044555664062e-02
2.841887762770056725e-03
-5.457053892314434052e-03
-1.576429978013038635e-02
4.396444559097290039e-02
4.123279824852943420e-02
3.070621006190776825e-02
4.182713851332664490e-02
1.029788479208946228e-01
-2.611771225929260254e-03
-2.188971638679504395e-02
5.012152250856161118e-03
1.128062456846237183e-01
-2.175129950046539307e-02
2.229799330234527588e-02
7.956330664455890656e-03
-6.470096111297607422e-01
3.027866408228874207e-02
-2.832195059454534203e-05
4.441951401531696320e-03
-7.277354598045349121e-02
-1.591020612977445126e-03
