-1.755852997303009033e-01 2.646010518074035645e-01 -6.491716951131820679e-02 -7.329455763101577759e-02 2.972209751605987549e-01 8.950230039772577584e-06 -2.807148396968841553e-01 2.182437583542196080e-06 -2.722246348857879639e-01 -4.290679469704627991e-03 1.962123662233352661e-01 2.214128226041793823e-01 -6.847637891769409180e-02 -1.420352756977081299e-01 -2.732310891151428223e-01 -9.975295513868331909e-02 3.183499872684478760e-01 4.248132881912169978e-06 -1.864418038167059422e-03 2.007579654455184937e-01 1.868777163326740265e-02 -2.799716639856342226e-06 -2.407976090908050537e-01 -1.099787801504135132e-01 2.581441402435302734e-01 1.614343225955963135e-01 -1.871231645345687866e-01 6.205139309167861938e-02 5.821733735501766205e-03 -1.370160132646560669e-01 -2.263019233942031860e-01 -3.421400114893913269e-02 -1.049740831149392761e-06 2.827941998839378357e-02 -1.725624874234199524e-02 -7.037998735904693604e-02 -2.977553009986877441e-01 -1.994042247533798218e-01 3.059228902202448808e-06 -1.007925271987915039e-01 -2.870044909286662005e-06 -3.116141818463802338e-02 1.101326346397399902e-01 -1.926725872181123123e-07 1.865238100290298462e-01 -6.698557172057917342e-06 -9.599060565233230591e-02 -2.529968242015456781e-06 6.333968043327331543e-02 -1.361629664897918701e-01 3.992678821086883545e-01 3.470119833946228027e-01 6.382001936435699463e-02 3.511837124824523926e-01 2.195830802520504221e-06 -3.144194806736777537e-07 1.695806086063385010e-01 2.584251016378402710e-02 1.443389207124710083e-01 1.027029611577745527e-05
2.571592107415199280e-03 -2.117296680808067322e-02 -7.525256276130676270e-02 -2.962640523910522461e-01 2.770912945270538330e-01 -1.906836928355915006e-07 -1.480329334735870361e-01 8.598170779805514030e-07 -1.735900640487670898e-01 -1.142200082540512085e-01 2.322938889265060425e-01 6.606689840555191040e-02 -4.139748811721801758e-01 -8.092205971479415894e-02 -6.987339258193969727e-02 -3.083373308181762695e-01 -5.460597574710845947e-02 2.405450231890426949e-06 1.394929140806198120e-01 1.066099330782890320e-01 -6.108312681317329407e-02 3.845360367904504528e-07 6.672909110784530640e-02 -2.716320455074310303e-01 -1.346424408257007599e-02 -2.707898020744323730e-01 1.897849738597869873e-01 -3.211149200797080994e-02 6.505151838064193726e-02 -3.849340975284576416e-01 6.499247997999191284e-02 -2.303514629602432251e-01 -4.614025783666875213e-07 -4.584222286939620972e-02 2.655423283576965332e-01 2.180404216051101685e-01 1.665424108505249023e-01 8.747140318155288696e-02 2.461660187691450119e-06 -2.066392153501510620e-01 -1.556398501634248532e-06 1.790262758731842041e-02 -1.147187780588865280e-02 8.764616836742789019e-07 5.622442439198493958e-02 3.406237283343216404e-07 1.324641108512878418e-01 -1.941316213560639881e-06 -1.730378717184066772e-01 -3.648896515369415283e-01 1.368238180875778198e-01 -7.081105560064315796e-02 -4.142443090677261353e-02 1.777255684137344360e-01 -2.723479610722279176e-06 6.077267471482628025e-07 1.848699152469635010e-01 -1.455365270376205444e-01 1.015437301248311996e-02 -1.517508621873275843e-06
3.964614868164062500e-02 -2.686596963030751795e-05 1.896108733490109444e-05 -8.496886948705650866e-06 1.957556014531292021e-05 1.006839647743618116e-05 -8.663622289896011353e-02 -4.203538992442190647e-06 1.462115198373794556e-01 -1.160142983280820772e-05 3.880216972902417183e-04 1.111951314669568092e-05 1.086109429597854614e-01 -1.093292303266935050e-05 -2.687167227268218994e-01 -1.752022504806518555e-01 -2.737175440415740013e-03 4.165679456491488963e-06 2.295074864377966151e-06 -3.394935629330575466e-05 -2.199655771255493164e-01 -9.157301974482834339e-06 2.439792640507221222e-02 -2.858062274754047394e-03 1.614862531423568726e-01 2.131919245584867895e-05 1.250426248589064926e-05 1.166730523109436035e-01 -9.766142815351486206e-02 -1.547193676233291626e-01 2.457421831786632538e-02 -5.299201802699826658e-06 1.784376308933133259e-06 -1.746602240018546581e-03 -4.937526318826712668e-05 1.080244183540344238e-01 -1.087501272559165955e-02 -1.251509274879936129e-06 9.510525160294491798e-06 -9.312037378549575806e-02 -3.696052317536668852e-06 3.258851575083099306e-05 1.159650459885597229e-01 1.189524482470005751e-05 2.753387689590454102e-01 5.713585778721608222e-06 -1.271412800997495651e-02 3.720259883266407996e-06 5.958301573991775513e-02 -2.852070033550262451e-01 2.269634008407592773e-01 -1.143662258982658386e-02 -7.637947797775268555e-02 -1.762251257896423340e-01 -3.411365923966513947e-06 -6.422487786039710045e-06 1.394461560266790912e-05 -8.952562510967254639e-02 -4.229668527841567993e-02 3.224530519219115376e-05
1.961921006441116333e-01 -2.046603003691416234e-05 -1.881799101829528809e-01 -1.042423117905855179e-02 6.763095501810312271e-03 -3.295110673207091168e-08 -1.877848058938980103e-02 -2.691481768124504015e-06 -3.230738267302513123e-02 -7.869875058531761169e-03 -2.565761506557464600e-01 1.337967365980148315e-01 1.879857033491134644e-01 5.093389749526977539e-02 1.696920581161975861e-02 1.742117665708065033e-02 -3.542227745056152344e-01 6.250950718822423369e-06 3.643456693680491298e-06 2.424979582428932190e-02 1.178814768791198730e-01 -2.711913111852481961e-06 -1.999332606792449951e-01 -1.751946285367012024e-02 -5.793669447302818298e-02 7.679024338722229004e-02 1.248773559927940369e-01 1.766710728406906128e-01 -3.860597684979438782e-02 2.295486927032470703e-01 -2.612713575363159180e-01 -1.859672251157462597e-03 -4.928137514070840552e-06 1.924009621143341064e-01 1.127388179302215576e-01 -3.216147422790527344e-03 -9.823101758956909180e-02 1.711660772562026978e-01 -4.881239874521270394e-06 -1.056351736187934875e-01 -1.798507014427741524e-06 3.045945167541503906e-01 1.422626823186874390e-01 -2.336253146495437250e-07 -6.590529531240463257e-02 -4.327586793806403875e-06 2.593968747532926500e-05 -8.919008905650116503e-06 -7.020233571529388428e-02 1.085270121693611145e-01 -1.334300041198730469e-01 -2.020615647779777646e-05 -3.329120203852653503e-02 -2.040816545486450195e-01 -1.630381120776291937e-06 -1.084774703485891223e-05 8.865579962730407715e-02 -2.001241743564605713e-01 -1.380235254764556885e-01 -5.442427664092974737e-08
-1.124258935451507568e-01 1.065582409501075745e-01 3.707515448331832886e-02 -3.686986565589904785e-01 1.851565837860107422e-01 2.056601488220621832e-06 -5.190008133649826050e-02 3.803091885856701992e-07 -9.519064426422119141e-02 -2.014594152569770813e-02 5.608929693698883057e-02 2.260644435882568359e-01 -1.071164850145578384e-02 -1.413655430078506470e-01 -1.587760150432586670e-01 -1.921762898564338684e-02 -6.497899536043405533e-03 1.402609314027358778e-06 1.021520718932151794e-01 -2.998049929738044739e-02 -2.523819804191589355e-01 -9.145954322775651235e-07 1.825753301382064819e-01 -8.842916041612625122e-02 -1.230459064245223999e-01 -4.616834223270416260e-02 1.064931675791740417e-01 -2.001085579395294189e-01 -2.283285856246948242e-01 -1.668979227542877197e-01 -6.652793288230895996e-02 1.279184073209762573e-01 1.764411081239813939e-06 5.449711807159474120e-06 -9.734764695167541504e-02 2.515461668372154236e-02 -1.781677752733230591e-01 -4.722155630588531494e-03 4.396552867547143251e-06 -1.278534904122352600e-02 8.173158221325138584e-07 1.900337636470794678e-01 5.030248686671257019e-02 -1.759123051670030691e-06 7.508723437786102295e-02 -4.154494490649085492e-07 -1.698746681213378906e-01 1.001283635559957474e-06 1.737501285970211029e-02 -3.252417445182800293e-01 -5.274868011474609375e-02 -2.072704723104834557e-03 -1.671794801950454712e-02 9.597571939229965210e-02 1.148003093476290815e-06 -9.763406296769971959e-07 7.967679947614669800e-02 1.788287907838821411e-01 -2.312658354640007019e-02 8.688828074809862301e-07
-2.099565714597702026e-01 4.849352687597274780e-02 -5.611662566661834717e-02 -3.084187805652618408e-01 -1.954369544982910156e-01 2.081558250210946426e-06 8.935154974460601807e-02 -2.935330485343001783e-07 -3.759681880474090576e-01 9.017500095069408417e-03 1.123674213886260986e-01 -1.224940419197082520e-01 -4.674635231494903564e-01 -1.188584715127944946e-01 -2.037723809480667114e-01 2.273523658514022827e-01 2.658014744520187378e-02 -5.289682576403720304e-06 -2.488082647323608398e-01 2.319598793983459473e-01 4.029203355312347412e-01 2.862773840206500608e-08 -7.385435514152050018e-03 2.793448977172374725e-02 2.309603244066238403e-01 -1.852509677410125732e-01 4.459395632147789001e-02 1.847674697637557983e-01 1.527921557426452637e-01 3.790147975087165833e-02 -3.720847070217132568e-01 1.537831593304872513e-02 -1.994877720790100284e-06 2.045947611331939697e-01 -1.431060582399368286e-01 -7.055696845054626465e-02 3.016068227589130402e-02 3.434738144278526306e-02 -2.824205921569955535e-06 -5.032439157366752625e-02 -5.126526048115920275e-06 3.110019564628601074e-01 -1.781067103147506714e-01 4.745234946312848479e-06 -5.028751865029335022e-02 -1.034778733810526319e-06 -6.617971695959568024e-03 -9.725772542878985405e-06 -2.576227188110351562e-01 -6.062940880656242371e-02 -9.793216735124588013e-02 4.300049692392349243e-02 -3.359356224536895752e-01 2.392479404807090759e-02 3.480760824459139258e-06 -5.396736014517955482e-06 9.502351284027099609e-03 -2.011892050504684448e-01 -9.886692464351654053e-02 -4.063152118760626763e-06
-1.510872095823287964e-01 -2.334380522370338440e-02 2.897903323173522949e-01 1.438916027545928955e-01 2.877336442470550537e-01 5.833575414726510644e-06 -1.604164540767669678e-01 -1.112082145482418127e-06 2.178385108709335327e-02 -1.538649667054414749e-03 -1.583409458398818970e-01 1.537349075078964233e-01 -1.976237446069717407e-01 2.698880136013031006e-01 -1.477844268083572388e-01 -6.895992159843444824e-02 -1.029080301523208618e-01 -1.519554530204914045e-06 -1.472417861223220825e-01 -9.175678342580795288e-02 8.519160747528076172e-02 1.837345280364388600e-07 1.281065195798873901e-01 -2.869996055960655212e-02 3.154454231262207031e-01 1.449695136398077011e-02 8.594440296292304993e-03 1.776794344186782837e-01 1.051720604300498962e-01 7.369817793369293213e-02 1.942912936210632324e-01 -2.570304870605468750e-01 7.368682872765930369e-07 3.587518036365509033e-01 3.996823728084564209e-02 -3.462539613246917725e-02 -2.449726462364196777e-01 1.398179531097412109e-01 2.204212250944692641e-06 2.831560373306274414e-01 3.058757556573254988e-06 1.581005156040191650e-01 2.300467193126678467e-01 -1.810346816455421504e-06 -5.082693323493003845e-02 -2.534741270210361108e-06 -1.293610781431198120e-01 -3.276038569310912862e-06 -1.435791850090026855e-01 3.878432214260101318e-01 -1.105237007141113281e-01 1.561097521334886551e-02 2.384200245141983032e-01 -9.507014602422714233e-02 1.450217609999526758e-06 -5.122024504089495167e-06 1.475659906864166260e-01 -2.341569662094116211e-01 4.549754038453102112e-02 8.489882930007297546e-08
-2.519125938415527344e-01 2.595691084861755371e-01 1.133426303567830473e-05 -1.783799529075622559e-01 2.832831740379333496e-01 -3.265181476308498532e-07 -1.559000164270401001e-01 -1.137474100687541068e-06 -2.339295111596584320e-02 -6.864530034363269806e-03 1.712406873703002930e-01 -1.024240329861640930e-01 -5.370963364839553833e-03 -5.208599939942359924e-02 5.963249132037162781e-02 1.083410233259201050e-01 2.016189843416213989e-01 3.254023340559797361e-06 -1.251320391893386841e-01 1.387989073991775513e-01 -2.134607285261154175e-01 -2.983925242006080225e-06 2.120926827192306519e-01 -2.229199260473251343e-01 1.202331110835075378e-01 -3.274699449539184570e-01 -1.078632920980453491e-01 -7.640265673398971558e-02 -2.728701233863830566e-01 7.828089408576488495e-03 -2.695147395133972168e-01 1.041533425450325012e-01 -1.683567461441271007e-06 -6.788586080074310303e-02 -3.739441633224487305e-01 -1.603701263666152954e-01 -9.423183649778366089e-02 -2.478603273630142212e-02 2.256441348436055705e-06 2.007511502597481012e-04 -3.805337200901703909e-08 2.377773448824882507e-02 1.209430769085884094e-02 -5.901858457946218550e-06 1.384362280368804932e-01 -8.808324309939052910e-06 1.641136109828948975e-01 -5.413799499365268275e-06 -1.163612352684140205e-03 -1.196122840046882629e-01 1.062907502055168152e-01 5.897087603807449341e-02 -1.432421058416366577e-01 -1.510525047779083252e-01 5.861825684405630454e-06 -2.377629016336868517e-06 1.280390173196792603e-01 2.392977923154830933e-01 -2.151497825980186462e-02 2.559835593274328858e-06
-1.364030987024307251e-01 6.490550190210342407e-02 3.182082474231719971e-01 1.273451466113328934e-02 -3.849453479051589966e-02 2.793942712742136791e-06 -2.790410816669464111e-02 -1.066870026988908648e-05 -3.639314770698547363e-01 -6.797445565462112427e-02 -7.979598827660083771e-03 9.131225943565368652e-02 -1.915876865386962891e-01 3.010520935058593750e-01 1.252523362636566162e-01 1.508000493049621582e-01 -1.487656384706497192e-01 6.620698968617944047e-06 -6.236203759908676147e-02 5.995362251996994019e-02 1.739755868911743164e-01 1.354526602881378494e-06 1.904486715793609619e-01 6.620550155639648438e-02 3.582764863967895508e-01 -3.156665861606597900e-01 -1.063991896808147430e-02 1.778612378984689713e-03 1.132835671305656433e-01 6.926375627517700195e-02 1.974814105778932571e-03 -6.302512437105178833e-02 -1.304428769799415022e-05 1.863704092102125287e-04 -1.460098177194595337e-01 5.349152162671089172e-02 1.769082844257354736e-01 8.528103679418563843e-02 4.761210220749489963e-06 2.443950623273849487e-01 -1.960734834938193671e-06 2.723156511783599854e-01 -3.450924754142761230e-01 -1.149595391325419769e-06 1.525320261716842651e-01 -2.263509486510884017e-07 -4.271258413791656494e-02 -1.878862349258270115e-06 4.229598864912986755e-02 -8.400461822748184204e-02 2.728203237056732178e-01 -1.359017640352249146e-01 -1.600656658411026001e-01 -6.585621088743209839e-02 1.094611889129737392e-06 5.819098987558390945e-06 1.804462075233459473e-01 -1.755443662405014038e-01 1.554876714944839478e-01 6.945940640434855595e-06
2.691326737403869629e-01 -2.530386149883270264e-01 -2.133645117282867432e-01 2.115565091371536255e-01 -1.767953634262084961e-01 5.983814389765029773e-06 6.966050714254379272e-02 4.198802798782708123e-07 -3.797051608562469482e-01 -9.179048985242843628e-02 -1.425223499536514282e-01 -2.869206368923187256e-01 5.115061998367309570e-01 -2.006515711545944214e-01 -6.171035394072532654e-02 2.673045694828033447e-01 4.827484861016273499e-02 8.630747743154643103e-07 3.407554924488067627e-01 -8.870861679315567017e-02 -2.907227873802185059e-01 -2.744584435276919976e-07 2.645614147186279297e-01 1.854701712727546692e-02 -5.539608187973499298e-03 1.423428393900394440e-02 -2.345370650291442871e-01 9.204361587762832642e-02 -9.759741835296154022e-03 -1.345069259405136108e-01 4.542286321520805359e-02 -1.410970687866210938e-01 -1.715804955892963335e-07 -1.205874830484390259e-01 2.417315030470490456e-03 7.491435855627059937e-02 5.769970268011093140e-02 1.063434928655624390e-01 -2.270837740070419386e-08 -1.123613268136978149e-01 -2.632787300171912648e-06 -1.810762286186218262e-01 -1.554376035928726196e-01 -1.438912477169651538e-06 1.754354685544967651e-01 5.694315632354118861e-07 -2.028734833002090454e-01 2.667071157702594064e-06 9.839855879545211792e-02 1.777033060789108276e-01 3.639186918735504150e-01 -3.414369821548461914e-01 -2.444175928831100464e-01 -4.936205968260765076e-02 3.441235321588465013e-06 1.818011696741450578e-08 7.012629508972167969e-02 3.033184111118316650e-01 2.488378733396530151e-01 -4.622932010533986613e-07
-7.055932283401489258e-02 1.176207959651947021e-01 2.258640527725219727e-01 -1.322536468505859375e-01 2.788330311886966228e-05 -2.362834948144154623e-06 2.053811401128768921e-01 2.121313400493818335e-07 -2.857749909162521362e-02 2.475840225815773010e-02 1.567361354827880859e-01 1.046224460005760193e-01 7.188941538333892822e-02 -9.516239911317825317e-02 1.100195124745368958e-01 3.298105597496032715e-01 1.167606636881828308e-01 -6.016355200699763373e-07 -1.308856159448623657e-01 -2.579933702945709229e-01 9.275856614112854004e-02 1.797965524019673467e-06 3.059701323509216309e-01 -3.141285479068756104e-02 -1.551998257637023926e-01 -2.454919070005416870e-01 2.152167260646820068e-01 1.565925329923629761e-01 -8.215782046318054199e-02 8.495925366878509521e-02 2.426850050687789917e-01 9.208109229803085327e-02 -1.625251798031968065e-06 -5.938682705163955688e-02 4.294294714927673340e-01 5.227867513895034790e-02 1.805185824632644653e-01 -1.344876131042838097e-03 1.152879008259333204e-06 -2.076442986726760864e-01 -1.766454261087346822e-06 -6.528751691803336143e-04 7.575295120477676392e-02 -4.034814082842785865e-07 1.728325635194778442e-01 4.633535354514606297e-06 2.290436774492263794e-01 -2.061841541944886558e-06 4.172326251864433289e-02 -7.080899924039840698e-02 -2.047982998192310333e-02 2.665008902549743652e-01 -1.994146704673767090e-01 1.393181234598159790e-01 -5.354459517548093572e-06 3.650061671578441747e-06 -1.018635034561157227e-01 4.118156433105468750e-02 -1.516124457120895386e-01 -9.382063126395223662e-07
3.364102244377136230e-01 2.903546392917633057e-01 2.803797721862792969e-01 3.624466359615325928e-01 -1.094968407414853573e-03 -3.365741349625750445e-06 2.530327737331390381e-01 -3.826281044894130901e-06 -2.051085978746414185e-01 6.635277532041072845e-04 1.209139451384544373e-01 2.490172982215881348e-01 3.997231721878051758e-01 -6.987269967794418335e-02 2.736683189868927002e-02 -5.427416786551475525e-02 -1.177616715431213379e-01 -2.936757482530083507e-06 3.376345708966255188e-02 -3.530794978141784668e-01 4.561377689242362976e-02 1.031151896313531324e-06 -5.662873387336730957e-02 1.861708462238311768e-01 -3.854033723473548889e-02 -1.164218038320541382e-01 -4.941402003169059753e-02 -1.226375550031661987e-01 1.257855445146560669e-02 -8.079556375741958618e-02 1.915830671787261963e-01 1.147996708750724792e-01 1.020620402414351702e-06 8.761974424123764038e-02 -2.469449304044246674e-03 5.205842852592468262e-02 7.582817226648330688e-02 -3.005566895008087158e-01 8.060031859713490121e-07 -1.932402998208999634e-01 -1.781504352038609795e-06 -3.065412044525146484e-01 2.840211987495422363e-01 2.411452896922128275e-06 2.260434180498123169e-01 4.512708528636721894e-06 1.689591109752655029e-01 3.931446372007485479e-06 2.052612006664276123e-01 1.112350299954414368e-01 7.987456023693084717e-02 -1.808328777551651001e-01 2.113389968872070312e-01 6.374888122081756592e-02 4.998458962290897034e-07 4.625962901627644897e-06 -1.293425410985946655e-01 -2.689383924007415771e-02 -1.840549260377883911e-01 -1.068531105374859180e-06
-9.305872023105621338e-03 2.245202958583831787e-01 -1.176080405712127686e-01 3.726665303111076355e-02 -1.915678679943084717e-01 4.268207476343377493e-07 5.570381134748458862e-02 3.252804106068651890e-07 -4.655207972973585129e-03 3.034490942955017090e-01 2.423605769872665405e-01 3.252193331718444824e-01 7.657389156520366669e-03 1.285035759210586548e-01 7.623692601919174194e-02 1.790521144866943359e-01 -1.541126817464828491e-01 2.009812760661588982e-07 4.136904329061508179e-02 -3.829153180122375488e-01 2.529339492321014404e-01 6.919207748978806194e-07 3.085595965385437012e-01 2.905468642711639404e-01 -1.297255456447601318e-01 8.315529674291610718e-02 2.110970169305801392e-01 -1.067342162132263184e-01 1.528897732496261597e-01 -1.856118589639663696e-01 1.376011222600936890e-01 1.920690536499023438e-01 1.166406036645639688e-06 5.763545632362365723e-03 2.979592978954315186e-01 2.709160149097442627e-01 1.148039326071739197e-01 1.220057755708694458e-01 3.180785597578505985e-06 7.523032277822494507e-02 -2.051959199889097363e-06 -7.113496214151382446e-02 9.634624421596527100e-02 -1.228605015057837591e-06 1.844005435705184937e-01 6.158368819342285860e-07 -2.489072084426879883e-01 1.303873432334512472e-06 -9.137841314077377319e-02 2.168090939521789551e-01 1.164494752883911133e-01 2.209813892841339111e-01 -2.026923447847366333e-01 1.825187504291534424e-01 5.525653250515460968e-07 2.043050017164205201e-06 8.873596925695892423e-06 1.939760148525238037e-01 -1.742729246616363525e-01 4.838360609937808476e-07
1.521426886320114136e-01 7.991355657577514648e-02 -1.059034988284111023e-01 4.839393496513366699e-02 -6.543751806020736694e-02 1.267237439606105909e-05 -4.938367009162902832e-02 6.354072411340894178e-06 9.992014383897185326e-04 -2.483993470668792725e-01 1.119181662797927856e-01 2.036001719534397125e-02 -1.092945691198110580e-02 2.802822887897491455e-01 -9.922681003808975220e-02 3.867744505405426025e-01 1.569572240114212036e-01 2.379948227826389484e-06 -3.700966760516166687e-02 7.102660834789276123e-02 3.203003108501434326e-01 -3.696628937177592888e-06 5.982120707631111145e-02 5.997820943593978882e-02 2.025010734796524048e-01 -1.876927912235260010e-02 -1.161164939403533936e-01 -1.595739722251892090e-01 -2.120599150657653809e-02 1.682758480310440063e-01 -1.465344130992889404e-01 -7.655397802591323853e-02 -9.041995326697360724e-06 -1.278556883335113525e-02 -2.783542871475219727e-01 2.984217703342437744e-01 -4.917251644656062126e-04 -4.066682159900665283e-01 6.533525720442412421e-06 3.308536112308502197e-01 -9.888397471513599157e-06 1.743711084127426147e-01 -2.200127951800823212e-02 2.620980012579821050e-06 1.910066753625869751e-01 -4.241387614456471056e-06 -1.382540315389633179e-01 -5.838431661686627194e-06 1.212520897388458252e-01 2.257466614246368408e-01 4.923384170979261398e-03 3.124665319919586182e-01 1.120380982756614685e-01 2.731146514415740967e-01 2.729757397901266813e-07 -3.625353656389052048e-06 5.823946371674537659e-02 -1.572051793336868286e-01 1.865725666284561157e-01 9.539930033497512341e-06
8.526577800512313843e-02 6.525099277496337891e-03 1.933740451931953430e-02 1.700591854751110077e-02 -6.773670762777328491e-02 -5.279483502818038687e-06 9.275332093238830566e-02 2.201275719926343299e-06 6.337869167327880859e-02 1.124512311071157455e-02 -8.897230029106140137e-03 -1.731301695108413696e-01 1.192978248000144958e-01 -2.099224627017974854e-01 -2.926653027534484863e-01 3.515714108943939209e-01 -2.665106393396854401e-02 -3.971074420405784622e-06 -1.432674825191497803e-01 -6.039967760443687439e-02 -2.029032856225967407e-01 -8.685038892508600838e-07 5.454387515783309937e-02 -3.047583103179931641e-01 -1.215510070323944092e-01 4.702820628881454468e-02 -6.056553870439529419e-02 -8.534120023250579834e-02 -1.974566131830215454e-01 -3.366425037384033203e-01 4.063373208045959473e-01 3.789098234847187996e-03 -8.414102921960875392e-06 -5.316710472106933594e-02 1.484685093164443970e-01 1.169740110635757446e-01 3.030942678451538086e-01 1.635064333677291870e-01 1.022684728013700806e-06 9.652697294950485229e-02 -4.856115992879495025e-06 -4.830890148878097534e-02 -2.314318418502807617e-01 5.148930881659907755e-07 9.149501472711563110e-02 4.949176400259602815e-06 2.261185646057128906e-02 -3.161576387356035411e-06 3.066601157188415527e-01 1.388045698404312134e-01 -1.303333509713411331e-02 1.405407786369323730e-01 -1.063933670520782471e-01 2.802605330944061279e-01 -2.040582558038295247e-06 9.675955880084075034e-06 -1.973394900560379028e-01 1.488709300756454468e-01 6.727033853530883789e-02 -3.372306309756822884e-07
-1.878039985895156860e-01 9.454312021262012422e-06 1.049673780798912048e-01 -2.778621017932891846e-01 -1.141836494207382202e-01 -2.808103545248741284e-07 1.848195642232894897e-01 3.291202801847248338e-06 6.596214324235916138e-02 -4.480821080505847931e-04 -3.132391721010208130e-02 -4.881130158901214600e-02 -2.189404964447021484e-01 5.399253950599813834e-06 7.410991936922073364e-02 1.923492848873138428e-01 6.070736795663833618e-02 -2.503583800717024133e-06 9.158565849065780640e-02 -2.606106363236904144e-02 5.314351245760917664e-02 -2.061337909253779799e-06 3.185276091098785400e-01 -1.774324774742126465e-01 6.317397207021713257e-02 -4.320005327463150024e-02 -3.274307548999786377e-01 -1.436101943254470825e-01 1.879032999277114868e-01 -3.254198729991912842e-01 -7.860822230577468872e-02 -7.233729958534240723e-02 -1.013120709103532135e-06 4.085867106914520264e-01 -1.666329205036163330e-01 1.802911050617694855e-03 1.637167770240921527e-07 -5.478912033140659332e-03 2.253586899314541370e-06 5.317511409521102905e-02 -2.719606868595292326e-07 6.081763282418251038e-02 -8.351505547761917114e-02 -1.963359636647510342e-06 1.045036464929580688e-01 -4.264606104698032141e-06 1.107392381527461112e-05 -7.036312581476522610e-07 -2.253729850053787231e-01 -2.248893119394779205e-02 -9.415972977876663208e-02 2.409292574157007039e-05 2.760668098926544189e-01 -3.093851357698440552e-02 -7.493191333196591586e-06 -6.816460427216952667e-07 -3.729597851634025574e-02 6.675767898559570312e-02 8.884767442941665649e-02 1.662345539443776943e-06
3.700819239020347595e-02 5.571559071540832520e-03 -2.326452173292636871e-02 3.286981955170631409e-02 -5.635801702737808228e-02 7.149922112148487940e-06 3.886227728798985481e-03 1.065263973032415379e-06 8.022684603929519653e-02 1.344354313914664090e-05 2.549510002136230469e-01 -3.020737469196319580e-01 -3.031362593173980713e-01 -1.791947931051254272e-01 -1.288940161466598511e-01 5.699386354535818100e-03 -5.988917872309684753e-02 6.718226813973160461e-06 -1.614695340394973755e-01 1.329488009214401245e-01 2.384110540151596069e-01 4.413227543409448117e-07 -5.514827743172645569e-02 5.157932639122009277e-02 3.496428430080413818e-01 -8.245125412940979004e-02 -2.747024409472942352e-02 4.852545633912086487e-02 1.089438125491142273e-01 -5.680400133132934570e-02 -1.972151547670364380e-01 -9.717474132776260376e-02 -1.729741029521392193e-06 -1.960128843784332275e-01 -1.879867762327194214e-01 -3.926470279693603516e-01 -1.651582568883895874e-01 -1.052356977015733719e-02 5.979615252726944163e-06 -4.654984513763338327e-04 1.389700173604069278e-06 -1.764265596866607666e-01 3.187668621540069580e-01 1.546573912492021918e-06 5.377842579036951065e-03 -9.011253496282733977e-06 -3.008370697498321533e-01 -8.499314390064682811e-07 -2.172353118658065796e-01 5.317540094256401062e-02 -7.454436272382736206e-02 -8.439126610755920410e-02 3.124584257602691650e-01 -5.387986823916435242e-02 7.594942417199490592e-06 -2.113171376549871638e-06 1.401643753051757812e-01 -7.609784603118896484e-02 1.737259477376937866e-01 7.704168638156261295e-06
9.475281089544296265e-02 1.077147275209426880e-01 4.342946410179138184e-02 -8.087648451328277588e-02 2.269915863871574402e-02 -2.156765276595251635e-06 1.790580898523330688e-01 -1.551896730234147981e-06 -2.857691645622253418e-01 -9.671001136302947998e-02 -1.301971524953842163e-01 8.734331279993057251e-02 7.615990191698074341e-02 2.606534957885742188e-01 -9.746286273002624512e-02 1.520730555057525635e-02 -3.581369519233703613e-01 -5.833453087689122185e-06 5.440062843263149261e-03 1.678574830293655396e-01 -2.615646719932556152e-01 1.406891897204332054e-06 -2.295525930821895599e-02 9.577462151355575770e-06 -1.012816131114959717e-01 3.285015467554330826e-03 -2.984851598739624023e-01 -2.618783414363861084e-01 3.075286448001861572e-01 -2.701976895332336426e-01 7.239145785570144653e-02 1.322278082370758057e-01 2.315326128154993057e-06 -3.516402542591094971e-01 1.896906346082687378e-01 -3.409853950142860413e-02 -2.864935398101806641e-01 -2.180096926167607307e-03 1.835621503687434597e-07 -1.125202514231204987e-02 -8.648992206872208044e-07 8.289910852909088135e-02 -8.412616699934005737e-02 1.525886546005494893e-06 -4.086915031075477600e-02 1.012236339192895684e-06 2.200351506471633911e-01 2.348292582610156387e-06 1.706005483865737915e-01 3.056685067713260651e-02 -2.093471400439739227e-02 8.538880944252014160e-02 6.170849874615669250e-02 -3.268711268901824951e-01 -1.031980445986846462e-06 -1.620742750674253330e-06 -2.309573590755462646e-01 1.299130469560623169e-01 -1.182966083288192749e-01 -6.795222816435853019e-06
6.466531008481979370e-02 2.427002982585690916e-05 1.234177872538566589e-02 2.274442017078399658e-01 8.388191461563110352e-02 2.853316345863277093e-06 -1.267475634813308716e-01 -1.202748262585373595e-05 -1.787572354078292847e-01 2.069469094276428223e-01 -4.606208950281143188e-02 3.192240893840789795e-01 3.221624791622161865e-01 -6.498897164419759065e-06 3.423480689525604248e-02 -2.222533524036407471e-01 1.011556535959243774e-01 2.341741947020636871e-06 -2.553822469053557143e-07 -7.052507251501083374e-02 2.650091610848903656e-02 1.427066081305383705e-06 1.451543997973203659e-03 6.081382185220718384e-02 1.756865382194519043e-01 -1.066281856765272096e-05 1.237833350896835327e-01 2.685844898223876953e-01 2.603989243507385254e-01 -7.763022184371948242e-02 -4.535501357167959213e-03 -8.444597013294696808e-03 -7.969096259330399334e-06 5.496209859848022461e-02 -9.628205746412277222e-02 -1.019198149442672729e-01 -2.181050032377243042e-01 1.424934864044189453e-01 6.083011612645350397e-06 -2.800101600587368011e-02 -1.201195846078917384e-05 -1.526410877704620361e-01 -1.351085007190704346e-01 6.648196176683995873e-06 2.282653301954269409e-01 4.386252840049564838e-06 1.419615000486373901e-01 1.307888032897608355e-05 7.494306564331054688e-02 2.046832889318466187e-01 -2.361173480749130249e-01 1.286846026778221130e-02 -1.351564228534698486e-01 -2.071484178304672241e-02 -6.511159881483763456e-06 -5.236861852608853951e-06 1.303436886519193649e-02 -3.427316248416900635e-01 -6.086990982294082642e-02 5.963961484667379409e-07
-8.539198338985443115e-02 -1.386871188879013062e-01 -2.536549698561429977e-03 -2.556063830852508545e-01 -2.938677966594696045e-01 8.794449968263506889e-06 2.550562918186187744e-01 -1.381842366754426621e-06 4.893399775028228760e-02 8.447515964508056641e-02 5.541813373565673828e-02 -1.083890423178672791e-01 -1.660560965538024902e-01 -9.046183526515960693e-02 -2.373717874288558960e-01 1.403732299804687500e-01 -1.115555316209793091e-02 3.995173301518661901e-06 7.866151630878448486e-02 1.129561290144920349e-01 9.139419347047805786e-02 -2.183402330047101714e-06 5.526856333017349243e-02 2.742778062820434570e-01 2.830218374729156494e-01 2.493910118937492371e-02 8.180561661720275879e-02 -1.808620244264602661e-02 1.476285159587860107e-01 -1.842617541551589966e-01 -2.669904381036758423e-02 -2.976452708244323730e-01 -3.289520009275292978e-06 -3.078648075461387634e-02 -2.717564105987548828e-01 1.106380224227905273e-01 -2.295299768447875977e-01 -7.339224964380264282e-02 7.769747753627598286e-06 9.867290407419204712e-02 1.139801770477788523e-05 1.435348670929670334e-02 -8.970474824309349060e-03 -4.049935341754462570e-06 1.401019543409347534e-01 2.014139454331598245e-06 -1.126424297690391541e-01 -4.336400706961285323e-06 -3.203373253345489502e-01 -2.013094164431095123e-02 2.610516846179962158e-01 1.290497020818293095e-03 -1.259142309427261353e-01 -5.198409408330917358e-02 6.368325557559728622e-06 -1.101743328035809100e-05 1.553009450435638428e-01 -1.566613316535949707e-01 4.543478041887283325e-02 3.157557330268900841e-06
-2.774628400802612305e-01 1.491585047915577888e-03 1.900944113731384277e-01 -3.786553740501403809e-01 -2.134219259023666382e-01 9.623833648220170289e-06 -4.407914355397224426e-02 -1.024131051963195205e-06 -2.935439646244049072e-01 2.049274593591690063e-01 -1.746148318052291870e-01 -2.704926766455173492e-02 -2.020138353109359741e-01 2.019618302583694458e-01 -6.590700894594192505e-02 -1.419506072998046875e-01 3.166233003139495850e-01 6.209255843714345247e-06 3.580247238278388977e-02 3.162344545125961304e-02 4.308151546865701675e-03 2.351703187741804868e-06 1.455830223858356476e-02 -3.233402073383331299e-01 -2.582188881933689117e-02 -1.436141878366470337e-01 1.040162593126296997e-01 -1.308956444263458252e-01 -1.502370685338973999e-01 2.564458847045898438e-01 -3.288172185420989990e-01 2.013514339923858643e-01 -4.656097644328838214e-06 3.221965208649635315e-02 -1.990727484226226807e-01 3.291811347007751465e-01 -1.400538349116686732e-05 -1.336919963359832764e-01 1.941999471455346793e-06 1.004958450794219971e-01 -1.995304046431556344e-07 3.208533162251114845e-03 1.451602857559919357e-02 -9.993430012400494888e-07 6.139319390058517456e-03 -4.102417278772918507e-06 -1.362082958221435547e-01 2.754522029135841876e-06 1.609864979982376099e-01 -2.027431428432464600e-01 -2.865780293941497803e-01 6.438244879245758057e-02 -5.458327475935220718e-03 9.925953298807144165e-02 4.745474143419414759e-06 2.451826276228530332e-06 -2.594133373349905014e-03 1.140164211392402649e-01 -9.503082185983657837e-02 -2.121127863574656658e-06
1.529743224382400513e-01 2.620489895343780518e-01 5.545280501246452332e-02 -2.621620595455169678e-01 2.434144616127014160e-01 6.051426225894829258e-06 -8.250138722360134125e-03 3.931947958335513249e-06 5.408292170614004135e-03 2.179306894540786743e-01 1.595431268215179443e-01 2.773637697100639343e-02 -2.242505997419357300e-01 -1.349528692662715912e-02 3.455484285950660706e-02 9.625130891799926758e-02 2.693309187889099121e-01 -2.472354481142247096e-07 -2.172225564718246460e-01 5.716207996010780334e-02 -5.359150841832160950e-02 -1.179033972675824771e-07 -1.009642630815505981e-01 7.579850405454635620e-02 1.254098564386367798e-01 7.298831641674041748e-02 -1.978939026594161987e-01 1.943232715129852295e-01 2.628679573535919189e-01 1.027461364865303040e-01 -1.639761477708816528e-01 -1.705452352762222290e-01 -4.255968178767943755e-06 -7.962961494922637939e-02 -1.644155234098434448e-01 -1.936795748770236969e-02 1.290690060704946518e-02 2.973844408988952637e-01 -2.318923861821531318e-06 -1.346396803855895996e-01 -4.512249688559677452e-06 7.527384161949157715e-02 2.458511888980865479e-01 -4.578227162710390985e-06 -1.670829579234123230e-02 -3.238185399823123589e-06 2.360553890466690063e-01 -8.523961696482729167e-07 -2.509719133377075195e-01 -2.674925625324249268e-01 -2.100192904472351074e-01 -3.818961605429649353e-02 2.054432965815067291e-02 8.426301926374435425e-02 -1.560692453494993970e-06 2.169855406464193948e-07 -5.070733651518821716e-02 -2.349577248096466064e-01 2.089409716427326202e-02 -1.948294539033668116e-07
1.932857930660247803e-01 7.275546342134475708e-02 -5.919361137785017490e-04 1.054394096136093140e-01 1.251070648431777954e-01 3.590904270822647959e-06 6.388773769140243530e-02 -2.609344846860039979e-06 -2.143111377954483032e-01 1.208559647202491760e-01 -1.313926875591278076e-01 -4.309796914458274841e-02 -1.798208802938461304e-02 4.306450858712196350e-02 -2.860178053379058838e-01 2.466634102165699005e-02 -2.737536728382110596e-01 -6.494486115116160363e-06 2.676246128976345062e-02 -3.622265532612800598e-02 -2.265949547290802002e-02 -5.462746230477932841e-06 2.849558293819427490e-01 2.224289923906326294e-01 6.744065135717391968e-02 -1.622343901544809341e-03 2.273163059726357460e-03 -4.410693887621164322e-03 3.060628287494182587e-02 -1.195200309157371521e-01 -9.969203174114227295e-02 1.324114948511123657e-01 5.385136319091543555e-06 1.016024276614189148e-01 1.183607876300811768e-01 -2.808329835534095764e-02 1.807273030281066895e-01 2.722750008106231689e-01 4.199273007543524727e-06 -2.099190801382064819e-01 -4.239384907123167068e-06 -3.692368790507316589e-02 -1.674403995275497437e-02 1.093119635697803460e-06 -5.396456271409988403e-02 4.807425284525379539e-07 -2.086537927389144897e-01 4.977709977538324893e-08 2.057804763317108154e-01 -8.087163418531417847e-02 -2.184266149997711182e-01 1.815985292196273804e-01 -2.430074363946914673e-01 2.019421011209487915e-01 1.102797796193044633e-05 -7.830736649339087307e-06 1.549084484577178955e-01 2.996871061623096466e-02 -4.827041923999786377e-02 3.634884478742606007e-06
7.723811268806457520e-02 -5.351847968995571136e-03 3.725744783878326416e-01 -5.884845554828643799e-02 -8.220628648996353149e-02 -2.365027739870129153e-06 1.610533595085144043e-01 -3.712079887918662280e-08 4.577646031975746155e-02 -5.402226001024246216e-03 1.316374987363815308e-01 5.010180920362472534e-02 -3.746269345283508301e-01 -1.147373840212821960e-01 8.524794876575469971e-02 6.107554584741592407e-02 -8.661308139562606812e-02 8.200174761441303417e-07 3.754932095034746453e-06 -1.802257262170314789e-02 1.617188453674316406e-01 -1.069041445589391515e-06 6.707493215799331665e-02 -9.753455966711044312e-02 -1.891131140291690826e-02 6.258954107761383057e-02 3.627166748046875000e-01 -3.667526692152023315e-02 -1.337562352418899536e-01 -2.351761097088456154e-03 1.703203618526458740e-01 1.262357980012893677e-01 2.106670308421598747e-06 -1.927946507930755615e-01 7.879948616027832031e-02 -3.396013975143432617e-01 -2.099991887807846069e-01 1.665303260087966919e-01 -4.764668574352981523e-06 -3.542478382587432861e-01 -3.019783889612881467e-06 -3.009052388370037079e-02 -2.361692935228347778e-01 -1.384808342663745862e-06 -8.837324567139148712e-03 9.613352631276939064e-06 8.636697381734848022e-02 2.940286776720313355e-06 -2.022919058799743652e-02 3.527905344963073730e-01 3.048178851604461670e-01 -4.115447700023651123e-01 -3.975341916084289551e-01 2.169687487185001373e-02 2.454833065712591633e-07 6.404548457794589922e-06 -3.381744725629687309e-03 1.704661920666694641e-02 1.158392652869224548e-01 1.195116510643856600e-06
-1.377828419208526611e-02 1.122395843267440796e-01 -2.068700082600116730e-02 -7.758069038391113281e-02 2.090380489826202393e-01 1.600422706360404845e-06 2.662364840507507324e-01 -5.566654408539761789e-07 9.798335283994674683e-02 -2.078915834426879883e-01 -2.360902577638626099e-01 1.939897984266281128e-01 -2.876608259975910187e-02 -2.502206265926361084e-01 2.200705260038375854e-01 1.111470088362693787e-01 3.859243541955947876e-02 2.817140511979232542e-06 -1.488793641328811646e-01 -1.906684041023254395e-01 3.476562500000000000e-01 -2.764014084277732763e-07 -1.728981286287307739e-01 1.425533890724182129e-01 -5.212534964084625244e-02 1.580267101526260376e-01 -8.880741894245147705e-02 -1.499672327190637589e-02 -3.077477514743804932e-01 2.759515643119812012e-01 1.667951941490173340e-01 -4.145635291934013367e-02 1.527187123429030180e-06 8.527303487062454224e-02 8.274198323488235474e-02 -3.386943936347961426e-01 6.432715337723493576e-03 -6.235393881797790527e-02 8.321836730829090811e-07 -1.840256452560424805e-01 -5.720019544241949916e-06 1.631751060485839844e-01 8.869149535894393921e-02 9.194130257128563244e-07 -2.436991035938262939e-01 -1.121499849432439078e-06 -4.991567507386207581e-02 2.955192030640318990e-06 -2.304522544145584106e-01 7.778046280145645142e-02 2.763034217059612274e-02 -1.554708182811737061e-01 -3.005396202206611633e-02 -6.516747921705245972e-02 -1.425018581358017400e-06 2.980008503072895110e-06 -1.454382727388292551e-04 2.060507237911224365e-01 1.663176864385604858e-01 -5.214080829318845645e-07
2.356739193201065063e-01 2.324744760990142822e-01 2.688915096223354340e-02 3.202817961573600769e-02 2.360520064830780029e-01 -7.491182259400375187e-06 6.396273523569107056e-02 2.598946593934670091e-06 -1.393762677907943726e-01 -1.353868544101715088e-01 1.522078365087509155e-01 -5.540703609585762024e-02 -1.928157731890678406e-02 1.708602416329085827e-03 4.057003855705261230e-01 -4.049324989318847656e-02 -4.091266393661499023e-01 -2.719015768093413499e-08 -3.687772154808044434e-02 -3.956182897090911865e-01 -2.076538279652595520e-02 3.445541949531616410e-07 2.093013189733028412e-02 -2.271573245525360107e-01 -1.790799200534820557e-01 -6.024736445397138596e-03 -4.621578752994537354e-02 -1.056592464447021484e-01 -2.869517505168914795e-01 -3.576408326625823975e-02 3.150905966758728027e-01 3.897108882665634155e-02 1.263707599719054997e-05 -1.309136301279067993e-01 -1.847764998674392700e-01 -1.016384288668632507e-01 -1.982274502515792847e-01 -1.267882585525512695e-01 -4.877646006207214668e-06 -7.083053886890411377e-02 1.531726525172416586e-06 -1.845109164714813232e-01 1.509817093610763550e-01 -2.509554633434163406e-06 -1.004020050168037415e-01 6.821204578955075704e-07 8.272066712379455566e-02 1.186545159725937992e-05 -7.155375927686691284e-02 3.211997151374816895e-01 -4.300192296504974365e-01 8.415392786264419556e-02 3.709684908390045166e-01 3.954051434993743896e-02 -1.011130916594993323e-05 1.184804477816214785e-05 -3.278002142906188965e-01 -1.090858876705169678e-02 1.461524963378906250e-01 -5.727446477976627648e-06
2.278207093477249146e-01 -5.451711639761924744e-02 -1.313836872577667236e-01 6.137137487530708313e-02 2.233476042747497559e-01 -7.416527296300046146e-06 1.562359742820262909e-02 -3.383999910511192866e-06 -2.110953629016876221e-01 7.605987787246704102e-02 1.138212829828262329e-01 -1.019655838608741760e-01 1.277793347835540771e-01 -3.449401259422302246e-01 -8.225874602794647217e-02 -9.106880053877830505e-03 -8.329252898693084717e-02 1.712290327304799575e-06 -2.973761968314647675e-02 -2.432534098625183105e-01 -1.396689116954803467e-01 1.607712988516141195e-06 8.725666999816894531e-02 -5.632532387971878052e-02 -1.165911778807640076e-01 -1.913197934627532959e-01 1.329636760056018829e-02 -1.732538789510726929e-01 -3.715858459472656250e-01 -1.098082438111305237e-01 2.498871833086013794e-01 1.142126470804214478e-01 3.596130227379035205e-06 -1.136045455932617188e-01 -3.154529929161071777e-01 -1.387980878353118896e-01 -1.433166712522506714e-01 1.577536910772323608e-01 -3.321951908219489269e-06 -1.016821897792397067e-07 -1.320627461609547026e-06 9.422267973423004150e-02 -8.109062165021896362e-02 5.344303417587070726e-07 -9.625784307718276978e-02 9.287025932280812413e-06 -1.761501878499984741e-01 2.199859864049358293e-06 2.451397031545639038e-01 -9.100468456745147705e-02 4.457331076264381409e-02 -9.515161067247390747e-02 -2.000864893198013306e-01 -2.546612173318862915e-02 -3.485097749944543466e-06 1.652558353271160740e-06 1.386121809482574463e-01 -2.023201249539852142e-02 -4.317399486899375916e-02 -9.001537932817882393e-07
2.606003880500793457e-01 -3.289425075054168701e-01 -1.095200106501579285e-01 1.793098449707031250e-01 1.739015802741050720e-02 -1.049908178174518980e-06 2.199985235929489136e-01 -3.225247155569377355e-06 -2.288998290896415710e-02 -3.369554504752159119e-02 -2.052370309829711914e-01 -1.006736159324645996e-01 -2.098365426063537598e-01 1.744632869958877563e-01 1.144540160894393921e-01 2.142945304512977600e-02 1.529186069965362549e-01 8.478517884213943034e-06 -1.506261527538299561e-01 8.627244085073471069e-02 1.483362019062042236e-01 2.305942871316801757e-06 -6.612639129161834717e-02 1.099032461643218994e-01 -6.005131453275680542e-02 1.070671603083610535e-01 -3.543072938919067383e-02 -7.713895291090011597e-03 9.745191037654876709e-02 1.678181886672973633e-01 2.733704149723052979e-01 3.551192209124565125e-02 -2.082662604152574204e-06 -1.278109699487686157e-01 -1.612436622381210327e-01 6.537257134914398193e-02 2.974482774734497070e-01 -1.004944424494169652e-04 -2.421355929982382804e-06 4.827867075800895691e-02 2.919101007137214765e-06 2.114223986864089966e-01 -1.782607436180114746e-01 -1.814518327591940761e-06 -8.092797361314296722e-03 1.251984258487937041e-06 1.355659663677215576e-01 -7.129935966077027842e-06 -1.328493934124708176e-02 1.507351100444793701e-01 1.250169589184224606e-05 -7.154890149831771851e-02 -8.840318769216537476e-03 9.202837944030761719e-02 4.014638761873356998e-06 9.584098279447061941e-07 2.505806982517242432e-01 -2.987691462039947510e-01 1.841316372156143188e-01 7.485298283427255228e-07
-2.000812292098999023e-01 -4.640899533114861697e-06 3.341310620307922363e-01 -6.304901838302612305e-02 -2.075846539810299873e-03 2.165048499591648579e-06 2.049427479505538940e-01 -1.280698143091285601e-06 -2.612550258636474609e-01 -1.630260236561298370e-02 -1.602211892604827881e-01 1.391400992870330811e-01 -3.769466280937194824e-01 1.911442279815673828e-01 -1.313357055187225342e-01 -1.099593378603458405e-02 -3.422577083110809326e-01 5.486796453624265268e-06 2.733942568302154541e-01 2.224106192588806152e-01 -1.278334856033325195e-01 5.709308652512845583e-07 -1.228019595146179199e-01 -2.399423718452453613e-01 2.868513762950897217e-01 1.508521288633346558e-01 -4.831550177186727524e-03 3.956344425678253174e-01 -1.219107732176780701e-01 -1.999364197254180908e-01 5.623898282647132874e-02 -1.874001473188400269e-01 -1.948500312209944241e-06 6.464762985706329346e-02 -8.393526077270507812e-03 -1.970294117927551270e-01 1.212872862815856934e-01 -2.457162588834762573e-01 3.823739007202675566e-06 1.689771935343742371e-02 2.611709533084649593e-06 3.339038193225860596e-01 -1.376639902591705322e-01 1.270268512598704547e-07 -2.871184945106506348e-01 -4.385733063827501610e-06 3.064382076263427734e-01 -8.221165899158222601e-07 -1.585878282785415649e-01 -8.155896328389644623e-03 -2.635758817195892334e-01 4.018200561404228210e-02 -2.561678178608417511e-02 -4.148119390010833740e-01 2.280945409438572824e-06 -3.743587512872181833e-06 -5.705282092094421387e-02 -2.802161872386932373e-01 -5.353393405675888062e-02 1.883491904663969763e-06
-1.879001408815383911e-01 1.154907792806625366e-02 -1.572214365005493164e-01 -4.685152322053909302e-02 -4.985572770237922668e-02 9.866250366030726582e-06 -1.556771546602249146e-01 -4.577543222694657743e-06 4.793806374073028564e-02 2.760460674762725830e-01 2.213553488254547119e-01 -2.844014465808868408e-01 -2.011850476264953613e-01 -2.993905246257781982e-01 9.542442113161087036e-02 -1.691840887069702148e-01 -1.781633794307708740e-01 -1.104787088479497470e-06 2.525109983980655670e-02 -9.684505872428417206e-03 -3.272180259227752686e-01 -1.131463704950874671e-06 1.972877681255340576e-01 -7.306250929832458496e-02 1.506459619849920273e-02 -1.143585890531539917e-01 -6.698470562696456909e-02 7.983675599098205566e-02 3.673325777053833008e-01 7.722707092761993408e-02 -3.072680719196796417e-02 2.924884483218193054e-02 -4.473365606827428564e-06 4.494718089699745178e-02 1.033449545502662659e-01 9.119974449276924133e-03 -1.077129763871198520e-05 1.144151613116264343e-01 -7.548934718215605244e-06 -1.184296444989740849e-03 3.655387445178348571e-06 3.417719528079032898e-02 1.643240004777908325e-01 -5.658077498083002865e-06 -2.292215079069137573e-01 1.969857748918002471e-06 -7.182594388723373413e-02 4.389713467389810830e-06 -1.719775944948196411e-01 -1.813962608575820923e-01 -2.273397743701934814e-01 -1.478652656078338623e-01 -1.938952952623367310e-01 -7.725402712821960449e-02 4.098013505426933989e-06 2.446541884637554176e-06 1.915347820613533258e-05 -7.866407930850982666e-02 -2.651535570621490479e-01 4.002770765509922057e-06
-1.726709306240081787e-01 2.086192220449447632e-01 2.085397988557815552e-01 1.429195553064346313e-01 -3.002113226102665067e-05 -1.579940999363316223e-06 1.066713482141494751e-01 -1.663725129219528753e-06 1.093022525310516357e-02 -4.784563556313514709e-03 -3.208012878894805908e-01 -1.003326028585433960e-01 -1.872521787881851196e-01 -7.041289657354354858e-02 -2.871882729232311249e-02 2.154202461242675781e-01 -2.741931192576885223e-02 -2.756403091552783735e-06 -3.274749219417572021e-02 -6.385676562786102295e-03 -3.839700296521186829e-02 -8.628046543890377507e-08 -4.992015287280082703e-02 1.092412918806076050e-01 8.378198742866516113e-02 2.776473164558410645e-01 -1.443579047918319702e-01 -1.890603750944137573e-01 5.024567618966102600e-02 -1.057252734899520874e-01 -1.501927673816680908e-01 1.462532430887222290e-01 2.677279553608968854e-06 -2.010030299425125122e-01 -1.001244800136191770e-05 9.892486780881881714e-02 -4.736922308802604675e-02 -2.032948583364486694e-01 3.532717073539970443e-06 2.760864736046642065e-04 3.409541477594757453e-06 1.067881882190704346e-01 1.579669862985610962e-01 -8.682939551363233477e-06 -2.274195402860641479e-01 3.388389814062975347e-06 1.570744626224040985e-02 7.844460014894139022e-07 -2.957395315170288086e-01 3.293626755475997925e-02 4.526245966553688049e-02 -1.937567889690399170e-01 2.330642640590667725e-01 -1.308758854866027832e-01 4.751109372591599822e-06 3.251057023589964956e-06 -1.590063869953155518e-01 1.958053857088088989e-01 2.505514305084943771e-03 -6.543007202708395198e-07
1.855211555957794189e-01 -6.987893581390380859e-02 -1.652021110057830811e-01 6.634478271007537842e-02 1.339581310749053955e-01 -3.668991439553792588e-06 1.945094019174575806e-01 -6.980328635108890012e-07 6.582121551036834717e-02 -2.365951240062713623e-01 2.340754568576812744e-01 -3.072007596492767334e-01 -1.368467360734939575e-01 4.272576794028282166e-02 -2.381389141082763672e-01 -5.906420201063156128e-02 2.517752945423126221e-01 2.758720029305550270e-06 -9.038300253450870514e-03 1.779973357915878296e-01 -9.384792647324502468e-04 -3.178144652338232845e-06 1.270391941070556641e-01 -1.262803673744201660e-01 -2.262482233345508575e-02 8.371435105800628662e-02 4.876042902469635010e-02 1.955781690776348114e-02 -1.353370249271392822e-01 -1.257370226085186005e-03 -2.398682683706283569e-01 1.509471535682678223e-01 -5.392190359998494387e-06 3.510212600231170654e-01 -9.381840378046035767e-02 2.279795557260513306e-01 -1.646988987922668457e-01 -5.782765336334705353e-03 1.039232574839843437e-05 1.305269449949264526e-01 1.018036527966614813e-06 -5.601340532302856445e-02 2.120402604341506958e-01 2.197880348830949515e-07 1.621461659669876099e-02 -3.219631935280631296e-06 1.362444013357162476e-01 -4.202670879749348387e-06 7.840362936258316040e-02 -2.303500473499298096e-01 2.170858979225158691e-01 2.324436232447624207e-02 -2.988125979900360107e-01 -7.647612690925598145e-02 1.294089815928600729e-05 -4.771429303218610585e-06 1.844899803400039673e-01 -1.589625179767608643e-01 -3.090965747833251953e-02 4.023020210297545418e-06
-2.167817205190658569e-01 7.273700248333625495e-06 -9.833766520023345947e-02 8.840468944981694221e-05 -3.747962182387709618e-05 8.202106982935220003e-06 2.135394886136054993e-02 -3.720439053722657263e-05 -3.578444244340062141e-03 1.869793413789011538e-05 -2.260103635489940643e-02 8.930525183677673340e-02 5.790769681334495544e-02 6.840520654805004597e-06 -4.080771282315254211e-02 2.382585406303405762e-01 4.476624727249145508e-02 -2.737850263656582683e-05 -1.416550730937160552e-05 2.288096220581792295e-05 6.472449749708175659e-02 -6.757434675819240510e-06 -2.650908008217811584e-02 2.681033583940006793e-05 -4.997454211115837097e-02 -8.453041664324700832e-05 8.413326740264892578e-02 3.845931217074394226e-02 1.518035978078842163e-01 6.637455953750759363e-07 4.087008419446647167e-04 7.922204583883285522e-02 -9.375260560773313046e-06 7.980234175920486450e-02 -3.207193003618158400e-05 -4.419324613991193473e-05 2.671361926331883296e-06 6.458064168691635132e-02 2.124169077433180064e-05 -4.981005191802978516e-02 -6.876160114188678563e-06 -1.420228090864839032e-05 -2.495455294847488403e-01 6.889275937282945961e-06 -9.984221309423446655e-02 -2.893846976803615689e-05 5.949420665274374187e-05 2.065349235635949299e-06 1.127790361642837524e-01 -5.618922039866447449e-02 -1.120477467775344849e-01 -9.938006848096847534e-02 2.436550101265311241e-03 1.725143380463123322e-02 -3.331325842736987397e-06 -1.566197352076414973e-05 -3.096343789366073906e-06 -1.142229288816452026e-01 3.657571505755186081e-05 -6.484002369688823819e-06
-2.904717028141021729e-01 8.662043511867523193e-02 1.244195625185966492e-01 -2.256842255592346191e-01 2.813658863306045532e-02 4.024198460683692247e-06 1.627459675073623657e-01 8.416009222855791450e-08 -6.695480644702911377e-02 -1.150845438241958618e-01 5.891541391611099243e-02 -5.329351127147674561e-02 8.178531378507614136e-02 1.807127147912979126e-01 -6.300077587366104126e-02 -1.036563366651535034e-01 1.242518350481987000e-01 -2.931031758635072038e-06 2.081473022699356079e-01 7.875681668519973755e-02 1.297645717859268188e-01 -1.518673684586246964e-06 8.930170536041259766e-02 2.421804368495941162e-01 -2.052288204431533813e-01 -4.993159323930740356e-02 -6.165784597396850586e-02 -1.591022014617919922e-01 8.683903515338897705e-02 5.494881421327590942e-02 -1.441118866205215454e-01 -1.279677599668502808e-01 -2.276063469253131188e-06 1.543766111135482788e-01 -5.294890701770782471e-02 -7.076559215784072876e-02 2.979066948682884686e-06 -2.288424223661422729e-01 5.763007720815949142e-06 1.763795316219329834e-01 3.666641532618086785e-07 -1.898446381092071533e-01 5.292141437530517578e-02 -7.589916549477493390e-06 3.345327786519192159e-05 3.049331098736729473e-06 -1.014479063451290131e-02 -1.118763066187966615e-06 -8.030471950769424438e-02 -8.057163655757904053e-02 -1.593790799379348755e-01 -1.537461578845977783e-02 2.032597512006759644e-01 1.903092414140701294e-01 -1.066949789674254134e-05 1.241535301232943311e-07 -4.005692526698112488e-02 -9.773917496204376221e-02 -2.612778842449188232e-01 1.054759195540100336e-07
-4.371544811874628067e-03 1.333563625812530518e-01 1.569080501794815063e-01 1.481830328702926636e-01 -1.057689562439918518e-01 2.050745933956932276e-06 -3.005501329898834229e-01 3.260815617522894172e-08 -3.337270915508270264e-01 -2.195233702659606934e-01 2.125809043645858765e-01 1.061019003391265869e-01 -2.060640752315521240e-01 -4.304915294051170349e-02 3.521897271275520325e-02 1.365394797176122665e-02 -6.682368367910385132e-02 5.354158929549157619e-06 2.986482977867126465e-01 9.966888464987277985e-03 9.730267524719238281e-02 2.221524368906102609e-07 9.908261150121688843e-02 -9.655598551034927368e-02 1.389390230178833008e-02 -3.136743009090423584e-01 -8.045365661382675171e-02 -1.882999986410140991e-01 1.537803709506988525e-01 -2.778384387493133545e-01 -1.191880181431770325e-01 1.053678244352340698e-01 -2.119506916642421857e-07 -5.610515177249908447e-02 -1.363036483526229858e-01 3.175718486309051514e-01 -1.916056033223867416e-03 -2.398413419723510742e-01 6.006564490235177800e-07 3.328457772731781006e-01 2.717681809372152202e-06 -1.157489269971847534e-01 1.828247681260108948e-02 -1.707330625322356354e-06 3.940476179122924805e-01 -7.202700089692370966e-06 -1.693923324346542358e-01 3.481047770037548617e-06 -8.500692248344421387e-02 -3.924663662910461426e-01 2.027850747108459473e-01 3.150026798248291016e-01 4.565160721540451050e-02 -2.465000599622726440e-01 2.159337554985540919e-06 -5.628691269521368667e-06 7.735391706228256226e-02 7.233867049217224121e-02 -3.196795284748077393e-02 1.531429120404936839e-06
-1.335172355175018311e-01 -1.625183820724487305e-01 -1.477241963148117065e-01 -1.189922019839286804e-01 -1.806874424219131470e-01 -3.333670974825508893e-06 -1.829775422811508179e-01 -6.397373454092303291e-06 2.961997985839843750e-01 8.062824606895446777e-03 -5.327580496668815613e-02 3.198849558830261230e-01 4.320445656776428223e-02 9.889693558216094971e-02 1.577473804354667664e-02 1.108066178858280182e-03 -7.175394892692565918e-02 1.406340288667706773e-06 5.020971596240997314e-02 -2.115414281433913857e-05 -1.760487705469131470e-01 -3.332170535941259004e-06 2.371096462011337280e-01 -1.315616816282272339e-02 1.446378082036972046e-01 -3.226880729198455811e-02 2.384641319513320923e-01 2.664172351360321045e-01 -4.099522531032562256e-02 -2.686307532712817192e-03 -7.508742809295654297e-02 2.391821332275867462e-02 2.292330918862717226e-06 1.527207642793655396e-01 -8.094056695699691772e-02 2.867979407310485840e-01 -1.151042953133583069e-01 -1.453032746212556958e-05 1.282124230783665553e-06 -5.340603739023208618e-02 5.754074209107784554e-06 5.477786999108502641e-06 -2.188378758728504181e-02 6.672644303762353957e-08 2.463651895523071289e-01 8.264497409982141107e-06 -2.117377519607543945e-01 -3.887124876200687140e-06 4.267291352152824402e-02 4.875045642256736755e-02 1.283740997314453125e-01 1.896629780530929565e-01 -1.152030825614929199e-01 1.095953434705734253e-01 -4.177597929810872301e-06 -2.760645656962879002e-06 2.040282264351844788e-02 -4.588851332664489746e-02 -2.098340988159179688e-01 -4.007702500530285761e-06
-4.194972291588783264e-02 -1.481056958436965942e-01 8.710992336273193359e-02 -1.845964789390563965e-01 1.201483681797981262e-01 5.156153292773524299e-06 1.374079585075378418e-01 -1.635651642573066056e-06 2.954298257827758789e-01 -6.249370984733104706e-03 -1.920653283596038818e-01 -6.253239512443542480e-02 -9.150397777557373047e-02 -6.788381934165954590e-02 -2.854463756084442139e-01 3.159107565879821777e-01 3.122217953205108643e-01 7.493533303204458207e-06 3.803282603621482849e-02 6.036513485014438629e-03 1.614827364683151245e-01 -5.291997240419732407e-07 -5.986415222287178040e-02 -1.863963007926940918e-01 2.200948745012283325e-01 -2.347710281610488892e-01 -3.845897912979125977e-01 -1.701478511095046997e-01 -6.197625771164894104e-02 1.273308396339416504e-01 -2.345723360776901245e-01 -9.482578188180923462e-02 8.413874184043379501e-07 1.203527674078941345e-01 1.901172101497650146e-01 -2.964614890515804291e-02 2.430575713515281677e-02 1.922394782304763794e-01 3.818598997895605862e-06 -2.424549460411071777e-01 5.160541149962227792e-07 1.887293905019760132e-01 5.942095071077346802e-03 -3.727376906681456603e-06 1.025725752115249634e-01 -4.462158358364831656e-06 -5.220155045390129089e-02 1.001327382255112752e-05 -1.235073134303092957e-01 -2.067432254552841187e-01 2.750127948820590973e-02 -1.110700964927673340e-01 3.991305530071258545e-01 -1.600085496902465820e-01 1.374289695377228782e-07 -4.375550815893802792e-06 -1.804300099611282349e-01 -6.276942789554595947e-02 5.750213284045457840e-03 6.818087513238424435e-06
7.187933474779129028e-02 -2.461948059499263763e-02 1.904343515634536743e-01 4.418477416038513184e-01 1.793325841426849365e-01 -2.876602593460120261e-06 -1.768815368413925171e-01 1.102487544812902343e-06 -7.507457584142684937e-02 -4.102486371994018555e-01 -2.108490169048309326e-01 -4.381128773093223572e-02 -2.124272435903549194e-01 1.418359428644180298e-01 1.873999387025833130e-01 -2.774451859295368195e-02 1.069922074675559998e-01 1.907013825075409841e-06 6.212046369910240173e-02 2.487027198076248169e-01 3.495783805847167969e-01 4.953446364197588991e-07 -9.215803444385528564e-02 -2.395734786987304688e-01 1.773701757192611694e-01 1.829976215958595276e-02 1.566952615976333618e-01 1.189348921179771423e-01 8.774208277463912964e-02 -1.154678165912628174e-01 2.189381048083305359e-02 1.578236669301986694e-01 5.833669547428144142e-07 7.426353543996810913e-02 -2.927176058292388916e-01 1.585641652345657349e-01 1.852152794599533081e-01 2.367068268358707428e-02 2.240021785837598145e-06 -3.086488246917724609e-01 5.115300155011937022e-06 -4.723033681511878967e-02 2.210313230752944946e-01 -1.302762825616810005e-06 1.213763728737831116e-01 -5.113783117849379778e-06 3.997865617275238037e-01 -2.354474872845457867e-07 1.900589764118194580e-01 5.211803317070007324e-02 1.845565065741539001e-02 -2.785708010196685791e-01 2.741526067256927490e-01 -2.383519858121871948e-01 -4.599747626343742013e-06 -1.939895810210146010e-06 -1.697013154625892639e-02 8.983404189348220825e-02 -1.900030672550201416e-01 -2.623586624395102262e-06
1.993972510099411011e-01 -4.004679431091062725e-05 -1.884985119104385376e-01 2.362706884741783142e-02 9.617321938276290894e-02 -2.497745299478992820e-06 1.709275394678115845e-01 -1.469117592023394536e-06 -1.610637307167053223e-01 -1.206930726766586304e-02 3.284280002117156982e-02 -1.321352571249008179e-01 -5.773567780852317810e-02 5.275170877575874329e-02 1.140772178769111633e-01 1.360924988985061646e-01 -1.630271226167678833e-01 3.091239022978697903e-06 1.948931440711021423e-02 -2.757337093353271484e-01 5.211359821259975433e-03 -6.430473149521276355e-07 6.854176521301269531e-03 1.409167889505624771e-03 -2.287200242280960083e-01 5.652375519275665283e-02 1.628734025871381164e-05 -2.847166061401367188e-01 1.706390380859375000e-01 -9.760910272598266602e-02 -7.610854506492614746e-02 -1.760356575250625610e-01 5.941046765656210482e-07 -2.944200932979583740e-01 2.114157378673553467e-01 1.538292765617370605e-01 3.893931396305561066e-03 -1.348953694105148315e-02 1.498147867096122354e-06 3.293092548847198486e-01 -5.137414518685545772e-06 -3.538535747793503106e-05 8.625304698944091797e-02 4.022860593977384269e-06 4.808845371007919312e-02 -2.741659500316018239e-06 1.650043576955795288e-01 -2.565443537605460733e-07 -3.817991912364959717e-02 3.967985976487398148e-03 -1.686835736036300659e-01 -4.332231879234313965e-01 1.496542841196060181e-01 -1.723466366529464722e-01 -1.514514565315039363e-06 6.288374606810975820e-06 -3.943279013037681580e-02 -2.123648077249526978e-01 -2.452281862497329712e-02 -5.035622507421066985e-06
-1.649767458438873291e-01 -1.739176660776138306e-01 2.141350507736206055e-02 -4.650354981422424316e-01 1.849198788404464722e-01 1.172400516225025058e-06 4.517448600381612778e-03 9.719747140479739755e-06 -4.435061290860176086e-02 -1.454812437295913696e-01 -2.762303352355957031e-01 3.605185821652412415e-02 -1.323319077491760254e-01 7.266665250062942505e-02 9.885365143418312073e-03 8.811348676681518555e-02 3.085965216159820557e-01 -5.087269983050646260e-06 9.195908904075622559e-02 1.261455118656158447e-01 3.447094559669494629e-01 1.800770974114129785e-06 -2.437826842069625854e-01 4.517683386802673340e-02 -2.489648759365081787e-02 -2.889663912355899811e-02 -3.405348863452672958e-03 3.144667670130729675e-02 8.907582610845565796e-02 3.506788611412048340e-02 2.169634774327278137e-02 1.630519926548004150e-01 -8.160346624208614230e-06 9.395930916070938110e-02 -1.023499220609664917e-01 1.603585928678512573e-01 6.817981600761413574e-02 1.831728518009185791e-01 -4.255321073287632316e-07 -6.780953299312386662e-06 3.172997139699873514e-06 7.853039354085922241e-02 -2.364388406276702881e-01 3.211277999071171507e-06 1.971979290246963501e-01 -1.328353209828492254e-05 1.010690927505493164e-01 -4.491414529184112325e-08 1.474509132094681263e-03 -4.673013091087341309e-02 -1.150323823094367981e-01 1.509211957454681396e-01 -7.514412701129913330e-02 -9.664772450923919678e-02 -5.646765202982351184e-06 -2.896361820603488013e-06 -3.259868621826171875e-01 -2.216006629168987274e-02 -9.083702415227890015e-02 -3.863269739667885005e-07
