-9.773072600364685059e-02 2.067158371210098267e-01 -2.743470370769500732e-01 -2.206934541463851929e-01 1.038043797016143799e-01 3.141967356204986572e-01 1.267770230770111084e-01 5.843518674373626709e-02 -2.524602115154266357e-01 -2.608739770948886871e-02 1.292756795883178711e-01 -9.690409153699874878e-02 2.672664225101470947e-01 1.779907643795013428e-01 -1.454654783010482788e-01 -1.724017038941383362e-02 -1.545057538896799088e-02 -1.681019365787506104e-01 1.525166779756546021e-01 8.715353161096572876e-02 2.461536824703216553e-01 3.047714829444885254e-01 -2.502744197845458984e-01 1.696009337902069092e-01 -1.864592134952545166e-01 8.193109184503555298e-02 1.069550886750221252e-01 1.899493932723999023e-01 -1.108550429344177246e-01 -2.796166948974132538e-02 3.020931780338287354e-01 -1.715208142995834351e-01 -1.971907913684844971e-02 -2.725764811038970947e-01 -5.186241120100021362e-02 -2.319107996299862862e-03 1.482467949390411377e-01 1.300813704729080200e-01 3.233214616775512695e-01 -3.935561180114746094e-01 -1.826428025960922241e-01 6.451901793479919434e-02 -8.945798501372337341e-03 -2.671780623495578766e-02 -4.428465664386749268e-02 6.454740464687347412e-02 4.597431048750877380e-02 -3.215489909052848816e-02 2.714399993419647217e-01 4.098280891776084900e-02 3.125634193420410156e-01 1.500744465738534927e-02 1.025899723172187805e-01 -3.187895119190216064e-01 -4.773217439651489258e-02 1.991183757781982422e-01 2.319820374250411987e-01 -2.161488980054855347e-01 1.318705677986145020e-01 2.348662614822387695e-01
-1.998151540756225586e-01 -3.289858996868133545e-01 6.372313946485519409e-02 -6.901248544454574585e-02 1.811814457178115845e-01 3.556561768054962158e-01 -4.533438943326473236e-03 -1.088794767856597900e-01 1.556786894798278809e-01 -3.176565468311309814e-01 1.300715357065200806e-01 -1.800833493471145630e-01 1.426545381546020508e-01 -3.118264973163604736e-01 -3.930434882640838623e-01 9.121993929147720337e-02 -7.229832466691732407e-03 -3.889365792274475098e-01 1.686839163303375244e-01 2.481928467750549316e-02 -3.847572207450866699e-02 2.768130302429199219e-01 1.504753530025482178e-01 -1.262892037630081177e-01 3.488162904977798462e-02 -8.312404155731201172e-02 -6.695722788572311401e-02 -2.147158980369567871e-01 2.616043686866760254e-01 -3.787963986396789551e-01 2.528479136526584625e-02 1.751622706651687622e-01 -1.759767383337020874e-01 9.742926061153411865e-02 2.497081586625427008e-04 -2.408169060945510864e-01 -8.634468913078308105e-02 -2.433837503194808960e-01 -3.271734416484832764e-01 1.658835262060165405e-01 5.591125041246414185e-02 1.489438265562057495e-01 1.017477177083492279e-02 3.088585734367370605e-01 1.122267693281173706e-01 -2.399342656135559082e-01 -1.706762909889221191e-01 -1.142331287264823914e-01 1.305713504552841187e-01 5.260521080344915390e-03 -1.294331401586532593e-01 -2.163396477699279785e-01 -1.951641887426376343e-01 1.905573531985282898e-02 -1.468569189310073853e-01 -1.730721294879913330e-01 -1.743811219930648804e-01 1.358191072940826416e-01 2.147618122398853302e-02 1.821713149547576904e-01
3.474709391593933105e-02 3.808709559962153435e-03 -4.039453342556953430e-02 -1.700458973646163940e-01 -5.501017440110445023e-03 1.670128316618502140e-03 2.930881083011627197e-01 2.014715224504470825e-01 3.983038291335105896e-02 2.338397204875946045e-01 1.809323728084564209e-01 -2.132249623537063599e-01 2.992205321788787842e-01 6.468728929758071899e-02 1.201996356248855591e-01 4.570416733622550964e-02 4.927920177578926086e-02 -6.945079565048217773e-02 -2.397600933909416199e-02 -1.227693036198616028e-01 -1.336581259965896606e-01 7.837987691164016724e-02 3.017226420342922211e-02 -2.657174468040466309e-01 -2.175658941268920898e-01 -5.919997021555900574e-02 -1.718800514936447144e-01 2.912719547748565674e-01 -9.646378457546234131e-03 1.063900217413902283e-01 -1.602103747427463531e-02 9.837865084409713745e-02 -1.990692317485809326e-01 3.864648044109344482e-01 -1.775279939174652100e-01 -6.524809449911117554e-02 -2.045486867427825928e-01 -7.509704679250717163e-02 3.713844120502471924e-01 -5.110025033354759216e-02 -3.533734083175659180e-01 -3.783136904239654541e-01 4.954044148325920105e-02 6.939146667718887329e-02 9.994982741773128510e-03 -2.555546537041664124e-02 -3.911998867988586426e-01 7.653162628412246704e-02 7.041408121585845947e-02 3.715327754616737366e-02 -3.353235721588134766e-01 -4.071846604347229004e-02 -1.642804145812988281e-01 -5.908260121941566467e-02 -1.681259423494338989e-01 5.006560683250427246e-02 1.351052969694137573e-01 1.733302325010299683e-01 1.888645999133586884e-02 2.994975633919239044e-02
-1.739678978919982910e-01 1.374903470277786255e-01 1.164616718888282776e-01 -7.856947183609008789e-02 -3.538694679737091064e-01 1.408744901418685913e-01 -1.733199656009674072e-01 -8.874603360891342163e-02 5.446467548608779907e-02 1.184539347887039185e-01 2.491552382707595825e-01 -5.183623638004064560e-03 2.404421940445899963e-02 7.737033069133758545e-02 5.126463621854782104e-02 -1.383410207927227020e-02 1.122487559914588928e-01 3.755161464214324951e-01 -3.473223447799682617e-01 -5.315034836530685425e-02 -2.245320975780487061e-01 1.898042261600494385e-01 -1.630917638540267944e-01 8.158620446920394897e-02 -1.636367104947566986e-02 -3.320191800594329834e-02 -2.534201741218566895e-01 2.566900253295898438e-01 -2.458496391773223877e-02 -1.722419820725917816e-02 -1.471261978149414062e-01 -2.441413104534149170e-01 1.023732051253318787e-01 -1.121613830327987671e-01 -4.142897203564643860e-03 -1.125296279788017273e-01 -1.672075539827346802e-01 1.003544107079505920e-01 -1.688835024833679199e-01 2.611471712589263916e-01 5.460679158568382263e-02 5.573270097374916077e-02 -1.494619250297546387e-01 -7.579500973224639893e-02 4.180567804723978043e-03 3.677194938063621521e-02 2.124725878238677979e-01 -1.817638576030731201e-01 2.709206938743591309e-01 9.849596768617630005e-02 3.589076995849609375e-01 1.198693960905075073e-01 -4.319696873426437378e-02 3.715639412403106689e-01 1.590798422694206238e-02 2.425123155117034912e-01 1.327737122774124146e-01 6.025757640600204468e-02 2.669971436262130737e-02 -2.608867362141609192e-02
-2.219027653336524963e-02 -2.466180622577667236e-01 8.548023551702499390e-02 -1.425656490027904510e-02 1.828551739454269409e-01 2.059174031019210815e-01 -2.417402267456054688e-01 -3.704323433339595795e-03 2.333965897560119629e-01 -1.811905950307846069e-01 1.153549253940582275e-01 2.527085542678833008e-01 -1.702325344085693359e-01 8.331407606601715088e-02 5.497366562485694885e-02 3.688726574182510376e-02 1.604434549808502197e-01 -4.323428496718406677e-02 2.191268950700759888e-01 7.614278048276901245e-02 -1.323149204254150391e-01 8.975199609994888306e-02 -5.626976024359464645e-03 -2.231467962265014648e-01 2.578592486679553986e-02 -1.684513092041015625e-01 -2.025077491998672485e-01 1.474075466394424438e-01 5.053482577204704285e-02 -1.681111454963684082e-01 -1.924314498901367188e-01 -7.345369458198547363e-02 1.411539018154144287e-01 -3.807165473699569702e-02 2.693266724236309528e-04 2.134735323488712311e-02 -8.746245503425598145e-02 -3.338519036769866943e-01 2.498182654380798340e-01 6.656587938778102398e-04 8.211079984903335571e-02 -3.091998100280761719e-01 -6.133544072508811951e-02 6.802681088447570801e-02 -1.772819459438323975e-01 1.972629874944686890e-01 8.143945783376693726e-02 1.823087595403194427e-02 -8.831036090850830078e-02 2.466863393783569336e-01 3.807985782623291016e-02 4.632405564188957214e-02 1.466690003871917725e-01 -1.373232901096343994e-01 1.334485318511724472e-02 6.096414849162101746e-02 2.103512883186340332e-01 1.457905322313308716e-01 2.153722494840621948e-01 -2.951041795313358307e-02
1.775541901588439941e-01 8.781974017620086670e-02 4.817875474691390991e-02 -3.793248906731605530e-02 4.981773719191551208e-02 6.845495849847793579e-02 -1.662774085998535156e-01 -4.441128671169281006e-02 -2.034891694784164429e-01 -7.591802626848220825e-02 3.087681718170642853e-02 1.078309789299964905e-01 2.145695090293884277e-01 5.748187750577926636e-02 -3.725850284099578857e-01 2.500260174274444580e-01 1.395104825496673584e-01 -1.461477279663085938e-01 2.256604135036468506e-01 -2.577251568436622620e-02 2.995747923851013184e-01 -4.266305267810821533e-02 -1.909237727522850037e-02 -1.449754685163497925e-01 6.561624258756637573e-02 -1.495532542467117310e-01 -2.695808410644531250e-01 -5.010769143700599670e-02 -2.420872449874877930e-01 3.264283537864685059e-01 2.453735619783401489e-01 -1.085464432835578918e-01 -2.415154576301574707e-01 1.236989498138427734e-01 4.491258412599563599e-02 2.271611988544464111e-02 -3.701575100421905518e-02 -8.500114083290100098e-02 -4.346240311861038208e-02 -1.945042908191680908e-01 -3.679706901311874390e-02 1.603517681360244751e-02 1.703506708145141602e-01 -9.855625033378601074e-02 2.311810255050659180e-01 -1.112300530076026917e-01 -2.586693502962589264e-02 -4.069912061095237732e-02 8.525805920362472534e-02 -5.003380402922630310e-02 -6.336309015750885010e-02 1.634090393781661987e-02 -2.284097522497177124e-01 -5.140035226941108704e-02 -2.025686204433441162e-01 2.676635682582855225e-01 2.064550369977951050e-01 2.272811532020568848e-01 -1.047288924455642700e-01 1.554469615221023560e-01
-2.073119580745697021e-01 -1.025333404541015625e-01 -2.886817157268524170e-01 -3.246110975742340088e-01 8.564868569374084473e-02 -3.190287649631500244e-01 1.523946970701217651e-01 1.144853979349136353e-01 2.881030738353729248e-01 1.035597994923591614e-01 8.279739320278167725e-02 -1.425526142120361328e-01 1.360363662242889404e-01 -2.108275294303894043e-01 -1.311296671628952026e-01 2.797184884548187256e-01 1.051357463002204895e-01 1.636570692062377930e-02 -2.703496217727661133e-01 2.450497150421142578e-01 -1.159889176487922668e-01 -2.589457482099533081e-02 -3.701909482479095459e-01 7.060993462800979614e-02 -1.295806467533111572e-01 9.148958325386047363e-02 -2.562407255172729492e-01 3.492601588368415833e-02 1.396353244781494141e-01 7.970447093248367310e-02 2.600767016410827637e-01 -1.790093183517456055e-01 -4.541216045618057251e-02 -1.967267692089080811e-01 -4.222164675593376160e-02 -2.883274853229522705e-01 1.437092870473861694e-01 -1.091027557849884033e-01 -3.746021986007690430e-01 1.941349357366561890e-01 -8.289199322462081909e-03 -1.056006923317909241e-01 -2.428800612688064575e-01 -2.199427634477615356e-01 -1.505096554756164551e-01 -8.695144951343536377e-02 -8.016318082809448242e-02 -2.020957320928573608e-01 7.584002614021301270e-02 8.865232765674591064e-02 3.127350211143493652e-01 5.674979090690612793e-02 1.613240987062454224e-01 -2.281974107027053833e-01 1.113309785723686218e-01 6.738049536943435669e-02 -1.467909011989831924e-02 -9.173429757356643677e-02 -5.476286262273788452e-02 7.086812704801559448e-02
1.799200922250747681e-01 -1.776644140481948853e-01 4.408454895019531250e-02 -9.674653410911560059e-02 8.030690997838973999e-02 1.920665353536605835e-01 3.819201886653900146e-01 -4.716579988598823547e-02 3.023803047835826874e-02 -3.132296800613403320e-01 3.539431095123291016e-02 1.043238863348960876e-01 8.806849271059036255e-02 -2.675380706787109375e-01 -2.122712731361389160e-01 3.147985041141510010e-01 -1.267000436782836914e-01 3.432045280933380127e-01 -2.825217843055725098e-01 -1.807533055543899536e-01 1.295662820339202881e-01 6.485643982887268066e-02 -2.217044308781623840e-02 -7.799094170331954956e-02 -9.971178136765956879e-03 -3.443689644336700439e-02 -1.777744591236114502e-01 -1.179112195968627930e-01 1.368181705474853516e-01 -1.549027115106582642e-01 -3.028942644596099854e-01 2.048757523298263550e-01 2.945858836174011230e-01 -1.966547779738903046e-02 -3.021676242351531982e-01 1.714023798704147339e-01 5.452383682131767273e-02 3.097697198390960693e-01 -6.565788388252258301e-02 -2.732543945312500000e-01 -1.509114205837249756e-01 4.387571290135383606e-02 7.953427731990814209e-02 7.359740883111953735e-02 -5.676794797182083130e-02 -2.655061427503824234e-03 -5.971772223711013794e-02 7.976629585027694702e-02 -2.292501926422119141e-01 2.541725337505340576e-01 -1.854162961244583130e-01 -2.398346215486526489e-01 -2.749515771865844727e-01 7.699378579854965210e-02 -9.899868816137313843e-02 -2.225326560437679291e-02 -1.787658333778381348e-01 1.194350048899650574e-01 4.335710406303405762e-02 -1.043678894639015198e-01
-9.307887405157089233e-02 -3.217327594757080078e-02 3.379537463188171387e-01 -1.448790132999420166e-01 2.206937223672866821e-01 4.482594504952430725e-02 -2.808403670787811279e-01 -8.408283442258834839e-02 -2.986403107643127441e-01 1.265004277229309082e-01 2.187738418579101562e-01 1.696656793355941772e-01 1.723146736621856689e-01 -1.604242622852325439e-01 -2.241858281195163727e-03 -1.268260627985000610e-01 1.469861157238483429e-02 -1.283968538045883179e-01 2.208792790770530701e-02 1.538070291280746460e-01 1.298312246799468994e-01 -8.463320136070251465e-02 7.958178967237472534e-02 -2.127155102789402008e-02 -1.066675186157226562e-01 4.719144478440284729e-02 -2.165219634771347046e-01 3.495106101036071777e-02 -2.019868195056915283e-01 1.263701263815164566e-02 -6.988209486007690430e-02 -1.537431776523590088e-01 1.556453108787536621e-01 -1.427911315113306046e-02 3.049473464488983154e-01 -9.279789030551910400e-02 -2.597236633300781250e-01 -1.868027895689010620e-01 1.268682777881622314e-01 3.585945442318916321e-02 2.708474993705749512e-01 1.127421110868453979e-01 -3.283738195896148682e-01 1.742701232433319092e-01 3.363094031810760498e-01 -1.232646107673645020e-01 -1.113269105553627014e-01 -2.781007587909698486e-01 1.872397512197494507e-01 1.175635904073715210e-01 -2.252505421638488770e-01 -2.794727981090545654e-01 2.098444290459156036e-02 1.301182955503463745e-01 1.190113946795463562e-01 1.490624845027923584e-01 -1.099982261657714844e-01 1.448463946580886841e-01 -3.846451640129089355e-02 8.967024087905883789e-02
-2.318103164434432983e-01 1.887665241956710815e-01 -6.283132731914520264e-02 -3.503239452838897705e-01 1.870149224996566772e-01 4.413047060370445251e-02 1.015469431877136230e-01 -2.060983479022979736e-01 -1.659832745790481567e-01 -3.659905865788459778e-02 8.951786160469055176e-02 -3.378311693668365479e-01 -1.339332312345504761e-01 5.563466250896453857e-02 1.455610692501068115e-01 -6.127630174160003662e-02 -1.253216117620468140e-01 1.036955118179321289e-01 9.085148572921752930e-02 -1.391518563032150269e-01 6.850470602512359619e-02 8.339367061853408813e-02 -5.536225438117980957e-02 -1.420832276344299316e-01 2.776367366313934326e-01 -1.566718816757202148e-01 -2.506874203681945801e-01 2.168978154659271240e-01 -7.707725465297698975e-02 -1.949456185102462769e-01 -1.993262469768524170e-01 8.549294620752334595e-02 -8.220595866441726685e-02 -3.520735204219818115e-01 2.013148814439773560e-01 2.519313991069793701e-01 -7.599016278982162476e-02 -3.163244128227233887e-01 1.940289139747619629e-01 -1.150215491652488708e-01 -2.691949903964996338e-01 -4.970461595803499222e-03 -9.457236528396606445e-02 -5.100198090076446533e-02 -1.793153136968612671e-01 2.295941114425659180e-03 -5.349986627697944641e-02 -4.019020497798919678e-02 6.315220892429351807e-02 1.636168956756591797e-01 6.900907307863235474e-02 1.739271730184555054e-01 3.659142255783081055e-01 1.067973673343658447e-02 2.536618150770664215e-02 9.186859242618083954e-03 3.205988705158233643e-01 1.638998836278915405e-01 -1.101823598146438599e-01 1.657938398420810699e-02
6.877310574054718018e-02 2.852734327316284180e-01 3.050366649404168129e-03 -1.841563032940030098e-03 4.750777408480644226e-02 -2.664708495140075684e-01 -2.306564711034297943e-03 5.724266916513442993e-02 6.215525045990943909e-02 2.202168554067611694e-01 -1.236356422305107117e-01 -4.294730722904205322e-02 2.311934977769851685e-01 1.059042364358901978e-01 -3.424727022647857666e-01 5.713686347007751465e-03 -2.452300116419792175e-02 -2.849618196487426758e-01 1.670195311307907104e-01 -6.390439812093973160e-03 -2.157390713691711426e-01 1.184367202222347260e-02 -3.647343516349792480e-01 -7.802736759185791016e-02 -1.063462793827056885e-01 6.992585211992263794e-02 4.109575152397155762e-01 2.854011654853820801e-01 2.886328995227813721e-01 2.755674421787261963e-01 -1.079933494329452515e-01 1.066141575574874878e-01 2.425732761621475220e-01 -3.288342654705047607e-01 -2.230017416877672076e-04 -8.696633577346801758e-02 1.188307777047157288e-01 5.912708863615989685e-02 1.115049496293067932e-01 -1.899947524070739746e-01 7.459211349487304688e-02 -2.313359826803207397e-02 1.535856276750564575e-01 1.238924115896224976e-01 -3.033936768770217896e-02 3.034979701042175293e-01 -6.202726066112518311e-02 -2.324118167161941528e-01 -1.505297571420669556e-01 1.770473122596740723e-01 -9.174608439207077026e-02 3.531536161899566650e-01 2.246933132410049438e-01 -3.901170194149017334e-01 -5.680676177144050598e-02 1.621893793344497681e-01 3.871661052107810974e-02 -8.111977577209472656e-02 -5.044928565621376038e-02 -2.044865190982818604e-01
2.070182412862777710e-01 -2.091593742370605469e-01 -2.643752694129943848e-01 1.217121407389640808e-01 -2.598243206739425659e-02 1.969362944364547729e-01 1.686761081218719482e-01 -5.960325896739959717e-02 2.066710591316223145e-01 -1.173208281397819519e-01 -1.493790447711944580e-01 -6.192583590745925903e-02 2.080082297325134277e-01 3.295297175645828247e-02 -1.116033121943473816e-01 2.283859997987747192e-02 -2.005956023931503296e-01 -4.117813706398010254e-01 -2.539648115634918213e-01 1.749565750360488892e-01 1.560053080320358276e-01 2.880347967147827148e-01 2.076897621154785156e-01 7.104496657848358154e-02 9.577681869268417358e-02 -1.602114140987396240e-01 6.203465536236763000e-02 -2.566277980804443359e-01 2.808448374271392822e-01 3.801593780517578125e-01 2.330729961395263672e-01 -1.265781968832015991e-01 -3.203052580356597900e-01 3.275147378444671631e-01 -1.439724713563919067e-01 -9.802586585283279419e-02 2.956664264202117920e-01 -2.462023496627807617e-01 -2.829743623733520508e-01 -1.372016966342926025e-01 -2.200637757778167725e-01 -1.599317193031311035e-01 -1.200275048613548279e-01 -3.561889529228210449e-01 5.435240641236305237e-02 -6.916468590497970581e-02 8.998051285743713379e-02 -1.733695715665817261e-01 3.122703172266483307e-03 2.054969966411590576e-02 -2.732541859149932861e-01 1.069332361221313477e-01 -1.969981342554092407e-01 5.662051215767860413e-02 -1.206029951572418213e-01 4.212251678109169006e-02 -2.895849943161010742e-02 -1.111707761883735657e-01 4.745537042617797852e-02 -2.865263223648071289e-01
1.087937280535697937e-01 -4.411514103412628174e-02 -1.623349338769912720e-01 -1.248722001910209656e-01 1.071576774120330811e-01 1.694782986305654049e-03 -5.377098172903060913e-02 2.395306676626205444e-01 1.593560278415679932e-01 5.100866779685020447e-02 9.136946499347686768e-02 -5.623283609747886658e-02 -1.445370316505432129e-01 -1.153380796313285828e-01 1.278528869152069092e-01 2.116291075944900513e-01 2.903467789292335510e-02 3.127307891845703125e-01 1.886031925678253174e-01 3.484942018985748291e-01 -3.856651484966278076e-02 -4.772788286209106445e-02 -2.194231897592544556e-01 1.285878419876098633e-01 3.144964948296546936e-02 -3.301843404769897461e-01 1.304322034120559692e-01 -1.403878331184387207e-01 -1.445184051990509033e-01 -2.378110885620117188e-01 2.809367477893829346e-01 -7.265459746122360229e-02 2.510077059268951416e-01 -9.706217795610427856e-02 2.797496691346168518e-02 -1.758383214473724365e-01 -2.478292882442474365e-01 2.196687273681163788e-02 -2.925083599984645844e-02 4.100627601146697998e-01 1.848245859146118164e-01 -1.448077708482742310e-02 -2.366783469915390015e-01 -8.657849580049514771e-02 -1.826648265123367310e-01 -5.449620261788368225e-02 -2.903643250465393066e-02 1.302649974822998047e-01 -2.944086194038391113e-01 -2.090483307838439941e-01 -3.829517588019371033e-02 1.506950855255126953e-01 3.006168603897094727e-01 -7.155608385801315308e-02 5.953921936452388763e-03 7.515428215265274048e-02 -2.313378900289535522e-01 -1.584600061178207397e-01 -1.796216666698455811e-01 -1.332472860813140869e-01
-3.725935816764831543e-01 1.689746379852294922e-01 5.847251042723655701e-02 -2.066978216171264648e-01 -1.615989804267883301e-01 1.186668351292610168e-01 2.302433997392654419e-01 2.046612203121185303e-01 2.673728764057159424e-02 -1.901828497648239136e-01 2.237625867128372192e-01 3.013816475868225098e-01 8.352753520011901855e-02 -3.718859553337097168e-01 -1.265494972467422485e-01 9.192898124456405640e-02 2.403129041194915771e-01 1.251367777585983276e-01 -4.136811941862106323e-03 2.198131680488586426e-01 -4.811596870422363281e-02 -2.000682353973388672e-01 -1.083980724215507507e-01 1.546657681465148926e-01 2.763432562351226807e-01 3.072328492999076843e-02 7.307784259319305420e-02 2.022602707147598267e-01 -2.425128594040870667e-02 -1.367850005626678467e-01 -1.390544138848781586e-02 3.204615414142608643e-01 -6.524894386529922485e-02 -2.491306960582733154e-01 1.666685491800308228e-01 -6.184095516800880432e-02 -6.346166599541902542e-03 1.811628043651580811e-01 -8.584865927696228027e-02 -7.324133813381195068e-02 1.429755836725234985e-01 -3.351813182234764099e-02 -8.706017583608627319e-02 1.248096451163291931e-01 -4.969760403037071228e-02 3.974437131546437740e-04 4.020130261778831482e-02 -1.405301410704851151e-02 1.395549029111862183e-01 3.229449391365051270e-01 2.098552323877811432e-02 -2.334365248680114746e-01 1.579052060842514038e-01 -1.748799979686737061e-01 -2.963518500328063965e-01 2.472629956901073456e-02 -1.175173297524452209e-01 -1.260037571191787720e-01 -5.672024935483932495e-02 1.847048848867416382e-01
-3.028560578823089600e-01 1.531384140253067017e-01 1.477498710155487061e-01 -1.531127542257308960e-01 1.744001358747482300e-01 -8.373817056417465210e-02 5.500850081443786621e-02 1.381166726350784302e-01 1.143199857324361801e-02 1.516229063272476196e-01 -1.095680072903633118e-01 -4.982912167906761169e-02 2.106372117996215820e-01 1.143648661673069000e-02 -1.075439825654029846e-01 2.142221480607986450e-01 1.332134902477264404e-01 -7.987695187330245972e-02 -6.373704224824905396e-02 -2.259176373481750488e-01 -2.233264595270156860e-01 -3.520837426185607910e-01 -3.241717517375946045e-01 2.426178604364395142e-01 -2.074009738862514496e-02 -2.656360529363155365e-02 1.220310032367706299e-01 -7.814950495958328247e-02 -1.573687940835952759e-01 1.245741024613380432e-01 9.876079857349395752e-02 -2.164497375488281250e-01 -1.738168597221374512e-01 -2.228247746825218201e-02 7.548771798610687256e-02 -8.187633752822875977e-02 2.745101749897003174e-01 2.295062541961669922e-01 4.161493107676506042e-02 6.163119152188301086e-02 1.151632610708475113e-02 9.772139601409435272e-03 -1.184399574995040894e-01 -6.976811587810516357e-02 -3.580212965607643127e-02 -2.185922488570213318e-02 7.411218434572219849e-02 -3.962935134768486023e-02 1.803342550992965698e-01 3.585878312587738037e-01 -3.330917656421661377e-01 -3.024113476276397705e-01 -1.201890110969543457e-01 1.334316730499267578e-01 5.662167444825172424e-02 5.797117203474044800e-02 5.396204069256782532e-02 5.639103800058364868e-02 -9.562995284795761108e-02 1.009106561541557312e-01
1.492820959538221359e-02 3.508261442184448242e-01 -6.153701990842819214e-02 -5.780940502882003784e-02 3.213332500308752060e-03 7.644913159310817719e-03 -2.367021590471267700e-01 7.926299236714839935e-03 1.180578675121068954e-02 -1.424811184406280518e-01 2.902140319347381592e-01 8.815431594848632812e-02 -1.864472925662994385e-01 -3.263285160064697266e-01 8.527549356222152710e-02 -6.506051868200302124e-02 1.326286941766738892e-01 -9.660294651985168457e-02 9.813939034938812256e-02 1.535262763500213623e-01 -2.600698471069335938e-01 5.746464803814888000e-02 3.211853206157684326e-01 3.072493374347686768e-01 -2.145991027355194092e-01 -2.014187723398208618e-01 -1.523532122373580933e-01 -2.119721658527851105e-02 -7.737368345260620117e-02 -1.349819898605346680e-01 -1.693154871463775635e-01 -1.445449981838464737e-02 -1.471976786851882935e-01 6.470835953950881958e-02 -7.500348985195159912e-02 1.115970686078071594e-01 -9.026496112346649170e-02 -2.281319051980972290e-01 1.785344928503036499e-01 -1.165570970624685287e-02 -1.256627030670642853e-02 1.162106469273567200e-01 2.133200019598007202e-01 -2.436843365430831909e-01 7.120006531476974487e-02 -1.165977567434310913e-01 -3.953355923295021057e-02 -8.780968375504016876e-03 -6.832201033830642700e-02 -2.045800723135471344e-02 -1.425606757402420044e-01 -1.728143543004989624e-01 2.199849188327789307e-01 -5.260455235838890076e-02 -4.088277462869882584e-03 3.139223754405975342e-01 -1.058216318488121033e-01 3.408044576644897461e-01 2.935946881771087646e-01 -1.317618191242218018e-01
-3.241654932498931885e-01 -2.910855039954185486e-02 -1.972901970148086548e-01 1.235830783843994141e-02 3.912040218710899353e-02 -1.113768443465232849e-01 3.883056044578552246e-01 1.538020968437194824e-01 -1.668213456869125366e-01 -3.510812669992446899e-02 1.357712149620056152e-01 8.955810964107513428e-02 -7.996162027120590210e-02 -2.303717583417892456e-01 1.702713780105113983e-02 4.020740985870361328e-01 -2.928629517555236816e-01 3.946208655834197998e-01 1.522893905639648438e-01 6.227044761180877686e-02 1.094165816903114319e-01 -1.123287081718444824e-01 2.395543903112411499e-01 -1.000993475317955017e-01 2.162284217774868011e-02 -2.220100164413452148e-01 -4.449071362614631653e-02 -1.077094227075576782e-01 -2.232894897460937500e-01 1.832813173532485962e-01 -2.478533610701560974e-02 2.049814611673355103e-01 7.840922474861145020e-02 1.328317523002624512e-01 2.285767942667007446e-01 -1.057267263531684875e-01 -1.122492253780364990e-01 8.233043551445007324e-02 -1.968463659286499023e-01 5.660187080502510071e-02 9.527070075273513794e-02 7.260210812091827393e-02 8.355545997619628906e-02 -1.607877612113952637e-01 -4.053860902786254883e-02 9.984832257032394409e-02 5.692064389586448669e-02 -1.551481056958436966e-02 1.723951399326324463e-01 2.657951414585113525e-01 1.437111198902130127e-01 4.415529966354370117e-02 -3.854439258575439453e-01 -3.207130134105682373e-01 2.148450016975402832e-01 -1.501646731048822403e-02 -4.773184657096862793e-02 9.379214793443679810e-02 -1.211033612489700317e-01 9.102978557348251343e-02
1.805917941965162754e-03 -2.517220564186573029e-02 4.297400638461112976e-02 1.957669667899608612e-02 3.380471467971801758e-01 2.467987686395645142e-02 3.498888611793518066e-01 3.510493338108062744e-01 3.816177248954772949e-01 6.461118161678314209e-02 -2.239684015512466431e-01 -1.250545233488082886e-01 -2.743534569162875414e-04 -1.013879776000976562e-01 -1.226220056414604187e-01 -1.895482987165451050e-01 -1.598667651414871216e-01 1.614636369049549103e-02 -7.184560596942901611e-02 2.125205695629119873e-01 1.314726658165454865e-03 -1.687053292989730835e-01 1.249764710664749146e-01 2.014221996068954468e-02 -2.664689719676971436e-01 -3.627446889877319336e-01 -9.898298978805541992e-02 -9.877812117338180542e-02 3.816245123744010925e-02 -4.835587367415428162e-02 -5.369635671377182007e-02 1.672830730676651001e-01 1.945225298404693604e-01 -1.808300018310546875e-01 -1.299649924039840698e-01 -1.003136858344078064e-01 -2.462251484394073486e-01 -2.540577761828899384e-02 -1.970437020063400269e-01 3.029717132449150085e-02 -1.786148101091384888e-01 9.532364457845687866e-02 -7.199527695775032043e-03 3.056402504444122314e-01 -1.185737550258636475e-01 1.464066803455352783e-01 -7.937870919704437256e-02 2.638587951660156250e-01 7.067799102514982224e-03 -9.670280665159225464e-02 -1.187183856964111328e-01 -3.001760244369506836e-01 1.015277579426765442e-01 -1.946998536586761475e-01 2.000644356012344360e-01 9.607473760843276978e-02 1.601908951997756958e-01 1.645859330892562866e-01 1.777478456497192383e-01 2.842554450035095215e-02
1.492727845907211304e-01 3.388935234397649765e-03 -1.109481453895568848e-01 -2.554492354393005371e-01 -1.896775513887405396e-02 3.413008898496627808e-02 4.484071582555770874e-02 -1.471943557262420654e-01 -8.632279932498931885e-02 3.096459992229938507e-02 2.969536185264587402e-01 3.583761677145957947e-02 1.358513832092285156e-01 -9.528815746307373047e-03 2.289348281919956207e-02 2.564157545566558838e-01 2.549940049648284912e-01 -9.647987037897109985e-02 3.499847650527954102e-01 -1.575292646884918213e-01 -1.263643652200698853e-01 -1.045147478580474854e-01 -7.428397983312606812e-02 1.410375982522964478e-01 7.755534350872039795e-02 2.172718197107315063e-02 -1.814215332269668579e-01 -7.697307318449020386e-02 -9.316761046648025513e-02 -9.021250903606414795e-02 -2.745478451251983643e-01 -3.196500614285469055e-02 -2.444308847188949585e-01 5.259574204683303833e-02 1.840507728047668934e-03 8.260589092969894409e-02 -9.942589700222015381e-02 6.549689173698425293e-02 9.969060122966766357e-02 -2.902765870094299316e-01 -1.893844604492187500e-01 -1.307483613491058350e-01 -1.667806804180145264e-01 1.875345855951309204e-01 1.394432187080383301e-01 2.517223358154296875e-01 2.342785596847534180e-01 -6.974021345376968384e-02 -6.884619593620300293e-03 -2.488838136196136475e-01 -6.084190681576728821e-02 -9.891211055219173431e-03 -3.691421076655387878e-02 9.621493518352508545e-02 3.277969062328338623e-01 -1.363203227519989014e-01 6.883639097213745117e-02 -3.750586882233619690e-02 1.218012422323226929e-01 2.743235528469085693e-01
1.737695634365081787e-01 1.936752498149871826e-01 3.539409935474395752e-01 1.751053631305694580e-01 2.253375388681888580e-02 1.273434013128280640e-01 9.728846698999404907e-02 -2.619294822216033936e-01 6.816611438989639282e-02 -3.358255922794342041e-01 -1.019887328147888184e-01 2.106478065252304077e-01 -2.270150482654571533e-01 1.046791225671768188e-01 -1.367613971233367920e-01 -1.113757565617561340e-01 -3.489809036254882812e-01 -4.336540773510932922e-02 -1.634931564331054688e-01 -3.033080995082855225e-01 -3.122003003954887390e-02 2.342036366462707520e-01 3.133894503116607666e-02 8.406952023506164551e-02 -1.284257322549819946e-01 1.038771420717239380e-01 2.134706228971481323e-01 8.119653165340423584e-02 7.934030890464782715e-02 2.531940340995788574e-01 6.364688742905855179e-03 9.973809868097305298e-02 -1.879625469446182251e-01 -2.882018387317657471e-01 -2.409469336271286011e-03 -2.888816222548484802e-02 -3.796260952949523926e-01 -4.159212857484817505e-02 3.536804765462875366e-02 3.060657680034637451e-01 -1.224352698773145676e-02 1.582791358232498169e-01 2.050624489784240723e-01 1.662774384021759033e-01 1.648596972227096558e-01 3.740920219570398331e-04 5.619959905743598938e-03 -2.248319536447525024e-01 -5.499298125505447388e-02 -1.181419044733047485e-01 1.102201640605926514e-01 2.502501383423805237e-02 -1.266286373138427734e-01 2.402281463146209717e-01 -8.603361248970031738e-02 -1.215316578745841980e-01 -1.077854335308074951e-01 -2.173049896955490112e-01 -2.897077798843383789e-01 7.878039777278900146e-02
1.524566709995269775e-01 9.997908771038055420e-02 1.311509460210800171e-01 1.460492163896560669e-01 2.387846261262893677e-01 -1.607338190078735352e-01 -2.107422947883605957e-01 -2.067888528108596802e-01 1.456458866596221924e-01 -1.471670866012573242e-01 -1.847136616706848145e-01 9.204252809286117554e-02 -6.332949548959732056e-02 2.436256259679794312e-01 -2.850778698921203613e-01 3.952750861644744873e-01 3.695695698261260986e-01 6.251500453799962997e-04 5.082739517092704773e-03 7.974148541688919067e-02 1.770941168069839478e-01 3.924429416656494141e-01 1.247667819261550903e-01 -1.616956293582916260e-01 -2.293003052473068237e-01 3.103575110435485840e-02 1.733216941356658936e-01 -9.275931864976882935e-02 1.112941503524780273e-01 -9.698110818862915039e-02 -2.504341900348663330e-01 1.482889801263809204e-02 5.165430251508951187e-03 -3.858826681971549988e-02 -2.815600931644439697e-01 3.128271102905273438e-01 9.228584915399551392e-02 2.153472900390625000e-01 1.929692775011062622e-01 2.808762788772583008e-01 -2.581800147891044617e-02 2.647706568241119385e-01 7.303936779499053955e-02 -1.382303982973098755e-01 -9.604902565479278564e-02 1.378733366727828979e-01 -3.338387608528137207e-02 -4.875203594565391541e-02 3.733872771263122559e-01 -2.700116634368896484e-01 8.575360476970672607e-02 2.614007592201232910e-01 -1.968502998352050781e-01 -3.474378958344459534e-02 2.717254459857940674e-01 -9.733252972364425659e-02 -1.654886901378631592e-01 -1.813554763793945312e-01 -2.772407829761505127e-01 -2.899707667529582977e-02
1.100954264402389526e-01 -1.811329275369644165e-01 -2.629012465476989746e-01 -2.275490388274192810e-02 -1.570098549127578735e-01 -8.454921096563339233e-02 -9.898094087839126587e-02 7.628402858972549438e-02 2.284538894891738892e-01 1.726024299860000610e-01 1.385830342769622803e-01 -2.296953201293945312e-01 3.059350885450839996e-02 -4.758957400918006897e-02 1.490779370069503784e-01 2.605182230472564697e-01 1.372210085391998291e-01 6.765843927860260010e-02 1.435678899288177490e-01 3.946512565016746521e-02 -1.962042897939682007e-01 4.395509883761405945e-02 -1.333157625049352646e-02 -1.578446924686431885e-01 -2.579932510852813721e-01 1.437910348176956177e-01 8.867484331130981445e-02 -3.909121081233024597e-02 -1.375919729471206665e-01 -1.108450889587402344e-01 -2.728771865367889404e-01 2.787871062755584717e-01 2.626276016235351562e-02 1.284715384244918823e-01 -5.631574988365173340e-02 -2.562373578548431396e-01 -1.167283728718757629e-01 -5.538675189018249512e-02 2.196181192994117737e-02 2.471725940704345703e-01 1.166335642337799072e-01 1.109261661767959595e-01 -1.402791589498519897e-01 5.701774358749389648e-02 -1.910865455865859985e-01 2.029671967029571533e-01 -5.742558836936950684e-02 -1.879170238971710205e-01 6.067553535103797913e-02 -2.110469043254852295e-01 2.339001297950744629e-01 7.894479483366012573e-02 2.070014476776123047e-01 2.263179272413253784e-01 6.057486683130264282e-02 4.570115730166435242e-02 7.311539351940155029e-02 1.290603876113891602e-01 -5.517243221402168274e-02 2.383229434490203857e-01
2.319777458906173706e-01 9.530007839202880859e-02 -1.598447561264038086e-01 -3.424074500799179077e-02 1.545174717903137207e-01 1.095737740397453308e-01 -3.214459121227264404e-01 1.216741977259516716e-03 2.276736199855804443e-01 2.972959280014038086e-01 1.449819803237915039e-01 -7.046952098608016968e-02 4.017801880836486816e-01 -1.467530429363250732e-01 -1.139028072357177734e-01 -3.049503564834594727e-01 -2.754082381725311279e-01 3.178283572196960449e-02 -1.731033474206924438e-01 -3.667305409908294678e-02 9.799379110336303711e-02 1.315751969814300537e-01 -6.773782521486282349e-02 -3.803472518920898438e-01 -1.054812781512737274e-02 4.031558521091938019e-03 -1.143861040472984314e-01 5.114513263106346130e-02 -1.375868767499923706e-01 1.887015253305435181e-01 -2.409929633140563965e-01 -8.644941449165344238e-02 -3.030155226588249207e-02 -1.036845613270998001e-02 -2.180888652801513672e-01 1.532170921564102173e-01 6.917507201433181763e-02 -2.930975258350372314e-01 -1.125064045190811157e-01 -1.370639819651842117e-02 -1.035855151712894440e-02 9.295394271612167358e-02 2.077042460441589355e-01 -7.762604206800460815e-02 5.509867519140243530e-02 1.764645129442214966e-01 -8.415587991476058960e-02 -1.907253712415695190e-01 6.482736021280288696e-02 -3.078726232051849365e-01 1.864221990108489990e-01 1.476861089468002319e-01 1.944552659988403320e-01 -3.344330489635467529e-01 -3.330679843202233315e-03 -1.959893405437469482e-01 2.969667315483093262e-01 3.585810959339141846e-01 -1.115351319313049316e-01 -2.574616670608520508e-01
-2.544212341308593750e-01 3.037681281566619873e-01 -4.774075374007225037e-02 1.851218342781066895e-01 3.593429625034332275e-01 1.051241979002952576e-01 -2.295973300933837891e-01 -3.469987511634826660e-01 3.457464575767517090e-01 -2.877474725246429443e-01 -3.283257484436035156e-01 1.394154876470565796e-01 3.396607637405395508e-01 -1.736225932836532593e-02 2.078749239444732666e-02 -4.202307388186454773e-02 9.963944554328918457e-02 -1.235857531428337097e-01 1.911983042955398560e-01 1.333982348442077637e-01 2.143199741840362549e-01 1.056901440024375916e-01 -3.332479670643806458e-02 -3.295068442821502686e-01 -7.199089229106903076e-02 -1.158483549952507019e-01 2.926867306232452393e-01 1.859223544597625732e-01 -1.502917241305112839e-02 -4.801897704601287842e-02 1.974872201681137085e-01 -1.399060785770416260e-01 3.216332942247390747e-02 -2.402446419000625610e-01 -3.716890141367912292e-02 -2.384724840521812439e-02 1.495672166347503662e-01 -2.652749121189117432e-01 -2.468116879463195801e-01 -4.942241683602333069e-02 4.087155684828758240e-02 -3.899616897106170654e-01 1.862117946147918701e-01 -2.411996275186538696e-01 -7.180354744195938110e-02 -1.619576811790466309e-01 -1.420157402753829956e-01 -4.220383241772651672e-02 1.129494421184062958e-02 1.211405992507934570e-01 4.892261326313018799e-02 7.728455960750579834e-02 1.499031484127044678e-01 4.618774168193340302e-03 7.408745586872100830e-02 2.653713822364807129e-01 -3.187971711158752441e-01 -9.525687247514724731e-02 1.301208287477493286e-01 -1.948827505111694336e-01
1.246821805834770203e-01 -7.141909003257751465e-02 -1.327777504920959473e-01 -4.833725094795227051e-02 1.673251390457153320e-01 -2.567957341670989990e-01 1.182006597518920898e-01 -1.814277619123458862e-01 1.186937168240547180e-01 -6.955166906118392944e-02 -7.988347858190536499e-02 -3.789607807993888855e-02 4.186402633786201477e-02 2.451433390378952026e-01 -7.565736025571823120e-02 -2.170605212450027466e-01 5.363108217716217041e-02 1.944656223058700562e-01 -9.854864329099655151e-02 3.379337489604949951e-01 1.064339056611061096e-01 -1.103748232126235962e-01 -1.259503811597824097e-01 1.619269400835037231e-01 1.149268671870231628e-01 3.274399042129516602e-02 2.466945797204971313e-01 -9.241867810487747192e-02 -2.266819328069686890e-01 1.667187213897705078e-01 2.264436334371566772e-01 2.891407608985900879e-01 6.378943473100662231e-02 -1.932251453399658203e-01 -1.368360817432403564e-01 2.606287300586700439e-01 2.188659310340881348e-01 1.092112064361572266e-01 -2.793439850211143494e-02 4.614301491528749466e-03 1.017135530710220337e-01 1.155126988887786865e-01 1.793620139360427856e-01 2.756766080856323242e-01 2.391604334115982056e-01 1.489517539739608765e-01 -2.950168848037719727e-01 -1.361698508262634277e-01 2.653788924217224121e-01 -1.487533301115036011e-01 -6.940166000276803970e-03 3.350599408149719238e-01 2.163056880235671997e-01 -1.696409136056900024e-01 -6.117980554699897766e-02 2.186528593301773071e-01 4.767059907317161560e-02 2.520740032196044922e-01 -2.202703654766082764e-01 1.970804333686828613e-01
3.667233511805534363e-02 1.790110617876052856e-01 1.790125221014022827e-01 -1.785995960235595703e-01 -6.943312287330627441e-02 9.691834449768066406e-03 -2.327819317579269409e-01 3.777732700109481812e-02 1.534908413887023926e-01 3.143363296985626221e-01 -2.005646973848342896e-01 1.474797129631042480e-01 -3.620879352092742920e-01 1.503709554672241211e-01 9.660543501377105713e-02 -6.278715282678604126e-02 2.126237004995346069e-01 -2.121014744043350220e-01 -2.672970890998840332e-01 8.236241340637207031e-02 1.916550844907760620e-01 1.698649078607559204e-01 -2.569948434829711914e-01 6.447266042232513428e-02 -1.747969537973403931e-01 -2.392597198486328125e-01 -7.859513163566589355e-02 4.105339758098125458e-03 -4.350879229605197906e-03 -5.386747047305107117e-02 2.670131623744964600e-01 1.402970254421234131e-01 8.208067715167999268e-02 -8.213241398334503174e-02 -2.324921488761901855e-01 -1.275458931922912598e-01 4.181669559329748154e-03 -1.958477050065994263e-01 9.871473535895347595e-03 4.299279302358627319e-02 -2.652176916599273682e-01 -1.825217157602310181e-01 -3.428191840648651123e-01 1.931037008762359619e-01 -2.035216987133026123e-01 1.241146326065063477e-01 3.708143234252929688e-01 1.507489755749702454e-02 -1.016338393092155457e-01 -1.495784968137741089e-01 3.485310673713684082e-01 2.310411930084228516e-01 3.596047759056091309e-01 -7.158572552725672722e-04 -1.039519682526588440e-01 8.244360983371734619e-02 3.153795599937438965e-01 -1.369231045246124268e-01 6.532337516546249390e-02 7.980150729417800903e-02
1.010139137506484985e-01 -1.643230020999908447e-01 -2.343129813671112061e-01 1.812092959880828857e-01 -1.303186565637588501e-01 2.780301570892333984e-01 -2.476594001054763794e-01 -7.349396497011184692e-02 8.712829649448394775e-02 -6.763266026973724365e-02 -2.321571484208106995e-02 -3.727853670716285706e-02 -1.910846531391143799e-01 2.411411851644515991e-01 -5.302796512842178345e-02 2.223799526691436768e-01 -4.696871340274810791e-02 -2.752085030078887939e-02 6.915233284235000610e-02 -6.475231051445007324e-02 -1.611005514860153198e-01 -4.181499034166336060e-02 -1.977956444025039673e-01 7.412330061197280884e-02 5.446323752403259277e-02 -2.683592736721038818e-01 -1.021453440189361572e-01 -1.944757811725139618e-02 -2.899740338325500488e-01 -2.151135355234146118e-01 -6.473681330680847168e-02 1.658068895339965820e-01 2.340944483876228333e-02 -1.430950313806533813e-01 -8.313094824552536011e-02 3.059989586472511292e-02 -2.778199315071105957e-02 2.268840223550796509e-01 9.176814556121826172e-02 1.388214230537414551e-01 1.333673894405364990e-01 2.692166864871978760e-01 3.862146437168121338e-01 -1.190556511282920837e-01 -7.996401935815811157e-02 -1.950393314473330975e-03 -4.376250132918357849e-02 -2.871669530868530273e-01 2.493873834609985352e-01 -2.011260837316513062e-01 6.255690474063158035e-03 -5.990450829267501831e-02 -3.085223771631717682e-02 1.596973240375518799e-01 6.145209446549415588e-02 -2.099152207374572754e-01 2.758609950542449951e-01 7.471097167581319809e-03 5.363667011260986328e-02 3.728347644209861755e-02
-1.421682983636856079e-01 -1.147716268897056580e-01 7.474165409803390503e-02 2.559737861156463623e-01 1.554718017578125000e-01 6.653891503810882568e-02 -3.375693783164024353e-02 -1.721836924552917480e-01 3.776654601097106934e-01 -6.946162134408950806e-02 -4.022890925407409668e-01 8.267021924257278442e-02 -1.256890743970870972e-01 -5.218804627656936646e-02 3.133851885795593262e-01 1.282447278499603271e-01 1.169691048562526703e-02 -2.424051053822040558e-02 -6.463343650102615356e-02 2.390801161527633667e-01 4.631243646144866943e-02 1.994824595749378204e-02 2.437956184148788452e-01 -1.083134114742279053e-01 3.444297313690185547e-01 2.904851175844669342e-02 -3.605466783046722412e-01 -5.430427938699722290e-02 4.074931144714355469e-02 2.102662324905395508e-01 -2.487879246473312378e-01 -3.151791095733642578e-01 -8.544562757015228271e-02 -3.093214631080627441e-01 8.633768185973167419e-03 -1.521686762571334839e-01 -9.261228889226913452e-02 1.647395789623260498e-01 1.784689128398895264e-01 9.261847287416458130e-02 6.790448725223541260e-02 2.100238949060440063e-01 -7.721784710884094238e-02 -2.570353150367736816e-01 -2.100635766983032227e-01 2.183985710144042969e-01 4.395278915762901306e-02 2.482922524213790894e-01 5.257160589098930359e-02 3.299682438373565674e-01 8.235984295606613159e-02 -6.613112241029739380e-02 -9.266640245914459229e-02 -2.018889971077442169e-02 -2.177729010581970215e-01 -8.737795799970626831e-02 2.930326759815216064e-02 3.349848091602325439e-02 5.960246548056602478e-02 -3.718156814575195312e-01
2.122575193643569946e-01 -2.768945693969726562e-01 -2.431908398866653442e-01 -1.559489313513040543e-02 -1.445064246654510498e-01 -2.506601214408874512e-01 8.234615623950958252e-02 1.091955527663230896e-01 -1.901606321334838867e-01 -2.080499976873397827e-01 6.978855282068252563e-02 1.619768440723419189e-01 1.335662752389907837e-01 -2.758666174486279488e-03 1.183035820722579956e-01 -2.267407923936843872e-01 -1.568910852074623108e-02 -2.623644173145294189e-01 3.035413101315498352e-02 -8.098661899566650391e-02 -9.401734173297882080e-02 -8.322127163410186768e-02 9.564932435750961304e-03 -2.938224673271179199e-01 5.637030303478240967e-02 -1.076420918107032776e-01 -2.897063195705413818e-01 3.732137382030487061e-02 2.327251136302947998e-01 -7.340236566960811615e-03 3.216918408870697021e-01 -3.350528478622436523e-01 -6.335844844579696655e-02 2.382086031138896942e-02 8.650909364223480225e-02 -1.666850596666336060e-01 -1.156305000185966492e-01 -1.007333397865295410e-02 -1.705422103404998779e-01 -2.003605663776397705e-01 1.479981094598770142e-01 1.493931654840707779e-02 -9.156031906604766846e-02 -9.269428253173828125e-02 -2.368830442428588867e-01 -2.838552296161651611e-01 2.374712526798248291e-01 -2.097619175910949707e-01 -1.317020058631896973e-01 -1.023669838905334473e-01 3.953869268298149109e-02 -2.102144621312618256e-02 -5.923756211996078491e-02 1.850461214780807495e-01 -1.181708648800849915e-01 -6.531959772109985352e-02 -1.428574230521917343e-02 -7.979772984981536865e-02 -2.239941433072090149e-02 2.083012647926807404e-02
1.146795526146888733e-01 1.483443528413772583e-01 -9.160544723272323608e-02 2.100166380405426025e-01 1.414023805409669876e-02 3.446183800697326660e-01 -9.626026265323162079e-03 -6.743559986352920532e-02 -3.022772967815399170e-01 -4.250351339578628540e-02 -2.409651577472686768e-01 -1.436970829963684082e-01 2.049947530031204224e-01 -9.720294736325740814e-03 -5.173645168542861938e-02 2.340820878744125366e-01 -1.651808917522430420e-01 4.154475629329681396e-01 1.726432442665100098e-01 2.479703277349472046e-01 2.368506640195846558e-01 1.628836393356323242e-01 -3.587720394134521484e-01 1.300059258937835693e-01 1.789447963237762451e-01 7.785095274448394775e-02 2.049929462373256683e-02 1.374936103820800781e-01 -4.281251167412847281e-04 -1.432383209466934204e-01 -2.607046067714691162e-01 -2.140673995018005371e-01 -2.135539203882217407e-01 -1.979525238275527954e-01 2.710138857364654541e-01 -8.073438704013824463e-02 -1.303408890962600708e-01 1.580011695623397827e-01 1.211348548531532288e-01 -1.472087055444717407e-01 7.542388886213302612e-02 2.377417236566543579e-01 7.083233911544084549e-03 3.680459260940551758e-01 1.132729053497314453e-01 2.143061608076095581e-01 -5.142770707607269287e-02 -1.161324903368949890e-01 9.114450775086879730e-03 -9.212165139615535736e-03 -1.665816456079483032e-01 3.678128719329833984e-01 -1.116259098052978516e-01 6.343650817871093750e-02 -1.758572906255722046e-01 -1.301571279764175415e-01 -3.370126485824584961e-01 -3.503147512674331665e-02 3.909121453762054443e-02 1.211868226528167725e-02
6.735158711671829224e-02 -2.057884335517883301e-01 -1.226805821061134338e-01 -1.751945018768310547e-01 -2.474957704544067383e-02 1.198646053671836853e-01 1.624948084354400635e-01 2.413379214704036713e-02 -9.365871548652648926e-03 7.924052886664867401e-03 -2.364962548017501831e-02 1.373661756515502930e-01 1.480640470981597900e-01 -1.316964030265808105e-01 1.184086576104164124e-01 -1.133791133761405945e-01 -1.606926918029785156e-01 -1.309085916727781296e-02 -3.040741384029388428e-01 3.211718797683715820e-01 5.133346188813447952e-03 3.739010691642761230e-01 -1.117516905069351196e-01 -7.248921692371368408e-02 1.517751663923263550e-01 -1.039359439164400101e-02 -3.557957708835601807e-02 3.177631199359893799e-01 6.217692419886589050e-02 -1.733131855726242065e-01 1.135869026184082031e-01 -9.909166395664215088e-02 1.488559506833553314e-02 -1.965962722897529602e-02 -3.477967381477355957e-01 -3.351104557514190674e-01 -2.959495484828948975e-01 -1.644998937845230103e-01 -2.478576749563217163e-01 5.573901906609535217e-02 1.919964253902435303e-01 3.432113826274871826e-01 1.296210289001464844e-01 7.980699092149734497e-02 1.456946879625320435e-01 1.776309460401535034e-01 -1.698528975248336792e-01 -7.566992938518524170e-02 -1.050937324762344360e-01 -7.903395593166351318e-02 -1.479069590568542480e-01 1.708659529685974121e-01 1.045411676168441772e-01 -9.211554192006587982e-03 1.842809170484542847e-01 1.347987651824951172e-01 -2.610947191715240479e-02 -1.107127871364355087e-03 -9.489519149065017700e-02 -2.070240676403045654e-01
-1.691974252462387085e-01 3.051594793796539307e-01 3.491292521357536316e-02 -9.287003427743911743e-02 -1.430328637361526489e-01 -1.358968466520309448e-01 2.074247598648071289e-01 2.076331675052642822e-01 1.419968158006668091e-01 -1.461318880319595337e-01 3.327740132808685303e-01 -3.066050112247467041e-01 -1.612234413623809814e-01 1.196336373686790466e-02 -1.525259464979171753e-01 9.192501753568649292e-02 -2.203724384307861328e-01 -1.668354719877243042e-01 2.161336541175842285e-01 3.476878106594085693e-01 -5.705857276916503906e-02 1.875007748603820801e-01 -8.961287885904312134e-02 -1.314471215009689331e-01 -3.647282719612121582e-01 2.358609288930892944e-01 1.408940702676773071e-01 -3.243879377841949463e-01 -3.216091394424438477e-01 -3.287909626960754395e-01 -2.392750531435012817e-01 -3.887712582945823669e-02 1.468890607357025146e-01 -5.259665101766586304e-02 -6.356319785118103027e-02 5.895549431443214417e-02 -2.198866903781890869e-01 2.281663864850997925e-01 2.307195365428924561e-01 8.102039992809295654e-02 2.085541784763336182e-01 6.975699961185455322e-02 2.027838826179504395e-01 1.490210592746734619e-01 1.003710255026817322e-01 -1.110269129276275635e-01 -9.239496663212776184e-03 -2.765302360057830811e-01 2.888685166835784912e-01 -2.886988520622253418e-01 -2.185739129781723022e-01 -1.265207678079605103e-01 -7.023060321807861328e-02 -1.326443254947662354e-01 2.736813127994537354e-01 -2.355669736862182617e-01 2.548801302909851074e-01 1.336673945188522339e-01 -1.726073622703552246e-01 9.662176668643951416e-02
-8.511325716972351074e-02 1.291537582874298096e-01 -3.604274988174438477e-02 1.441955659538507462e-02 -1.753493249416351318e-01 -1.805765926837921143e-01 1.112513020634651184e-01 -1.571189910173416138e-01 6.176351103931665421e-03 2.016835808753967285e-01 -3.929383680224418640e-02 -1.189178302884101868e-01 -1.964301466941833496e-01 -8.816409111022949219e-02 -9.750744700431823730e-02 -1.418466269969940186e-01 -1.409799158573150635e-01 2.538796961307525635e-01 1.838696151971817017e-01 -7.618106901645660400e-02 -6.338435411453247070e-02 8.553184568881988525e-02 1.191065832972526550e-01 2.818766608834266663e-02 -2.292833775281906128e-01 2.682210206985473633e-01 1.227764338254928589e-01 -1.814216524362564087e-01 3.047738671302795410e-01 2.583474516868591309e-01 -2.014083415269851685e-01 -4.235174879431724548e-02 -1.330726295709609985e-01 -3.323761047795414925e-03 -1.265216022729873657e-01 6.132910959422588348e-03 5.495453998446464539e-02 1.348218172788619995e-01 -1.222049295902252197e-01 5.648268759250640869e-02 -1.301455050706863403e-01 -5.742209963500499725e-03 -8.266435563564300537e-02 5.813935026526451111e-02 7.791066914796829224e-02 2.525835298001766205e-02 -1.991844773292541504e-01 6.778795737773180008e-03 7.748439162969589233e-02 1.609846353530883789e-01 -1.564140170812606812e-01 -1.459668129682540894e-01 4.969552159309387207e-03 -7.390332221984863281e-02 -4.561710637062788010e-03 1.398570984601974487e-01 4.966530203819274902e-02 1.996831595897674561e-02 1.378362923860549927e-01 -2.688195705413818359e-01
-1.119122654199600220e-01 2.643387019634246826e-01 7.628195732831954956e-02 1.932826787233352661e-01 -3.630786240100860596e-01 2.375242710113525391e-01 -1.511245816946029663e-01 1.863849759101867676e-01 -1.180107593536376953e-01 2.492123246192932129e-01 2.349744886159896851e-01 -2.556932270526885986e-01 -3.046722337603569031e-02 7.075148820877075195e-02 -9.441509097814559937e-02 9.191903471946716309e-02 -1.147490739822387695e-01 3.476153314113616943e-01 3.065975755453109741e-02 -2.146095484495162964e-01 9.160641580820083618e-02 -3.414652496576309204e-02 1.622831225395202637e-01 5.784580111503601074e-02 1.961780488491058350e-01 -1.959048025310039520e-02 1.240426301956176758e-01 3.385413885116577148e-01 3.699128925800323486e-01 -5.575504526495933533e-02 2.148932404816150665e-02 1.662389934062957764e-01 -4.916010797023773193e-02 -3.407362401485443115e-01 3.439668938517570496e-02 -2.384437806904315948e-02 -7.468952238559722900e-02 -1.278175413608551025e-01 -1.329255998134613037e-01 1.062919571995735168e-01 -2.463650703430175781e-02 -3.425553068518638611e-02 1.699231117963790894e-01 -7.583707571029663086e-02 1.683702319860458374e-01 2.890212694182991982e-03 1.592952758073806763e-01 -1.340851094573736191e-02 1.600747555494308472e-01 -5.195065215229988098e-02 3.827232867479324341e-02 -1.460580527782440186e-01 -9.978986345231533051e-03 -1.643369942903518677e-01 1.479153037071228027e-01 -1.753102838993072510e-01 -8.404857665300369263e-02 3.966171741485595703e-01 2.919274568557739258e-01 3.021968603134155273e-01
-4.580377787351608276e-02 1.183179542422294617e-01 -3.676155209541320801e-01 1.306098550558090210e-01 -1.432691235095262527e-02 -4.147458672523498535e-01 -8.223304897546768188e-02 -8.406770974397659302e-02 1.364404428750276566e-02 9.982103854417800903e-02 -1.498004049062728882e-01 -7.392073981463909149e-03 4.346318170428276062e-02 1.582495868206024170e-01 -1.251595467329025269e-02 -3.240872323513031006e-01 -3.218353167176246643e-02 1.948608011007308960e-01 2.045585215091705322e-01 -3.081268966197967529e-01 -9.587086737155914307e-02 9.268736839294433594e-02 -1.915911138057708740e-01 4.828763604164123535e-01 -1.034746393561363220e-01 -2.832610905170440674e-01 2.650450915098190308e-02 2.586869001388549805e-01 -3.198576271533966064e-01 -1.101685464382171631e-01 3.039739280939102173e-02 -2.721360027790069580e-01 -1.777386963367462158e-01 1.127548366785049438e-01 -5.234211683273315430e-02 -2.798723876476287842e-01 -9.186768531799316406e-02 -3.435359522700309753e-02 1.437426954507827759e-01 1.309036910533905029e-01 3.659877479076385498e-01 -1.391837298870086670e-01 1.071037799119949341e-01 -2.671017646789550781e-01 -1.156754046678543091e-01 -7.084119599312543869e-03 7.811866700649261475e-02 -4.224502742290496826e-01 -1.460987180471420288e-01 3.596166893839836121e-02 -1.004783585667610168e-01 2.392383962869644165e-01 2.546443343162536621e-01 1.502920389175415039e-01 -2.203849330544471741e-02 1.129630766808986664e-02 -1.568336598575115204e-02 -3.175172805786132812e-01 -1.337233483791351318e-01 -2.140690833330154419e-01
-8.485089987516403198e-03 5.869320593774318695e-03 -2.470131963491439819e-01 6.199258193373680115e-02 -9.227237850427627563e-02 1.059815138578414917e-01 -2.788268625736236572e-01 -2.332426607608795166e-02 -1.441088169813156128e-01 -9.318957477807998657e-02 1.726855635643005371e-01 1.087881326675415039e-01 4.984478279948234558e-02 -1.644964069128036499e-01 -1.600789874792098999e-01 -2.934787571430206299e-01 1.196238622069358826e-01 2.817152440547943115e-01 1.447469145059585571e-01 -2.351699955761432648e-02 -6.842411309480667114e-02 3.035011887550354004e-02 1.076265051960945129e-01 3.936173319816589355e-01 3.519723713397979736e-01 2.155018299818038940e-01 1.003760695457458496e-01 -3.096520155668258667e-02 -3.352158069610595703e-01 3.360705077648162842e-02 -7.614841312170028687e-02 8.495506644248962402e-02 -2.649482786655426025e-01 -3.208963572978973389e-01 1.624899357557296753e-01 1.684756577014923096e-01 -4.107755422592163086e-02 8.924777060747146606e-02 -1.374644460156559944e-03 -2.205375581979751587e-01 8.360145241022109985e-02 -9.235706180334091187e-03 -2.746943235397338867e-01 -2.008012495934963226e-02 2.731124311685562134e-02 -2.429539337754249573e-02 -1.329313814640045166e-01 4.036705493927001953e-01 1.895661056041717529e-01 -1.026757881045341492e-01 8.473376929759979248e-02 -2.735595032572746277e-02 -2.181973494589328766e-02 -3.902027010917663574e-02 3.362235426902770996e-01 4.480655491352081299e-02 4.490821436047554016e-02 -1.203081905841827393e-01 1.603279113769531250e-01 -2.775647044181823730e-01
4.142792150378227234e-02 6.064078584313392639e-02 2.236987836658954620e-02 -1.011965274810791016e-01 -7.855559140443801880e-02 -1.553296744823455811e-01 -1.115908250212669373e-01 2.567761763930320740e-02 1.885343194007873535e-01 -3.616410195827484131e-01 7.706403732299804688e-02 1.181618124246597290e-01 -2.512497082352638245e-02 -9.665635228157043457e-02 1.358493864536285400e-01 2.249104082584381104e-01 2.379487603902816772e-01 2.664339356124401093e-02 6.919124722480773926e-02 7.488609105348587036e-02 1.995350569486618042e-01 -3.590099886059761047e-02 -2.576529681682586670e-01 -4.198840633034706116e-02 2.285625599324703217e-02 -1.125258132815361023e-01 2.610614597797393799e-01 -3.050531744956970215e-01 3.363844752311706543e-02 -2.314793914556503296e-01 6.361734122037887573e-02 -3.122945427894592285e-01 -1.351279616355895996e-01 9.945055842399597168e-02 -1.862691342830657959e-01 1.749091595411300659e-01 -2.188993245363235474e-02 -5.440843477845191956e-02 -2.537212371826171875e-01 1.887985169887542725e-01 6.731197237968444824e-02 -2.119885683059692383e-01 5.753921344876289368e-02 5.687058717012405396e-02 1.568277329206466675e-01 1.415257155895233154e-01 -1.758303493261337280e-01 -1.513894945383071899e-01 1.735423458740115166e-03 -1.017362847924232483e-01 -1.227459460496902466e-01 1.257955580949783325e-01 5.473210942000150681e-03 -2.125730216503143311e-01 -2.136259227991104126e-01 1.413597464561462402e-01 -1.834995448589324951e-01 2.584192156791687012e-01 -2.460359334945678711e-01 -1.661441773176193237e-01
3.600574284791946411e-02 1.024072691798210144e-01 2.069188207387924194e-01 7.570945471525192261e-02 2.119577229022979736e-01 -2.349750548601150513e-01 2.419560104608535767e-01 -4.465160518884658813e-02 -1.179790720343589783e-01 -1.777276247739791870e-01 1.734869629144668579e-01 1.560115963220596313e-01 4.084765538573265076e-02 -5.262650176882743835e-02 -6.888904422521591187e-02 -5.618324130773544312e-02 -3.769505023956298828e-02 1.109668686985969543e-01 -5.850970000028610229e-02 -2.631579041481018066e-01 -9.910149127244949341e-02 -1.681097596883773804e-01 3.716545701026916504e-01 -8.893729746341705322e-02 6.499051302671432495e-02 -1.053973212838172913e-01 1.067786067724227905e-01 -1.466700881719589233e-01 -3.674724400043487549e-01 1.447492688894271851e-01 -1.121535301208496094e-01 -7.661849260330200195e-03 1.139050126075744629e-01 -1.587794162333011627e-03 -5.434078350663185120e-02 3.673992156982421875e-01 1.570492051541805267e-02 8.154950290918350220e-02 2.046156525611877441e-01 -9.086600691080093384e-02 -1.121486276388168335e-01 3.067027404904365540e-02 -2.056660689413547516e-02 1.427902132272720337e-01 8.876704424619674683e-02 -2.555349469184875488e-01 1.973250955343246460e-01 3.246579468250274658e-01 1.736973822116851807e-01 -1.434494405984878540e-01 -3.616186380386352539e-01 1.608935743570327759e-02 3.261560201644897461e-01 1.337676793336868286e-01 3.889999687671661377e-01 2.401859313249588013e-01 2.379305213689804077e-01 -2.822196483612060547e-01 3.924661874771118164e-02 -7.163035124540328979e-02
-1.198029890656471252e-02 -3.469317853450775146e-01 -1.065354198217391968e-01 1.103556752204895020e-01 -8.490411192178726196e-02 1.924590468406677246e-01 2.413453720510005951e-02 -1.216758694499731064e-02 -2.223292887210845947e-01 2.303686290979385376e-01 -8.637236058712005615e-02 2.499060239642858505e-03 1.840127445757389069e-02 -1.412304937839508057e-01 -1.728079654276371002e-02 2.225370556116104126e-01 1.409874409437179565e-01 -4.956256598234176636e-03 -9.048642218112945557e-02 8.671451359987258911e-03 2.843234837055206299e-01 1.564550995826721191e-01 -9.309982508420944214e-02 1.120054423809051514e-01 -1.353450305759906769e-02 1.238374412059783936e-01 2.937441691756248474e-02 -1.493771523237228394e-01 2.908982038497924805e-01 -3.563690558075904846e-02 2.216599136590957642e-01 -1.563042700290679932e-01 2.679473161697387695e-01 -1.579760164022445679e-01 1.925213038921356201e-01 -1.093288064002990723e-01 7.842672616243362427e-02 8.958546072244644165e-02 1.594022065401077271e-01 2.791658230125904083e-02 1.113473903387784958e-02 -1.630980521440505981e-01 -2.262010127305984497e-01 1.661289632320404053e-01 2.667166665196418762e-02 -2.720702588558197021e-01 5.597336683422327042e-03 1.424912512302398682e-01 1.215112283825874329e-01 -4.075883701443672180e-02 1.187257915735244751e-01 -1.320902556180953979e-01 1.742529720067977905e-01 -7.071388512849807739e-02 1.729265749454498291e-01 1.465150248259305954e-02 -7.607549428939819336e-02 1.968502439558506012e-02 2.192842066287994385e-01 -1.971337646245956421e-01
5.888964608311653137e-02 2.857659757137298584e-01 2.404722720384597778e-01 2.597379982471466064e-01 -1.123392060399055481e-01 1.168153285980224609e-01 2.431230060756206512e-02 -1.286729723215103149e-01 9.767377376556396484e-02 2.644764184951782227e-01 -1.058493182063102722e-01 -8.274523913860321045e-02 2.053472250699996948e-01 2.772592604160308838e-01 -5.616500973701477051e-02 2.885708212852478027e-01 1.114638969302177429e-01 -2.282958328723907471e-01 -3.871310353279113770e-01 -1.285237967967987061e-01 1.662462018430233002e-04 -2.385469675064086914e-01 1.665133982896804810e-02 3.479835093021392822e-01 6.576231867074966431e-02 1.148442104458808899e-01 1.832077801227569580e-01 -1.530675217509269714e-02 -2.950733304023742676e-01 -2.372498661279678345e-01 -3.370246291160583496e-01 3.307331800460815430e-01 8.763758838176727295e-02 -1.584461517632007599e-02 -7.826348766684532166e-03 1.281636953353881836e-01 -7.964517921209335327e-02 -1.662987321615219116e-01 1.844430863857269287e-01 1.649408489465713501e-01 2.065320611000061035e-01 1.307772099971771240e-01 -2.085147202014923096e-01 -1.527947783470153809e-01 -1.623590886592864990e-01 -1.915760785341262817e-01 -4.124823957681655884e-02 -1.268779039382934570e-01 -1.618874142877757549e-03 3.458051979541778564e-01 -2.101113200187683105e-01 1.972894817590713501e-01 -4.410771187394857407e-03 -1.396013200283050537e-01 -2.399315536022186279e-01 2.118606865406036377e-01 -3.294682204723358154e-01 1.540345996618270874e-01 -3.576916456222534180e-01 -5.162095278501510620e-02
