4.704418778419494629e-02 2.269150502979755402e-02 1.083671376109123230e-01 -1.851676106452941895e-01 -1.641969084739685059e-01 2.454249709844589233e-01 -1.565402746200561523e-02 -2.115083299577236176e-02 3.667299449443817139e-01 -3.024791600182652473e-03 1.105935499072074890e-01 -1.443652436137199402e-02 -1.768681854009628296e-01 -9.568772278726100922e-03 -4.772238433361053467e-02 2.136056572198867798e-01 2.645387351512908936e-01 1.644133776426315308e-02 7.178550213575363159e-02 -5.140101537108421326e-02 1.451670229434967041e-01 -8.494748920202255249e-02 2.184849083423614502e-01 -2.824489176273345947e-01 7.699655741453170776e-02 2.982475459575653076e-01 -1.056794971227645874e-01 1.004607900977134705e-01 -7.458247244358062744e-02 2.169991582632064819e-01 3.157141059637069702e-02 7.827118039131164551e-02 -1.872680485248565674e-01 1.248515099287033081e-01 -2.319689691066741943e-01 -1.453958749771118164e-01 -5.042105913162231445e-02 -3.486631438136100769e-02 -1.167665608227252960e-02 2.269850820302963257e-01 -2.203209884464740753e-02 1.505236793309450150e-02 1.375666111707687378e-01 2.185310423374176025e-01 1.234768982976675034e-02 -2.435926198959350586e-01 1.485268026590347290e-01 -2.532105147838592529e-01 -1.833018511533737183e-01 -1.096387580037117004e-01 2.292651496827602386e-02 9.514977782964706421e-02 -2.205187268555164337e-02 2.516791224479675293e-01 2.439331710338592529e-01 -2.418231964111328125e-01 1.382981538772583008e-01 -6.358889490365982056e-02 -1.230228617787361145e-01 -1.120725199580192566e-01 -1.012909561395645142e-01 3.678117692470550537e-01 -8.721897006034851074e-02 -9.909757226705551147e-02 -2.662707567214965820e-01 2.479388415813446045e-01 2.208269685506820679e-01 2.136809080839157104e-01 -1.169393509626388550e-01 1.957944482564926147e-01 -6.381150335073471069e-02 -1.084393486380577087e-01 -1.939920932054519653e-01 -1.533432155847549438e-01 -1.785919815301895142e-01 -1.341329663991928101e-01 -2.834124565124511719e-01 -7.234064489603042603e-02 -2.747199535369873047e-01 -2.133272290229797363e-01
-9.964752197265625000e-02 5.241151433438062668e-03 -2.681706249713897705e-01 6.919056177139282227e-02 -4.117860645055770874e-02 1.421595364809036255e-01 2.169319242238998413e-01 -3.899286687374114990e-02 1.441214233636856079e-02 1.013167053461074829e-01 -3.844844102859497070e-01 -2.627803981304168701e-01 -3.531423583626747131e-02 4.566279053688049316e-01 -1.968227475881576538e-01 5.384854972362518311e-02 2.113870084285736084e-01 2.096519321203231812e-01 -2.330120503902435303e-01 -2.994518280029296875e-01 -8.963134139776229858e-02 -2.866348251700401306e-02 -3.781924843788146973e-01 -1.574588268995285034e-01 1.969009935855865479e-01 1.683361455798149109e-02 1.335474103689193726e-01 6.952771544456481934e-02 1.456859111785888672e-01 2.503295801579952240e-02 1.596928834915161133e-01 1.256894171237945557e-01 1.611589337699115276e-03 5.041643977165222168e-02 5.680322647094726562e-02 3.576867878437042236e-01 -1.456997096538543701e-01 -4.981327429413795471e-02 -2.442051768302917480e-01 -3.663559854030609131e-01 -2.127619236707687378e-01 -2.630640566349029541e-01 -2.581198811531066895e-01 -8.162011951208114624e-02 -3.991027176380157471e-01 -1.171304956078529358e-01 3.001696467399597168e-01 2.182447351515293121e-02 -4.576347768306732178e-03 2.122125327587127686e-01 3.315049409866333008e-02 6.795796751976013184e-02 -6.363701820373535156e-02 -1.296223234385251999e-02 1.347694396972656250e-01 1.945918649435043335e-01 2.194616943597793579e-02 -1.756853163242340088e-01 3.788378238677978516e-01 -2.262717857956886292e-02 -7.758112996816635132e-02 -7.064877450466156006e-02 1.155989244580268860e-01 6.730399094521999359e-03 -2.220692634582519531e-01 -1.558350920677185059e-01 -5.771614238619804382e-02 7.821942679584026337e-03 -3.182213902473449707e-01 -2.458190619945526123e-01 4.393410310149192810e-02 1.271901279687881470e-01 -7.276951521635055542e-02 1.347590535879135132e-01 -3.246211409568786621e-01 3.092842996120452881e-01 2.288123220205307007e-01 -1.774866729974746704e-01 9.719004482030868530e-02 1.809260398149490356e-01
3.500277996063232422e-01 1.581464111804962158e-01 2.930569462478160858e-02 1.282970160245895386e-01 -2.363378703594207764e-01 -1.964657753705978394e-01 3.000775873661041260e-01 -2.812810838222503662e-01 3.251012414693832397e-02 1.567630469799041748e-01 -8.345474302768707275e-02 1.349366903305053711e-01 -5.070672929286956787e-02 -1.204285621643066406e-01 -2.034804970026016235e-01 8.459914475679397583e-02 1.840539574623107910e-01 4.642697423696517944e-02 -1.104792430996894836e-01 -2.363914847373962402e-01 -4.016569256782531738e-02 2.245127409696578979e-02 1.881063431501388550e-01 -1.506616473197937012e-01 -8.705551177263259888e-02 -2.321974486112594604e-01 -2.780649065971374512e-02 -1.473615318536758423e-01 1.880758255720138550e-01 -8.962797373533248901e-02 -1.544497907161712646e-01 -1.385440826416015625e-01 2.413607537746429443e-01 -2.832426130771636963e-01 -5.321908742189407349e-02 1.063279733061790466e-01 -1.438716202974319458e-01 1.528743468225002289e-02 2.116587758064270020e-01 -3.328730911016464233e-02 -5.699546262621879578e-02 1.474007219076156616e-01 2.261781990528106689e-01 -1.408944427967071533e-01 8.987028896808624268e-02 2.769623100757598877e-01 -3.058277368545532227e-01 1.534024327993392944e-01 -9.647209197282791138e-03 2.888059914112091064e-01 7.512916624546051025e-02 -2.855492234230041504e-01 -3.303468525409698486e-01 1.722667813301086426e-01 -6.910238415002822876e-02 -2.121256440877914429e-01 -2.554135322570800781e-01 -1.834595054388046265e-01 2.945355512201786041e-02 -7.801012694835662842e-02 -1.804579943418502808e-01 -1.045216545462608337e-01 -6.166284903883934021e-02 3.043519556522369385e-01 -2.231942415237426758e-01 -1.570898890495300293e-01 1.650905907154083252e-01 -1.894863545894622803e-01 -2.689805924892425537e-01 1.925390511751174927e-01 -3.391928374767303467e-01 -1.197772547602653503e-01 -1.160571351647377014e-01 -6.598556786775588989e-02 4.146697372198104858e-02 -2.304176837205886841e-01 9.627977013587951660e-02 -2.737073898315429688e-01 2.236412279307842255e-02 2.332473695278167725e-01
2.956537306308746338e-01 -1.912798583507537842e-01 1.313665211200714111e-01 7.561638206243515015e-02 -2.195771932601928711e-01 -2.664515972137451172e-01 -2.654838562011718750e-01 8.610481768846511841e-02 -1.068624481558799744e-01 1.041235104203224182e-01 -7.546380162239074707e-02 -1.730361282825469971e-01 1.184921637177467346e-01 1.576500087976455688e-01 -3.504936099052429199e-01 -3.417609333992004395e-01 7.194011006504297256e-03 2.641968987882137299e-02 -1.091949269175529480e-01 -1.576949059963226318e-01 2.984646260738372803e-01 2.992377877235412598e-01 -1.455485224723815918e-01 -1.735378056764602661e-01 -1.308932751417160034e-01 1.262943744659423828e-01 1.390757691115140915e-02 2.262886315584182739e-01 4.100966081023216248e-02 7.652535289525985718e-02 -3.185135722160339355e-01 9.622267633676528931e-02 -3.050631843507289886e-02 7.168678939342498779e-02 4.135797172784805298e-02 1.221100091934204102e-01 -2.298706769943237305e-01 3.454759716987609863e-02 2.097317427396774292e-01 -1.642027869820594788e-02 -2.974615395069122314e-01 -3.946004807949066162e-02 2.712568342685699463e-01 -1.234680935740470886e-01 8.374489098787307739e-02 -1.581849455833435059e-01 -6.125621125102043152e-02 3.690389990806579590e-01 2.284307777881622314e-01 -1.232357248663902283e-01 1.618938148021697998e-01 1.474375873804092407e-01 -1.337769627571105957e-01 -1.171412989497184753e-01 4.012951627373695374e-02 -2.894954383373260498e-01 1.818806827068328857e-01 1.841917932033538818e-01 1.038034111261367798e-01 -1.159959062933921814e-01 1.323024481534957886e-01 1.616982370615005493e-01 2.126960456371307373e-01 -1.038788706064224243e-01 -3.791253268718719482e-02 7.381564378738403320e-02 7.421471923589706421e-02 1.329921036958694458e-01 2.042078226804733276e-01 6.683935225009918213e-02 -2.620511054992675781e-01 2.304655909538269043e-01 9.803420305252075195e-02 -1.122721284627914429e-01 -2.040521353483200073e-01 1.209111362695693970e-01 -1.382958739995956421e-01 3.576909601688385010e-01 5.128208175301551819e-02 -1.694013327360153198e-01
1.177108436822891235e-01 -1.841592192649841309e-01 8.172743022441864014e-02 1.840667575597763062e-01 1.141533032059669495e-01 1.454826816916465759e-02 -1.596408486366271973e-01 -2.785930410027503967e-02 -1.943235844373703003e-01 3.387610986828804016e-02 -2.707556486129760742e-01 -1.368885487318038940e-01 -1.141877621412277222e-01 8.914292603731155396e-02 -3.008330166339874268e-01 -9.743793867528438568e-03 3.461713790893554688e-01 -1.363008171319961548e-01 -1.558704022318124771e-02 2.846411764621734619e-01 2.809184491634368896e-01 -3.083183467388153076e-01 8.610659092664718628e-02 -1.839729100465774536e-01 2.918430566787719727e-01 -1.345206350088119507e-01 8.643024414777755737e-02 5.525779351592063904e-02 1.272843033075332642e-01 -6.224834825843572617e-03 8.378873020410537720e-02 -1.689253151416778564e-01 3.098468780517578125e-01 -1.221843361854553223e-01 2.424557507038116455e-01 8.856553584337234497e-03 4.706581681966781616e-02 -2.101686596870422363e-01 -6.805435568094253540e-02 7.586064934730529785e-02 -1.735391020774841309e-01 1.772062107920646667e-02 1.178474724292755127e-01 2.194665670394897461e-01 3.911596238613128662e-01 1.610131710767745972e-01 7.872019708156585693e-02 -1.505462080240249634e-02 2.770819365978240967e-01 3.303477168083190918e-01 1.255445331335067749e-01 -2.282499149441719055e-02 -1.110141538083553314e-02 1.867138743400573730e-01 -4.793155938386917114e-02 -1.515450477600097656e-01 5.883319303393363953e-02 3.247577846050262451e-01 1.249281410127878189e-02 -4.404900595545768738e-02 -6.200928613543510437e-02 2.830556477420032024e-04 2.134938836097717285e-01 -2.176704555749893188e-01 -2.725200355052947998e-01 2.112299203872680664e-02 4.417771846055984497e-02 -6.184570956975221634e-03 -5.373030155897140503e-02 3.746477365493774414e-01 1.610669940710067749e-01 -4.448495060205459595e-02 3.538906276226043701e-01 -2.180410921573638916e-01 -2.252489030361175537e-01 9.823448956012725830e-02 -2.969814240932464600e-01 1.354383081197738647e-01 8.588550984859466553e-02 1.877982467412948608e-01
-7.731599616818130016e-04 -1.899036392569541931e-02 2.169520258903503418e-01 6.625010073184967041e-02 -1.423580944538116455e-01 -6.127348169684410095e-02 -1.270645409822463989e-01 -4.705382883548736572e-02 3.209342956542968750e-01 2.991747260093688965e-01 -2.307917475700378418e-01 2.761802673339843750e-01 -3.664498776197433472e-02 -9.140085428953170776e-02 -1.429303437471389771e-01 -3.082892000675201416e-01 -1.860655248165130615e-01 -1.311593949794769287e-01 -1.266659200191497803e-01 -9.920773655176162720e-02 -1.038262099027633667e-01 -1.128742992877960205e-01 -2.582794427871704102e-01 -3.128956556320190430e-01 2.794835865497589111e-01 -2.285075485706329346e-01 6.742835044860839844e-02 -4.687483608722686768e-02 -1.535586547106504440e-02 -9.281864017248153687e-02 -3.734450042247772217e-02 -1.405644565820693970e-01 -1.366209890693426132e-02 -2.299534976482391357e-01 -2.234134078025817871e-01 3.167843520641326904e-01 5.434674024581909180e-02 -1.658400595188140869e-01 -2.321165055036544800e-01 -2.061294466257095337e-01 1.673272103071212769e-01 3.167453035712242126e-02 2.662527561187744141e-01 -2.707594037055969238e-01 2.004392743110656738e-01 3.488689363002777100e-01 1.021605432033538818e-01 1.485389471054077148e-01 3.079779148101806641e-01 -1.091976016759872437e-01 2.410193681716918945e-01 7.401065528392791748e-02 1.783885210752487183e-01 1.198871210217475891e-01 2.182746678590774536e-01 -3.589810729026794434e-01 -2.951110005378723145e-01 1.749489805661141872e-03 1.095748841762542725e-01 -7.857847213745117188e-02 -8.944706618785858154e-02 -1.092669963836669922e-01 -8.166633546352386475e-02 -2.486897259950637817e-01 1.072655916213989258e-01 7.975393906235694885e-03 9.839539229869842529e-02 -1.003747656941413879e-01 1.449147462844848633e-01 -2.676156163215637207e-01 -3.318220749497413635e-02 -2.240116000175476074e-01 -1.305897980928421021e-01 2.017253339290618896e-01 -1.571662425994873047e-01 8.504971861839294434e-02 -1.004127413034439087e-01 3.727521896362304688e-01 -7.842605561017990112e-02 1.108392775058746338e-01
3.711844682693481445e-01 -3.755729794502258301e-01 -4.615441709756851196e-02 2.516253292560577393e-01 3.713145852088928223e-02 -6.137884035706520081e-02 -1.226457133889198303e-01 3.456428050994873047e-01 2.437796443700790405e-01 -2.266555577516555786e-01 6.538683921098709106e-02 2.377914637327194214e-01 -2.399299293756484985e-01 7.363286614418029785e-02 -9.418173134326934814e-02 -6.766133755445480347e-02 1.692981421947479248e-01 2.770681977272033691e-01 -1.560172587633132935e-01 -6.504861265420913696e-02 1.935022771358489990e-01 2.446812540292739868e-01 -4.705818742513656616e-02 2.073110342025756836e-01 -1.603783071041107178e-01 -7.463353872299194336e-02 -1.138146743178367615e-01 -2.133842408657073975e-01 -2.404574006795883179e-01 -2.082717604935169220e-02 -1.762671321630477905e-01 -3.273467719554901123e-01 -1.636785715818405151e-01 -2.744213342666625977e-01 3.729213029146194458e-02 -2.094145119190216064e-01 1.360561400651931763e-01 2.797565795481204987e-02 -1.601192504167556763e-01 -3.384425640106201172e-01 1.200685799121856689e-01 3.992515206336975098e-01 2.867354452610015869e-01 -2.482477128505706787e-01 3.761016950011253357e-02 1.828725188970565796e-01 -1.350211799144744873e-01 3.044237568974494934e-02 4.969044774770736694e-02 3.102364540100097656e-01 -4.027078151702880859e-01 -1.202736124396324158e-01 -3.036258816719055176e-01 -2.699440419673919678e-01 3.015903234481811523e-01 2.039436697959899902e-01 5.302003398537635803e-02 3.018601238727569580e-01 5.903921648859977722e-02 -1.520637720823287964e-01 2.913365662097930908e-01 1.069389134645462036e-01 -3.030906617641448975e-01 -3.215850591659545898e-01 -1.661083996295928955e-01 2.011778578162193298e-02 2.974453270435333252e-01 4.277109727263450623e-02 -2.389158755540847778e-01 1.247712969779968262e-01 1.146653387695550919e-02 1.530889142304658890e-02 -8.851294219493865967e-02 -2.960120737552642822e-01 -4.940512776374816895e-02 -8.384296298027038574e-02 2.448813989758491516e-02 2.036692947149276733e-01 7.384135574102401733e-02 1.611396670341491699e-01
5.130251124501228333e-02 -2.815068662166595459e-01 -3.269349932670593262e-01 -2.734877765178680420e-01 -4.385583102703094482e-02 -3.245506435632705688e-02 1.589876860380172729e-01 2.800876796245574951e-01 -1.779773831367492676e-02 -3.333684802055358887e-01 3.739263862371444702e-02 5.030264332890510559e-02 -1.030640229582786560e-01 -1.636488921940326691e-02 7.212506607174873352e-04 2.332939207553863525e-01 -5.886071920394897461e-02 -2.026889659464359283e-02 3.652162551879882812e-01 -7.614549249410629272e-02 -3.421157598495483398e-01 -1.255659013986587524e-01 5.056365951895713806e-02 1.952597647905349731e-01 -2.300100624561309814e-01 -5.338371917605400085e-02 1.431295722723007202e-01 3.023906350135803223e-01 -2.846995592117309570e-01 1.261239051818847656e-01 -1.333146989345550537e-01 -3.393277153372764587e-02 -2.425154596567153931e-01 -2.894524931907653809e-01 -1.507060378789901733e-01 -1.563258469104766846e-01 4.521284997463226318e-02 9.139357507228851318e-02 -7.996780425310134888e-02 -1.024621278047561646e-01 -5.379765480756759644e-02 1.004372909665107727e-02 -8.215991407632827759e-02 1.119534522294998169e-01 -2.978211082518100739e-02 -4.276096820831298828e-02 -1.667239516973495483e-02 4.123596101999282837e-02 2.455382943153381348e-01 -7.346664369106292725e-02 -1.185195054858922958e-03 -7.659651339054107666e-02 -9.040221571922302246e-02 1.749772131443023682e-01 -1.742107793688774109e-03 -1.046141013503074646e-01 -9.135473519563674927e-02 -2.022861391305923462e-01 -1.123177334666252136e-01 1.126368790864944458e-01 -1.452033370733261108e-01 -7.413098961114883423e-02 5.607159808278083801e-02 -6.873407401144504547e-03 4.325731098651885986e-01 -1.476680785417556763e-01 3.616735637187957764e-01 3.063229620456695557e-01 -1.326767504215240479e-01 -1.306813508272171021e-01 6.940344721078872681e-02 2.423245646059513092e-02 -1.133070066571235657e-01 -1.062303483486175537e-01 5.144634097814559937e-02 2.005725502967834473e-01 3.557535111904144287e-01 1.207224205136299133e-01 2.351128011941909790e-01 -5.283936485648155212e-02
2.601992487907409668e-01 3.554620221257209778e-02 -1.642357110977172852e-01 -7.381135225296020508e-02 -1.069099679589271545e-01 3.151966929435729980e-01 -3.421404957771301270e-01 1.190037429332733154e-01 2.280410379171371460e-01 8.505457639694213867e-02 -1.528869420289993286e-01 2.031738609075546265e-01 3.835344612598419189e-01 6.208756007254123688e-03 -6.887290626764297485e-02 3.300109207630157471e-01 1.617821753025054932e-01 -6.091073527932167053e-02 2.488445723429322243e-03 8.028276264667510986e-02 -1.125860493630170822e-02 -1.450055390596389771e-01 3.487895801663398743e-02 -3.447917997837066650e-01 2.071750313043594360e-01 -1.278008669614791870e-01 -7.610235363245010376e-02 -1.453866809606552124e-01 -1.403406411409378052e-01 2.992479363456368446e-03 -3.102025687694549561e-01 -1.920765787363052368e-01 8.395989239215850830e-02 1.832408010959625244e-01 1.202260255813598633e-01 -2.041741162538528442e-01 1.625232547521591187e-01 -1.930767111480236053e-02 2.610671818256378174e-01 -5.735869705677032471e-02 4.184111952781677246e-01 -4.270044714212417603e-02 2.582861483097076416e-01 2.538294792175292969e-01 -3.146530315279960632e-02 -1.334928572177886963e-01 -1.680252887308597565e-02 1.610775142908096313e-01 -1.497699469327926636e-01 -7.332412898540496826e-02 9.696269035339355469e-02 -4.524632543325424194e-02 2.169124968349933624e-02 -3.238590061664581299e-01 1.197838932275772095e-01 -2.151633799076080322e-01 -6.986408494412899017e-03 1.937523633241653442e-01 -3.152834251523017883e-02 1.507342904806137085e-01 -8.980450034141540527e-02 2.782602012157440186e-01 -1.037477478384971619e-01 1.611936688423156738e-01 1.637762784957885742e-01 1.284542679786682129e-01 -3.040263056755065918e-01 6.685892492532730103e-02 1.287619173526763916e-01 -9.918037801980972290e-02 -6.394948065280914307e-02 3.157941997051239014e-02 -2.475105039775371552e-02 9.140302240848541260e-02 -1.901506781578063965e-01 3.350481763482093811e-02 -2.112389802932739258e-01 1.574840992689132690e-01 8.344044908881187439e-04 1.811520755290985107e-01
-2.981056645512580872e-02 -7.214850932359695435e-02 3.768121451139450073e-02 2.046104706823825836e-02 -1.231802180409431458e-01 8.190700411796569824e-02 -1.649863570928573608e-01 -2.217362225055694580e-01 -7.373737636953592300e-03 -3.484000861644744873e-01 -8.560977876186370850e-02 1.483951229602098465e-03 -1.972866430878639221e-02 -4.206883609294891357e-01 -3.380874097347259521e-01 1.608543694019317627e-01 1.080379411578178406e-01 2.694984376430511475e-01 -5.852546170353889465e-02 1.400602310895919800e-01 9.935377538204193115e-02 -1.505287736654281616e-01 -1.932489275932312012e-01 -3.598152399063110352e-01 -3.822063505649566650e-01 9.885792434215545654e-02 7.327305525541305542e-02 -2.868477702140808105e-01 1.691419035196304321e-01 3.919301927089691162e-02 -7.507563382387161255e-02 2.854979336261749268e-01 -2.120115607976913452e-01 -4.872990399599075317e-02 -8.578669279813766479e-02 -3.126434683799743652e-01 -2.261354327201843262e-01 2.970932237803936005e-02 -8.621504902839660645e-02 -3.338906168937683105e-01 -2.089459002017974854e-01 -4.004724323749542236e-01 2.983225695788860321e-02 4.362780600786209106e-02 3.665401367470622063e-03 1.478912383317947388e-01 -8.509480394423007965e-03 8.250889927148818970e-02 9.954936802387237549e-03 1.172711923718452454e-01 -5.688330531120300293e-02 3.557588756084442139e-01 3.720584511756896973e-02 -3.502089083194732666e-01 -1.874783784151077271e-01 1.176016032695770264e-01 1.859711855649948120e-01 -3.214648663997650146e-01 -2.617020905017852783e-01 7.393702864646911621e-02 -2.026214748620986938e-01 -3.898420557379722595e-02 -1.397785246372222900e-01 1.207096576690673828e-01 -6.431204825639724731e-02 2.324806991964578629e-03 1.606167405843734741e-01 3.492351174354553223e-01 -1.570375077426433563e-02 7.188775390386581421e-02 1.010717153549194336e-01 2.584707736968994141e-02 -3.133442699909210205e-01 -1.411559432744979858e-01 -2.840019166469573975e-01 -2.290613055229187012e-01 -9.489978849887847900e-02 1.877442598342895508e-01 1.185198426246643066e-01 1.858658194541931152e-01
3.170908391475677490e-01 8.706501871347427368e-02 -2.298810333013534546e-01 -3.345448151230812073e-02 1.100711897015571594e-01 -2.539484798908233643e-01 -1.098431274294853210e-01 -1.539067476987838745e-01 1.014053970575332642e-01 -4.394149407744407654e-02 -4.295827075839042664e-02 -2.363623529672622681e-01 -3.049491643905639648e-01 -2.640503346920013428e-01 3.135953247547149658e-01 7.399896532297134399e-02 -3.781364858150482178e-01 2.907335162162780762e-01 2.370507717132568359e-01 2.320816069841384888e-01 2.466428577899932861e-01 -2.561336755752563477e-01 -7.459405809640884399e-02 -8.867578208446502686e-02 1.210589259862899780e-01 1.215659752488136292e-01 -1.830665022134780884e-01 -7.862073928117752075e-02 9.508484601974487305e-02 -7.056757807731628418e-02 -1.655261814594268799e-01 -2.582647502422332764e-01 -8.520442992448806763e-02 2.038315832614898682e-01 -1.120560392737388611e-01 -1.663652248680591583e-02 2.178643047809600830e-01 9.116057306528091431e-02 -1.057617831975221634e-02 -5.448948219418525696e-02 3.057517707347869873e-01 9.882904589176177979e-02 -2.957160770893096924e-01 2.536809630692005157e-02 3.189742192625999451e-02 -1.269624829292297363e-01 2.289448827505111694e-01 -2.708500809967517853e-02 1.956143975257873535e-02 -5.673720687627792358e-02 -1.427537053823471069e-01 2.076580971479415894e-01 1.959628909826278687e-01 -2.136639878153800964e-02 -1.000537257641553879e-02 -2.143199928104877472e-02 -1.109462529420852661e-01 -2.651317417621612549e-01 -4.872237518429756165e-02 4.564770311117172241e-02 -1.472904384136199951e-01 2.969149872660636902e-02 -1.111280843615531921e-01 -1.441435217857360840e-01 -2.241369783878326416e-01 2.943798303604125977e-01 6.282141059637069702e-02 -2.214312553405761719e-01 6.606662273406982422e-02 -5.130194593220949173e-03 3.012113273143768311e-01 3.972166776657104492e-02 -4.627013579010963440e-02 3.117629513144493103e-02 7.547082751989364624e-02 1.312949657440185547e-01 -6.535585969686508179e-02 7.537943124771118164e-02 4.128890633583068848e-01 -2.393394894897937775e-02
-1.173110604286193848e-01 6.195265799760818481e-03 -2.871535904705524445e-02 -4.605466872453689575e-02 2.932683527469635010e-01 -2.813197076320648193e-01 5.028041545301675797e-03 -1.151879802346229553e-01 -5.654612556099891663e-02 -9.933141618967056274e-02 -1.191495284438133240e-01 6.677483022212982178e-02 -1.680089384317398071e-01 -1.751702129840850830e-01 -3.160023093223571777e-01 -3.107972443103790283e-01 -5.390165001153945923e-02 -1.495149582624435425e-01 2.913291752338409424e-02 5.377094447612762451e-02 -1.530553400516510010e-01 1.155110597610473633e-01 -2.246716991066932678e-02 -2.275650352239608765e-01 -2.304255962371826172e-02 -2.395666390657424927e-01 -1.211998760700225830e-01 2.628886327147483826e-02 -5.072884261608123779e-02 5.067330971360206604e-02 -1.476151198148727417e-01 -9.696967154741287231e-02 2.385279089212417603e-01 -8.978884667158126831e-02 -1.489806771278381348e-01 9.952928870916366577e-02 -3.798981606960296631e-01 -7.135938853025436401e-02 2.188871651887893677e-01 -2.013018876314163208e-01 -2.066872119903564453e-01 -2.986602187156677246e-01 2.096787542104721069e-01 2.222373709082603455e-02 7.832805812358856201e-02 2.738461084663867950e-02 3.309247493743896484e-01 -8.395884931087493896e-02 -8.917199820280075073e-02 -3.289907574653625488e-01 3.532957136631011963e-01 -2.826220393180847168e-01 -5.797312408685684204e-02 -1.074069440364837646e-01 5.046641081571578979e-02 -1.567964404821395874e-01 -1.213307231664657593e-01 -6.346745789051055908e-02 4.695765674114227295e-02 -2.169227451086044312e-01 1.981363594532012939e-01 -1.134956032037734985e-01 5.114581435918807983e-02 -2.040219455957412720e-01 9.084031730890274048e-02 -4.181310832500457764e-01 1.053032055497169495e-01 -1.431667357683181763e-01 -4.790930449962615967e-02 -1.762135326862335205e-01 -6.083629652857780457e-02 -2.737024798989295959e-02 -1.926395855844020844e-02 3.106895089149475098e-01 3.290619254112243652e-01 9.764249622821807861e-02 -9.280379861593246460e-02 -1.984215974807739258e-01 -1.283575743436813354e-01 2.463715076446533203e-01
1.615966707468032837e-01 1.953651010990142822e-01 5.805800482630729675e-02 -1.033066436648368835e-01 1.146199479699134827e-01 2.321063876152038574e-01 3.952679634094238281e-01 2.945210412144660950e-02 5.561321508139371872e-03 -1.381481140851974487e-01 2.924379706382751465e-01 1.799663603305816650e-01 -9.408602863550186157e-02 3.809232264757156372e-02 6.623172014951705933e-02 -6.992568820714950562e-02 9.236912429332733154e-02 -1.412840336561203003e-01 1.913847476243972778e-01 -2.141696959733963013e-01 -1.504241377115249634e-01 -4.939745180308818817e-03 -7.351441681385040283e-02 -1.785334348678588867e-01 -8.973151445388793945e-02 2.048178911209106445e-01 2.258277535438537598e-01 7.905700802803039551e-02 -2.394926249980926514e-01 -2.986868917942047119e-01 -2.306242585182189941e-01 5.085435137152671814e-02 6.126645952463150024e-03 -2.072636038064956665e-01 3.601515665650367737e-02 -2.219779640436172485e-01 1.795765012502670288e-01 2.138851433992385864e-01 1.931648403406143188e-01 5.208659544587135315e-02 -8.952614665031433105e-02 9.309135377407073975e-02 9.961885958909988403e-02 1.955603510141372681e-01 3.597079589962959290e-02 -1.749183237552642822e-01 -1.704712957143783569e-01 8.448363095521926880e-02 -3.062659874558448792e-02 -2.554123997688293457e-01 6.463351193815469742e-03 1.908144503831863403e-01 -1.542376875877380371e-01 9.833709150552749634e-02 1.789253577589988708e-02 -1.651109941303730011e-02 -2.010730654001235962e-01 3.417444229125976562e-01 2.659506201744079590e-01 -7.490757852792739868e-02 2.212868481874465942e-01 1.040520146489143372e-01 1.943522877991199493e-02 3.208987712860107422e-01 -1.753068119287490845e-01 -1.114988848567008972e-01 1.361176818609237671e-01 -1.173254251480102539e-01 2.219012565910816193e-02 -8.464932441711425781e-02 2.787691354751586914e-01 6.114414334297180176e-02 -2.618422210216522217e-01 -2.662002444267272949e-01 -1.518960148096084595e-01 6.223033368587493896e-02 -1.994833350181579590e-01 9.631429612636566162e-02 1.555528342723846436e-01 1.821047812700271606e-01
-2.361486107110977173e-01 -1.066253185272216797e-01 -5.529290810227394104e-02 2.329744249582290649e-01 -6.498165428638458252e-02 -7.062290608882904053e-02 -1.285741031169891357e-01 1.464472860097885132e-01 1.456220299005508423e-01 3.206765949726104736e-01 3.072172775864601135e-02 -7.870075851678848267e-02 -8.459392935037612915e-02 3.965872824192047119e-01 1.496997624635696411e-01 1.344667524099349976e-01 -5.893605574965476990e-02 2.830183506011962891e-01 -5.035787820816040039e-03 2.635589241981506348e-01 -9.863466769456863403e-02 -1.763970702886581421e-01 1.310954391956329346e-01 3.694975078105926514e-01 -2.775835990905761719e-01 -3.278515934944152832e-01 -6.174881756305694580e-02 1.968133030459284782e-03 1.509940177202224731e-01 -2.012655697762966156e-02 -1.876959949731826782e-01 2.147213071584701538e-01 2.238334268331527710e-01 -1.034245193004608154e-01 -2.112385928630828857e-01 4.407419636845588684e-02 1.067642495036125183e-01 7.321623712778091431e-02 -1.997185200452804565e-01 -1.374119222164154053e-01 2.271199366077780724e-03 3.883367404341697693e-02 -2.850354462862014771e-02 -1.632894128561019897e-01 2.880400419235229492e-01 2.486705183982849121e-01 1.213047131896018982e-01 -2.410668432712554932e-01 1.161970198154449463e-01 3.147549331188201904e-01 -1.949241310358047485e-01 1.677455306053161621e-01 -2.012953348457813263e-02 2.055846750736236572e-01 -5.969999730587005615e-02 9.212544560432434082e-02 1.090163514018058777e-01 -3.746562823653221130e-02 2.070187479257583618e-01 -3.256627917289733887e-02 -1.950893700122833252e-01 -7.138711959123611450e-02 -1.335069835186004639e-01 8.398870378732681274e-02 -1.605900749564170837e-02 4.660265147686004639e-02 -3.074335455894470215e-01 -1.608140021562576294e-01 5.949621647596359253e-02 -2.782902121543884277e-01 -1.742822825908660889e-01 1.281139403581619263e-01 -1.412637233734130859e-01 -1.977794319391250610e-01 1.537802517414093018e-01 3.456893935799598694e-02 -2.957898080348968506e-01 4.740506783127784729e-02 2.169197201728820801e-01 1.979105025529861450e-01
1.111374422907829285e-01 3.034931719303131104e-01 6.671135872602462769e-02 -3.521843254566192627e-01 -4.083459079265594482e-02 -1.564396321773529053e-01 9.563043713569641113e-03 1.445626616477966309e-01 2.954308390617370605e-01 1.772730844095349312e-03 1.184084415435791016e-01 1.221994608640670776e-01 -1.076285764575004578e-01 -4.309615790843963623e-01 -2.914853766560554504e-02 -3.299727290868759155e-02 -3.234028220176696777e-01 -3.496857881546020508e-01 -5.571396648883819580e-02 3.376308977603912354e-01 3.246675804257392883e-02 -1.836905479431152344e-01 9.394975006580352783e-02 9.671507030725479126e-02 -2.063434571027755737e-02 1.171147525310516357e-01 6.989243626594543457e-02 -1.343300640583038330e-01 5.527857691049575806e-02 2.441408634185791016e-01 5.709061026573181152e-02 -9.673230350017547607e-02 -1.307708323001861572e-01 -2.004076689481735229e-01 1.930921822786331177e-01 -6.662062555551528931e-02 1.434434503316879272e-01 3.444927036762237549e-01 -2.669389732182025909e-02 3.328532576560974121e-01 1.230896264314651489e-01 2.360240966081619263e-01 -1.759263128042221069e-01 3.406370580196380615e-01 -2.803145349025726318e-02 -3.307619318366050720e-02 2.402670681476593018e-01 -2.254513502120971680e-01 -4.320912808179855347e-02 1.091860607266426086e-01 2.320368736982345581e-01 9.497898072004318237e-02 2.219975739717483521e-01 3.166986107826232910e-01 2.645005285739898682e-01 2.274695187807083130e-01 2.761017084121704102e-01 -1.420761644840240479e-01 -4.902379587292671204e-02 -3.352066501975059509e-03 2.216044217348098755e-01 6.836894899606704712e-02 -1.477005779743194580e-01 1.500623673200607300e-01 -4.573529213666915894e-02 -2.376996576786041260e-01 4.994264803826808929e-03 3.103069029748439789e-02 3.469675183296203613e-01 2.928243577480316162e-01 -2.351133674383163452e-01 -3.060453757643699646e-02 -2.928135097026824951e-01 1.387433707714080811e-01 2.156070470809936523e-01 -1.140092760324478149e-01 -1.754610240459442139e-01 -1.459232866764068604e-01 2.786596715450286865e-01 -1.010465100407600403e-01
1.712461858987808228e-01 1.417908817529678345e-01 -8.119404315948486328e-02 2.244651876389980316e-02 2.050488144159317017e-01 1.688047312200069427e-02 2.778179943561553955e-01 -7.731832563877105713e-02 2.670115530490875244e-01 2.725817859172821045e-01 -3.508731126785278320e-01 -1.394205987453460693e-01 -2.573338449001312256e-01 -7.014141976833343506e-02 1.829805085435509682e-03 5.743930488824844360e-02 -1.697094142436981201e-01 -2.111672013998031616e-01 -5.802325531840324402e-02 8.109491318464279175e-02 -2.944499999284744263e-02 1.319777071475982666e-01 -1.685598678886890411e-02 -1.365260779857635498e-02 1.624729931354522705e-01 -3.114916682243347168e-01 -4.904989898204803467e-02 -2.833890914916992188e-01 1.348986178636550903e-01 7.981669157743453979e-02 8.299758285284042358e-02 -7.188004255294799805e-02 -1.829403340816497803e-01 -2.874491550028324127e-02 -2.114944607019424438e-01 -1.231352388858795166e-01 -7.525274902582168579e-02 -2.223628312349319458e-01 -1.374322175979614258e-01 2.354609072208404541e-01 -1.070895791053771973e-01 -3.648740798234939575e-02 3.897679224610328674e-02 -1.401144266128540039e-01 3.772912919521331787e-02 7.606254518032073975e-02 2.066407799720764160e-01 1.705687940120697021e-01 9.106518328189849854e-02 -7.078272104263305664e-02 2.280598878860473633e-01 1.693808287382125854e-01 -9.111850708723068237e-02 6.785893440246582031e-02 -4.315609112381935120e-02 1.156856566667556763e-01 -6.957565993070602417e-02 8.049728721380233765e-02 2.418826818466186523e-01 1.057583540678024292e-01 9.572771936655044556e-02 -2.553220391273498535e-01 -1.759552583098411560e-02 -3.162511810660362244e-02 -1.963103413581848145e-01 -3.666905686259269714e-02 -1.360316276550292969e-01 -3.887406364083290100e-02 -2.271747402846813202e-02 1.523877978324890137e-01 1.362298727035522461e-01 -9.320762008428573608e-02 -1.691866368055343628e-01 1.759881824254989624e-01 -1.892954111099243164e-01 -9.791022539138793945e-02 -3.335022553801536560e-02 -8.246972411870956421e-02 -4.686544090509414673e-02 2.256656736135482788e-01
-1.339015178382396698e-02 -4.757807776331901550e-02 2.031869739294052124e-01 1.425225287675857544e-01 -3.491704463958740234e-01 -2.667381763458251953e-01 -4.886738210916519165e-02 -2.026395648717880249e-01 -3.315021395683288574e-01 8.901056647300720215e-02 8.569519221782684326e-02 2.054059803485870361e-01 2.038741260766983032e-01 -1.395254284143447876e-01 -9.258431941270828247e-02 1.216019168496131897e-01 -4.924234002828598022e-02 2.458715885877609253e-01 -2.258130609989166260e-01 2.662194669246673584e-01 1.460863649845123291e-01 -1.591113358736038208e-01 9.992267936468124390e-02 1.137628480792045593e-01 -1.967835277318954468e-01 -1.534762382507324219e-01 1.690045185387134552e-02 -9.365791082382202148e-02 -7.683064043521881104e-02 -2.274551242589950562e-02 -2.660039365291595459e-01 1.712172627449035645e-01 2.098280787467956543e-01 -7.786890957504510880e-03 1.451869606971740723e-01 1.772262006998062134e-01 4.559212028980255127e-01 9.328155964612960815e-02 1.956322193145751953e-01 -3.721603751182556152e-02 -1.631454378366470337e-01 1.810976117849349976e-01 1.540337353944778442e-01 6.350136548280715942e-02 -3.118563294410705566e-01 4.823471419513225555e-03 9.627833217382431030e-02 -8.015811443328857422e-02 -1.632391661405563354e-01 -2.423949241638183594e-01 2.387795783579349518e-02 5.006445944309234619e-02 -3.294383734464645386e-02 3.719327449798583984e-01 3.077602982521057129e-01 -2.656873464584350586e-01 1.710792630910873413e-01 6.533087044954299927e-02 1.714013963937759399e-01 -4.906461015343666077e-02 -1.441609412431716919e-01 2.027416378259658813e-01 -3.186468183994293213e-01 -2.883776426315307617e-01 -3.889595866203308105e-01 2.244878709316253662e-01 2.278450131416320801e-01 4.292142763733863831e-02 7.274634391069412231e-02 -9.109615534543991089e-02 3.565063476562500000e-01 -2.576082050800323486e-01 1.053658053278923035e-01 -1.940657645463943481e-01 7.196192443370819092e-02 -1.770264655351638794e-02 3.026101589202880859e-01 -3.617871552705764771e-02 -1.953506469726562500e-01 -5.448733642697334290e-02
1.619320511817932129e-01 1.150613948702812195e-01 3.171924054622650146e-01 1.539213117212057114e-02 2.400413751602172852e-01 -1.946941912174224854e-01 -1.614421792328357697e-02 3.329129219055175781e-01 -2.786318063735961914e-01 5.711118131875991821e-02 1.215171441435813904e-01 -1.002325117588043213e-01 -2.351783365011215210e-01 -8.072923868894577026e-02 5.161657929420471191e-02 9.514705836772918701e-02 1.754983216524124146e-01 -2.524642623029649258e-04 9.091389924287796021e-02 2.217901200056076050e-01 -2.059481739997863770e-01 1.556677073240280151e-01 -7.036951184272766113e-02 -2.093756571412086487e-02 -2.809598743915557861e-01 -2.416576743125915527e-01 -9.492444992065429688e-02 3.132656514644622803e-01 6.707325577735900879e-02 -1.126192957162857056e-01 -1.696082055568695068e-01 -2.483919076621532440e-02 1.248173266649246216e-01 1.501575857400894165e-01 9.421439468860626221e-02 -8.735169470310211182e-02 -1.704491525888442993e-01 -1.783180385828018188e-01 -6.841112673282623291e-02 -1.328635066747665405e-01 -1.242496166378259659e-02 7.513689249753952026e-02 4.138082265853881836e-02 -6.608856469392776489e-02 -1.895606368780136108e-01 9.095327556133270264e-02 1.237760931253433228e-01 -2.443256080150604248e-01 -2.438773065805435181e-01 1.568441390991210938e-01 1.497482359409332275e-01 1.102495640516281128e-01 -2.487265132367610931e-02 -3.386358916759490967e-01 1.271990537643432617e-01 -1.121171936392784119e-01 6.639614701271057129e-02 1.669909507036209106e-01 3.064113855361938477e-01 1.889167726039886475e-01 1.279933303594589233e-01 6.842670589685440063e-02 -1.721101254224777222e-01 5.149034783244132996e-02 -6.180542707443237305e-02 1.733580231666564941e-01 1.789582222700119019e-01 -9.375835210084915161e-02 -2.075310349464416504e-01 -8.063314855098724365e-02 5.153576284646987915e-02 -2.629773318767547607e-01 8.841714821755886078e-03 -1.611155644059181213e-02 3.236977159976959229e-01 5.636681336909532547e-03 -6.980843096971511841e-02 1.279837489128112793e-01 -2.055822759866714478e-01 -2.691921889781951904e-01
-5.036276951432228088e-02 -1.934321373701095581e-01 -2.087817341089248657e-02 1.387808024883270264e-01 -4.929345473647117615e-02 7.901120930910110474e-03 1.646787226200103760e-01 5.549745261669158936e-02 -5.442197620868682861e-02 -1.285635679960250854e-01 2.879594564437866211e-01 3.940065205097198486e-01 -5.228139087557792664e-02 -1.425914466381072998e-01 -5.006184056401252747e-02 -1.047788783907890320e-01 2.621796429157257080e-01 2.028036117553710938e-01 -2.263808101415634155e-01 -6.304603070020675659e-02 -1.497297435998916626e-01 3.923803940415382385e-02 -9.944774955511093140e-02 1.654870957136154175e-01 -4.006324335932731628e-03 1.675155013799667358e-01 5.458316579461097717e-02 1.552010178565979004e-01 3.967209905385971069e-02 1.242427825927734375e-01 -3.056997954845428467e-01 3.274202346801757812e-02 1.879509985446929932e-01 2.647859230637550354e-02 9.048585593700408936e-02 1.429168283939361572e-01 6.666629109531641006e-03 4.249245300889015198e-02 1.061669886112213135e-01 -5.610043555498123169e-02 2.292496711015701294e-02 -2.124711498618125916e-02 -1.817674636840820312e-01 -2.026774287223815918e-01 1.271101236343383789e-01 7.036676257848739624e-02 1.285699754953384399e-01 2.399410493671894073e-02 2.012178488075733185e-02 1.192536056041717529e-01 -1.108204349875450134e-01 -2.017951011657714844e-02 3.588459491729736328e-01 1.984228044748306274e-01 3.279636846855282784e-03 1.703440696001052856e-01 -5.287662893533706665e-02 1.498534679412841797e-01 -1.989038735628128052e-01 6.819301098585128784e-02 2.666141092777252197e-01 -2.971981763839721680e-01 -1.779063045978546143e-01 -4.085696488618850708e-02 4.339665919542312622e-02 -5.117933079600334167e-02 -1.306758522987365723e-01 -1.344728842377662659e-02 -2.553760446608066559e-02 -2.093814164400100708e-01 -1.063302308320999146e-01 -9.032246470451354980e-02 -1.103774160146713257e-01 7.832520455121994019e-02 -2.884788215160369873e-01 1.558639854192733765e-01 6.812105327844619751e-02 9.002880193293094635e-03 1.072685793042182922e-01 -8.517239987850189209e-02
4.799981787800788879e-02 2.057536970824003220e-03 -3.149823248386383057e-01 3.596574962139129639e-01 1.957070380449295044e-01 -8.401858806610107422e-02 6.200195103883743286e-02 2.773447334766387939e-01 -9.056616574525833130e-02 -7.957015931606292725e-02 1.366426795721054077e-01 7.368292659521102905e-02 -7.178039848804473877e-02 3.841732069849967957e-02 8.100445568561553955e-02 -4.760866239666938782e-02 1.494464874267578125e-01 2.367348372936248779e-01 -3.185981512069702148e-01 -1.423134356737136841e-01 1.929610967636108398e-01 1.652850769460201263e-02 1.660533100366592407e-01 8.806157857179641724e-02 1.515861749649047852e-01 -2.090488933026790619e-02 -5.355761200189590454e-02 2.050540894269943237e-01 2.912206053733825684e-01 2.258047610521316528e-01 1.209663897752761841e-01 -9.160143882036209106e-02 -3.578710854053497314e-01 1.108341217041015625e-01 -1.929436624050140381e-01 2.495784312486648560e-01 9.362635761499404907e-02 7.719253748655319214e-02 -1.457380354404449463e-01 6.531584262847900391e-02 2.355446368455886841e-01 3.595775067806243896e-01 -1.635420024394989014e-01 2.989693880081176758e-01 -6.558074057102203369e-02 1.724541634321212769e-01 2.392544001340866089e-01 -1.135458946228027344e-01 -7.736833300441503525e-03 2.299473881721496582e-01 -1.975250393152236938e-01 -1.528806053102016449e-03 -1.468785200268030167e-02 1.611396372318267822e-01 3.170512020587921143e-01 2.731896340847015381e-01 -1.932708173990249634e-01 3.984199836850166321e-02 1.920807063579559326e-01 5.685552954673767090e-02 1.245211586356163025e-01 -7.855328917503356934e-02 7.736716419458389282e-02 -1.368968933820724487e-01 -4.148363769054412842e-01 -1.658306419849395752e-01 -1.295959055423736572e-01 2.865588963031768799e-01 2.757779359817504883e-01 -2.988255620002746582e-01 1.782313734292984009e-01 -1.545813232660293579e-01 2.188115417957305908e-01 1.191493868827819824e-01 1.842534691095352173e-01 2.855653464794158936e-01 -1.203241720795631409e-01 -1.398035883903503418e-01 2.262865155935287476e-01 -3.195071518421173096e-01
7.973715662956237793e-02 1.132739633321762085e-01 5.812430009245872498e-02 1.173741742968559265e-02 3.802700638771057129e-01 -1.401010006666183472e-01 -9.578142315149307251e-02 1.709139496088027954e-01 -1.228698939085006714e-01 8.028478920459747314e-02 1.555286049842834473e-01 -1.183090824633836746e-02 3.906780779361724854e-01 2.872269451618194580e-01 -3.608525544404983521e-02 8.852194249629974365e-02 3.793709278106689453e-01 2.836982719600200653e-02 -1.518982350826263428e-01 4.662809148430824280e-02 1.423956304788589478e-01 -1.415233165025711060e-01 -4.309534281492233276e-02 -8.902101218700408936e-02 -4.181852191686630249e-02 -3.785049617290496826e-01 -2.817160822451114655e-02 1.164166778326034546e-01 2.168713212013244629e-01 -7.230451796203851700e-03 4.721489548683166504e-02 -1.601946204900741577e-01 1.144396588206291199e-01 -7.869388908147811890e-02 -1.046450883150100708e-01 -3.363498747348785400e-01 2.880486249923706055e-01 1.637928038835525513e-01 -1.844020932912826538e-01 1.414675149135291576e-03 6.757490336894989014e-02 -9.192671626806259155e-02 2.237351238727569580e-02 1.721410006284713745e-01 -2.447248995304107666e-02 1.111678481101989746e-01 1.123603433370590210e-01 -1.710543781518936157e-01 1.267565488815307617e-01 9.818232059478759766e-02 3.089118599891662598e-01 -1.244920566678047180e-01 2.830550633370876312e-02 2.680970430374145508e-01 2.679361402988433838e-01 1.367749869823455811e-01 4.770899564027786255e-02 -1.869909763336181641e-01 3.154534474015235901e-02 -2.703454904258251190e-02 1.889988631010055542e-01 1.175723522901535034e-01 -1.295373737812042236e-01 1.527330875396728516e-01 2.256151288747787476e-01 -4.098436608910560608e-02 -1.780692040920257568e-01 8.305506408214569092e-02 -9.197767823934555054e-02 7.415738701820373535e-02 2.034705728292465210e-01 9.295297414064407349e-02 2.490089237689971924e-01 1.917591840028762817e-01 -6.760615110397338867e-02 -1.844728291034698486e-01 4.119578599929809570e-01 -2.571302056312561035e-01 3.322855383157730103e-02 9.680366143584251404e-03
2.231315225362777710e-01 1.714341640472412109e-01 1.271709501743316650e-01 -8.820432238280773163e-03 2.413574010133743286e-01 -2.108605951070785522e-01 1.546309422701597214e-02 1.097562834620475769e-01 -1.555156707763671875e-01 1.357341259717941284e-01 2.663096040487289429e-02 -1.370052993297576904e-01 -5.704896990209817886e-03 2.917340695858001709e-01 4.117428362369537354e-01 1.212497502565383911e-01 -7.076710462570190430e-02 -1.420325599610805511e-02 -5.588833708316087723e-03 1.304362118244171143e-01 7.282014191150665283e-02 2.473643273115158081e-01 -2.101097255945205688e-02 -9.538111835718154907e-02 5.282289534807205200e-02 -1.712939701974391937e-02 2.444786727428436279e-01 -7.699434459209442139e-02 -2.699171425774693489e-03 -6.836166977882385254e-02 -2.148957252502441406e-01 -1.951825767755508423e-01 -6.527268793433904648e-03 -1.611732691526412964e-01 9.784824401140213013e-02 2.231669127941131592e-01 -1.445319652557373047e-01 -2.219091728329658508e-02 1.785575039684772491e-02 -1.974661946296691895e-01 -3.123582899570465088e-01 -2.923819608986377716e-02 1.968316882848739624e-01 1.525577455759048462e-01 1.046089157462120056e-01 4.763795528560876846e-03 8.510395884513854980e-02 -1.446819305419921875e-01 1.441876292228698730e-01 1.502289921045303345e-01 -2.535169571638107300e-02 -9.232100844383239746e-02 -2.044229768216609955e-02 1.333146840333938599e-01 -1.799828857183456421e-01 -1.374771595001220703e-01 1.073183268308639526e-01 1.773664057254791260e-01 8.171230554580688477e-02 9.602397680282592773e-02 -2.480543106794357300e-01 -5.269610136747360229e-02 1.526510119438171387e-01 1.267533600330352783e-01 1.618778556585311890e-01 1.570511162281036377e-01 -4.770629480481147766e-02 -1.793124526739120483e-01 3.847756385803222656e-01 -9.929794818162918091e-02 8.091471344232559204e-02 2.458983957767486572e-01 2.714012265205383301e-01 1.860238462686538696e-01 2.397552430629730225e-01 3.164754807949066162e-01 -3.755453974008560181e-02 2.153709232807159424e-01 -1.127743944525718689e-01 3.392642438411712646e-01
1.080974936485290527e-02 -2.335758060216903687e-01 -7.266107946634292603e-02 8.849691599607467651e-02 1.574768722057342529e-01 -1.917278021574020386e-01 -1.838353127241134644e-01 7.013946026563644409e-02 -6.609775871038436890e-02 -3.109931945800781250e-02 -1.257407963275909424e-01 1.213407665491104126e-01 2.282013557851314545e-02 -1.157111153006553650e-01 8.404286950826644897e-02 -1.208944395184516907e-01 2.913386523723602295e-01 8.071143180131912231e-02 -1.182368099689483643e-01 -1.560895591974258423e-01 -1.566948741674423218e-02 -7.007945328950881958e-02 2.367017045617103577e-02 -4.742702096700668335e-02 1.508179754018783569e-01 -2.929967045783996582e-01 1.864165514707565308e-01 -2.271433360874652863e-02 2.156095206737518311e-01 -1.152734644711017609e-02 2.420454844832420349e-02 -1.401570886373519897e-01 3.206615149974822998e-01 1.241574212908744812e-01 -7.504196465015411377e-02 -6.824655085802078247e-02 -1.514812409877777100e-01 -1.797967776656150818e-02 -6.963091343641281128e-02 -4.394983500242233276e-02 -3.144109621644020081e-02 -2.784158289432525635e-01 -6.037712469696998596e-02 2.220507264137268066e-01 -4.225366562604904175e-02 1.024740338325500488e-01 7.603694498538970947e-02 2.505866289138793945e-01 2.136648446321487427e-01 2.903198301792144775e-01 4.348444193601608276e-02 -2.689714729785919189e-02 1.971080005168914795e-01 -2.981397211551666260e-01 -1.057248413562774658e-01 -1.154401078820228577e-01 3.526495397090911865e-01 -2.417446076869964600e-01 -5.674195289611816406e-02 3.326210379600524902e-01 1.172838583588600159e-01 -8.248434960842132568e-02 -8.112463355064392090e-02 1.079954653978347778e-01 3.884123861789703369e-01 -1.238233447074890137e-01 1.549621969461441040e-01 -1.689029335975646973e-01 1.315585970878601074e-01 -2.752369046211242676e-01 -3.091525100171566010e-02 1.657669395208358765e-01 -1.581020802259445190e-01 -7.268661260604858398e-02 2.281141579151153564e-01 2.386631071567535400e-01 6.777025759220123291e-02 -2.165860235691070557e-01 7.111684232950210571e-02 3.321287631988525391e-01
1.329349279403686523e-01 -2.587988078594207764e-01 1.031451746821403503e-01 -8.851809427142143250e-03 -2.239829301834106445e-01 3.334336578845977783e-01 -1.038655713200569153e-01 5.763531196862459183e-03 3.219425976276397705e-01 -1.067734733223915100e-01 -1.454863548278808594e-01 1.080605238676071167e-01 -2.774645760655403137e-02 3.376799225807189941e-01 -6.003360822796821594e-02 2.383774071931838989e-01 1.040700227022171021e-01 1.778578758239746094e-02 3.429177701473236084e-01 -1.544055640697479248e-01 7.611413300037384033e-02 5.092729255557060242e-02 -2.644091844558715820e-01 7.458825409412384033e-02 -2.242092341184616089e-01 -3.421538472175598145e-01 1.898438036441802979e-01 -2.021533995866775513e-01 -1.991054117679595947e-01 -2.236322499811649323e-02 -3.926504775881767273e-02 -5.449100956320762634e-02 6.506809033453464508e-03 8.952316641807556152e-02 -7.884308695793151855e-02 1.127486750483512878e-01 8.044780045747756958e-02 3.050029277801513672e-01 -1.476771086454391479e-01 9.365823864936828613e-02 -2.053971439599990845e-01 -1.725196838378906250e-01 7.996846735477447510e-02 -1.038050204515457153e-01 -3.187875449657440186e-01 -3.514676392078399658e-01 -8.658306323923170567e-04 1.873484551906585693e-01 -3.542850017547607422e-01 9.114020504057407379e-03 1.430023554712533951e-02 -1.702549494802951813e-02 -3.710211515426635742e-01 2.093657702207565308e-01 -1.915705800056457520e-01 2.280034422874450684e-01 -4.131054133176803589e-02 1.586702838540077209e-02 -6.498444825410842896e-02 3.003419637680053711e-01 -8.673343807458877563e-02 1.310461014509201050e-01 -1.930221170186996460e-02 -3.802543580532073975e-01 1.898096054792404175e-01 -2.089014053344726562e-01 4.868570715188980103e-02 2.040047496557235718e-01 7.346745580434799194e-02 2.029643654823303223e-01 -1.180168613791465759e-02 4.404057562351226807e-02 -1.285537779331207275e-01 2.046649456024169922e-01 9.231994301080703735e-02 -2.239111959934234619e-01 3.160860016942024231e-02 -1.921942085027694702e-01 1.033597886562347412e-01 -2.925507426261901855e-01
-1.150954812765121460e-01 -1.698810160160064697e-01 -1.375920977443456650e-02 -3.362214565277099609e-01 -3.295463621616363525e-01 -9.633588604629039764e-03 1.606733500957489014e-01 -3.805205598473548889e-02 1.557929515838623047e-01 9.133923798799514771e-03 3.580563068389892578e-01 4.146200045943260193e-02 -3.459949493408203125e-01 3.096694350242614746e-01 2.355157434940338135e-01 -9.448777139186859131e-02 3.563832938671112061e-01 3.638149797916412354e-01 2.361844331026077271e-01 -5.662504583597183228e-02 1.746211200952529907e-01 1.687448769807815552e-01 5.737354978919029236e-02 -3.836013376712799072e-02 1.807538419961929321e-01 -1.188226696103811264e-02 -1.752858608961105347e-02 2.437063306570053101e-01 6.728120893239974976e-02 -2.367385625839233398e-01 -4.309340566396713257e-02 -1.065980419516563416e-01 7.229589670896530151e-02 2.535651065409183502e-02 5.839530378580093384e-02 -5.576529726386070251e-02 -2.824873328208923340e-01 5.060248449444770813e-02 9.325774759054183960e-02 2.791356854140758514e-02 -4.490259289741516113e-02 -2.475633770227432251e-01 -4.496031701564788818e-01 -5.872755125164985657e-02 -3.317407965660095215e-01 1.669914126396179199e-01 8.104491233825683594e-02 9.472660720348358154e-02 -1.941200941801071167e-01 2.186933308839797974e-01 -1.056037321686744690e-01 5.439278110861778259e-02 -4.146733880043029785e-02 1.039414759725332260e-02 3.805778175592422485e-02 1.781659871339797974e-01 -2.099975496530532837e-01 1.876473575830459595e-01 -4.684769362211227417e-02 -1.125130280852317810e-01 -1.402074098587036133e-01 5.817257985472679138e-02 -3.336917608976364136e-02 3.156508505344390869e-01 -1.798828989267349243e-01 1.892516762018203735e-01 9.145133197307586670e-03 -3.123646974563598633e-01 2.339496165513992310e-01 -1.949775815010070801e-01 1.714767813682556152e-01 -6.781710684299468994e-02 -3.156470656394958496e-01 2.243694216012954712e-01 3.498585522174835205e-01 -1.630884706974029541e-01 -2.144350856542587280e-02 -1.467485427856445312e-01 -8.661023341119289398e-03 -2.482482492923736572e-01
-1.550348848104476929e-01 -1.739959418773651123e-01 -1.036683544516563416e-01 -9.062318131327629089e-03 7.646255660802125931e-03 -2.249822467565536499e-01 -1.402684003114700317e-01 -9.742847830057144165e-02 2.947064042091369629e-01 2.226776331663131714e-01 2.754864841699600220e-02 1.960439532995223999e-01 -2.869342686608433723e-03 3.918648660182952881e-01 3.368045389652252197e-01 -2.039279788732528687e-01 3.313626945018768311e-01 1.661370396614074707e-01 2.795398533344268799e-01 -3.551137149333953857e-01 -1.363337337970733643e-01 -5.004994571208953857e-02 -1.326523274183273315e-01 -2.071890383958816528e-01 -9.318155795335769653e-02 -3.997565433382987976e-02 -2.777321264147758484e-02 -6.943148374557495117e-02 1.575242877006530762e-01 7.438139989972114563e-03 3.124692738056182861e-01 -8.345769345760345459e-02 -1.444458365440368652e-01 -1.061559617519378662e-01 1.566592790186405182e-02 -8.539359271526336670e-02 -4.472819855436682701e-04 8.156643062829971313e-02 3.232702314853668213e-01 9.517334401607513428e-03 2.265561223030090332e-01 5.445119366049766541e-02 8.472502231597900391e-02 7.468450814485549927e-02 -3.865521848201751709e-01 -1.483317911624908447e-01 2.700509727001190186e-01 1.786680705845355988e-02 -1.374484002590179443e-01 3.325565159320831299e-01 7.564926147460937500e-02 -7.328914105892181396e-02 1.889913380146026611e-01 -2.168342769145965576e-01 -6.321765482425689697e-02 -2.584202587604522705e-01 1.419628858566284180e-01 -9.894108772277832031e-02 1.119329333305358887e-01 -2.387222945690155029e-01 -2.897546999156475067e-02 5.478793010115623474e-02 -3.391618430614471436e-01 -9.634287655353546143e-02 -9.519923478364944458e-02 2.251472473144531250e-01 -1.006543561816215515e-01 5.958829447627067566e-02 6.235938053578138351e-03 -1.876007765531539917e-02 -2.832632362842559814e-01 5.560871958732604980e-02 1.692144870758056641e-01 -1.647768765687942505e-01 1.218540146946907043e-01 -3.020181953907012939e-01 2.191978991031646729e-01 -2.575618028640747070e-01 -1.112878397107124329e-01 -2.395008206367492676e-01
1.645084768533706665e-01 3.597589209675788879e-02 -8.556726574897766113e-02 1.180313006043434143e-01 2.678874731063842773e-01 -3.022461235523223877e-01 2.117159031331539154e-02 -3.604155406355857849e-02 3.331541121006011963e-01 -8.424039930105209351e-03 1.903554201126098633e-01 -2.723022922873497009e-02 -4.534512013196945190e-02 3.103296086192131042e-02 -7.345922291278839111e-02 1.131655722856521606e-01 7.279658317565917969e-02 1.005779653787612915e-01 1.982126086950302124e-01 -2.344102114439010620e-01 -1.063720230013132095e-02 -7.563795894384384155e-02 -1.541083771735429764e-02 -4.120298102498054504e-02 -1.337219178676605225e-01 8.671862632036209106e-02 -1.393748372793197632e-01 1.679455935955047607e-01 1.922532916069030762e-01 2.251559048891067505e-01 -8.772698789834976196e-02 2.680196464061737061e-01 -1.571374945342540741e-02 2.470130920410156250e-01 7.849515229463577271e-02 1.698419302701950073e-01 7.366221398115158081e-02 -4.808082804083824158e-02 -3.577557802200317383e-01 -2.957136332988739014e-01 1.455025672912597656e-01 8.032845705747604370e-02 2.995870076119899750e-02 1.330209672451019287e-01 -3.757855296134948730e-01 3.138556778430938721e-01 -1.008213609457015991e-01 2.335890568792819977e-02 -6.989041715860366821e-02 -1.719770431518554688e-01 2.248282581567764282e-01 -1.782709658145904541e-01 2.439146190881729126e-01 -1.084474027156829834e-01 1.540998090058565140e-02 -9.214332699775695801e-02 6.031696498394012451e-02 -1.464920490980148315e-01 4.002482444047927856e-02 -8.574278652667999268e-02 -6.529843807220458984e-02 -3.000160157680511475e-01 3.074728250503540039e-01 -2.530617713928222656e-01 1.341688036918640137e-01 -1.551037095487117767e-02 -5.688366293907165527e-02 -1.383343935012817383e-01 1.277589648962020874e-01 -1.119567081332206726e-01 -1.179779544472694397e-01 8.218460530042648315e-02 6.690100580453872681e-02 -4.388188570737838745e-02 4.424616694450378418e-02 2.350465022027492523e-02 -1.418168693780899048e-01 -2.996285632252693176e-02 -1.080770641565322876e-01 1.708212941884994507e-01
-1.321702152490615845e-01 -3.487039506435394287e-01 -3.581190407276153564e-01 -9.082575142383575439e-02 2.346781939268112183e-01 2.193394154310226440e-01 -7.959970831871032715e-02 -1.477562785148620605e-01 1.431114077568054199e-01 2.911799252033233643e-01 2.663194537162780762e-01 -5.888034775853157043e-02 1.969814300537109375e-01 -3.990754485130310059e-01 -1.787058115005493164e-01 -9.563790261745452881e-02 2.134518623352050781e-01 -5.226573348045349121e-02 -3.658865392208099365e-01 -6.070143356919288635e-02 1.479669660329818726e-01 -8.784777484834194183e-03 2.175820991396903992e-02 3.024506568908691406e-01 3.567970097064971924e-01 -8.876641094684600830e-02 1.944246329367160797e-02 8.236178755760192871e-02 1.188861578702926636e-01 -2.648897767066955566e-01 -2.816923558712005615e-01 -2.351070195436477661e-02 -2.210866659879684448e-03 1.949881017208099365e-02 -3.636929392814636230e-01 -9.928566217422485352e-02 -3.955743461847305298e-02 -1.326594948768615723e-01 9.259117767214775085e-03 -1.263412386178970337e-01 3.843039870262145996e-01 -1.253549307584762573e-01 3.779999613761901855e-01 -2.076278328895568848e-01 -3.109633326530456543e-01 -3.145746514201164246e-02 -3.076852858066558838e-02 -1.681735217571258545e-01 -3.237025439739227295e-02 2.698096446692943573e-02 -2.396675944328308105e-01 -1.390597522258758545e-01 1.620963513851165771e-01 1.785460561513900757e-01 -2.758274674415588379e-01 2.132018208503723145e-01 -2.745745703577995300e-02 1.353176981210708618e-01 -1.830858737230300903e-01 -1.104086115956306458e-01 -1.658557951450347900e-01 2.044911086559295654e-01 -1.794991344213485718e-01 1.188141554594039917e-01 9.011833369731903076e-02 -8.248668909072875977e-02 8.004717528820037842e-02 -1.013891324400901794e-01 -1.174434870481491089e-01 2.185706943273544312e-01 3.545509651303291321e-02 6.152013316750526428e-02 -3.484591841697692871e-03 2.246194183826446533e-01 2.904872894287109375e-01 -3.966663777828216553e-01 -2.178182750940322876e-01 -2.221774607896804810e-01 1.406473480165004730e-02 2.565157413482666016e-01
2.097534835338592529e-01 -1.974122971296310425e-01 -2.873722910881042480e-01 1.954114735126495361e-01 -3.721283078193664551e-01 -7.871917635202407837e-02 -7.390545308589935303e-02 -2.692292332649230957e-01 -3.388811349868774414e-01 1.456402987241744995e-01 2.409748136997222900e-01 -5.988878011703491211e-02 -1.318699568510055542e-01 -1.820368468761444092e-01 1.868529319763183594e-01 3.322329372167587280e-02 -1.614361070096492767e-02 1.510353237390518188e-01 1.634265184402465820e-01 2.563901543617248535e-01 1.087768003344535828e-01 -4.279988110065460205e-01 -2.923377752304077148e-01 2.173601984977722168e-01 -3.191732987761497498e-02 -4.550172388553619385e-02 3.129850700497627258e-02 2.915798872709274292e-02 -1.681774407625198364e-01 -1.477187871932983398e-01 -8.358118683099746704e-02 -1.638882011175155640e-01 1.115187183022499084e-01 -2.519827187061309814e-01 -1.890805065631866455e-01 2.739405333995819092e-01 -1.854837983846664429e-01 9.023528546094894409e-02 -3.336948752403259277e-01 -1.574073582887649536e-01 1.439262181520462036e-01 1.996627151966094971e-01 2.260900661349296570e-02 -4.102968871593475342e-01 -1.149296239018440247e-01 2.103036195039749146e-01 -1.171324402093887329e-01 1.956049203872680664e-01 9.739676862955093384e-02 -7.704969495534896851e-02 1.490608900785446167e-01 5.488444864749908447e-02 -5.529367178678512573e-02 -8.584710955619812012e-02 2.052088528871536255e-01 1.139003336429595947e-01 -3.696382939815521240e-01 2.526657581329345703e-01 -9.410288929939270020e-02 1.558788418769836426e-01 -5.327624082565307617e-02 -4.097113609313964844e-01 -3.074729740619659424e-01 2.978190034627914429e-02 4.979353398084640503e-03 -6.391492486000061035e-02 1.728717088699340820e-01 6.003145128488540649e-02 -4.895988386124372482e-03 -2.332371659576892853e-02 1.939479075372219086e-02 1.328518241643905640e-01 3.613464906811714172e-02 4.299785941839218140e-02 1.975294947624206543e-02 1.778555214405059814e-01 1.098864972591400146e-01 3.478000164031982422e-01 1.005024388432502747e-01 1.372724175453186035e-01
-2.355587296187877655e-02 6.162336096167564392e-02 -2.700310349464416504e-01 2.905414998531341553e-01 -2.316270768642425537e-01 2.865132391452789307e-01 -1.880058497190475464e-01 -2.334174001589417458e-03 2.393084317445755005e-01 8.487119525671005249e-02 -1.060268133878707886e-01 1.438344419002532959e-01 -2.558183670043945312e-01 5.148497223854064941e-01 -1.716164201498031616e-01 -3.678789138793945312e-01 1.018017083406448364e-01 3.243840113282203674e-02 6.926636397838592529e-02 -3.394100815057754517e-02 3.012675605714321136e-02 8.520572632551193237e-02 2.037773877382278442e-01 -1.904644370079040527e-01 3.975968807935714722e-02 1.820225827395915985e-02 7.067735493183135986e-02 -8.435797691345214844e-02 -7.517036050558090210e-02 8.243595808744430542e-02 -2.518112063407897949e-01 -3.238214850425720215e-01 1.722372621297836304e-01 1.754878163337707520e-01 2.014770805835723877e-01 7.425440847873687744e-02 2.448315620422363281e-01 -1.168283745646476746e-01 2.215405702590942383e-01 1.498988717794418335e-01 -1.030091270804405212e-01 -2.865866385400295258e-02 -6.629177182912826538e-02 -2.401557415723800659e-01 -3.356861472129821777e-01 7.063250988721847534e-02 1.926626414060592651e-01 1.912406831979751587e-01 2.357257604598999023e-01 -1.822412712499499321e-03 7.109493017196655273e-04 -4.006003439426422119e-01 2.675705850124359131e-01 2.002968788146972656e-01 1.970731019973754883e-01 1.501445919275283813e-01 2.715417444705963135e-01 -6.207107380032539368e-02 3.111206591129302979e-01 -1.260448694229125977e-01 -6.817074026912450790e-03 1.578602343797683716e-01 -3.913087770342826843e-02 -1.227410137653350830e-01 -2.000390291213989258e-01 -6.713033467531204224e-02 6.223884597420692444e-02 -7.488181442022323608e-02 -1.124752834439277649e-01 7.653568685054779053e-02 1.740930378437042236e-01 -1.055593192577362061e-01 2.150160074234008789e-01 2.569312751293182373e-01 1.727894246578216553e-01 2.480521239340305328e-02 -2.119253575801849365e-01 -1.276546418666839600e-01 3.890609443187713623e-01 7.405467331409454346e-02
2.863325178623199463e-02 2.037445306777954102e-01 4.279836267232894897e-02 -2.844778597354888916e-01 1.777756214141845703e-02 1.577099114656448364e-01 -1.074618771672248840e-01 1.151302158832550049e-01 -3.553127348423004150e-01 3.064890801906585693e-01 -6.087533012032508850e-02 1.412156075239181519e-01 1.821354217827320099e-02 -1.101311594247817993e-01 -1.525059640407562256e-01 1.799977011978626251e-02 4.621211811900138855e-02 -2.904932200908660889e-01 -1.209165006875991821e-01 1.207289621233940125e-01 -7.982992380857467651e-02 -1.187933683395385742e-01 3.803863525390625000e-01 2.309701591730117798e-01 -1.595231890678405762e-01 1.773880273103713989e-01 5.847069621086120605e-02 -1.493172645568847656e-01 -6.772441789507865906e-03 -2.005491405725479126e-01 2.073988914489746094e-01 5.521600320935249329e-02 7.961362600326538086e-02 -8.309240639209747314e-02 3.530778363347053528e-02 1.222268939018249512e-01 1.305546052753925323e-02 3.397931754589080811e-01 -5.756631493568420410e-02 -1.770907267928123474e-02 7.543312758207321167e-02 1.812379807233810425e-01 -2.279383242130279541e-01 7.195158302783966064e-02 -3.016526699066162109e-01 3.118516411632299423e-03 3.534593433141708374e-02 9.535615146160125732e-02 -1.983560994267463684e-02 -3.079833649098873138e-02 1.236341055482625961e-02 5.885370075702667236e-02 1.937764436006546021e-01 1.522979140281677246e-01 -1.122672706842422485e-01 2.807737514376640320e-02 1.123270019888877869e-01 1.573689132928848267e-01 3.296474739909172058e-02 2.100198715925216675e-01 6.071970984339714050e-02 -2.235296815633773804e-01 -1.165692601352930069e-02 -1.735574901103973389e-01 4.672126844525337219e-02 -1.721097528934478760e-01 1.071696579456329346e-01 1.671369932591915131e-02 2.427295446395874023e-01 -9.992665052413940430e-02 -2.909977221861481667e-03 1.920601129531860352e-01 1.122862771153450012e-01 5.730308964848518372e-02 -2.261398136615753174e-01 -2.233397066593170166e-01 -1.229157745838165283e-01 3.220140039920806885e-01 -2.384091317653656006e-01 2.758939564228057861e-01
-2.329424917697906494e-01 1.627814322710037231e-01 1.892877072095870972e-01 1.634069830179214478e-01 1.503533497452735901e-02 1.991057768464088440e-02 2.589590549468994141e-01 -1.726655364036560059e-01 -2.549333572387695312e-01 -1.783526986837387085e-01 2.447280883789062500e-01 5.751444026827812195e-02 1.427824646234512329e-01 1.634608954191207886e-01 1.784463524818420410e-01 3.844906762242317200e-02 -3.225379884243011475e-01 -4.170461297035217285e-01 -8.083181083202362061e-02 -1.361273229122161865e-02 -3.563126781955361366e-03 4.580782353878021240e-01 -1.377610117197036743e-01 3.757292032241821289e-01 -8.699063211679458618e-02 1.528239697217941284e-01 -2.626327872276306152e-01 1.730984300374984741e-01 -3.302313685417175293e-01 1.661820337176322937e-02 2.127374056726694107e-03 -1.321611851453781128e-01 -4.510201886296272278e-02 1.717371344566345215e-01 -2.087185978889465332e-01 -1.139879003167152405e-01 1.204376965761184692e-01 3.752229511737823486e-01 -1.225803866982460022e-01 1.155650839209556580e-01 1.247893795371055603e-01 1.139798015356063843e-02 -3.730284422636032104e-02 -1.995561458170413971e-02 -1.469145119190216064e-01 3.116491734981536865e-01 -1.235223710536956787e-01 1.004835516214370728e-01 6.680372357368469238e-02 -2.216617465019226074e-01 -1.080691739916801453e-01 -1.456186082214117050e-02 -3.470217585563659668e-01 1.476629525423049927e-01 -1.924692392349243164e-01 6.197505071759223938e-02 -1.928878724575042725e-01 -4.282378777861595154e-02 -1.230026129633188248e-02 1.274123042821884155e-01 -2.038668543100357056e-01 -1.186139285564422607e-01 9.841655194759368896e-02 -1.242135092616081238e-02 -2.445503771305084229e-01 -6.408414244651794434e-02 1.009981334209442139e-01 2.925647422671318054e-02 -4.753232002258300781e-02 1.935764960944652557e-02 -2.053720355033874512e-01 3.292074799537658691e-02 9.128842502832412720e-03 -1.730168759822845459e-01 -9.089463204145431519e-02 5.825304985046386719e-02 -2.904392480850219727e-01 -2.279920428991317749e-01 -3.454429330304265022e-03 8.141844719648361206e-02
3.973887860774993896e-02 2.670552767813205719e-02 -4.999094083905220032e-02 -1.421046555042266846e-01 2.600241899490356445e-01 1.469964627176523209e-02 2.792283892631530762e-01 -9.981055557727813721e-02 -4.601256456226110458e-03 -1.865951418876647949e-01 1.969979703426361084e-01 -2.165799736976623535e-01 -2.190211713314056396e-01 -1.178346946835517883e-01 -2.055503875017166138e-01 -9.208238869905471802e-02 -3.429602980613708496e-01 3.583946526050567627e-01 -2.214124649763107300e-01 -1.012961119413375854e-01 -2.213755548000335693e-01 5.327806249260902405e-02 -1.598501354455947876e-01 -2.538078427314758301e-01 -1.596653759479522705e-01 -1.744218543171882629e-02 -1.539024114608764648e-01 1.147292330861091614e-01 3.907647132873535156e-01 -1.924411021173000336e-02 -2.701226174831390381e-01 1.240593120455741882e-01 3.990134596824645996e-01 -4.345234483480453491e-03 1.114072501659393311e-01 -1.451065987348556519e-01 7.402330636978149414e-02 2.533363699913024902e-01 -9.337347000837326050e-02 8.744182437658309937e-02 2.153057307004928589e-01 2.916761860251426697e-02 -2.598629519343376160e-02 -1.108258962631225586e-01 1.385576128959655762e-01 -1.931581497192382812e-01 5.253005400300025940e-02 -3.927357122302055359e-02 1.838090717792510986e-01 2.839970886707305908e-01 2.716719806194305420e-01 7.647024095058441162e-02 3.555737733840942383e-01 -3.399004638195037842e-01 -2.036481052637100220e-01 1.028511971235275269e-01 1.312832385301589966e-01 2.360980510711669922e-01 -9.729000926017761230e-02 -1.559830904006958008e-01 -2.523537278175354004e-01 -1.045061126351356506e-01 3.141631484031677246e-01 -9.831372648477554321e-02 1.586134880781173706e-01 -5.370898544788360596e-02 1.052056401968002319e-01 -3.830773383378982544e-02 -4.703346267342567444e-02 -2.322823554277420044e-01 -1.378356814384460449e-01 -1.644527423195540905e-03 -1.594209820032119751e-01 1.700434982776641846e-01 4.351186752319335938e-02 1.311565935611724854e-01 -1.454707831144332886e-01 -7.466468214988708496e-02 -4.166572913527488708e-02 -1.011488214135169983e-01
6.524761766195297241e-02 -2.546935379505157471e-01 -6.703819334506988525e-02 -5.470225214958190918e-02 1.665205955505371094e-01 -2.063093148171901703e-02 8.497596718370914459e-03 -4.440044611692428589e-02 -2.770595550537109375e-01 -2.152037918567657471e-01 3.995757400989532471e-01 -7.527866214513778687e-02 1.382975257001817226e-03 -1.487192064523696899e-01 -2.073754370212554932e-01 1.621020138263702393e-01 -2.225327491760253906e-02 -1.684728264808654785e-01 2.339557260274887085e-01 2.889049351215362549e-01 8.100411295890808105e-02 1.372430473566055298e-01 2.892420589923858643e-01 4.490121081471443176e-02 2.121223211288452148e-01 1.017294600605964661e-01 -2.651035785675048828e-01 -2.176690548658370972e-01 3.138686418533325195e-01 -1.111090704798698425e-01 4.266163334250450134e-02 6.248810887336730957e-02 3.321655094623565674e-01 1.226288825273513794e-01 1.997341066598892212e-01 1.730296202003955841e-02 1.775236427783966064e-01 2.327697128057479858e-01 1.829479448497295380e-02 -4.028937593102455139e-02 -1.062391251325607300e-01 9.318441152572631836e-02 2.716550529003143311e-01 1.927960850298404694e-02 1.861409246921539307e-01 7.265260815620422363e-02 -3.370999991893768311e-01 1.607964932918548584e-01 -2.169733345508575439e-01 -2.180310189723968506e-01 2.226916402578353882e-01 -1.520583629608154297e-01 3.499681949615478516e-01 1.670497357845306396e-01 6.315561383962631226e-02 -1.707975268363952637e-01 -2.099464684724807739e-01 8.770859241485595703e-02 7.968775928020477295e-02 4.284700155258178711e-01 -2.599422335624694824e-01 1.836848706007003784e-01 -3.277264833450317383e-01 5.849919468164443970e-02 -7.595855742692947388e-02 1.014701277017593384e-01 -1.920556128025054932e-01 4.750048369169235229e-02 1.414231397211551666e-02 2.212147712707519531e-01 -1.929832845926284790e-01 3.592562628909945488e-03 -1.335623301565647125e-02 -5.072140693664550781e-02 1.602692902088165283e-01 -3.246459737420082092e-02 -1.872992217540740967e-01 -1.884138435125350952e-01 2.109866887331008911e-01 -1.328820288181304932e-01
-6.301964633166790009e-03 1.525971740484237671e-01 -1.974054574966430664e-01 1.276368498802185059e-01 -1.573782116174697876e-01 -1.761433929204940796e-01 2.434580475091934204e-01 -2.076965719461441040e-01 3.553395271301269531e-01 -3.145618140697479248e-01 -6.185215711593627930e-02 -8.297806978225708008e-02 -1.639538258314132690e-01 1.608236283063888550e-01 -1.562778502702713013e-01 1.430180519819259644e-01 -2.505923807621002197e-01 -1.754815280437469482e-01 -3.633560836315155029e-01 -2.059476971626281738e-01 -6.956729106605052948e-03 2.787718474864959717e-01 2.374902814626693726e-01 4.422511160373687744e-02 1.216877400875091553e-01 2.848974466323852539e-01 2.051467150449752808e-01 -3.695376813411712646e-01 -1.483928691595792770e-02 -2.439562976360321045e-02 -2.032610923051834106e-01 1.742872148752212524e-01 -6.759506464004516602e-02 -1.562586128711700439e-01 -1.434572041034698486e-01 -4.558335244655609131e-02 -7.652794569730758667e-02 4.239781573414802551e-02 2.002287805080413818e-01 -4.326965287327766418e-02 -3.488100469112396240e-01 -7.314022630453109741e-02 1.961066722869873047e-01 -2.769251540303230286e-02 8.864376693964004517e-02 -1.756387650966644287e-01 1.726861298084259033e-01 -2.137064039707183838e-01 -2.032881975173950195e-01 -6.057753041386604309e-02 -2.937044501304626465e-01 5.222825706005096436e-02 3.548267483711242676e-02 -2.022020667791366577e-01 -4.322808980941772461e-02 -6.975129246711730957e-02 -2.218431793153285980e-02 -9.348908811807632446e-02 -5.614540725946426392e-02 -1.150617077946662903e-01 -8.199276775121688843e-02 1.072430703788995743e-02 -2.482483685016632080e-01 -2.533439397811889648e-01 -2.304550260305404663e-01 -3.011524081230163574e-01 -4.091631155461072922e-03 9.690094739198684692e-02 1.030721440911293030e-01 2.225220501422882080e-01 2.934980392456054688e-01 -5.988132581114768982e-02 3.603929281234741211e-01 -1.126820594072341919e-01 -1.732074469327926636e-01 1.764581650495529175e-01 6.911685690283775330e-03 3.239968791604042053e-02 -1.476479023694992065e-01 -2.819387316703796387e-01
1.834951937198638916e-01 2.813570201396942139e-01 -7.232338190078735352e-02 2.327627986669540405e-01 -1.953270286321640015e-01 -1.127866879105567932e-01 3.351321443915367126e-02 -9.681716561317443848e-02 1.175862327218055725e-01 -2.589349262416362762e-02 -2.663218975067138672e-01 -2.683830820024013519e-02 -1.592971235513687134e-01 1.923940628767013550e-01 -4.807322844862937927e-02 1.082262024283409119e-01 9.607718884944915771e-02 1.606655418872833252e-01 -2.430757880210876465e-02 3.177332691848278046e-03 1.346269398927688599e-01 3.320641443133354187e-02 5.410619825124740601e-02 8.851175755262374878e-02 -2.596816420555114746e-01 -1.981101743876934052e-02 3.924934864044189453e-01 5.516221374273300171e-02 -1.186253270134329796e-03 6.646002084016799927e-02 -1.383582949638366699e-01 -5.126443225890398026e-03 8.505904697813093662e-04 -4.158499650657176971e-03 6.139938160777091980e-02 1.111647412180900574e-01 1.952276825904846191e-01 -1.323919147253036499e-01 -2.454573810100555420e-01 -2.988585531711578369e-01 -1.294206082820892334e-01 -1.195805966854095459e-01 2.067903429269790649e-01 -9.351100027561187744e-02 -1.619519889354705811e-01 -2.841459214687347412e-01 1.242179200053215027e-01 6.600829958915710449e-02 -2.668405771255493164e-01 -1.292064636945724487e-01 -7.664207834750413895e-03 -2.265386283397674561e-01 3.070722222328186035e-01 2.869636118412017822e-01 1.929161846637725830e-01 2.010414190590381622e-02 1.540798842906951904e-01 1.026245951652526855e-01 -4.380664974451065063e-02 1.446343213319778442e-01 1.338068954646587372e-02 -2.156533673405647278e-02 1.578834801912307739e-01 -2.271576523780822754e-01 1.412145197391510010e-01 -3.128108382225036621e-01 1.884579658508300781e-01 -2.671861648559570312e-01 1.424828767776489258e-01 2.435425855219364166e-02 -2.048991769552230835e-01 -1.519416421651840210e-01 3.581938147544860840e-02 -4.559658467769622803e-02 -2.722651958465576172e-01 -6.984297931194305420e-02 1.328222900629043579e-01 8.439712226390838623e-02 9.295850247144699097e-02 -2.734859287738800049e-01
1.123956963419914246e-02 6.014943495392799377e-02 1.511618643999099731e-01 -2.481801062822341919e-02 1.807264424860477448e-02 1.386657655239105225e-01 2.989039123058319092e-01 9.964406490325927734e-02 -1.286898702383041382e-01 2.111456394195556641e-01 2.422610372304916382e-01 -1.217370480298995972e-01 -1.371336542069911957e-02 -2.855685055255889893e-01 -1.813645511865615845e-01 -2.778791487216949463e-01 1.567651182413101196e-01 -2.522180974483489990e-01 -1.216878071427345276e-01 2.460978478193283081e-01 -2.677095234394073486e-01 2.058292478322982788e-01 -6.156472861766815186e-02 -6.338422000408172607e-02 -6.825744360685348511e-02 -1.901441812515258789e-01 3.752915859222412109e-01 -2.815293520689010620e-02 -1.606867462396621704e-01 -1.856870055198669434e-01 -1.728051304817199707e-01 2.042971998453140259e-01 -7.980735599994659424e-02 -8.330321311950683594e-02 3.472129404544830322e-01 1.485022902488708496e-02 1.735248789191246033e-02 -1.844468265771865845e-01 -5.135677382349967957e-02 3.740313053131103516e-01 -1.462594419717788696e-02 4.116325080394744873e-01 -2.429212816059589386e-02 2.569489926099777222e-02 1.455311328172683716e-01 1.134347096085548401e-01 2.831358611583709717e-01 1.201551184058189392e-01 1.812774688005447388e-02 1.291129644960165024e-02 2.493326067924499512e-01 6.322485208511352539e-02 2.016964852809906006e-01 -1.649832166731357574e-02 3.818578124046325684e-01 2.671210840344429016e-02 1.478235144168138504e-02 -1.144372224807739258e-01 -8.494178205728530884e-02 -1.475524604320526123e-01 -1.202170550823211670e-01 -1.486867964267730713e-01 -1.621336787939071655e-01 7.281118631362915039e-02 -9.429910033941268921e-02 -6.582464277744293213e-02 7.926587760448455811e-02 1.684317737817764282e-02 2.559810280799865723e-01 -1.682025939226150513e-01 1.501591317355632782e-02 4.109530244022607803e-03 3.927534073591232300e-02 -3.401382267475128174e-02 8.730094879865646362e-02 2.216948010027408600e-02 3.286463022232055664e-01 3.179774582386016846e-01 -3.091549277305603027e-01 -4.119101911783218384e-02
1.445221062749624252e-02 -3.549832403659820557e-01 2.051368802785873413e-01 -8.162949234247207642e-02 -1.008525863289833069e-01 -1.399445086717605591e-01 -1.491661667823791504e-01 -2.138646543025970459e-01 -3.424907336011528969e-03 -2.153077721595764160e-01 3.143843635916709900e-02 -3.174454271793365479e-01 -7.470375299453735352e-02 3.703869134187698364e-02 -2.339047938585281372e-01 3.041981160640716553e-02 -1.517523527145385742e-01 -1.428730040788650513e-01 -1.021644473075866699e-01 1.571240276098251343e-01 -1.428064554929733276e-01 2.744281888008117676e-01 -5.766761675477027893e-02 1.736754775047302246e-01 4.189336672425270081e-02 -1.978014856576919556e-01 1.263942383229732513e-02 -5.424742400646209717e-02 3.681023418903350830e-01 -3.532225638628005981e-02 -4.485323559492826462e-03 5.587676540017127991e-02 5.623808503150939941e-02 -6.887900084257125854e-02 -3.608565628528594971e-01 3.280808329582214355e-01 8.601902984082698822e-03 4.048268124461174011e-02 -1.355785876512527466e-01 9.664184600114822388e-02 -1.536593735218048096e-01 -8.190335333347320557e-02 -2.810881733894348145e-01 -6.997905205935239792e-03 -2.503636777400970459e-01 -2.923140823841094971e-01 -4.086446762084960938e-01 2.241683453321456909e-01 -5.042723938822746277e-02 2.086894121021032333e-03 1.847804188728332520e-01 8.456235378980636597e-02 1.560902893543243408e-01 7.604780048131942749e-02 4.946299642324447632e-02 -4.529936611652374268e-02 -1.509425640106201172e-01 -2.023518383502960205e-01 -1.211976259946823120e-01 -1.264106035232543945e-01 -1.728724390268325806e-01 -2.200556732714176178e-02 -1.673381179571151733e-01 -9.345417469739913940e-02 -1.152620837092399597e-01 -1.612040549516677856e-01 -8.154724538326263428e-02 2.330760806798934937e-01 7.595779746770858765e-02 5.458322167396545410e-02 1.774286478757858276e-01 -1.100528016686439514e-01 2.086116820573806763e-01 -2.445070445537567139e-01 -1.798431277275085449e-01 -2.491001598536968231e-02 1.570990681648254395e-01 -2.744651138782501221e-01 -8.631442487239837646e-02 -4.700583592057228088e-02
1.518311649560928345e-01 3.027844727039337158e-01 2.890143077820539474e-03 -2.679344415664672852e-01 -9.618582576513290405e-02 1.925989389419555664e-01 5.365405231714248657e-02 6.587824225425720215e-02 1.121155470609664917e-01 7.761863619089126587e-02 1.094645187258720398e-01 2.562796473503112793e-01 2.802805602550506592e-01 -3.100447356700897217e-01 -2.649426758289337158e-01 -2.595582008361816406e-01 1.873002946376800537e-02 -3.162137269973754883e-01 -8.289899677038192749e-02 1.084388047456741333e-01 6.356745871016755700e-05 1.628772169351577759e-01 -7.277024537324905396e-02 -1.737733185291290283e-01 5.892084911465644836e-02 -1.185404974967241287e-02 -2.422446012496948242e-01 2.180433422327041626e-01 8.991273492574691772e-02 -2.272012680768966675e-01 -6.957909464836120605e-02 -4.977976530790328979e-02 5.119898915290832520e-02 -1.119493395090103149e-01 2.066130489110946655e-01 6.179096922278404236e-02 -2.042847275733947754e-01 6.318784505128860474e-02 -1.723997108638286591e-02 2.648830972611904144e-02 -2.727744579315185547e-01 -1.352368742227554321e-01 -2.095071375370025635e-01 -1.483859587460756302e-02 -1.127079408615827560e-02 2.549099922180175781e-01 2.952280826866626740e-02 1.659973710775375366e-01 3.292454481124877930e-01 -7.323016226291656494e-02 -8.216252177953720093e-02 1.185425817966461182e-01 -2.203560620546340942e-01 3.555155098438262939e-01 7.229176163673400879e-02 1.354439258575439453e-01 -6.331646442413330078e-02 7.875868678092956543e-02 -2.641981840133666992e-01 9.084957093000411987e-02 8.180205523967742920e-02 -1.866124272346496582e-01 -3.689158260822296143e-01 -3.680174797773361206e-02 1.088564004749059677e-02 -2.732522189617156982e-01 3.441200256347656250e-01 3.404316604137420654e-01 1.482590436935424805e-01 5.294632865116000175e-04 -2.127432674169540405e-01 1.440023928880691528e-01 6.664275377988815308e-02 -2.937445417046546936e-02 1.545318812131881714e-01 9.248172491788864136e-02 -8.827175199985504150e-02 -7.121670059859752655e-04 -2.451295405626296997e-01 -2.551948837935924530e-02
-7.352118194103240967e-02 -8.808470517396926880e-02 -5.503568798303604126e-02 -1.252019554376602173e-01 -1.220270525664091110e-02 1.660562902688980103e-01 1.659424006938934326e-01 -3.518605828285217285e-01 1.139154806733131409e-01 2.197769731283187866e-01 2.856808304786682129e-01 1.793343126773834229e-01 -3.268462046980857849e-02 5.053874477744102478e-02 -1.041660904884338379e-01 7.729373127222061157e-02 7.585361599922180176e-02 -1.749472320079803467e-01 -7.203626632690429688e-02 -2.387232482433319092e-01 -2.937701642513275146e-01 -1.482616066932678223e-01 1.617453992366790771e-02 8.315366506576538086e-02 -3.579541742801666260e-01 1.258533000946044922e-01 2.166356146335601807e-02 3.388629481196403503e-02 2.382467687129974365e-01 -1.447161585092544556e-01 1.805423013865947723e-02 7.048047333955764771e-02 -2.327404730021953583e-02 -3.254255652427673340e-01 -9.420766681432723999e-02 -5.931493826210498810e-03 8.147610723972320557e-02 1.553669869899749756e-01 -1.680236160755157471e-01 -1.185163557529449463e-01 -2.798736989498138428e-01 8.447410911321640015e-02 -1.983200013637542725e-01 2.532982528209686279e-01 -1.831107139587402344e-01 -2.527050673961639404e-01 -1.971282362937927246e-01 2.928715199232101440e-02 -2.113321423530578613e-01 2.615016698837280273e-01 1.749304831027984619e-01 1.278762817382812500e-01 1.052050739526748657e-01 -1.556197851896286011e-01 -1.879407614469528198e-01 -9.109801054000854492e-02 -2.521498799324035645e-01 1.924637705087661743e-01 7.918870449066162109e-02 -6.213849410414695740e-04 -5.593237653374671936e-02 -2.019271701574325562e-01 -1.020998656749725342e-01 1.172021999955177307e-01 1.789286434650421143e-01 3.697485625743865967e-01 3.512508869171142578e-01 -2.517306208610534668e-01 1.678692996501922607e-01 1.669927090406417847e-01 -1.470994502305984497e-01 3.712172806262969971e-01 -6.912271026521921158e-03 -9.446752816438674927e-02 2.055928409099578857e-01 -1.799150854349136353e-01 -1.183693949133157730e-02 4.603153094649314880e-03 -2.667114436626434326e-01 8.493348956108093262e-02
