7.243183907121419907e-03
3.788181929849088192e-04
9.972111321985721588e-03
2.918077632784843445e-03
-1.156445476226508617e-03
-6.471018306910991669e-03
-5.464442539960145950e-03
-2.536042593419551849e-03
8.772589266300201416e-03
-7.383645279332995415e-04
-5.012874957174062729e-03
-9.049016050994396210e-03
4.471851978451013565e-03
-9.377241367474198341e-04
-1.297100447118282318e-03
6.499881390482187271e-03
3.642581868916749954e-03
-7.380006834864616394e-03
1.156300678849220276e-02
-4.938537022098898888e-04
5.599062424153089523e-03
-7.511920761317014694e-03
2.376738237217068672e-03
3.170922864228487015e-03
2.698253665585070848e-04
-7.346821017563343048e-03
-3.513138741254806519e-03
-2.299159386893734336e-04
-7.461136556230485439e-04
3.997462335973978043e-03
1.706507755443453789e-04
-6.134217604994773865e-03
3.126814030110836029e-03
-1.970367971807718277e-03
-2.707185922190546989e-03
7.038345094770193100e-03
-4.773388616740703583e-03
-1.623574993573129177e-03
1.728821080178022385e-03
1.061752531677484512e-02
-7.445645052939653397e-03
1.707759452983736992e-03
8.025899529457092285e-03
3.114497289061546326e-02
2.101462148129940033e-02
2.389776287600398064e-03
2.359659224748611450e-02
-6.032684817910194397e-03
-8.012297563254833221e-03
-4.007978830486536026e-03
4.367508459836244583e-03
1.333054434508085251e-02
1.089815981686115265e-02
-5.721358116716146469e-03
-6.922137457877397537e-03
-9.036476840265095234e-04
-2.402847167104482651e-04
-2.192092826589941978e-03
-1.220981497317552567e-02
4.312156233936548233e-03
