-7.116251438856124878e-02 2.567541897296905518e-01 2.876881659030914307e-01 1.780115216970443726e-01 1.959975063800811768e-01 -7.513805478811264038e-02
-3.196882307529449463e-01 -6.527909636497497559e-02 -1.122244969010353088e-01 1.300542205572128296e-01 -3.251022994518280029e-01 -2.424799054861068726e-01
-1.441477686166763306e-01 3.182126209139823914e-02 -1.220936328172683716e-01 1.006688997149467468e-01 -1.933766752481460571e-01 2.782582640647888184e-01
-8.706373721361160278e-02 9.280984103679656982e-02 6.296242773532867432e-02 1.404864937067031860e-01 1.202734094113111496e-02 -1.656414270401000977e-01
-2.917709946632385254e-01 -1.030734702944755554e-01 -4.526557400822639465e-02 2.009877264499664307e-01 2.143452614545822144e-01 -1.561781615018844604e-01
-9.036677330732345581e-02 -2.167451232671737671e-01 -4.745206609368324280e-02 1.326408088207244873e-01 -1.267008185386657715e-01 -2.289417535066604614e-01
-1.694748252630233765e-01 -1.171562597155570984e-01 -2.100693285465240479e-01 2.135768681764602661e-01 -1.059530768543481827e-02 9.382065385580062866e-02
1.025418005883693695e-02 -2.945157140493392944e-02 -2.818717360496520996e-01 -6.016721948981285095e-02 5.101573094725608826e-02 -1.947360187768936157e-01
2.835304439067840576e-01 1.072277501225471497e-01 -1.325642913579940796e-01 -8.183120936155319214e-02 1.641738563776016235e-01 -2.458832263946533203e-01
1.749308258295059204e-01 -1.069002896547317505e-01 5.964346602559089661e-02 -5.849523097276687622e-02 4.207194969058036804e-02 4.202930033206939697e-01
-3.620853275060653687e-02 1.264801323413848877e-01 -1.853156238794326782e-01 2.266156375408172607e-01 -6.627743691205978394e-02 7.846585661172866821e-02
-2.249855250120162964e-01 -2.128400802612304688e-01 -5.950255692005157471e-02 -7.259181141853332520e-02 3.129275888204574585e-02 -5.555045790970325470e-03
-2.912713773548603058e-02 -3.020434454083442688e-02 2.048941701650619507e-01 1.091856509447097778e-01 2.942061983048915863e-02 -1.529009640216827393e-01
2.578274607658386230e-01 -2.042895704507827759e-01 3.708997741341590881e-02 -4.337306618690490723e-01 1.628973148763179779e-02 8.176831156015396118e-02
2.658496238291263580e-02 1.141050979495048523e-01 5.691064521670341492e-02 1.309593319892883301e-01 -3.918694332242012024e-02 1.283113360404968262e-01
-4.488327354192733765e-02 -1.065191701054573059e-01 1.103218365460634232e-02 -7.832849770784378052e-02 3.991773724555969238e-02 1.297964751720428467e-01
4.903316125273704529e-02 2.864727079868316650e-01 4.504562914371490479e-02 -9.182401001453399658e-03 -3.336745202541351318e-01 9.995737671852111816e-02
2.767078876495361328e-01 -2.128022611141204834e-01 1.894341856241226196e-01 7.549691200256347656e-02 1.067294552922248840e-01 -7.311193645000457764e-02
-3.491953611373901367e-01 9.543558582663536072e-03 -2.410821020603179932e-01 1.336035728454589844e-01 2.931403219699859619e-01 9.445059299468994141e-02
-1.030809655785560608e-01 -5.385274812579154968e-02 -3.588685989379882812e-01 -1.602908968925476074e-01 -1.448933333158493042e-01 -2.984437905251979828e-02
-1.164775248616933823e-02 1.566394269466400146e-01 2.082308679819107056e-01 2.266478091478347778e-01 -1.928565278649330139e-02 3.104154169559478760e-01
-6.364869326353073120e-02 3.355142846703529358e-02 2.288495749235153198e-01 1.920442432165145874e-01 2.573980018496513367e-02 2.971234545111656189e-02
-1.789040714502334595e-01 8.157563209533691406e-02 -1.988301873207092285e-01 6.991191953420639038e-02 1.296607684344053268e-02 -2.631259858608245850e-01
-1.490856558084487915e-01 -6.025383248925209045e-03 -6.083128228783607483e-02 2.214342951774597168e-01 1.080677751451730728e-02 2.573986165225505829e-02
3.638983890414237976e-02 2.114049643278121948e-01 -1.697718501091003418e-01 -7.510338723659515381e-02 -2.066988646984100342e-01 7.065570354461669922e-02
-1.337034404277801514e-01 -1.069733053445816040e-01 7.831613719463348389e-02 -3.917909562587738037e-01 1.802717521786689758e-02 8.167926571331918240e-04
8.516070432960987091e-03 -1.146937608718872070e-01 1.102388948202133179e-01 -2.448586076498031616e-01 -1.120929643511772156e-01 9.778153151273727417e-02
-7.696489989757537842e-02 1.687160730361938477e-01 -2.741768360137939453e-01 -4.363048672676086426e-01 -3.099725544452667236e-01 3.719396293163299561e-01
1.360849440097808838e-01 -2.337656766176223755e-01 -1.799378544092178345e-01 1.101140398532152176e-02 -3.229663968086242676e-01 -7.956712692975997925e-02
-7.750564068555831909e-02 -4.476683959364891052e-02 -1.644692867994308472e-01 -2.270941436290740967e-02 7.552574574947357178e-02 -6.051557511091232300e-02
1.782609671354293823e-01 -3.496626019477844238e-02 -1.089421436190605164e-01 2.377359271049499512e-01 3.205556869506835938e-01 3.742951899766921997e-02
4.719427227973937988e-02 -3.467054069042205811e-01 -8.123522251844406128e-02 1.615523844957351685e-01 -1.489108502864837646e-01 1.820436418056488037e-01
4.754009097814559937e-02 -1.959173232316970825e-01 -3.146370500326156616e-02 -8.357574790716171265e-02 -1.742439121007919312e-01 1.876986920833587646e-01
-4.621985554695129395e-02 -1.197009831666946411e-01 -6.550414115190505981e-02 1.464966237545013428e-01 -1.465492695569992065e-01 5.625615641474723816e-02
-1.037257015705108643e-01 -9.646707773208618164e-02 -4.015012979507446289e-01 2.077819593250751495e-02 8.060458302497863770e-02 -2.166383415460586548e-01
-1.389315277338027954e-01 -4.884184151887893677e-02 -3.367886245250701904e-01 -1.736087799072265625e-01 -3.031874895095825195e-01 -6.035224534571170807e-03
2.322752773761749268e-01 2.592012286186218262e-01 2.040682584047317505e-01 -4.171626865863800049e-01 1.214148849248886108e-01 -3.356313109397888184e-01
-2.586691975593566895e-01 -1.234924606978893280e-02 3.371083736419677734e-01 -9.813812375068664551e-02 2.767504751682281494e-01 -1.433194130659103394e-01
-2.785762399435043335e-02 -1.644011586904525757e-01 -7.321937382221221924e-02 1.616712212562561035e-01 -7.000598311424255371e-02 -1.091412827372550964e-02
-4.514838382601737976e-02 7.071153074502944946e-02 1.316941380500793457e-01 7.737432420253753662e-02 2.160614579916000366e-01 1.102001741528511047e-01
1.041251122951507568e-01 2.868101932108402252e-02 5.189520120620727539e-02 -3.572121262550354004e-01 -3.827916085720062256e-01 1.101837083697319031e-01
5.872115865349769592e-02 2.067947089672088623e-01 -1.909616030752658844e-02 7.937298715114593506e-02 1.294660121202468872e-01 -5.783403664827346802e-02
-2.026962935924530029e-01 -1.845573037862777710e-01 -1.839898824691772461e-01 -9.884560108184814453e-02 -1.958977729082107544e-01 1.698778569698333740e-01
1.299838721752166748e-01 7.854145020246505737e-02 -1.953300237655639648e-01 -1.431031990796327591e-02 -1.087092533707618713e-01 -2.007097899913787842e-01
-1.568722277879714966e-01 2.067999988794326782e-01 1.013226732611656189e-01 2.771111428737640381e-01 3.179330229759216309e-01 -2.128765732049942017e-01
-8.894103765487670898e-02 -1.727268397808074951e-01 1.958092451095581055e-01 -7.803370803594589233e-02 3.523615375161170959e-02 9.638136625289916992e-02
-5.248188599944114685e-02 -5.660915374755859375e-02 -2.542948722839355469e-01 -1.879823952913284302e-01 3.887125849723815918e-02 1.760316938161849976e-01
3.792922496795654297e-01 1.562807559967041016e-01 -1.483864039182662964e-01 -2.163050463423132896e-03 -3.441621363162994385e-01 6.932330876588821411e-02
1.212309971451759338e-01 -2.598720788955688477e-01 4.310803487896919250e-02 -1.633103340864181519e-01 8.888005465269088745e-02 1.887504160404205322e-01
-1.071320623159408569e-01 5.575110390782356262e-02 -2.089764922857284546e-01 1.124797575175762177e-02 2.931324243545532227e-01 -3.110885322093963623e-01
1.641494184732437134e-01 -1.592513918876647949e-01 -2.263520061969757080e-01 -3.854417800903320312e-01 8.595562726259231567e-02 1.581012457609176636e-01
-2.644207794219255447e-03 -5.981000885367393494e-02 5.124276503920555115e-03 4.428680613636970520e-02 -6.127265747636556625e-03 4.500110447406768799e-02
1.393139548599720001e-02 9.821122139692306519e-02 2.664414942264556885e-01 1.705461442470550537e-01 2.321181446313858032e-01 1.551161408424377441e-01
1.273466348648071289e-01 -7.232708483934402466e-02 7.506364956498146057e-03 -2.207233458757400513e-01 1.243328973650932312e-01 2.155389338731765747e-01
-1.713018566370010376e-01 -3.025912046432495117e-01 -3.834932148456573486e-01 2.813134491443634033e-01 -1.796207576990127563e-02 8.559271693229675293e-02
1.324059721082448959e-02 -1.348908990621566772e-01 -2.876705229282379150e-01 1.101739821024239063e-03 -2.726232111454010010e-01 1.136579513549804688e-01
1.294306814670562744e-01 1.037113964557647705e-01 6.840372085571289062e-02 -3.227928578853607178e-01 1.047793701291084290e-01 1.088342517614364624e-01
-1.925881803035736084e-01 -2.762112617492675781e-01 -2.979539036750793457e-01 -4.082781672477722168e-01 -2.250850200653076172e-01 1.675703935325145721e-02
9.256237000226974487e-02 9.744019806385040283e-02 5.767909064888954163e-02 -1.788977086544036865e-01 1.393149942159652710e-01 -4.498127102851867676e-02
1.637073010206222534e-01 -4.431446641683578491e-02 3.689099568873643875e-03 6.198773160576820374e-02 -3.538546562194824219e-01 7.008918374776840210e-02
-3.430016636848449707e-01 -3.518329933285713196e-02 -2.746630311012268066e-01 1.226834952831268311e-01 -2.927201986312866211e-01 2.289078831672668457e-01
-4.126229137182235718e-02 1.396683007478713989e-01 -5.485079810023307800e-02 1.661775410175323486e-01 1.284304708242416382e-01 1.695659384131431580e-02
-8.608408272266387939e-02 -1.744123846292495728e-01 -3.812505304813385010e-02 2.629212439060211182e-01 -2.366286665201187134e-01 2.338641434907913208e-01
-1.660763770341873169e-01 1.217544302344322205e-01 4.752608016133308411e-03 -7.953669130802154541e-02 -8.789346553385257721e-03 -2.341563403606414795e-01
-9.626059234142303467e-02 -1.517410725355148315e-01 -1.065705493092536926e-01 -7.341892272233963013e-02 -3.327687084674835205e-02 1.301012337207794189e-01
1.932814419269561768e-01 -6.713443994522094727e-02 2.774755060672760010e-01 -1.699408888816833496e-01 -4.016558527946472168e-01 -7.290329039096832275e-02
-1.588731110095977783e-01 -2.362115383148193359e-01 5.077861621975898743e-02 2.244887650012969971e-01 3.272834718227386475e-01 7.922922819852828979e-02
2.028798609972000122e-01 8.652975410223007202e-02 1.224641352891921997e-01 -3.277399837970733643e-01 2.940682768821716309e-01 -4.341673851013183594e-01
-9.430418908596038818e-02 -1.281202286481857300e-01 -4.270770847797393799e-01 -6.690268963575363159e-02 4.417375102639198303e-02 1.256166100502014160e-01
-2.402208372950553894e-02 1.941140145063400269e-01 2.941502928733825684e-01 1.900297254323959351e-01 3.569102585315704346e-01 -1.849603205919265747e-01
8.168482780456542969e-02 7.418761402368545532e-02 -1.822940260171890259e-01 -3.189871311187744141e-01 1.518661230802536011e-01 1.395388394594192505e-01
-2.976828627288341522e-02 -2.871153354644775391e-01 -3.027539551258087158e-01 -2.182502597570419312e-01 4.904894158244132996e-02 1.565476506948471069e-01
-3.012628853321075439e-01 7.597936689853668213e-02 6.483472138643264771e-02 3.487665904685854912e-03 4.406232759356498718e-02 -1.169594675302505493e-01
-9.077306091785430908e-02 7.469502091407775879e-02 2.288003712892532349e-01 -8.578121662139892578e-02 1.491881012916564941e-01 1.704475283622741699e-01
1.798401027917861938e-01 -1.123101264238357544e-01 -3.293401375412940979e-02 3.462705388665199280e-02 -2.401602864265441895e-01 7.428348809480667114e-02
1.104740947484970093e-01 3.749726116657257080e-01 -1.131591424345970154e-01 -2.607901394367218018e-01 -1.316985189914703369e-01 -2.937581390142440796e-02
6.050767749547958374e-02 -1.469333022832870483e-01 -1.793100386857986450e-01 -1.602387726306915283e-01 -1.984429359436035156e-01 -2.207574434578418732e-02
2.051597386598587036e-01 -3.849287629127502441e-01 1.416639387607574463e-01 -4.120239242911338806e-02 -5.834305658936500549e-02 -1.300814151763916016e-01
-2.186055779457092285e-01 6.244162097573280334e-02 -9.226191043853759766e-02 3.287985920906066895e-01 1.179236248135566711e-01 -7.350955158472061157e-02
-1.113257259130477905e-01 2.220765948295593262e-01 8.154560625553131104e-02 2.686388418078422546e-02 1.219739466905593872e-01 1.858157813549041748e-01
-3.154026344418525696e-02 -1.387021392583847046e-01 -4.276769608259201050e-02 5.959225445985794067e-02 -1.923630833625793457e-01 -3.005430102348327637e-01
3.753312230110168457e-01 3.834964334964752197e-02 9.439338743686676025e-02 -1.644723415374755859e-01 -3.064632415771484375e-01 4.455275088548660278e-02
1.268503665924072266e-01 -3.171812891960144043e-01 -5.381225049495697021e-02 2.298146300017833710e-02 8.893119543790817261e-02 1.549177914857864380e-01
2.778444588184356689e-01 -5.585831031203269958e-02 2.499810457229614258e-01 -5.842294171452522278e-02 2.290068119764328003e-01 -2.979798316955566406e-01
2.643540315330028534e-02 -3.570292890071868896e-01 -2.106079272925853729e-02 -2.219981253147125244e-01 -2.657428085803985596e-01 4.636944271624088287e-03
-6.603775173425674438e-02 2.999646663665771484e-01 2.954807579517364502e-01 -1.891324520111083984e-01 -4.999064281582832336e-02 -4.013347625732421875e-02
1.286600232124328613e-01 2.658434510231018066e-01 9.027597308158874512e-02 2.151569575071334839e-01 1.427096128463745117e-01 1.631402224302291870e-01
2.542752921581268311e-01 2.017291933298110962e-01 1.414053887128829956e-01 -3.644530177116394043e-01 -3.208433091640472412e-01 1.773262470960617065e-01
1.219807863235473633e-01 5.182753503322601318e-02 2.156935185194015503e-01 -3.506278395652770996e-01 -8.479717187583446503e-03 2.622684836387634277e-01
-1.764839142560958862e-02 1.796252578496932983e-01 2.398466914892196655e-01 -1.306821256875991821e-01 -1.007722467184066772e-01 -7.444051653146743774e-02
1.692730039358139038e-01 2.186948060989379883e-01 -4.849987849593162537e-02 3.114863634109497070e-01 -1.128819733858108521e-01 -1.141307130455970764e-01
-2.030502706766128540e-01 1.366345118731260300e-02 -8.246207237243652344e-02 7.115335017442703247e-02 -1.145944744348526001e-01 -1.228179857134819031e-01
-3.536102175712585449e-01 1.150920637883245945e-03 1.874715685844421387e-01 2.909179925918579102e-01 2.685503959655761719e-01 -8.523578941822052002e-02
1.556210666894912720e-01 -8.564049005508422852e-02 -3.511766195297241211e-01 -6.288041174411773682e-02 -2.104842066764831543e-01 5.467057973146438599e-02
-1.579227447509765625e-01 -1.934246122837066650e-01 -2.014517337083816528e-01 3.007333278656005859e-01 -2.031192779541015625e-01 7.093475759029388428e-02
-1.581766009330749512e-01 -3.756314888596534729e-02 3.541255891323089600e-01 6.461817026138305664e-02 1.424473375082015991e-01 1.680746078491210938e-01
1.765251308679580688e-01 -2.325588762760162354e-01 -4.855948686599731445e-02 4.026533961296081543e-01 3.568448424339294434e-01 -9.079355746507644653e-02
2.152609229087829590e-01 -1.158854663372039795e-01 1.880812495946884155e-01 2.453666925430297852e-01 1.801835596561431885e-01 1.474893540143966675e-01
-1.625188738107681274e-01 -1.437477022409439087e-01 -2.243542112410068512e-02 3.445284068584442139e-01 -3.680649697780609131e-01 2.960400581359863281e-01
-1.873174458742141724e-01 -9.086868166923522949e-02 1.420490443706512451e-01 -2.508359253406524658e-01 2.027475386857986450e-01 -1.573613286018371582e-01
