-6.622776389122009277e-03
1.728893816471099854e-02
1.047742553055286407e-02
-1.806378737092018127e-02
-1.083932444453239441e-02
-1.775665022432804108e-02
3.120101615786552429e-02
-3.688204288482666016e-02
-4.869661480188369751e-02
8.768751285970211029e-03
1.056126598268747330e-02
3.520995005965232849e-02
4.203939810395240784e-02
4.921512212604284286e-03
1.691911369562149048e-02
-4.327041655778884888e-02
-4.379285499453544617e-02
-1.627474837005138397e-02
1.516853924840688705e-03
-3.410469973459839821e-03
1.349494140595197678e-02
1.928855851292610168e-02
7.902224751887843013e-05
-1.118937972933053970e-02
2.454575896263122559e-02
2.481559850275516510e-02
-2.016307041049003601e-02
-4.938804730772972107e-02
3.315224871039390564e-02
4.368204250931739807e-02
7.598347961902618408e-03
-1.047962624579668045e-02
-3.603088855743408203e-02
1.379666384309530258e-03
-1.340037677437067032e-02
-1.061167009174823761e-02
1.975021511316299438e-02
-1.197738386690616608e-02
1.188177708536386490e-02
5.549579858779907227e-03
