1.131905446527525783e-05 -3.253878821851685643e-05 -3.661049959191586822e-06 -2.952666878700256348e-01 -3.845243099931394681e-06 -3.447876952122896910e-05 -1.259964119526557624e-05 -6.582345122296828777e-06 1.812687514757271856e-06 -4.443480975169222802e-06 4.082542363903485239e-05 -9.941760254150722176e-06 3.214719981770031154e-05 -4.694202289101667702e-06 -4.733995865535689518e-06 3.319142706459388137e-06 -5.545472726225852966e-02 3.073625564575195312e-01 -9.308803328167414293e-07 3.377013626959524117e-06 3.566902875900268555e-02 6.873444467782974243e-02 -8.536553650628775358e-07 -1.476471573114395142e-01 1.003604211291531101e-05 1.191051304340362549e-01 3.145731534459628165e-05 4.214033651805948466e-06 2.938365696536493488e-06 -2.402648627758026123e-01 1.254838556051254272e-01 4.073846412211423740e-06 1.175116449303459376e-05 5.733547823183471337e-06 -7.479571551084518433e-02 -1.561676981509663165e-05 -1.433224770153174177e-05 6.690005660057067871e-01 -2.030554413795471191e-01 -4.148627340327948332e-06 3.977312644565245137e-06 5.578734089795034379e-06 -5.706907249987125397e-03 -1.775986850261688232e-01 2.983752210639067926e-06 5.685262294718995690e-06 -1.841848643380217254e-05 5.833030864596366882e-02 -2.337320620426908135e-05 1.121402159333229065e-01 1.809275746345520020e-01 3.811310307355597615e-06 3.771120873352629133e-06 2.073261839541373774e-06 3.555452622094890103e-06 3.475808989605866373e-05 1.135424673557281494e-01 1.279011030419496819e-05 -1.910525861603673548e-05 5.065180175733985379e-06 -3.602286597015336156e-05 -5.713997781276702881e-02 -1.070932512448052876e-06 1.685889065265655518e-01 -4.995177686214447021e-02 -1.777359329935279675e-06 -1.764378225743712392e-06 1.074378117918968201e-01 -1.444739848375320435e-01 3.871032276947516948e-06 -5.202186107635498047e-02 7.179017302405554801e-06 -1.249346678378060460e-05 9.864636012935079634e-06 6.761341410310706124e-06 4.244534920871956274e-06 -4.613902547134784982e-06 -1.931764745677355677e-05 3.498400928947376087e-06 -1.215894144479534589e-06
9.030553883349057287e-06 7.203570930869318545e-07 4.939278369420208037e-06 2.792144755403569434e-07 2.223054616479203105e-05 -1.835646799008827657e-05 1.114122369472170249e-06 -5.286486612021690235e-06 -4.170663032709853724e-06 1.861641430878080428e-05 -1.292934939556289464e-06 -3.646748382379882969e-06 1.735128898872062564e-05 -1.497390985605306923e-05 -1.776419958332553506e-05 2.433430154269444756e-06 -2.694264549063518643e-05 1.218470060848630965e-05 -1.261326906387694180e-05 -7.427091986755840480e-06 6.254124400584260002e-06 3.151637429255060852e-06 -8.870061719790101051e-06 -1.035399782267631963e-05 -1.813164089981000870e-05 1.694581624178681523e-05 -1.298394363402621821e-05 1.548813997942488641e-06 -3.509259840939193964e-06 1.273860334549681284e-06 1.764396074577234685e-06 4.574841113935690373e-06 1.291849002882372588e-05 7.044706308079184964e-06 9.814264558372087777e-06 1.291073022002819926e-05 -9.496109214524039999e-07 9.989202226279303432e-06 1.093521495931781828e-05 5.358740509109338745e-06 9.011069778352975845e-06 8.175216862582601607e-06 4.502526280703023076e-06 -9.628968655306380242e-06 -1.970698212971910834e-05 1.178143065772019327e-06 -1.696599429124034941e-05 -1.619016802578698844e-05 -1.367316599498735741e-05 -1.239982339029666036e-05 1.005870217340998352e-06 1.064453158505784813e-06 5.855808012711349875e-06 7.513112450396874920e-06 -2.569500793470069766e-06 2.413444235571660101e-06 -4.338263352110516280e-06 1.943387906067073345e-05 8.135864845826290548e-06 -4.108859684492927045e-06 1.901684663607738912e-05 3.417987954890122637e-06 1.245778184966184199e-05 -1.923310719575965777e-06 -1.878482362371869385e-05 4.426594387041404843e-06 7.163673217291943729e-06 -2.597612183308228850e-05 1.464422894059680402e-07 1.808057277230545878e-05 7.307448868232313544e-07 2.374281393713317811e-08 1.939216599566861987e-05 7.597676813020370901e-06 1.376944965159054846e-06 -6.204045803315239027e-06 -8.422513928962871432e-06 1.605611032573506236e-06 -5.236708148004254326e-06 -6.569886863871943206e-06
1.532169699203222990e-05 8.906044968171045184e-07 -6.033636509528150782e-06 7.329856511205434799e-03 -9.974752552807331085e-03 9.778023013495840132e-06 -2.215900085866451263e-02 -1.249416451901197433e-02 -3.566043233149684966e-06 2.843547008524183184e-06 -1.390945362800266594e-05 -6.034938246011734009e-02 -1.081497248378582299e-05 2.805560370688908733e-06 3.638954694906715304e-06 -3.255775027355412021e-06 -3.303544417576631531e-06 -1.376391947269439697e-02 -3.132076699330355041e-06 -7.924149977043271065e-04 -1.309955585747957230e-02 -9.270286227547330782e-07 -8.858700311975553632e-06 -6.755104550393298268e-06 -4.880552751274080947e-06 -1.178134009242057800e-01 -1.035442619468085468e-05 -2.888974449888337404e-06 -3.504156893541221507e-06 -3.841467787424335256e-06 -5.976603552699089050e-02 -3.414950015212525614e-06 2.420618693577125669e-05 -3.433384563322761096e-06 -1.293166656978428364e-03 -9.853854862740263343e-06 -3.211382776498794556e-02 -8.335757255554199219e-02 1.483511924743652344e-02 3.285823822807287797e-06 1.817941210902063176e-07 -2.746776317508192733e-06 -1.062762021319940686e-05 1.086164452135562897e-02 -1.310220547020435333e-02 -2.882808075810316950e-06 -1.248773112893104553e-01 -1.235768478363752365e-02 3.014000867551658303e-06 -4.293278604745864868e-02 -1.518827490508556366e-02 -9.893492460832931101e-06 -3.367819999766652472e-06 -3.350434326421236619e-06 -3.117340838798554614e-06 -1.069960126187652349e-05 6.324554793536663055e-03 -2.123597914760466665e-05 -2.084292704239487648e-03 -2.900136450989521109e-06 1.488863563281483948e-05 -4.468167945742607117e-02 2.010642364621162415e-02 -3.655346290543093346e-06 -1.982378363609313965e-01 1.713279971227166243e-06 2.485861159584601410e-06 -2.630658447742462158e-02 -1.708085834980010986e-01 -3.221301994926761836e-06 -3.399613797664642334e-01 -3.787717105296906084e-06 -1.834032264014240354e-05 1.049380443873815238e-05 -3.584279966162284836e-06 -3.027925231435801834e-06 3.188736627635080367e-06 -2.353578805923461914e-03 -3.451645170571282506e-06 3.364690883245202713e-06
9.307696927862707525e-06 -4.566153511404991150e-03 1.381435140501707792e-05 -1.497441157698631287e-02 2.166315198337542824e-07 -3.602162905735895038e-05 -6.339454054832458496e-01 -1.762107014656066895e-01 -8.351181577381794341e-07 1.922490810102317482e-06 -4.646681190934032202e-07 -8.321594577864743769e-06 1.455777138471603394e-02 -4.411907866597175598e-06 -2.620943632791750133e-06 -2.245138603029772639e-06 -2.386934284004382789e-06 3.911561891436576843e-02 1.834355089158634655e-06 -2.314255652891006321e-06 4.129665791988372803e-01 4.071370363235473633e-01 9.142496310232672840e-06 2.875064865293097682e-06 7.520090093748876825e-06 2.680729925632476807e-01 3.578526957426220179e-05 2.016494590861839242e-06 6.278848559304606169e-06 -3.262729705966194160e-06 1.986713558435440063e-01 1.520927980891428888e-06 -7.139424269553273916e-07 5.601147222478175536e-06 -2.240942194475792348e-06 1.747418173181358725e-05 -1.154776600742479786e-05 1.361297070980072021e-01 -2.994304988533258438e-03 -7.595546321681467816e-06 1.535884848635760136e-06 3.868985913868527859e-06 1.186704321298748255e-05 -3.868954081553965807e-07 -1.802643055270891637e-06 4.847453965339809656e-06 -5.937127768993377686e-02 2.609098828543210402e-06 -2.589849196374416351e-02 -6.287783435254823416e-06 -4.544999450445175171e-03 -1.516600150353042409e-06 -7.395614147753803991e-07 -1.008194203677703626e-06 -1.073410658136708662e-06 1.058596000075340271e-01 5.824570655822753906e-01 1.124633854487910867e-06 -7.345480471849441528e-02 4.919496404909295961e-06 -3.473836113698780537e-05 -6.107043102383613586e-02 4.027668182970955968e-06 9.630682468414306641e-01 -9.851464629173278809e-02 1.746725956763839349e-06 3.577272309485124424e-06 9.903746843338012695e-02 -9.655547142028808594e-01 -3.566078703443054110e-07 2.326037474631448276e-06 3.095873398706316948e-03 -2.767747901089023799e-06 -1.402898578817257658e-05 6.024688445904757828e-06 3.963357357861241326e-07 -3.101270522165577859e-06 -5.211752057075500488e-01 1.237756919181265403e-06 1.023635604724404402e-06
2.184297409257851541e-05 6.367209607560653239e-06 1.277788123843492940e-05 -9.768961717782076448e-06 -2.197475623688660562e-05 4.277885091141797602e-05 -7.763001121929846704e-06 -5.447980129247298464e-06 -1.612123924132902175e-05 1.596981292095733806e-06 -6.406499778677243739e-06 1.585810787219088525e-05 -1.449393494112882763e-07 1.844913276727311313e-05 5.063638582214480266e-06 1.231126407219562680e-05 2.670522007974795997e-06 -1.242181861016433686e-05 1.241210884472820908e-05 -6.770272193534765393e-06 -5.593421974481316283e-06 2.172939275624230504e-06 9.257957572117447853e-06 -5.254655661701690406e-07 -3.327084414195269346e-06 8.340573913301341236e-06 -5.353380856831790879e-06 -1.520160731161013246e-05 1.723207969916984439e-05 -6.477117949543753639e-06 1.336506647930946201e-05 5.576591320277657360e-06 -5.250987669569440186e-06 8.420523045060690492e-06 1.247922682523494586e-05 2.041017432929947972e-05 -1.030093153531197459e-05 -3.278167787357233465e-05 -2.326064532098826021e-07 6.591005330847110599e-06 1.931355654960498214e-06 -2.089530607918277383e-05 2.329862400074489415e-05 8.151702786562964320e-06 1.298378538194810972e-05 -1.760977283993270248e-06 5.648196747642941773e-06 4.982566224498441443e-06 5.374447027861606330e-06 1.891573447210248560e-06 -1.631551640457473695e-05 -1.174961471406277269e-05 3.176934114890173078e-05 1.729864015942439437e-05 -1.115498344006482512e-05 2.132899498974438757e-05 -9.176279490930028260e-06 1.315399822487961501e-05 4.037438429804751649e-06 1.304929173784330487e-05 1.386196981911780313e-05 1.184658958663931116e-05 -2.181378476961981505e-06 -1.638634603295940906e-05 -3.667347300506662577e-06 1.351960600004531443e-05 -1.495334799983538687e-05 8.899904969439376146e-06 9.336716175312176347e-06 -4.342897227616049349e-06 -3.289053211119608022e-06 -1.344719930784776807e-05 -8.625154805486090481e-06 1.930693360918667167e-05 -1.195995537273120135e-05 -5.211437382968142629e-06 -9.684828000899869949e-06 -1.059313854057108983e-05 -6.552365448442287743e-06 2.006633803830482066e-05
1.854608308349270374e-05 2.881740147131495178e-05 -3.423507223487831652e-06 -5.574497663474176079e-08 1.459601890019257553e-06 2.980302815558388829e-05 3.784099221229553223e-01 3.388297855854034424e-01 1.185474729936686344e-06 7.694663963775383309e-07 1.365902789984829724e-05 6.669109097856562585e-06 -2.548207521613221616e-05 3.201623030690825544e-06 4.231750608596485108e-06 -6.635286808887030929e-07 4.081696260982425883e-07 -2.536519058048725128e-02 -1.502833015365467872e-06 -8.732990863791201264e-08 -6.647953391075134277e-01 2.229395249742083251e-06 1.094396429834887385e-05 -2.706316536205122247e-06 -8.328817784786224365e-06 -2.223026454448699951e-01 -3.188628761563450098e-05 -4.680143774749012664e-06 -1.564273816256900318e-06 1.944223186001181602e-06 -2.298156917095184326e-01 -3.484926764940610155e-06 6.235145519895013422e-06 -2.384543677180772647e-06 9.919926924339961261e-08 -4.734350113722030073e-06 1.039656490320339799e-05 -1.711474359035491943e-02 -2.810156729537993670e-08 1.736536660246201791e-06 -3.102840082647162490e-06 -6.320838110696058720e-06 -5.739022526540793478e-06 5.600047111511230469e-02 9.793566277949139476e-07 -4.485468707571271807e-06 1.601511985063552856e-02 1.712369339657016098e-07 1.620818329683970660e-05 4.179776169621618465e-06 -1.066863205778645352e-05 3.742620720004197210e-07 -1.449601313652237877e-06 -1.066877416633360554e-06 -1.652415676289820112e-06 -3.262370452284812927e-02 -5.456953644752502441e-01 -1.922764568007551134e-05 3.433275595307350159e-02 -3.118276708846678957e-06 2.683866478037089109e-05 2.748273126780986786e-02 -3.609244231483899057e-06 -8.062884211540222168e-01 5.276637524366378784e-02 -3.194716100551886484e-07 -3.532378514137235470e-06 -9.351572394371032715e-02 6.963270902633666992e-01 -2.173765551560791209e-06 -7.781208306550979614e-02 -2.842353751475457102e-06 1.836627416196279228e-05 -4.931809598929248750e-06 -6.437742710113525391e-02 -3.347572601342108101e-06 4.601678938342956826e-06 5.070469379425048828e-01 -3.961369202443165705e-06 6.307254807325080037e-08
-6.484833647846244276e-06 -3.155882950522936881e-05 -1.037236324918922037e-05 3.835225470538716763e-06 -1.436651928088394925e-06 -3.114016726613044739e-05 -6.631746600760379806e-06 -3.905207449861336499e-06 1.110260745917912573e-05 -7.084877324814442545e-07 -2.113107620971277356e-05 -1.033432454278226942e-05 3.231429582228884101e-05 1.044988493958953768e-06 -8.538299880456179380e-07 2.930860318883787841e-07 2.438937372062355280e-07 1.913253072416409850e-06 1.132989655161509290e-05 -2.088045221171341836e-07 -1.548187356092967093e-06 -1.135478123615030199e-05 1.043258635036181659e-05 7.153057595132850111e-06 8.647898539493326098e-06 2.337520891160238534e-05 2.936932287411764264e-05 -1.081463778973557055e-06 -3.693717189889866859e-06 2.077317731163930148e-07 1.576888280396815389e-05 3.345539880683645606e-07 7.928918421384878457e-06 -4.927293957734946162e-06 -6.113046035170555115e-02 1.952502316271420568e-06 -1.581149990670382977e-05 1.499728411436080933e-01 6.129353096184786409e-07 4.132722551730694249e-06 1.903487827803473920e-06 2.297792889294214547e-06 1.844225516833830625e-05 9.475820661464240402e-07 -6.691250205039978027e-02 4.356074896350037307e-07 -2.268571006425190717e-05 -5.608944775303825736e-07 -2.524361480027437210e-05 -9.838259757088962942e-06 5.029248595237731934e-01 -1.061121895909309387e-01 9.450832294533029199e-07 1.229754434461938217e-05 5.983065420878119767e-07 3.266003477619960904e-05 1.132886763662099838e-02 -3.282983016106300056e-06 -1.605520083103328943e-05 -1.015947873383993283e-06 -3.047439167858101428e-05 -9.523966908454895020e-02 -4.184666977380402386e-07 3.323404143884545192e-06 -2.239581495523452759e-01 3.461069354671053588e-06 -9.454506653128191829e-07 9.849713023868389428e-06 -8.573097735643386841e-02 5.733072612201794982e-07 -4.211597442626953125e-01 4.019505922769894823e-06 -2.502117422409355640e-05 -1.658376277191564441e-05 4.092314156878273934e-06 6.441955520131159574e-07 7.015528353804256767e-07 -6.008677701174747199e-06 -8.672632247908040881e-07 -2.729017069214023650e-06
-3.812317117990460247e-06 -5.633068212773650885e-06 1.034869910654379055e-05 -1.551793050020933151e-02 -1.221060301759280264e-05 -1.365895786875626072e-05 -3.987643420696258545e-01 -3.104183971881866455e-01 7.475131496903486550e-06 -7.437173735524993390e-06 1.149786658061202615e-05 -1.284915357828140259e-01 2.819688415911514312e-05 -6.159181147813796997e-02 -1.266047729586716741e-05 8.858834007696714252e-06 6.585565188288455829e-06 -8.026959221751894802e-07 7.423368515446782112e-06 7.738362910458818078e-06 3.483802676200866699e-01 7.001066803932189941e-01 3.398090939299436286e-06 -2.059854753315448761e-02 1.514037488959729671e-03 1.881799697875976562e-01 -2.197694629430770874e-01 7.749848009552806616e-06 7.363350960076786578e-06 6.735247552569489926e-06 1.105239894241094589e-02 7.916513830423355103e-02 1.736609010549727827e-05 7.702376933593768626e-06 8.169259672285988927e-06 -8.902067747840192169e-06 -9.814532846212387085e-02 3.962780237197875977e-01 9.381037671118974686e-06 -7.438560260197846219e-06 -2.130673499777913094e-03 1.184724351332988590e-05 -1.803417056798934937e-01 9.507893082627560943e-06 -4.126852750778198242e-02 8.728342436370439827e-06 -2.629860043525695801e-01 -9.799481631489470601e-06 -3.704983368515968323e-02 -1.607138514518737793e-01 4.742812216281890869e-01 8.282169801532290876e-06 8.176814844773616642e-06 6.899561867612646893e-06 8.100694685708731413e-06 -2.654238196555525064e-04 9.136965274810791016e-01 -2.809483703458681703e-06 -4.951065420755185187e-06 7.677243047510273755e-06 -1.962595888471696526e-05 -4.427339136600494385e-02 -6.715118615829851478e-06 8.528113961219787598e-01 -4.921570420265197754e-01 -4.167857696302235126e-06 -6.817779649281874299e-06 7.381744580925442278e-06 -8.962563872337341309e-01 7.930309038783889264e-06 -7.320769429206848145e-01 1.545428676763549447e-05 1.756744313752278686e-05 2.666150976438075304e-06 1.665861904621124268e-02 8.168297426891513169e-06 -1.971726417541503906e-01 -7.640066146850585938e-01 7.900080163381062448e-06 -7.053809895296581089e-06
4.493343112699221820e-06 -1.174849512608489022e-05 6.201832093211123720e-06 6.332195880531799048e-06 -2.297771970916073769e-06 -1.767218782333657146e-05 -4.234129562973976135e-02 -8.502494893036782742e-06 1.196991252072621137e-05 -4.308814368414459750e-06 2.049532668024767190e-07 -4.480660663830349222e-06 1.235357831319561228e-05 -8.232701475208159536e-06 -5.536752723855897784e-06 2.728115759964566678e-06 3.572375590010778978e-06 -1.102024725696537644e-06 9.512184078630525619e-06 2.522997419873718172e-06 3.831257820129394531e-01 4.670408543461235240e-06 8.338298357557505369e-06 4.846007868763990700e-06 7.024954356893431395e-06 3.559267042874125764e-06 3.309406019980087876e-05 7.596593604830559343e-06 1.265384344151243567e-05 2.171569121856009588e-06 1.383894830942153931e-01 6.695395313727203757e-06 -5.442607289296574891e-06 8.377230187761597335e-06 2.546015593907213770e-06 1.653068466112017632e-05 -5.289667569741141051e-06 -1.845844735726132058e-06 3.569419732230016962e-06 -1.234188948728842661e-05 3.033896518900291994e-06 6.080032108002342284e-06 -6.592408681171946228e-07 3.445258926149108447e-06 4.187000740785151720e-06 8.338028237631078809e-06 5.746938313677674159e-06 -1.805770125429262407e-06 -2.414784376014722511e-06 1.521447757113492116e-06 -3.944604098796844482e-01 3.396467946004122496e-06 3.187142965543898754e-06 2.007957846217323095e-05 3.306024609628366306e-06 7.007891326793469489e-06 1.359059297101339325e-06 6.001206202199682593e-06 -2.890610368922352791e-03 7.628623279742896557e-06 -2.266997398692183197e-05 2.343906544410856441e-06 -2.255814933960209601e-06 3.133696615695953369e-01 3.868432486342499033e-06 -2.708550255192676559e-06 -2.303858991581364535e-06 1.950152963399887085e-02 -5.185584723949432373e-02 3.969642420997843146e-06 2.651793062686920166e-01 7.500129413529066369e-06 1.850998705776873976e-05 -1.053566666087135673e-05 3.117074584224610589e-06 4.465500751393847167e-06 -7.564961833850247785e-06 -9.972198313334956765e-06 6.526998731715139002e-06 -1.265681021322961897e-05
4.323488155932864174e-06 1.304458328377222642e-05 -8.339497071574442089e-06 -4.075652213941793889e-06 3.975461822847137228e-06 1.260802673641592264e-05 -9.578654915094375610e-02 -4.363595694303512573e-02 -1.906289526232285425e-07 3.696359044624841772e-06 9.676676199887879193e-06 4.692174570664064959e-06 -1.439781772205606103e-05 2.972887159558013082e-06 3.850532266369555146e-06 -2.235177718102931976e-02 -4.339710812928387895e-06 4.154120688326656818e-06 4.894759513263124973e-07 -4.001000888820271939e-06 -4.351823918113950640e-06 -1.410445664077997208e-03 -7.551670933025889099e-06 -2.928677760064601898e-02 -5.051434072811389342e-06 -3.254549205303192139e-01 -1.123346646636491641e-05 -3.585955028029275127e-06 -2.636526460264576599e-06 -4.051967607665574178e-06 -1.734492116156616248e-06 -4.034930498164612800e-06 -4.836464995605638251e-06 -2.828689503076020628e-06 -4.421131052367854863e-06 -7.942074262246023864e-06 5.440187578642508015e-06 -2.203919887542724609e-01 -3.557869149517500773e-06 2.850821147148963064e-06 -3.483008640614571050e-06 -3.874637513945344836e-06 -1.368927678413456306e-05 -3.413590093259699643e-06 -6.335574667900800705e-03 -3.134486178169026971e-06 5.777202659373870119e-06 3.484235776340938173e-06 5.751983735535759479e-06 4.814998060464859009e-02 -2.937876582145690918e-01 -4.743639692605938762e-06 -4.126300154894124717e-06 9.471480098000029102e-07 -2.387570403516292572e-02 -1.426664675818756223e-05 -1.369605001855234150e-06 5.396233973442576826e-06 4.428872216521995142e-06 -3.364257736393483356e-06 1.453610821045003831e-05 -2.986075969602097757e-06 3.861006916849873960e-06 -3.664956466309376992e-06 -1.591452246429980733e-06 3.214450998711981811e-06 1.106303706765174866e-01 6.913020342835807241e-07 -1.555022895336151123e-01 -3.848405867756810039e-06 1.672001928091049194e-01 -4.503106993070105091e-06 8.192140739993192255e-06 -2.073146242764778435e-05 -4.117434099316596985e-02 -3.769935119635192677e-06 3.793485802816576324e-06 5.181352207728195935e-06 -3.902563094015931711e-06 -8.755978342378512025e-08
-1.306814374402165413e-05 6.644209497608244419e-05 -1.286387487198226154e-05 -1.829474717378616333e-01 1.532416939735412598e-01 5.445132046588696539e-05 -2.284254319965839386e-02 4.089388312422670424e-07 -2.856265382433775812e-06 6.484540551900863647e-02 -3.453419594734441489e-07 3.935853242874145508e-01 -1.227025464177131653e-01 4.299640189856290817e-03 1.217279881238937378e-01 -1.573061011731624603e-02 -5.355731770396232605e-02 1.732291877269744873e-01 -1.545557097415439785e-06 -8.758908510208129883e-02 1.642084270715713501e-01 -2.579207718372344971e-01 4.163345693086739630e-06 -1.324525177478790283e-01 -1.390539258718490601e-01 -4.714308679103851318e-01 -5.266294465400278568e-05 -5.950053036940516904e-06 -2.356893674004822969e-06 -5.854999274015426636e-02 3.138579428195953369e-02 -9.634295850992202759e-02 6.823559488111641258e-06 -2.410551132925320417e-06 -4.144204035401344299e-02 -8.374097888008691370e-06 3.214418590068817139e-01 2.672959453775547445e-07 -5.138804018497467041e-02 1.945883923326618969e-06 -9.494622796773910522e-02 -7.383941859006881714e-02 -1.743268817663192749e-01 -6.687965989112854004e-02 -6.947653018869459629e-04 -1.353166624903678894e-02 6.028041243553161621e-01 1.240506842732429504e-01 1.354138404130935669e-01 4.004991650581359863e-01 -6.891167759895324707e-01 -4.718888550996780396e-02 -1.049764901399612427e-01 -1.613720542081864551e-06 -5.149137601256370544e-02 -8.941406756639480591e-02 -4.448918998241424561e-01 -2.122085788869298995e-06 3.122029738733544946e-05 -4.618659659172408283e-06 5.362540105124935508e-05 -1.619781869521830231e-06 3.807686269283294678e-02 5.904668796574696898e-06 1.892050951719284058e-01 5.528640002012252808e-02 1.609171777963638306e-01 8.975373953580856323e-02 8.681523799896240234e-02 -6.766643375158309937e-02 5.496366620063781738e-01 -1.413019597530364990e-01 1.188376700156368315e-05 1.042271469486877322e-05 -1.881130039691925049e-01 -7.744362950325012207e-02 3.261305764317512512e-02 6.754863075911998749e-03 -9.161975234746932983e-02 1.896145022328710184e-06
-1.150594380305847153e-05 5.742443681810982525e-05 2.362149643886368722e-06 -1.945065259933471680e-01 2.058215588331222534e-01 5.369759310269728303e-05 -1.142630577087402344e-01 7.877283678681124002e-07 -2.582532943051774055e-07 3.482154011726379395e-02 -1.649616751819849014e-05 3.236577808856964111e-01 -4.895301908254623413e-02 2.367482986301183701e-03 8.377213776111602783e-02 -7.421826571226119995e-02 -6.556577235460281372e-02 1.538604795932769775e-01 8.628762770968023688e-07 -5.545528978109359741e-02 2.730001509189605713e-01 -3.730399012565612793e-01 6.886552000651136041e-06 -1.227087303996086121e-01 -9.066034853458404541e-02 -4.620393514633178711e-01 -5.027878796681761742e-05 -2.405477501451969147e-02 -2.931559265562100336e-06 -7.832831144332885742e-02 6.004456430673599243e-02 -6.315694004297256470e-02 1.376624823024030775e-07 -2.833427060977555811e-06 -6.052989512681961060e-02 -7.774343430355656892e-06 2.598752081394195557e-01 2.505109478079248220e-06 -1.227673664689064026e-01 2.755687091848812997e-06 -8.702151477336883545e-02 -3.602979704737663269e-02 -1.935708075761795044e-01 -1.163156330585479736e-01 -4.422898218035697937e-02 -7.689032827329356223e-06 5.237011313438415527e-01 1.758212000131607056e-01 1.219671741127967834e-01 3.754864335060119629e-01 -1.080339074134826660e+00 -6.893712282180786133e-02 -8.382106572389602661e-02 -8.632623575977049768e-07 -9.372567385435104370e-02 -2.539582923054695129e-02 -5.373299121856689453e-01 -1.260473618458490819e-05 -4.867299459874629974e-03 -5.385434633353725076e-06 5.614308247459121048e-05 -3.944207355380058289e-02 6.550799310207366943e-02 7.721484507783316076e-06 3.357552587985992432e-01 6.967209279537200928e-02 1.848198622465133667e-01 7.384973764419555664e-02 -1.660633461142424494e-05 -4.499989748001098633e-02 6.349295973777770996e-01 -1.357028186321258545e-01 -1.209680704050697386e-06 4.059777893417049199e-06 -2.208096385002136230e-01 -5.956918001174926758e-02 1.243697572499513626e-02 9.960252791643142700e-03 -9.054012596607208252e-02 9.320669960288796574e-07
-2.492981002433225513e-05 -3.571766865206882358e-05 2.210901038779411465e-05 -2.479197271168231964e-02 -1.507012257206952199e-06 -3.467384885880164802e-05 -9.984596545109525323e-06 -4.695334610005374998e-06 -1.453481672797352076e-07 -6.652808224316686392e-07 5.690132638846989721e-06 -1.233160401170607656e-05 3.352559360791929066e-05 -1.735148543957620859e-06 -2.894148565246723592e-06 -4.984286497347056866e-04 -1.036731191561557353e-06 1.620558947324752808e-01 -3.094442035944666713e-06 5.116589818499051034e-08 -8.588972377765458077e-06 9.125393629074096680e-02 -5.814752512378618121e-06 -4.057004302740097046e-02 9.348414096166379750e-06 2.753887019935064018e-05 3.286236824351362884e-05 9.438849701837170869e-07 -9.952600521501153708e-09 -1.823233813047409058e-01 1.833040080964565277e-02 3.830832611129153520e-07 -1.312252425123006105e-05 -3.874861249641980976e-07 -1.256013214588165283e-01 -8.112230716506019235e-06 -1.806056388886645436e-05 3.176073431968688965e-01 -7.766865193843841553e-02 -1.222264927491778508e-06 1.860048541857395321e-06 3.471124728093855083e-06 1.335638262389693409e-05 -5.690553734893910587e-07 -1.774117797613143921e-01 2.121430497936671600e-06 -1.150621101260185242e-01 -5.355104804039001465e-07 -2.761315772659145296e-05 -8.803434669971466064e-03 6.026156544685363770e-01 -1.534420251846313477e-01 -1.791121810674667358e-01 -3.894849214702844620e-06 4.707935659098438919e-07 3.638135240180417895e-05 3.417311012744903564e-01 -1.607695594429969788e-06 -2.501015478628687561e-05 1.610932940820930526e-06 -3.239591387682594359e-05 -1.331014633178710938e-01 2.043465428869239986e-06 1.835744827985763550e-01 -6.343784928321838379e-01 1.535403043817495927e-06 1.907269052026094869e-06 1.599588176759425551e-05 -2.748163044452667236e-01 1.264918410015525296e-06 -7.938351035118103027e-01 5.391858394432347268e-06 -6.783446224289946258e-06 9.156467058346606791e-06 4.727191026177024469e-06 1.623622665647417307e-06 -4.734324647870380431e-07 -6.934119015932083130e-02 1.115704435505904257e-06 7.961825758684426546e-07
-1.687226813373854384e-06 6.770223535568220541e-06 6.740438948327209800e-06 -3.833659775409614667e-06 -2.141706318070646375e-06 -8.445052117167506367e-06 1.769969458109699190e-05 7.557720891782082617e-06 -1.487228473706636578e-06 -1.186338886327575892e-05 2.156956179533153772e-05 1.499364316259743646e-05 1.606863406777847558e-07 1.366204560326877981e-05 -1.338767924607964233e-05 3.013897867276682518e-06 1.795642310753464699e-05 9.440558642381802201e-06 1.898532900668215007e-06 1.453738332202192396e-05 -5.240551217866595834e-06 9.746710929903201759e-06 -1.302042164752492681e-05 -2.504108124412596226e-06 1.412608889950206503e-05 -4.212905878375750035e-06 -6.625617970712482929e-06 5.766358299297280610e-06 -6.143496648292057216e-06 -2.213733750977553427e-05 -4.599172825692221522e-06 -1.214174881170038134e-05 1.765124034136533737e-05 -4.104026174900354818e-06 1.358024746878072619e-05 2.160801341233309358e-05 -5.985817097098333761e-06 1.365777916362276301e-05 1.809208879421930760e-05 1.026044174068374559e-06 1.820920260797720402e-05 -1.007073933578794822e-05 1.249854085472179577e-05 1.256231917068362236e-05 1.026681729854317382e-06 9.297541510022711009e-07 2.254275159430108033e-06 1.957419772224966437e-05 1.274730584555072710e-05 2.425720595056191087e-05 -1.739968138281255960e-05 -1.664036608417518437e-05 1.127009545598411933e-05 2.683859293028945103e-06 -1.714043173706158996e-05 -5.013043846702203155e-08 -6.042519999027717859e-06 -1.292042907152790576e-05 -1.276907642022706568e-05 -2.839021908584982157e-05 -8.229949344240594655e-07 -5.655482254951493815e-06 1.569088453834410757e-06 -2.431588654872030020e-05 6.664233751507708803e-06 4.494272616284433752e-06 -9.732219041325151920e-06 6.328813469735905528e-06 -1.596190486452542245e-06 6.497049980680458248e-06 -2.848543317668372765e-06 -3.223471503588370979e-05 4.905793957732385024e-06 -6.666619810857810080e-06 -9.546332876197993755e-06 9.072812190424883738e-08 2.677293196029495448e-07 8.876440915628336370e-06 -2.039573701040353626e-06 4.031102434964850545e-06
-1.245209023181814700e-05 2.403388862148858607e-05 -1.931260703713633120e-05 1.765440404415130615e-01 6.213193046278320253e-06 2.659012534422799945e-05 1.237097904086112976e-01 1.019180217554094270e-05 -3.783535476031829603e-07 5.591687113337684423e-06 -4.957483270118245855e-06 1.217956014443188906e-05 -2.817422864609397948e-05 6.605996077269082889e-06 6.467663752118824050e-06 -5.423748007160611451e-06 -4.401324076752644032e-06 -1.105247747545945458e-06 -5.057329417468281463e-07 -5.652331765304552391e-06 -3.969747467635897920e-06 -3.077003918588161469e-02 4.156096110818907619e-06 -8.469593012705445290e-06 -1.363125556963495910e-05 -2.990787029266357422e-01 -2.963052975246682763e-05 -6.414517883968073875e-06 -6.672487870673649013e-06 -3.869125521305250004e-06 -2.001022696495056152e-01 -2.250839257612824440e-03 -3.626592842920217663e-06 -6.198686605785042048e-06 -5.645551482302835211e-06 1.845454244175925851e-05 1.663724833633750677e-05 -4.053356647491455078e-01 5.901717394590377808e-02 6.377668796631041914e-06 9.773936122655868530e-02 -6.789095550630008802e-06 -1.839536344050429761e-05 1.132367476820945740e-01 -5.399982910603284836e-06 -6.299587766989134252e-06 1.944635005202144384e-05 4.824638835998484865e-06 2.129805216100066900e-05 1.090271143766585737e-05 -5.311755537986755371e-01 -5.831185262650251389e-06 -5.486137069965479895e-06 -2.358771325816633180e-06 -5.368916845327476040e-06 -2.704898361116647720e-05 -1.742842942476272583e-01 -9.141513146460056305e-07 1.518085264251567423e-05 -6.074485554563580081e-06 3.063857366214506328e-05 5.076695970274158753e-07 3.004978452736395411e-06 -2.219970971345901489e-01 8.335325866937637329e-02 3.352113935761735775e-06 3.235978965676622465e-06 -1.233502011746168137e-02 2.780507206916809082e-01 -5.968685854895738885e-06 1.932957619428634644e-01 -8.839957445161417127e-06 6.503305485239252448e-07 -8.674133823660667986e-06 -9.047646017279475927e-06 -5.734931619372218847e-06 5.919027444178937003e-06 1.762207746505737305e-01 -5.827861059515271336e-06 8.695732844898884650e-07
-5.190773663343861699e-06 2.769393358903471380e-05 5.318668627296574414e-06 5.004744976758956909e-02 -3.159098014293704182e-07 2.731052336457651109e-05 8.256671208073385060e-06 3.333946551720146090e-06 2.945539335996727459e-06 -3.048087656497955322e-02 -2.171287815144751221e-05 7.572492449980927631e-06 -2.354639218538068235e-05 -1.415963197359815240e-06 7.508288035751320422e-08 1.246606188942678273e-06 2.454262822866439819e-01 -1.070645824074745178e-01 1.960271674761315808e-06 1.705717750155599788e-06 5.381425097584724426e-02 1.066975892172195017e-05 1.253159189218422398e-05 2.732365624979138374e-03 -5.321776825439883396e-06 -1.616305598872713745e-05 -2.528248114685993642e-05 8.729280125407967716e-07 1.768777110555674881e-06 4.435545206069946289e-02 -2.075696587562561035e-01 1.513042661827057600e-06 3.408122938708402216e-05 2.002071596507448703e-06 8.233968913555145264e-02 -1.345158125332091004e-05 1.249240085599012673e-05 -2.024237513542175293e-01 1.115040257573127747e-01 -3.782779458560980856e-07 -7.861899575800634921e-07 -1.070215603249380365e-06 -8.556558896088972688e-06 2.692185342311859131e-01 1.014656126499176025e-01 -1.015391717373859137e-07 1.716359838610514998e-05 -1.142872406489914283e-06 1.905860335682518780e-05 6.961812232475494966e-06 -5.031048059463500977e-01 2.704773578443564475e-06 9.118225425481796265e-03 -6.633854354731738567e-09 1.313899247179506347e-06 -2.705470069486182183e-05 -3.200289234519004822e-02 3.707461473823059350e-06 1.918453926919028163e-05 1.386452368024038151e-06 2.245420364488381892e-05 3.199563622474670410e-01 -2.048880420625209808e-02 -3.176317783072590828e-03 1.993097662925720215e-01 -2.610227966215461493e-06 -1.823799266276182607e-06 -3.782540559768676758e-02 7.738947868347167969e-02 9.272025636164471507e-07 4.219843149185180664e-01 -2.035205852735089138e-06 -1.071001679520122707e-05 1.016352325677871704e-05 -2.912964646384352818e-06 4.947214620187878609e-07 -1.551374225527979434e-06 6.549080808326834813e-06 9.741347639646846801e-07 -5.439721917355200276e-06
1.692020305199548602e-05 -2.566492855548858643e-01 5.631390195048879832e-06 -2.878448322007898241e-05 2.126430263160727918e-05 -1.930210441350936890e-01 -2.247101217508316040e-01 -8.199933171272277832e-02 1.336421610176330432e-05 1.396335937897674739e-05 5.926494850427843630e-07 2.994341411977075040e-05 1.304138302803039551e-01 1.344657675872440450e-06 9.650916581449564546e-06 -2.040928848145995289e-05 -2.212675462942570448e-05 1.942953094840049744e-02 1.262264413526281714e-05 -1.753419928718358278e-05 5.008996725082397461e-01 -1.699190033832564950e-05 3.977656888309866190e-07 -2.303585824847687036e-05 -1.765810156939551234e-05 2.215316146612167358e-02 -1.170394443761324510e-05 -6.727399068040540442e-06 1.545477061881683767e-05 -2.687249798327684402e-05 4.240154623985290527e-01 -7.108227237040409818e-06 3.853916950902203098e-06 1.647407043492421508e-05 -2.085386586259119213e-05 -1.743185293889837340e-06 2.984076490974985063e-05 2.226800097560044378e-05 -2.609594957903027534e-05 -1.445402176614152268e-05 -1.479864749853732064e-05 -9.823352229432202876e-06 1.146885901689529419e-01 -2.407126703474204987e-05 -1.848955798777751625e-05 3.670443220471497625e-07 2.374385985604021698e-05 2.397005300736054778e-05 -5.826168134808540344e-02 3.319930692669004202e-05 -7.036482095718383789e-01 -1.704368696664460003e-05 -1.659315603319555521e-05 1.702281042526010424e-05 -1.713375968392938375e-05 2.947817444801330566e-01 -3.634668141603469849e-02 2.600644074846059084e-05 -3.420292139053344727e-01 4.447597348189447075e-06 -1.391992270946502686e-01 -5.321712419390678406e-02 2.602039421617519110e-05 3.697110116481781006e-01 -2.700471668504178524e-06 1.064808930095750839e-05 2.658779703779146075e-05 2.141246944665908813e-01 -2.048782110214233398e-01 -1.288846669922349975e-05 7.726542353630065918e-01 -1.790829446690622717e-05 -7.138916771509684622e-06 -6.249364105315180495e-06 -1.928771598613820970e-05 -1.225314827024703845e-05 5.326165592123288661e-06 -9.731575119076296687e-06 -1.148578394349897280e-05 -1.782139770512003452e-05
1.846919622039422393e-05 -3.860986180370673537e-05 -1.724275716696865857e-05 1.823540925979614258e-01 -1.221740916371345520e-01 -4.059644561493769288e-05 8.263006806373596191e-02 9.354407340288162231e-02 4.286043804313521832e-06 -9.790963679552078247e-02 -1.022099058900494128e-05 -1.739694625139236450e-01 4.473120498005300760e-05 -5.036976933479309082e-02 -3.542375564575195312e-02 1.643312126398086548e-01 9.550272673368453979e-02 -9.579087048768997192e-02 2.555390665293089114e-06 1.416471898555755615e-01 -3.389159739017486572e-01 1.475810855627059937e-01 -1.714763311611022800e-05 9.230225533246994019e-02 1.073493957519531250e-01 5.243445038795471191e-01 4.687684122473001480e-05 6.520455330610275269e-02 5.359557235351530835e-06 1.462468057870864868e-01 -1.536303199827671051e-02 4.530968517065048218e-02 -4.510011876845965162e-06 5.678979050571797416e-06 1.544061601161956787e-01 -2.126976141880732030e-06 -7.562647759914398193e-02 -1.266241179109783843e-05 7.191227376461029053e-02 -5.552221409743651748e-06 5.542033538222312927e-02 7.466460019350051880e-02 1.386540681123733521e-01 3.832487016916275024e-02 1.383627355098724365e-01 7.599119271617382765e-06 -1.819500476121902466e-01 -4.002897068858146667e-02 -6.593703478574752808e-02 -2.312511056661605835e-01 5.866439342498779297e-01 1.288339793682098389e-01 1.078379377722740173e-01 3.075693030041293241e-06 6.268817186355590820e-02 4.966834967490285635e-05 1.402566581964492798e-01 3.613742592278867960e-06 8.403312414884567261e-02 7.141373316699173301e-06 -5.338194750947877765e-05 9.032217413187026978e-02 -4.927474632859230042e-02 -1.845300346612930298e-01 -7.927031219878699630e-06 -1.108841150999069214e-01 -2.625379264354705811e-01 -5.347141250967979431e-02 7.902679592370986938e-02 4.586656764149665833e-02 -7.360473275184631348e-01 4.720297083258628845e-02 -2.441101969452574849e-05 1.098555549106094986e-05 2.036205083131790161e-01 8.123259991407394409e-02 -2.447184547781944275e-02 -9.365624934434890747e-02 1.114760041236877441e-01 -2.214151663793018088e-06
-7.513909622502978891e-06 -4.072733645443804562e-05 -1.419538966729305685e-05 8.548295227228663862e-06 -5.933538432145724073e-06 -4.106400592718273401e-05 -7.490325515391305089e-06 -4.455323050933657214e-06 5.832175702380482107e-06 -5.117939963383832946e-06 -1.364309991913614795e-05 -1.626192715775687248e-05 3.847113475785590708e-05 -3.956027285312302411e-06 -4.585454462358029559e-06 5.448889623949071392e-06 4.398005330585874617e-06 -1.426445578545099124e-06 6.019932698109187186e-06 4.239401732775149867e-06 -7.709186320425942540e-06 1.602196134626865387e-02 -3.719427695614285767e-06 1.152338700194377452e-05 1.205607986776158214e-05 3.636670226114802063e-05 3.627371552283875644e-05 3.664643372758291662e-06 2.447547103656688705e-06 3.873799869325011969e-06 1.536739728180691600e-05 4.164067377132596448e-06 1.257379517483059317e-05 2.423853857180802152e-06 4.317519596952479333e-06 -3.725170245161280036e-05 -2.260179826407693326e-05 2.425494790077209473e-01 4.724757218355080113e-06 -2.316717655048705637e-06 5.325832717062439770e-06 5.655049335473449901e-06 2.938992111012339592e-05 4.776660261995857581e-06 3.503828338580206037e-06 4.263592927600257099e-06 -6.335222721099853516e-02 -5.925967798248166218e-06 -3.479601946310140193e-05 -1.647867247811518610e-05 7.055579423904418945e-01 3.184772140230052173e-06 4.244001502229366452e-06 7.042060133244376630e-06 5.018799583922373131e-06 4.246517710271291435e-05 2.687010467052459717e-01 -5.470692485687322915e-06 -2.250485704280436039e-05 2.186454366892576218e-06 -3.963375638704746962e-05 -3.648342564702033997e-02 -4.103684659639839083e-06 -7.786416063026990741e-07 -5.118918418884277344e-01 -6.547497832798399031e-08 -4.278760115994373336e-06 9.145145668298937380e-06 -1.663246452808380127e-01 4.806529432244133204e-06 -6.404041051864624023e-01 9.087612852454185486e-06 -3.350240376676083542e-06 8.117357538139913231e-06 7.889068001531995833e-06 4.175157755526015535e-06 -3.634519998740870506e-06 -7.851729606045410037e-06 3.280403689132072031e-06 -4.072774117958033457e-07
2.299912011949345469e-07 -2.122801561199594289e-05 -1.962841452041175216e-06 -9.569994360208511353e-02 4.918892681598663330e-02 -1.606482692295685410e-05 -3.113626241683959961e-01 -1.933687031269073486e-01 -2.622321517264936119e-06 9.531676769256591797e-02 -1.967577418326982297e-06 -1.978802867233753204e-02 1.448073726351140067e-05 2.426212631689850241e-06 2.290330485266167670e-06 -1.180701330304145813e-01 -7.112266123294830322e-02 1.040376126766204834e-01 -2.935590146080357954e-06 -6.541140377521514893e-02 7.734157145023345947e-02 2.330525964498519897e-01 6.854297680547460914e-07 -2.022167742252349854e-01 -6.417694748961366713e-07 -1.581143351359060034e-06 1.474238342780154198e-05 -1.266495417803525925e-02 -1.482071638747584075e-06 -9.170915186405181885e-02 8.242068439722061157e-02 -4.551053280010819435e-06 -9.038388270710129291e-06 -2.386531377851497382e-06 -2.668569982051849365e-01 6.883229616505559534e-06 -1.272708084434270859e-02 1.786357313394546509e-01 -3.704120591282844543e-02 1.684737526375101879e-06 -2.352464385330677032e-02 -2.011404831137042493e-06 -9.838282316923141479e-02 -3.123945556581020355e-02 -1.477645635604858398e-01 -1.642914867261424661e-06 -1.701674163341522217e-01 6.297949701547622681e-02 -1.159585917775984854e-05 -3.097136132419109344e-02 1.209897473454475403e-01 -3.452474474906921387e-01 -2.620435506105422974e-02 -2.285023128933971748e-06 -8.140233904123306274e-02 1.575638452777639031e-05 4.315849244594573975e-01 -1.852549212344456464e-05 -1.593778878450393677e-01 -2.390534518781350926e-06 -8.615798833488952368e-06 -3.465962409973144531e-01 7.976114004850387573e-02 3.399967253208160400e-01 -6.343506574630737305e-01 3.470315411686897278e-02 9.754315763711929321e-02 6.853191554546356201e-02 -4.104790091514587402e-01 -4.917424544692039490e-02 -2.918082177639007568e-01 -2.340209448448149487e-06 6.418916200345847756e-06 -9.998429959523491561e-06 -1.878526745713315904e-06 -5.680547474185004830e-06 -8.856061100959777832e-02 -1.673586964607238770e-01 -5.596781193162314594e-06 2.018662144109839574e-06
-4.245432137395255268e-06 -2.591066549939569086e-05 -1.627387064218055457e-05 -2.591281533241271973e-01 -8.969656164481421001e-07 -2.793699604808352888e-05 -4.353973865509033203e-01 -2.563396990299224854e-01 -3.173850586790649686e-07 -9.505294542577757966e-07 6.158971245895372704e-06 -7.438070497300941497e-06 2.602352105895988643e-05 -3.157979335810523480e-06 -4.421693120093550533e-06 -4.543865657069545705e-07 -1.867731498350622132e-07 8.477598428726196289e-02 -1.307720367549336515e-06 -1.914962695082067512e-07 6.396608948707580566e-01 2.197918295860290527e-02 2.342507832508999854e-05 2.987030711665283889e-06 7.695369276916608214e-06 1.360805332660675049e-01 3.045692028535995632e-05 1.329575979980290867e-06 4.846099727728869766e-06 -1.374852899971301667e-06 2.259973436594009399e-01 1.868763547463458963e-06 2.820846930262632668e-05 7.750734766887035221e-06 8.956999408837873489e-08 3.295954229542985559e-07 -1.158832492365036160e-05 2.107060700654983521e-01 -4.223239049315452576e-02 -5.684061761712655425e-06 1.742719746289367322e-06 4.164565780229168013e-06 5.325666279532015324e-06 -2.493454329669475555e-02 -6.608473768210387789e-07 4.834309038415085524e-06 -1.746747693687211722e-05 4.371744921627396252e-07 -1.853281355579383671e-05 -5.039827556174714118e-06 6.320282864180626348e-06 5.389278499023930635e-07 5.015110104977793526e-07 1.182813775812974200e-07 3.609184773267770652e-07 2.840179149643518031e-05 2.285171151161193848e-01 -1.924305979628115892e-05 -7.958196848630905151e-02 4.947811703459592536e-06 -2.950691305159125477e-05 -1.197071075439453125e-01 1.687957137619378045e-06 7.028838396072387695e-01 -1.655146032571792603e-01 5.853007678524591029e-08 3.032322638318873942e-06 2.498404085636138916e-01 -5.569161176681518555e-01 7.487469133593549486e-07 -3.576306880859192461e-06 3.315181174912140705e-06 6.434922852349700406e-06 -2.284900619997642934e-05 5.394559138949261978e-06 1.065969854607828893e-06 -3.941313934774370864e-06 -4.049448370933532715e-01 1.483890400777454488e-06 9.889450893751927651e-07
2.065947228402364999e-06 1.889564191515091807e-05 -1.489762871642597020e-05 -5.765889000031165779e-06 5.454546226246748120e-06 2.133250382030382752e-05 5.840412974357604980e-01 3.089574277400970459e-01 -2.417150426481384784e-06 4.644790351449046284e-06 2.178931572416331619e-05 1.108039577957242727e-05 -2.360298640269320458e-05 6.442266567319165915e-06 6.490076884801965207e-06 -4.448274466994917020e-06 -3.775127197513938881e-06 -3.827494765573646873e-06 -2.732912435021717101e-06 -3.994936378148850054e-06 -3.494257628917694092e-01 -7.575605064630508423e-02 -1.992585930565837771e-05 -5.420919933385448530e-06 -1.182031428470509127e-05 -1.209283992648124695e-01 -2.432230940030422062e-05 -6.974104508117306978e-06 -5.238596713752485812e-06 -2.619304495965479873e-06 -1.292197704315185547e-01 -2.995162084698677063e-02 5.957938810752239078e-06 -4.337597601988818496e-06 -4.335039193392731249e-06 1.404186787112848833e-05 1.513585539214545861e-05 -1.682252436876296997e-01 -3.541401383699849248e-06 4.185586476523894817e-06 -5.507515197678003460e-06 -8.001027708814945072e-06 -5.303170837578363717e-06 -4.700002136814873666e-06 -3.341390765854157507e-06 -6.629237759625539184e-06 1.954062645381782204e-05 3.757307240448426455e-06 1.759492442943155766e-05 8.838692338031250983e-06 -1.282145149161806330e-05 -4.666879249271005392e-06 -4.730132332042558119e-06 -2.125465925928438082e-06 -4.716749572253320366e-06 -2.232915358035825193e-05 -5.220412015914916992e-01 -1.998767038458026946e-05 1.388538476021494716e-05 -6.359569852065760642e-06 2.206476710853166878e-05 3.203826956450939178e-03 1.493820263931411318e-06 -7.760895490646362305e-01 4.841662570834159851e-02 3.484985882096225396e-06 -1.509877165517536923e-07 -2.059430629014968872e-02 7.717692852020263672e-01 -5.275908279145369306e-06 3.033843768207589164e-06 -2.559737302362918854e-02 8.124434316414408386e-06 8.041252499424444977e-07 -8.754682312428485602e-06 -5.381441042118240148e-06 3.037693165242671967e-02 4.597773253917694092e-01 -5.876272552995942533e-06 -3.403751179575920105e-06
3.386233402125071734e-06 1.153026241809129715e-02 8.528068065061233938e-06 8.837185800075531006e-02 -5.776783837063703686e-06 -3.078142071899492294e-06 2.787660360336303711e-01 9.465558081865310669e-02 1.320937826676527038e-06 -1.120006851851940155e-02 1.494732896389905363e-05 5.529854819178581238e-02 -1.521509140729904175e-02 6.059221550822257996e-02 -3.879544692608760670e-06 -3.149510547518730164e-02 2.132207304239273071e-01 -1.109252298192586750e-05 2.431821940263034776e-06 2.657651714980602264e-02 -2.110874503850936890e-01 -7.673560827970504761e-02 4.878023901255801320e-06 8.986853808164596558e-02 2.898584625654621050e-06 8.453076705336570740e-03 6.180098353070206940e-06 2.637078523548552766e-06 1.221329966938355938e-06 2.200917452573776245e-01 1.229862198233604431e-01 -2.102148719131946564e-02 1.125364542531315237e-05 1.687054009380517527e-06 -4.090655222535133362e-02 5.532910108740907162e-06 4.409885406494140625e-02 -9.817986935377120972e-02 6.563265287695685402e-06 -7.620828598737716675e-02 1.300600160902831703e-07 1.409603555657668039e-06 1.064373832195997238e-02 7.911523431539535522e-02 3.075933270156383514e-02 1.645675183681305498e-06 1.386974155902862549e-01 -4.229408130049705505e-02 3.530700269038788974e-06 2.051220089197158813e-01 -2.282158881425857544e-01 6.301861256361007690e-02 2.737629599869251251e-02 1.846217401180183515e-06 1.916653104126453400e-02 -1.232773531228303909e-02 -2.435846477746963501e-01 7.786421519995201379e-06 2.705755233764648438e-01 1.552841240481939167e-06 -1.127472569351084530e-05 1.850578933954238892e-01 -1.351573318243026733e-01 -2.098850011825561523e-01 4.100653231143951416e-01 -1.166610121726989746e-01 -1.342761069536209106e-01 -7.473097412002971396e-06 4.386678934097290039e-01 3.733412995643448085e-06 1.242581829428672791e-01 3.021949851245153695e-06 8.602169145888183266e-06 1.501896258560009301e-05 1.250318288803100586e-01 1.558218449354171753e-01 -2.456232778058620170e-06 3.713609576225280762e-01 3.857788215100299567e-06 -1.953535047505283728e-06
1.430648808309342712e-06 -4.733963942271657288e-05 4.524627911450807005e-06 -3.830919861793518066e-01 -3.731266588147263974e-06 -4.814720159629359841e-05 -1.798177659511566162e-01 -1.543400138616561890e-01 6.783910521335201338e-06 -2.517966777304536663e-06 -4.999539214622927830e-06 -9.893226437270641327e-03 5.024005076847970486e-05 -4.680872734752483666e-06 -6.158973519632127136e-06 1.990853206734755076e-06 -2.055464871227741241e-02 3.153229951858520508e-01 5.448449883260764182e-06 1.553832134959520772e-06 2.214091569185256958e-01 2.680554986000061035e-01 -9.993976163968909532e-06 -1.864936649799346924e-01 1.394145419908454642e-05 3.331570327281951904e-01 4.509794962359592319e-05 3.323392320453422144e-06 5.776924808742478490e-06 -4.092040285468101501e-02 2.033866345882415771e-01 3.103260496573057026e-06 7.968060344865079969e-07 5.390650585468392819e-06 -9.121033549308776855e-02 -4.208832251606509089e-07 -1.180471573024988174e-02 8.944935202598571777e-01 -7.957689464092254639e-02 -5.389138550526695326e-06 -5.576363764703273773e-03 6.558129371114773676e-06 -7.786318659782409668e-02 -2.189118117094039917e-01 -9.129514545202255249e-02 5.570516350417165086e-06 -1.154338642954826355e-01 7.439472526311874390e-02 -1.513327062129974365e-01 -8.585022878833115101e-04 7.083085179328918457e-01 -1.265033632516860962e-01 -5.532877892255783081e-02 5.943330052105011418e-06 2.592888677099836059e-06 5.469566895044408739e-05 4.785099327564239502e-01 -2.400388621026650071e-05 -6.640319712460041046e-03 4.607702067005448043e-06 -5.171795783098787069e-05 -8.917456120252609253e-02 1.151137894339626655e-06 3.425348699092864990e-01 -4.280925095081329346e-01 1.873630708359996788e-07 1.084247969629359432e-06 1.509781777858734131e-01 -6.440901756286621094e-01 3.194869350409135222e-06 -6.832987070083618164e-01 8.478371455566957593e-06 6.171348104544449598e-06 3.875877155223861337e-06 8.407394489040598273e-06 3.161081849611946382e-06 -6.892836093902587891e-02 -3.885368704795837402e-01 3.429823664191644639e-06 -5.522358605958288535e-06
5.418714408733649179e-06 1.380449612042866647e-05 1.290917680307757109e-05 -1.253209120477549732e-06 -1.451817297493107617e-06 -1.572876317368354648e-05 2.066383785859216005e-06 1.496019194746622816e-06 9.176865205517970026e-07 1.892919681267812848e-05 1.203261945192934945e-06 6.320183842944970820e-07 2.429504638712387532e-05 1.015861835185205564e-05 8.612376404926180840e-06 -5.158873591426527128e-06 1.970885023183654994e-06 3.449882569839246571e-06 3.453789759078063071e-05 1.473790689487941563e-06 6.776578629796858877e-06 -5.406600394053384662e-06 -1.294066532864235342e-05 -1.812185655580833554e-05 -4.627550879376940429e-06 2.678564214875223115e-06 1.635171793168410659e-05 6.476338057836983353e-06 -1.042760050040669739e-05 3.709219527081586421e-07 1.591589352756273001e-06 -6.586365998373366892e-06 6.677019882772583514e-06 3.342765921843238175e-07 2.106172905769199133e-05 3.889790605171583593e-07 2.966424290207214653e-05 1.253837854164885357e-05 -4.502267074713017792e-06 4.356531007942976430e-06 4.754542715090792626e-07 -7.880908924562390894e-06 -3.869672582368366420e-09 -1.619791419216198847e-06 9.629473424865864217e-06 -6.557479082403006032e-06 7.051872671581804752e-06 9.844965461525134742e-06 -1.752345269778743386e-05 8.601337867730762810e-06 2.344799031561706215e-05 -1.420492844772525132e-05 -3.936860230169259012e-05 -1.893346416181884706e-05 3.864449809043435380e-07 -1.610403887752909213e-05 -1.701410383248003200e-06 1.942660856002476066e-05 6.362325166264781728e-06 5.680412868969142437e-06 -2.373304232605732977e-05 2.478473106748424470e-05 1.844002144935075194e-05 4.240977796143852174e-05 1.277840783586725593e-05 6.125333584350300953e-06 4.646441993827465922e-06 2.190995473938528448e-06 -1.026144764182390645e-05 -3.315959475003182888e-06 -1.569268715684302151e-05 -7.212928721855860204e-06 4.905678451905259863e-06 8.870898454915732145e-06 -9.231624062522314489e-06 -1.922458613989874721e-05 7.768426257825922221e-06 3.416878826101310551e-06 1.932370105350855738e-05 -1.293228706344962120e-07
6.539216883538756520e-06 2.298925668001174927e-01 -7.192584234871901572e-07 5.266515654511749744e-05 -4.471435750019736588e-05 2.066953331232070923e-01 7.703109383583068848e-01 5.311022400856018066e-01 -1.538982905913144350e-05 -3.687061325763352215e-05 6.875606231915298849e-06 -5.760155545431189239e-05 -1.694228947162628174e-01 -2.820009467541240156e-05 -3.958285742555744946e-05 4.231116690789349377e-05 4.152186011197045445e-05 -2.763456292450428009e-02 -1.265585433429805562e-05 4.046656977152451873e-05 -1.812927603721618652e+00 1.413178592920303345e-01 -3.508277814034954645e-06 -2.866251766681671143e-01 -6.178025528788566589e-02 -4.475068766623735428e-03 -5.165079981088638306e-02 3.461609594523906708e-05 1.347489796899026260e-05 4.830545367440208793e-05 -3.173803687095642090e-01 2.956726893899030983e-05 -1.189293107017874718e-05 1.917630652314983308e-05 3.930079037672840059e-05 -4.170432021055603400e-06 -5.691362457582727075e-05 1.205339953303337097e-01 3.112564049661159515e-02 -1.558227995701599866e-05 3.652040686574764550e-05 3.443754030740819871e-05 -1.428690552711486816e-01 1.192148029804229736e-02 3.814880983554758132e-05 2.923958527389913797e-05 2.001766115427017212e-02 -4.264539893483743072e-05 6.836070120334625244e-02 5.331133306026458740e-02 1.532693982124328613e+00 3.582648059818893671e-05 3.519549136399291456e-05 -1.332625652139540762e-05 4.032720607938244939e-05 -2.142728716135025024e-01 1.771492362022399902e-01 -3.014349931618198752e-05 2.632561326026916504e-01 2.653698902577161789e-05 1.727655380964279175e-01 2.197934081777930260e-03 -4.344654007581993937e-05 -9.379789233207702637e-01 -3.274814486503601074e-01 -2.587183917057700455e-05 -4.205419463687576354e-05 -2.011072784662246704e-01 5.403038859367370605e-01 4.000197077402845025e-05 -1.473250031471252441e+00 4.639177859644405544e-05 -2.940826107078464702e-07 1.116503699449822307e-05 -7.118068635463714600e-02 3.821136124315671623e-05 -2.661156395333819091e-05 5.274168774485588074e-02 3.746820948435924947e-05 1.544497354188933969e-05
-2.200130074925255030e-05 -4.745259135961532593e-02 -8.754624104767572135e-06 1.798565238714218140e-01 -1.841003894805908203e-01 -1.566274464130401611e-02 2.719238996505737305e-01 -5.111390237289015204e-06 5.735582817578688264e-06 -2.718852162361145020e-01 -4.807986897503724322e-08 -4.119666516780853271e-01 1.271363645792007446e-01 -5.685040727257728577e-02 -1.960700005292892456e-01 2.338976562023162842e-01 2.069417387247085571e-01 -1.200398802757263184e-01 5.745725502492859960e-06 2.867685258388519287e-01 -5.126605629920959473e-01 1.722237318754196167e-01 1.759181395755149424e-05 3.266954421997070312e-01 3.465194404125213623e-01 8.818143606185913086e-01 7.645304867764934897e-05 1.738634407520294189e-01 1.142049282789230347e-01 2.125401347875595093e-01 2.460578616592101753e-05 1.506236493587493896e-01 -3.670450951176462695e-06 5.861130356788635254e-02 2.394489794969558716e-01 -1.070332473318558186e-06 -3.924353122711181641e-01 9.840600192546844482e-02 1.459549814462661743e-01 -2.093723975121974945e-02 1.562467217445373535e-01 2.730850875377655029e-01 4.434425234794616699e-01 1.429054588079452515e-01 1.846988350152969360e-01 2.132922410964965820e-01 -5.342308282852172852e-01 -2.135875523090362549e-01 -4.410022497177124023e-01 -4.324426651000976562e-01 9.136461019515991211e-01 2.084860652685165405e-01 1.191981360316276550e-01 6.107310298830270767e-03 1.454715132713317871e-01 1.143001317977905273e-01 3.155807554721832275e-01 -6.634660167037509382e-06 4.416603595018386841e-02 1.690748631954193115e-01 -5.165471881628036499e-02 1.025458425283432007e-01 -1.990906149148941040e-01 -3.689156174659729004e-01 -2.676893770694732666e-01 -1.831591725349426270e-01 -3.667176365852355957e-01 -2.384551055729389191e-02 1.831345616665203124e-05 1.682211607694625854e-01 -8.590903282165527344e-01 1.320607066154479980e-01 1.615546170796733350e-05 -1.047247678798157722e-05 2.552234530448913574e-01 2.213799804449081421e-01 -1.324344277381896973e-01 -1.643039733171463013e-01 3.283795341849327087e-02 -1.716206036508083344e-02
-1.045747922034934163e-05 1.717971463222056627e-05 2.389219389442587271e-06 3.917496651411056519e-02 5.464146852318663150e-06 2.072133975161705166e-05 3.405247926712036133e-01 1.958472579717636108e-01 1.020357331071863882e-06 3.795168595388531685e-06 8.507099664711859077e-06 1.130582040786975995e-05 -2.176279303967021406e-05 3.997887670993804932e-02 6.617921826546080410e-06 -4.568097210722044110e-06 -3.184989964211126789e-06 -2.660435438156127930e-02 1.028415681503247470e-06 -4.103525498067028821e-06 -5.125476121902465820e-01 -1.824087947607040405e-01 -1.541723577247466892e-05 -4.882640951109351590e-06 -1.210289156006183475e-05 -2.617774307727813721e-01 -2.402799509582109749e-05 -6.396378012141212821e-06 -5.511305971594993025e-06 -2.252597823826363310e-06 -2.298319190740585327e-01 -1.489769220352172852e-01 -1.264946786250220612e-05 -4.115958290640264750e-06 -3.932882918888935819e-06 3.850698703899979591e-06 1.530202098365407437e-05 -2.411771267652511597e-01 -3.456439571891678497e-06 4.026233000331558287e-06 -6.316639883152674884e-06 -7.800967068760655820e-06 4.036270827054977417e-02 -3.808523388215689920e-06 -3.578613132049213164e-06 -8.170858563971705735e-06 1.966692798305302858e-05 4.185849320492707193e-06 1.493154832132859156e-05 8.840551345201674849e-06 -1.912068182718940079e-05 -4.504484422795940191e-06 -5.025435712013859302e-06 9.146452839559060521e-07 -5.033425622968934476e-06 -1.909386628540232778e-05 -6.128821372985839844e-01 1.202658950205659494e-06 1.299675022892188281e-05 -5.801523911941330880e-06 2.187048266932833940e-05 1.551906391978263855e-02 4.821847596758743748e-07 -9.482651352882385254e-01 6.577821075916290283e-02 3.260040330133051611e-06 -1.714595327939605340e-07 -2.250562757253646851e-01 8.755456805229187012e-01 -4.924089807900600135e-06 4.409741904964903370e-06 -7.750521945126820356e-06 -1.084008545149117708e-07 1.599767529114615172e-05 -9.919680451275780797e-06 -5.582000085269100964e-06 6.327303708530962467e-06 2.833188772201538086e-01 -5.186380803934298456e-06 -3.325012585264630616e-07
2.208460955444024876e-06 -1.983014772122260183e-05 -5.874416274309623986e-06 -1.229059472680091858e-01 -4.270747012924402952e-06 -2.121717625414021313e-05 -1.653673797845840454e-01 -1.135860085487365723e-01 4.853410246141720563e-06 -3.558259777491912246e-06 1.424127731297630817e-05 -7.506210749852471054e-06 2.162744749512057751e-05 -4.428009106050012633e-06 -4.419713150127790868e-06 3.575098617147887126e-06 3.852967438433552161e-06 1.369230300188064575e-01 2.780947852443205193e-06 4.073607669852208346e-06 1.431550085544586182e-01 -2.415636117802932858e-07 -5.840544872626196593e-06 -6.056852638721466064e-02 8.232334948843345046e-06 1.812373995780944824e-01 2.129053609678521752e-05 4.182319571555126458e-06 4.539801011560484767e-06 -1.259379386901855469e-01 1.753029376268386841e-01 3.833622031379491091e-06 -4.523315965343499556e-06 4.456454007595311850e-06 4.158583124080905691e-06 3.876137270708568394e-06 -1.066748427547281608e-05 2.694835066795349121e-01 -7.218232005834579468e-02 -3.920591097994474694e-06 3.791237759287469089e-06 4.612249085766961798e-06 -3.023169748485088348e-02 -3.562447614967823029e-03 -8.411689102649688721e-02 4.107614586246199906e-06 -1.196599805552978069e-05 -3.485550223558675498e-06 -1.300941403314936906e-05 -6.820491307735210285e-06 1.958145052194595337e-01 4.800990154762985185e-06 3.920788003597408533e-06 4.475017249205848202e-06 3.744311470654793084e-06 2.130863867932930589e-05 1.965557187795639038e-01 -1.026337849907577038e-05 -1.721555367112159729e-02 4.357626494311261922e-06 -2.424223930574953556e-05 -1.415864403497835156e-07 -3.060762537643313408e-06 3.334820270538330078e-01 -7.493210490792989731e-03 -2.422478019070695154e-06 -2.719242729654069990e-06 2.261241972446441650e-01 -1.690089404582977295e-01 4.105821972189005464e-06 -5.485499277710914612e-02 6.073708391340915114e-06 -1.905645331135019660e-05 -1.339068148809019476e-06 5.992662408971227705e-06 4.037840426462935284e-06 -4.830189482163405046e-06 -1.259016990661621094e-01 3.992618076154030859e-06 -2.869151558115845546e-06
1.491400325903669000e-06 -4.356595309218391776e-05 -2.368217610637657344e-05 -2.420253604650497437e-01 -3.661411710709217004e-06 -4.378441735752858222e-05 -1.548611908219754696e-05 -7.623089004482608289e-06 1.582718709869368467e-06 -2.663000941538484767e-06 -8.354873898497316986e-06 -1.237628293893067166e-05 4.240550333634018898e-05 -4.521913524513365701e-06 -5.051164862379664555e-06 2.341620756851625629e-06 -6.756917387247085571e-02 8.551192283630371094e-02 -1.227306029250030406e-06 -1.318224519491195679e-02 2.416206337511539459e-02 2.853420078754425049e-01 -1.110295124817639589e-05 -2.897754497826099396e-02 1.196009725390467793e-05 1.811584979295730591e-01 4.198056194582022727e-05 3.466908765403786674e-06 5.290360604703892022e-06 -9.254424273967742920e-02 1.325595080852508545e-01 3.032391759916208684e-06 1.335020442638779059e-06 4.308294137445045635e-06 -4.684526473283767700e-03 -3.593005203583743423e-06 -1.764820626704022288e-05 5.635011196136474609e-01 -3.430084511637687683e-02 -4.894890480500180274e-06 3.020014446519780904e-06 5.588180101767648011e-06 -6.953380256891250610e-02 -2.990368306636810303e-01 -1.835414618253707886e-01 6.023842161084758118e-06 -2.799765388772357255e-05 5.746287852525711060e-02 -3.291156826890073717e-05 2.932123839855194092e-02 5.038803219795227051e-01 -5.051447823643684387e-02 2.264607473989599384e-06 8.374534559152380098e-07 2.246781377834849991e-06 4.520676884567365050e-05 2.588740885257720947e-01 1.126860115618910640e-05 -2.779628994176164269e-05 5.373529802454868332e-06 -4.614986391970887780e-05 -1.829779893159866333e-01 5.443299654871225357e-03 3.146288096904754639e-01 -5.319991111755371094e-01 -1.249316824214474764e-06 8.198212952947869780e-08 1.251363605260848999e-01 -4.517363905906677246e-01 2.761488076430396177e-06 -4.509476423263549805e-01 7.029440894257277250e-06 -1.397800770064350218e-05 3.719364940479863435e-06 6.678413228655699641e-06 3.204702352377353236e-06 -3.996000486949924380e-06 -1.156788840889930725e-01 4.012299996247747913e-06 -2.934847543656360358e-06
2.499428774171974510e-05 -3.370331251062452793e-05 -1.149722265836317092e-06 -6.693422049283981323e-02 2.831450728990603238e-06 -3.076514258282259107e-05 -5.092019215226173401e-02 -2.960765361785888672e-02 -4.070960585522698238e-06 3.046559868380427361e-06 -1.471917857998050749e-05 -7.894994269008748233e-06 2.686064544832333922e-05 1.725245965644717216e-06 8.432702998106833547e-07 -4.075342530995840207e-06 -1.343998312950134277e-01 1.028534248471260071e-01 -5.886700819246470928e-06 -5.130013960297219455e-06 -8.706369953870307654e-06 2.540603280067443848e-01 -1.814233473851345479e-05 -1.599582135677337646e-01 4.784973953064763919e-06 1.616233203094452620e-05 2.237993430753704160e-05 -1.287596660404233262e-06 -7.875178198446519673e-07 -2.525750100612640381e-01 3.392819166183471680e-01 -1.965921001101378351e-06 9.635008609620854259e-06 -1.023322965920669958e-06 -8.642386092105880380e-06 -1.832415728131309152e-05 -1.208870344271417707e-05 5.745933055877685547e-01 -3.325744867324829102e-01 8.213228284148499370e-07 -9.834117442369461060e-02 -1.061107468558475375e-08 -8.674197643995285034e-02 -7.670098057133145630e-06 -2.686346471309661865e-01 -7.425619514833670110e-07 -8.089650422334671021e-02 5.327548478817334399e-06 -2.071764720312785357e-05 -6.889750693517271429e-06 4.047521650791168213e-01 -2.762584984302520752e-01 -5.262970924377441406e-02 -3.650475036920397542e-06 -3.845833816740196198e-06 3.260849189246073365e-05 3.366514742374420166e-01 -2.130849679815582931e-05 -1.925133354961872101e-02 -1.047478690452408046e-06 -2.108274566126056015e-05 -4.630892574787139893e-01 2.303389310836791992e-01 2.969751060009002686e-01 -4.214129745960235596e-01 4.346162313595414162e-06 8.025331226235721260e-06 2.948588319122791290e-02 -6.102004647254943848e-01 -2.246077201562002301e-06 -6.336078643798828125e-01 2.208797923231031746e-06 -5.009215783502440900e-06 -5.042286829848308116e-06 5.997908374411053956e-07 -2.001855591515777633e-06 2.137013780156848952e-06 -1.352025270462036133e-01 -2.612419393699383363e-06 1.263435933651635423e-06
4.088905825483379886e-06 -1.062575847754487768e-05 -2.229498022643383592e-05 4.043766693939687684e-06 -4.157360763201722875e-06 -1.148271167039638385e-05 -1.380903720855712891e-01 -4.169390194874722511e-06 1.356144139208481647e-06 -4.089710273547098041e-06 1.919608075695578009e-05 -4.604618879966437817e-06 1.091785907192388549e-05 -3.580491920729400590e-06 -4.133295533392811194e-06 3.866912265948485583e-06 4.008062205684836954e-06 -3.858975105686113238e-06 7.030529104667948559e-06 4.006132257927674800e-06 3.139215111732482910e-01 2.308288230778998695e-06 -1.742764652590267360e-05 6.128340828581713140e-06 5.499647613760316744e-06 1.367669210594613105e-05 9.223424058291129768e-06 4.651378276321338490e-06 1.448558577976655215e-06 4.029834599350579083e-06 4.109183326363563538e-02 4.093802090210374445e-06 2.084398511215113103e-05 2.258997710669063963e-06 4.202522177365608513e-06 7.362008545896969736e-06 -4.494864697335287929e-06 -5.461517957883188501e-06 3.654083229776006192e-06 -2.591103339000255801e-06 3.936039320251438767e-06 4.282293957658112049e-06 1.040624920278787613e-05 3.389792027519433759e-06 4.651524704968323931e-06 4.548187462205532938e-06 -4.736630671686725691e-06 -3.398486114747356623e-06 -4.588391675497405231e-06 -3.807280336332041770e-06 -1.978179998695850372e-02 4.528438694251235574e-06 4.120242920180317014e-06 1.606354999239556491e-06 3.868583917210344225e-06 1.182896448881365359e-05 1.104011014103889465e-01 -2.144038626283872873e-05 -5.027418410463724285e-06 2.857798563127289526e-06 -1.350128150079399347e-05 2.875333848351147026e-06 -3.771552883335971273e-06 8.761405944824218750e-02 1.878424733877182007e-01 -2.390531335549894720e-06 -3.488402626317110844e-06 -6.873372626614582259e-07 -4.195236042141914368e-02 3.889538675139192492e-06 1.242000237107276917e-01 4.999359589419327676e-06 2.177036367356777191e-05 -1.971228266484104097e-05 4.344568878877907991e-06 3.796225655605667271e-06 -3.821372047241311520e-06 -1.501772105693817139e-01 4.013954367110272869e-06 -5.009773758501978591e-06
-1.219335990754188970e-05 1.996339051402173936e-06 -1.681953835941385478e-05 -3.822394181042909622e-03 -4.022484972665552050e-06 -8.149474524543620646e-06 7.093142812664154917e-06 -2.766425950539996848e-06 3.200929313607048243e-06 -2.745821802818682045e-06 -7.772086974000558257e-06 2.362564206123352051e-02 1.066287131834542379e-05 -2.936220653282362036e-06 -4.012924819107865915e-06 3.280782493675360456e-06 3.272499270678963512e-06 -3.691923438964295201e-06 3.653190788099891506e-06 2.425686223432421684e-03 1.347847282886505127e-02 8.202307526516960934e-07 1.293055447604274377e-05 6.880814908072352409e-06 4.866625204158481210e-06 9.976709634065628052e-02 1.012819120660424232e-05 3.086699962295824662e-06 3.270658226028899662e-06 4.055388671986293048e-06 5.099508911371231079e-02 3.481469320831820369e-06 -1.179299579234793782e-05 3.198911826984840445e-06 6.543040399265009910e-06 2.057335768768098205e-05 -4.005549271823838353e-06 1.069360673427581787e-01 2.821676389430649579e-06 -3.300807975392672233e-06 -7.611986347910715267e-07 2.673279823284246959e-06 1.020477247948292643e-05 3.085923253820510581e-06 8.920232648961246014e-04 2.868460796889849007e-06 8.604249358177185059e-02 -2.094220235449029133e-06 -2.214755113527644426e-06 2.091178430418949574e-07 4.467237740755081177e-02 1.110469202103558928e-05 3.375229880475671962e-06 3.230521087971283123e-06 3.184273055012454279e-06 1.064337993739172816e-05 -6.600853987038135529e-03 8.556520697311498225e-06 2.262477762997150421e-03 2.672941718628862873e-06 -1.522081947769038379e-05 3.532842811182490550e-06 -2.955121544800931588e-06 3.623050588430487551e-06 1.798790842294692993e-01 -1.681663434283109382e-06 -2.613559217934380285e-06 1.386804878711700439e-02 -6.868907803436741233e-06 3.068879550482961349e-06 4.134267941117286682e-02 3.689258392114425078e-06 -5.924441211391240358e-06 -2.127445259247906506e-05 3.590445430745603517e-06 3.151314786009606905e-06 -3.107492375420406461e-06 -1.003769505769014359e-02 3.453806584730045870e-06 -3.367656518094008788e-06
1.029204668157035485e-05 -2.690213113965000957e-05 7.825668035366106778e-06 -5.932566523551940918e-02 -5.042635621066438034e-06 -2.779287751764059067e-05 -1.189601243822835386e-05 -7.121459020709153265e-06 7.941040166770108044e-06 -5.117893124406691641e-06 -1.798459925339557230e-05 -9.955311725207138807e-06 2.673950075404718518e-05 -5.816815246362239122e-06 -5.938995855103712529e-06 4.993924449081532657e-06 4.678681307268561795e-06 -1.673600650065054651e-06 1.062903538695536554e-05 4.676255230151582509e-06 6.543778628110885620e-02 -9.093798780668294057e-07 -8.174044523912016302e-06 9.805758054426405579e-06 1.106733543565496802e-05 9.267111122608184814e-02 2.912639320129528642e-05 5.663458068738691509e-06 6.456524488385184668e-07 4.571506451611639932e-06 5.527872964739799500e-02 5.644251359626650810e-06 -5.347791557142045349e-06 1.326496544606925454e-06 4.845122930419165641e-06 -9.197475264954846352e-06 -1.369939127471297979e-05 2.333517223596572876e-01 -1.489529311656951904e-01 -2.229226083727553487e-06 -1.080610975623130798e-02 6.293303158599883318e-06 1.844676444306969643e-05 5.691127171303378418e-06 5.210079052631044760e-06 4.866071321885101497e-06 -1.702610097709111869e-05 -4.764857294503599405e-06 -1.847760177042800933e-05 -9.107502592087257653e-06 2.932941615581512451e-01 5.317524482961744070e-06 4.906488356937188655e-06 1.038139635056722909e-05 4.879567768512060866e-06 2.670611138455569744e-05 7.141076028347015381e-02 -9.636515642341692001e-06 -1.387341035297140479e-05 4.037093276565428823e-06 -2.937434510386083275e-05 -1.905047707259654999e-02 4.061022400856018066e-02 3.190561234951019287e-01 -1.286552697420120239e-01 -2.838235559465829283e-06 -4.422696292749606073e-06 4.870557859248947352e-06 -1.176397576928138733e-01 4.931722287437878549e-06 -2.985417544841766357e-01 7.741735316812992096e-06 1.023355162033112720e-05 7.719195309618953615e-07 6.871117875562049448e-06 5.019777745474129915e-06 -5.462386980070732534e-06 -5.105848610401153564e-02 5.981391041132155806e-06 -4.612415978044737130e-06
-1.158487748398329131e-06 3.455011665209895000e-06 1.016779515339294448e-05 -2.460420091665582731e-06 9.995351319957990199e-07 3.496731096674920991e-06 -1.432621047570137307e-06 -6.764548743376508355e-08 3.752148131752619520e-06 8.660485946165863425e-07 -3.370478225406259298e-07 6.088807822379749268e-07 -3.265314262534957379e-06 1.844806320150382817e-06 1.144292127719381824e-06 -9.862892511591780931e-07 -1.507311935711186379e-06 2.942254468507599086e-06 6.855063929833704606e-07 -1.247182808583602309e-06 -4.968314897269010544e-06 -3.269416993134655058e-06 -8.654092198412399739e-06 -3.814050614892039448e-06 -1.183756921818712726e-06 -8.075039659161120653e-06 -2.636255885590799153e-06 -7.234625627461355180e-07 -2.207073066529119387e-06 -2.080020749417599291e-06 9.745343731992761604e-07 -2.577736267994623631e-06 7.478609404643066227e-06 -3.208127509424230084e-06 -2.097892320307437330e-06 9.042313649842981249e-06 1.248885837412672117e-06 7.243188470602035522e-02 -1.843181053118314594e-06 3.034467226825654507e-06 -4.491080289881210774e-07 -1.636290562601061538e-06 -5.886317921977024525e-06 -1.791437171050347388e-06 -3.492221981287002563e-02 -1.355547283310443163e-06 -1.341310143470764160e-02 6.762920747860334814e-07 -1.058107045537326485e-06 6.108198249421548098e-07 1.504873335361480713e-01 -2.741726802923949435e-06 -1.492528099333867431e-06 5.305230388330528513e-06 -8.669658200233243406e-07 -5.480632353282999247e-06 5.669768527150154114e-02 -2.244029201392550021e-05 1.817070369725115597e-07 -1.969750428543193266e-06 3.679708242998458445e-06 -1.782902032136917114e-01 1.746677298797294497e-06 2.436457900330424309e-03 -4.468332827091217041e-01 8.357119440915994346e-07 1.235256604559253901e-06 1.949895022335113026e-06 -1.699724495410919189e-01 -8.906131370167713612e-07 -2.947511672973632812e-01 -1.869351308414479718e-06 3.687883236125344411e-06 -7.443150479957694188e-06 -1.675464773143175989e-06 -7.821881808922626078e-07 8.077654456428717822e-07 7.099383765307720751e-07 -1.147855982708279043e-06 -3.256283662267378531e-06
1.536191666673403233e-05 5.261641854303888977e-05 2.235357351310085505e-05 -1.706567491055466235e-05 1.005371541396016255e-05 5.247449735179543495e-05 1.411474477208685130e-05 1.050233549904078245e-05 -9.239461178367491812e-06 8.486594197165686637e-06 -1.131222234107553959e-05 2.686507104954216629e-05 -5.645688725053332746e-05 8.970292583398986608e-06 1.088554745365399867e-05 -8.294136023323517293e-06 -7.992372047738172114e-06 4.793604603037238121e-06 -9.858829798758961260e-06 -8.358127161045558751e-06 8.827057627058820799e-07 -2.412441372871398926e-02 -4.274700131645658985e-06 -2.440033313177991658e-05 -2.387495078437495977e-05 -2.055779546499252319e-01 -4.393240669742226601e-05 -7.622205885127186775e-06 -8.047288247325923294e-06 -7.862856364226900041e-06 -1.168043017387390137e-01 -7.916878530522808433e-06 8.664974302519112825e-06 -6.661626230197725818e-06 -7.931394975457806140e-06 2.621277417347300798e-06 3.495657801977358758e-05 -3.767153322696685791e-01 -1.058841189660597593e-05 5.491274350788444281e-06 -9.341964869236107916e-06 -1.132601846620673314e-05 -5.484125358634628356e-05 -1.021140724333235994e-05 -8.125951353576965630e-06 -9.528532245894894004e-06 5.112649887450970709e-05 8.687865374668035656e-06 5.264522405923344195e-05 2.648687404871452600e-05 -6.963652372360229492e-01 -8.708643690624739975e-06 -8.447231266472954303e-06 -7.488041319447802380e-06 -8.502824130118824542e-06 -5.882084951736032963e-05 -2.189855873584747314e-01 -4.955462372890906408e-06 2.580027830845210701e-05 -7.738383828836958855e-06 5.501035047927871346e-05 -6.700622634525643662e-07 7.826663932064548135e-06 -4.073781383340246975e-06 3.110750019550323486e-01 4.464115590963046998e-06 8.692291885381564498e-06 -6.198717983352253214e-06 1.204428449273109436e-01 -8.457108378934208304e-06 5.002332925796508789e-01 -1.632099520065821707e-05 -2.153622881451155990e-05 -6.456459232140332460e-06 -1.430479005648521706e-05 -9.142342605628073215e-06 8.175712537195067853e-06 2.422863690298981965e-05 -8.821172741590999067e-06 8.698039891896769404e-06
8.043652997002936900e-06 -1.045551244169473648e-02 3.357977220730390400e-06 -1.928062140941619873e-01 3.380061313509941101e-02 -5.754165817052125931e-03 -2.033552974462509155e-01 -6.423889100551605225e-02 5.377681645768461749e-06 1.307278239437437151e-06 4.015575541416183114e-06 -1.111857909563696012e-05 4.017142055090516806e-05 -2.118979182341718115e-06 -3.847141670121345669e-06 -5.275497213006019592e-02 -1.182339340448379517e-01 3.326968252658843994e-01 6.231735824258066714e-06 -4.210527241230010986e-02 1.421533077955245972e-01 1.986599117517471313e-01 1.334182343271095306e-05 -6.200020760297775269e-02 9.153300197795033455e-06 2.816991209983825684e-01 3.460222069406881928e-05 2.848474309757875744e-07 3.413926833673031069e-06 -5.356329679489135742e-02 4.158701002597808838e-01 1.497786797699518502e-06 -1.387887095916084945e-06 3.142240757370018400e-06 -3.880564589053392410e-03 -1.045178214553743601e-05 -5.235784687101840973e-03 5.581975579261779785e-01 -3.287856280803680420e-01 -3.722691872098948807e-06 -1.025709211826324463e-01 3.295978785899933428e-06 -1.500197350978851318e-01 -1.598657518625259399e-01 -1.319306194782257080e-01 2.683983211682061665e-06 -5.523781850934028625e-02 7.238935679197311401e-02 -1.741232424974441528e-01 -8.794943823886569589e-06 3.554205894470214844e-01 -5.915156006813049316e-02 -1.187547817826271057e-01 4.645409717340953648e-06 -8.899532258510589600e-03 3.096234425902366638e-02 5.884063243865966797e-01 8.097160389297641814e-06 -1.021151170134544373e-01 2.382461161687388085e-06 -5.520197376608848572e-02 -1.161940395832061768e-01 4.661535471677780151e-02 4.857576489448547363e-01 -2.144781202077865601e-01 1.263199560344219208e-02 4.969588480889797211e-03 2.326162457466125488e-01 -6.088396310806274414e-01 -9.573645911586936563e-07 -4.690999090671539307e-01 4.125196483073523268e-06 -2.440197022224310786e-05 8.733992217457853258e-06 8.321500383317470551e-03 -7.039105298645154107e-07 -2.095853233186062425e-06 -4.773614704608917236e-01 -6.688588112592697144e-02 -5.861858880962245166e-06
1.535785486339591444e-05 -5.050423351349309087e-05 7.795335477567277849e-06 1.171696112578501925e-05 -6.162840691104065627e-06 -4.903761146124452353e-05 -9.966477591660805047e-06 -6.940010734979296103e-06 7.605973223689943552e-06 -5.694576884707203135e-06 5.397130735218524933e-06 -1.670773599471431226e-05 4.833391722058877349e-05 -6.556764674314763397e-06 -6.847264558018650860e-06 5.901033091504359618e-06 5.688027158612385392e-06 -1.894515889944159426e-06 1.104066268453607336e-05 5.970805887045571581e-06 1.816707936086459085e-06 -6.576502528332639486e-06 3.985722742072539404e-06 1.609575701877474785e-05 1.501130100223235786e-05 6.969137489795684814e-02 4.556646308628842235e-05 6.430395387724274769e-06 2.641991159180179238e-07 -3.506610542535781860e-02 1.658415347337722778e-01 5.650268576573580503e-06 1.110642915591597557e-05 3.171208163621486165e-06 -1.295059081166982651e-02 2.604372639325447381e-06 -2.331633004359900951e-05 3.004622161388397217e-01 5.949111255176831037e-06 -4.200446710456162691e-06 6.146793566585984081e-06 7.357085905823623762e-06 3.848547930829226971e-05 6.712778940709540620e-06 5.311335371516179293e-06 5.975318799755768850e-06 -3.484857006696984172e-05 -5.604018497251672670e-06 -4.064467793796211481e-05 -1.617668021935969591e-05 6.577376127243041992e-01 5.671466169587802142e-06 5.523736035684123635e-06 1.182966298074461520e-05 6.008037871652049944e-06 5.171413795324042439e-05 1.025640740990638733e-01 -3.906350684701465070e-06 -2.325903005839791149e-05 6.738978754583513364e-06 -4.930514114676043391e-05 -4.425611719489097595e-02 -5.653555490425787866e-06 3.755743364308727905e-06 -4.304976165294647217e-01 -3.392972303117858246e-06 -5.395072093961061910e-06 6.038166955113410950e-02 -2.075717929983511567e-05 6.703037342958850786e-06 -2.344374656677246094e-01 1.014413555822102353e-05 1.401199278916465119e-05 1.487835106672719121e-05 9.869181667454540730e-06 5.580874585575656965e-06 -5.793121090391650796e-06 -1.677129148447420448e-05 5.644357315759407356e-06 -1.464493152525392361e-06
-6.323431080090813339e-06 -1.779417289071716368e-05 3.611171905504306778e-06 5.410920039139455184e-06 -3.992896836280124262e-06 -1.973814869415946305e-05 -1.726693809032440186e-01 -6.325552931230049580e-06 1.174257522507105023e-05 -4.076777713635237888e-06 2.632627683851751499e-06 -5.982407401461387053e-06 1.857137431215960532e-05 -3.813605417235521600e-06 -3.956948603445198387e-06 4.142346824664855376e-06 3.790763230426819064e-06 5.120100919157266617e-03 9.978001799026969820e-06 4.122321570321219042e-06 4.771105945110321045e-01 3.007062332471832633e-07 7.611122327944030985e-06 7.359778919635573402e-06 8.066118425631430000e-06 8.957991749048233032e-02 1.894631350296549499e-05 4.599332896759733558e-06 3.081836439378093928e-06 3.824377017735969275e-06 1.412121355533599854e-01 4.699275450548157096e-06 -1.568931656947825104e-05 3.645775905170012265e-06 4.419711331138387322e-06 -1.330889062955975533e-05 -7.513615855714306235e-06 5.721589177846908569e-02 4.083668500243220478e-06 -4.784257725987117738e-06 4.256460670148953795e-06 4.433604317455319688e-06 1.199762846226803958e-05 3.794885742536280304e-06 4.581427674565929919e-06 4.091587470611557364e-06 -7.922529221104923636e-06 -3.710209512064466253e-06 -9.719498848426155746e-06 -4.913342763757100329e-06 -3.094938956201076508e-02 5.264151695882901549e-06 4.455424459592904896e-06 1.550657543702982366e-05 4.096379598195198923e-06 2.061135455733165145e-05 3.882338851690292358e-02 -9.010160283651202917e-06 -5.535230785608291626e-02 4.435113623912911862e-06 -2.211543505836743861e-05 1.831174017752346117e-06 -3.812021077465033159e-06 4.131501019001007080e-01 -1.239223820448387414e-06 -2.753750322881387547e-06 -3.459278332229587249e-06 1.340554356575012207e-01 -4.083482027053833008e-01 4.222908046358497813e-06 1.325534889474511147e-03 5.700800556951435283e-06 -1.392392550769727677e-05 -1.331800376647152007e-05 4.774759872816503048e-06 4.185243142273975536e-06 -4.135658400628017262e-06 -6.378334760665893555e-02 4.611519216268789023e-06 -5.749525371356867254e-06
6.030236363585572690e-06 -2.816218147927429527e-05 -9.851846698438748717e-06 2.096148364216787741e-06 5.928909558861050755e-07 -2.739691444730851799e-05 -6.962578027014387771e-06 -3.025351361429784447e-06 8.939072358771227300e-06 1.736657395667862147e-07 1.557380528538487852e-05 -8.739852091821376234e-06 2.621501153043936938e-05 8.555666681786533445e-07 4.198259375698398799e-07 -1.095465904654702172e-06 -7.833809831936378032e-07 3.872053184750257060e-06 1.139503729064017534e-05 -8.774413799983449280e-07 -1.330610302829882130e-06 -1.186012195830699056e-05 4.704142611444694921e-06 -7.823876291513442993e-02 6.425903848139569163e-06 1.603841883479617536e-05 2.699373544601257890e-05 -1.241969130205688998e-06 -3.907975951733533293e-07 -1.139529558713547885e-06 1.046179160475730896e-01 -3.761174411920364946e-07 3.608556653489358723e-08 -3.840443241642788053e-06 -8.238480404543224722e-07 -1.193663865706184879e-05 -1.383538619847968221e-05 2.242995947599411011e-01 -5.018391675548627973e-07 2.357002813369035721e-06 2.243936251034028828e-06 1.446483565814560279e-06 1.148581577581353486e-05 -6.725681487296242267e-07 -8.395222574472427368e-02 -2.227529876108746976e-07 -1.796345713955815881e-05 -2.657161530805751681e-07 -2.325941204617265612e-05 -8.389438335143495351e-06 3.285097181797027588e-01 -1.144555426435545087e-06 6.821906026743818074e-07 1.092162710847333074e-05 -1.340006292593898252e-06 2.456058427924290299e-05 -1.091700596589362249e-05 4.989150511391926557e-06 -1.559864540467970073e-05 -5.207093636272475123e-07 -2.576486258476506919e-05 -5.425534024834632874e-02 1.463490207243012264e-06 3.668783847388112918e-06 -3.365559875965118408e-01 2.841692548827268183e-06 1.131506451201857999e-06 9.933539331541396677e-06 -9.937615692615509033e-02 -7.594771886942908168e-07 -4.240343570709228516e-01 3.247677341278176755e-06 4.482699296204373240e-06 1.551921741338446736e-05 3.937195288017392159e-06 -1.348480509477667511e-06 5.197916834731586277e-07 -5.351222625904483721e-06 -9.619693628337699920e-07 -6.627803486480843276e-06
