1.595411658287048340e+00 -1.182284474372863770e+00 3.011074841197114438e-05 7.674687367398291826e-06 -5.873740315437316895e-01 -1.569830417633056641e+00 1.952316597453318536e-05 4.450838565826416016e-01 -1.756512045860290527e+00 -3.929022932425141335e-05 -3.485980414552614093e-05 1.250745262950658798e-04 -1.274337409995496273e-04 6.377230286598205566e-01 -3.966786243836395442e-05 2.920781448483467102e-02 -7.493891119956970215e-01 8.294610597658902407e-05 -4.951961818733252585e-05 5.950201739324256778e-05
-5.650735273957252502e-02 3.971153125166893005e-02 8.468737453222274780e-02 2.781092553050257266e-05 3.716850642376812175e-06 -1.298943459987640381e-01 9.566705822944641113e-01 -1.427650600671768188e-01 -4.423082619905471802e-02 2.853670120239257812e+00 4.466270446777343750e+00 7.983713410794734955e-03 -3.522283434867858887e-01 2.651794850826263428e-01 1.135754823684692383e+00 -2.425583362579345703e+00 -8.896081149578094482e-02 6.576984524726867676e-01 1.554562449455261230e+00 -1.405403614044189453e+00
1.052344799041748047e+00 -1.937358975410461426e+00 2.329899143660441041e-05 -4.461671323952032253e-06 -5.967021584510803223e-01 6.273744106292724609e-01 -1.019622322928626090e-05 1.511919975280761719e+00 4.919015736959408969e-06 -1.571868896484375000e+00 -3.027193069458007812e+00 -8.653166294097900391e-01 1.831972718238830566e+00 -1.183843731880187988e+00 1.664582487137522548e-05 1.743515372276306152e+00 1.163326621055603027e+00 -9.386092424392700195e-01 -7.668340913369320333e-07 3.725309397850651294e-06
-1.316285967826843262e+00 9.053165316581726074e-01 -1.080720126628875732e-01 6.156870767881628126e-06 6.771360039710998535e-01 3.545958042144775391e+00 1.933607381943147629e-05 -3.122819066047668457e-01 2.530537843704223633e+00 9.215636253356933594e-01 1.140051841735839844e+00 -1.997912526130676270e-01 -9.582375735044479370e-02 -1.721754908561706543e+00 1.027240614348556846e-05 -1.050306558609008789e+00 1.438153982162475586e+00 -6.216888777998974547e-06 1.250776229426264763e-03 -2.257422966067679226e-05
-4.991854131221771240e-01 2.398689836263656616e-01 -6.419505552912596613e-06 -5.342438271327409893e-06 6.601499990210868418e-06 2.734009549021720886e-02 -2.074799340334720910e-06 -4.498492344282567501e-04 1.226834356784820557e-01 7.295697331428527832e-01 1.124693393707275391e+00 -1.313892516918713227e-05 -1.050497521646320820e-03 -2.008039518841542304e-05 2.395999445070629008e-06 -3.789613842964172363e-01 2.001421489694621414e-05 1.008675244520418346e-04 2.526505589485168457e-01 -6.348481292661745101e-06
7.703338861465454102e-01 -2.330127209424972534e-01 3.806957304477691650e-01 4.681633981817867607e-06 1.763448562996927649e-05 -2.974286556243896484e+00 8.325365781784057617e-01 3.480041414150036871e-05 -2.712657690048217773e+00 2.165521436836570501e-05 1.072369217872619629e+00 1.910575628280639648e+00 9.368403255939483643e-02 2.752228498458862305e+00 8.060883879661560059e-01 1.484209315094631165e-05 -3.156836271286010742e+00 -2.996528019139077514e-05 1.269394066184759140e-02 -9.264413118362426758e-01
6.355280876159667969e-01 3.196323814336210489e-05 1.118642091751098633e-01 -1.043336669681593776e-05 -1.067344248294830322e-01 -1.488592505455017090e+00 5.401087400969117880e-05 -2.911732917709741741e-05 -1.379692316055297852e+00 2.500451803207397461e+00 4.087022781372070312e+00 2.778024281724356115e-05 -6.951884031295776367e-01 1.453097224235534668e+00 5.365579724311828613e-01 -1.649401068687438965e+00 -8.799973726272583008e-01 1.543168663978576660e+00 1.276421666145324707e+00 -9.073938131332397461e-01
