-9.135773032903671265e-02 -2.908911406993865967e-01 -5.283807963132858276e-02 2.483240962028503418e-01 -1.863447017967700958e-02 1.334514915943145752e-01 -1.738339662551879883e-02 -1.211331710219383240e-01 -1.830196082592010498e-01 -6.351785268634557724e-04 -5.003884434700012207e-03 2.673486471176147461e-01 3.735679760575294495e-02 1.874058544635772705e-01 2.356931865215301514e-01 1.902829855680465698e-02 3.460156619548797607e-01 -6.557781994342803955e-02 3.519997745752334595e-02 2.728574573993682861e-01 -2.700189352035522461e-01 6.648144125938415527e-02 2.762447297573089600e-01 8.364634960889816284e-02 1.098064258694648743e-01 -1.444693654775619507e-02 -1.500499695539474487e-01 3.128311634063720703e-01 -7.915242761373519897e-02 -1.322556734085083008e-01 -2.458218932151794434e-01 9.124317020177841187e-02 -1.992224752902984619e-01 -8.877043426036834717e-02 -1.253833621740341187e-01 -7.269088923931121826e-02 -3.465314954519271851e-02 -2.032763510942459106e-01 8.827411383390426636e-02 -2.697039544582366943e-01 -1.638458967208862305e-01 7.100299745798110962e-02 -1.702304929494857788e-02 1.033969894051551819e-01 4.062233027070760727e-03 2.623938918113708496e-01 5.778303835541009903e-03 7.746375631541013718e-03 -1.167000457644462585e-02 2.012839727103710175e-02 -4.462613910436630249e-02 2.038236856460571289e-01 -1.075925230979919434e-01 -1.914286762475967407e-01 7.959709316492080688e-02 1.571241952478885651e-02 4.162460267543792725e-01 -8.782882988452911377e-02 8.401079475879669189e-02 9.313673526048660278e-02 -9.670322388410568237e-02 -2.417833656072616577e-01 1.215463355183601379e-01 -4.677316173911094666e-02 8.191600441932678223e-02 -2.460672110319137573e-01 6.597088184207677841e-03 -1.454601138830184937e-01 1.491584479808807373e-01 -2.817540764808654785e-01 4.686005786061286926e-02 -5.409924313426017761e-02 1.932917684316635132e-01 7.077103853225708008e-02 3.591600432991981506e-02 -2.577757835388183594e-01 -1.187039837241172791e-01 5.434937030076980591e-02 -1.742046512663364410e-02 5.258663743734359741e-02
1.027697548270225525e-01 -1.044752355664968491e-02 3.258683979511260986e-01 -7.022352423518896103e-03 2.346344850957393646e-02 3.067793846130371094e-01 2.101632207632064819e-01 1.300605386495590210e-01 3.124599810689687729e-03 -1.328221112489700317e-01 1.717048734426498413e-01 2.417211681604385376e-01 -4.018769785761833191e-02 1.157553214579820633e-02 1.198501437902450562e-01 -3.398344516754150391e-01 -3.659591376781463623e-01 3.119645118713378906e-01 -3.669374883174896240e-01 -3.418057858943939209e-01 -5.718291178345680237e-02 9.156335890293121338e-02 -6.846535950899124146e-02 2.315675914287567139e-01 2.100728899240493774e-01 -1.145693380385637283e-02 1.359238773584365845e-01 -7.139041274785995483e-02 2.729701437056064606e-02 -1.414297334849834442e-02 -1.826090365648269653e-01 2.783367410302162170e-02 -1.460221707820892334e-01 1.370817571878433228e-01 -1.988559365272521973e-01 1.037474498152732849e-01 1.941241025924682617e-01 -2.536627352237701416e-01 -1.222454980015754700e-01 3.838335871696472168e-01 1.470495909452438354e-01 -1.155288517475128174e-01 1.234216499142348766e-03 -2.451896667480468750e-01 2.513654530048370361e-01 2.877257997170090675e-03 2.401863336563110352e-01 2.810014486312866211e-01 -4.781887680292129517e-02 -1.619551926851272583e-01 3.547582775354385376e-02 -5.216529220342636108e-02 9.704440087080001831e-02 8.182245492935180664e-02 -3.435007631778717041e-01 -5.723270401358604431e-02 1.346535980701446533e-01 2.892935276031494141e-01 -1.902346163988113403e-01 1.429840177297592163e-01 1.498366445302963257e-01 3.727763891220092773e-02 1.647014766931533813e-01 8.627172559499740601e-03 6.984108686447143555e-02 -1.461473405361175537e-01 1.320855766534805298e-01 -3.557962179183959961e-02 -1.226703822612762451e-01 2.579636275768280029e-01 -1.706092357635498047e-01 2.650612890720367432e-01 4.701310023665428162e-02 -2.491302192211151123e-01 1.270665377378463745e-01 1.311649680137634277e-01 -1.884329468011856079e-01 7.280171662569046021e-02 -2.266042381525039673e-01 1.646457612514495850e-01
2.137281447649002075e-01 2.143301814794540405e-01 -2.198527455329895020e-01 -1.172475814819335938e-01 -3.331893682479858398e-01 2.563411593437194824e-01 1.232764050364494324e-01 -4.153447598218917847e-02 -1.444690525531768799e-01 -3.564762696623802185e-02 5.262672901153564453e-02 7.592059671878814697e-02 1.264656335115432739e-01 -3.130954504013061523e-02 -1.741509735584259033e-01 1.326014399528503418e-01 -4.280878975987434387e-02 3.134223818778991699e-02 1.220115721225738525e-01 -1.275347173213958740e-01 -3.203147649765014648e-01 -4.030226916074752808e-02 9.352382272481918335e-02 -3.490557968616485596e-01 2.639184892177581787e-01 -2.078894376754760742e-01 -2.166828513145446777e-02 -1.081491038203239441e-01 9.978146106004714966e-02 -2.653900682926177979e-01 -1.605188697576522827e-01 1.007083430886268616e-01 4.661110043525695801e-02 1.669242978096008301e-01 2.025315761566162109e-01 2.354818433523178101e-01 1.108706295490264893e-01 2.542953193187713623e-01 -5.947690084576606750e-02 2.177738212049007416e-02 6.162714678794145584e-03 4.251079168170690536e-03 1.581356972455978394e-01 2.222457081079483032e-01 -6.672212854027748108e-03 -3.890522569417953491e-02 1.746492236852645874e-01 4.741390421986579895e-02 3.849057108163833618e-02 -1.785709112882614136e-01 9.838813543319702148e-02 -1.116646379232406616e-01 2.734288573265075684e-01 7.391770929098129272e-02 6.374403089284896851e-02 2.091549336910247803e-01 -1.070989668369293213e-01 -2.783289551734924316e-01 -3.224224224686622620e-02 2.254336923360824585e-01 -3.296715617179870605e-01 1.538112759590148926e-01 -1.868984848260879517e-02 2.682533562183380127e-01 -3.865733742713928223e-02 -2.129956483840942383e-01 6.202375516295433044e-02 2.417368814349174500e-02 -9.195127524435520172e-03 -2.019491791725158691e-02 -1.708013713359832764e-01 -4.901582747697830200e-02 1.579037308692932129e-02 4.768078215420246124e-03 -2.972750924527645111e-02 -1.790546476840972900e-01 2.181286662817001343e-01 2.980340421199798584e-01 -1.831092089414596558e-01 -8.441203832626342773e-02
4.547134414315223694e-02 -1.174234822392463684e-01 -5.508383363485336304e-02 -2.003203779458999634e-01 -3.193731978535652161e-02 2.445554584264755249e-01 1.527611464262008667e-01 -7.403240073472261429e-03 -1.467254310846328735e-01 -7.205594331026077271e-02 -2.623443864285945892e-02 -1.536560058593750000e-01 -9.635061025619506836e-02 -1.290775835514068604e-01 -1.720991134643554688e-01 -3.795562386512756348e-01 -3.798938095569610596e-01 -8.157505095005035400e-02 2.053341865539550781e-01 -3.149646818637847900e-01 -2.681391537189483643e-01 -3.002753257751464844e-01 -1.231240928173065186e-01 1.545894891023635864e-01 1.755450963973999023e-01 1.643528342247009277e-01 -1.335656344890594482e-01 4.951451346278190613e-02 7.095677405595779419e-02 -8.994525671005249023e-02 -9.125146269798278809e-02 3.291127383708953857e-01 -1.247757673263549805e-02 1.220503300428390503e-01 1.803179085254669189e-01 -9.577611833810806274e-02 -2.183205187320709229e-01 -1.378913074731826782e-01 3.834724128246307373e-01 1.367417126893997192e-01 9.698437899351119995e-02 -5.238609015941619873e-02 5.289005115628242493e-02 -8.043489605188369751e-02 1.031889989972114563e-01 2.893021702766418457e-01 -8.178495615720748901e-02 1.306268721818923950e-01 9.291652590036392212e-02 4.220743104815483093e-02 1.539568305015563965e-01 7.957572489976882935e-02 1.487135440111160278e-01 3.462785184383392334e-01 1.211024373769760132e-01 2.723370194435119629e-01 -2.210441529750823975e-01 -3.331273794174194336e-01 9.092545136809349060e-03 -3.756288886070251465e-01 6.354538351297378540e-02 3.217261135578155518e-01 1.480427235364913940e-01 -5.504839867353439331e-02 1.709517091512680054e-01 -1.646731942892074585e-01 1.330115199089050293e-01 -3.628591820597648621e-02 9.926033765077590942e-02 2.562962770462036133e-01 1.222082078456878662e-01 1.684487164020538330e-01 5.631484091281890869e-02 -1.361052393913269043e-01 -2.361531555652618408e-01 8.144238591194152832e-02 -1.362114995718002319e-01 -1.231300607323646545e-01 1.790019720792770386e-01 -1.848522275686264038e-01
1.755000203847885132e-01 -1.816846728324890137e-01 -2.579402625560760498e-01 -2.087285518646240234e-01 7.414235151372849941e-04 -1.805668175220489502e-01 3.222587704658508301e-01 1.484496742486953735e-01 1.757992506027221680e-01 3.347007036209106445e-01 -1.847656071186065674e-01 -7.913605868816375732e-02 7.175268605351448059e-03 -6.787987798452377319e-02 3.329204628244042397e-03 1.984019391238689423e-02 -1.845130920410156250e-01 1.197246462106704712e-01 5.582866817712783813e-02 2.455271631479263306e-01 -7.661730796098709106e-02 -3.241726458072662354e-01 -1.609999984502792358e-01 1.215668115764856339e-02 -1.534460391849279404e-02 1.679458767175674438e-01 -1.361026018857955933e-01 1.163067519664764404e-01 2.684780061244964600e-01 -2.403274178504943848e-01 -9.184545278549194336e-02 -1.919133216142654419e-01 -7.690079510211944580e-02 -1.053766012191772461e-01 -3.016035556793212891e-01 2.200498282909393311e-01 1.205822825431823730e-01 -1.641317009925842285e-01 2.223494052886962891e-01 -3.420690819621086121e-02 1.880519837141036987e-01 1.909992545843124390e-01 7.582981884479522705e-02 3.675028085708618164e-01 1.792228668928146362e-01 -1.460775434970855713e-01 2.533315718173980713e-01 -7.582060247659683228e-02 1.502815634012222290e-01 -1.025563552975654602e-01 1.598116606473922729e-01 1.526541709899902344e-01 -1.362922191619873047e-01 -4.393721744418144226e-02 1.355262566357851028e-02 1.985731422901153564e-01 1.199116259813308716e-01 1.315594464540481567e-01 -1.491078138351440430e-01 1.777256280183792114e-01 -3.052841685712337494e-02 2.533887326717376709e-01 1.155478414148092270e-02 1.904230564832687378e-02 1.266663639398757368e-05 -2.198575884103775024e-01 7.842566817998886108e-02 -1.605643779039382935e-01 -3.470686450600624084e-02 2.610863186419010162e-02 1.538787037134170532e-01 -1.518018245697021484e-01 -1.025029644370079041e-01 -2.574903964996337891e-01 -1.099156737327575684e-01 2.587939985096454620e-02 -1.897949129343032837e-01 2.012257874011993408e-01 1.056959256529808044e-01 -2.608606219291687012e-01
-1.321431547403335571e-01 -4.530099779367446899e-02 2.344263046979904175e-01 3.763992339372634888e-02 2.652114331722259521e-01 1.760493516921997070e-01 -2.517091333866119385e-01 3.974767923355102539e-01 -6.233586370944976807e-02 -2.583253681659698486e-01 2.102017253637313843e-01 2.732966654002666473e-02 -1.896504908800125122e-01 1.495447903871536255e-01 -1.442340463399887085e-01 9.024847298860549927e-02 3.276548087596893311e-01 8.344517648220062256e-02 1.575399041175842285e-01 2.622085213661193848e-01 2.756906151771545410e-01 -3.103414475917816162e-01 1.387513875961303711e-01 1.148459315299987793e-01 8.668265491724014282e-02 -1.918120309710502625e-02 1.006269529461860657e-01 -5.183619260787963867e-02 9.943329542875289917e-02 5.796643719077110291e-02 1.109783723950386047e-01 -2.162996083498001099e-01 1.849632412195205688e-01 -3.026060461997985840e-01 2.709137499332427979e-01 -1.016637757420539856e-01 -3.189067542552947998e-01 -1.987636834383010864e-01 9.439288824796676636e-02 4.285405203700065613e-02 1.754848510026931763e-01 1.966618001461029053e-01 1.448364704847335815e-01 1.127095296978950500e-01 1.867786943912506104e-01 4.250755067914724350e-03 -1.081216633319854736e-01 -1.120426803827285767e-01 -2.024164497852325439e-01 2.717365622520446777e-01 -1.143697351217269897e-01 -8.484218269586563110e-02 -2.472182214260101318e-01 -8.516795933246612549e-02 -1.703697890043258667e-01 2.902288138866424561e-01 -2.651825547218322754e-02 4.530453681945800781e-02 8.743620663881301880e-02 1.428916454315185547e-01 -1.174507662653923035e-01 2.864279747009277344e-01 -9.796790033578872681e-02 -3.525252267718315125e-02 1.150839254260063171e-01 9.706553816795349121e-02 -1.858940697275102139e-03 1.579826176166534424e-01 -3.426786512136459351e-02 -1.560344099998474121e-01 1.366914808750152588e-01 -5.881108343601226807e-02 -7.407739013433456421e-02 -6.047295778989791870e-02 -6.789475679397583008e-02 1.309531182050704956e-01 -1.178710758686065674e-01 6.052266433835029602e-02 1.379276365041732788e-01 2.126995101571083069e-02
-2.419606000185012817e-01 -3.776882588863372803e-02 -7.801017165184020996e-02 5.477973818778991699e-02 1.171364709734916687e-01 -1.546044796705245972e-01 -1.399592757225036621e-01 1.363298296928405762e-01 6.132593844085931778e-04 2.572649419307708740e-01 -1.196174100041389465e-01 -1.596263498067855835e-01 1.538339257240295410e-01 -2.953859567642211914e-01 -8.673741668462753296e-02 -8.301616460084915161e-02 3.529275581240653992e-02 -1.582372747361660004e-02 9.392773360013961792e-02 -1.418259143829345703e-01 -1.672357618808746338e-01 8.333623409271240234e-02 -2.518786191940307617e-01 2.354686893522739410e-02 1.100743263959884644e-01 3.936320170760154724e-02 1.112158372998237610e-01 3.541005030274391174e-02 1.169851720333099365e-01 3.620549738407135010e-01 2.133733034133911133e-01 -3.325122641399502754e-03 2.259332984685897827e-01 5.536741390824317932e-02 -5.279505252838134766e-02 -1.701245009899139404e-01 -6.352096050977706909e-02 3.895437419414520264e-01 3.870673775672912598e-01 -7.736125588417053223e-02 1.303016543388366699e-01 -2.156577073037624359e-02 7.816842943429946899e-02 8.183673024177551270e-02 -1.424475163221359253e-01 -1.688132993876934052e-02 2.752325534820556641e-01 -1.651352345943450928e-01 4.443351924419403076e-02 1.569303125143051147e-01 3.386874217540025711e-03 -4.268214851617813110e-02 1.675086319446563721e-01 1.612380146980285645e-01 2.801976799964904785e-01 1.926027089357376099e-01 -1.978550702333450317e-01 4.985092952847480774e-02 -1.374689191579818726e-01 -2.544694766402244568e-02 4.899146006209775805e-06 1.416135728359222412e-01 -1.057555973529815674e-01 5.156045556068420410e-01 -7.404016287182457745e-06 -2.624135911464691162e-01 -3.213690221309661865e-02 5.288497358560562134e-02 -7.501073647290468216e-03 1.217987835407257080e-01 2.167357206344604492e-01 -1.400050371885299683e-01 3.121727705001831055e-01 -9.596858918666839600e-02 -1.422991752624511719e-01 5.309946835041046143e-03 -2.807455658912658691e-01 -1.853543892502784729e-02 2.223866134881973267e-01 -1.891183853149414062e-01
1.072624996304512024e-01 -1.851457804441452026e-01 3.358866274356842041e-01 9.290767461061477661e-02 3.317834734916687012e-01 -7.972684502601623535e-02 3.083915710449218750e-01 2.182944416999816895e-01 1.402288326062262058e-04 -2.973402440547943115e-01 -1.112897321581840515e-01 -2.465284168720245361e-01 9.042897820472717285e-02 -8.741667494177818298e-03 -1.913099139928817749e-01 7.501620333641767502e-03 2.142821848392486572e-01 8.413806557655334473e-02 1.723901223158463836e-04 1.416058242321014404e-01 -1.323078274726867676e-01 9.789375588297843933e-03 2.349873185157775879e-01 -2.577093197032809258e-03 -1.991000473499298096e-01 -1.244421005249023438e-01 1.887237280607223511e-01 -4.795263707637786865e-02 1.057288423180580139e-01 1.118046045303344727e-01 1.353945583105087280e-01 -2.853765189647674561e-01 8.778809756040573120e-02 1.709256470203399658e-01 -1.624645292758941650e-02 -8.306348696351051331e-03 1.033356115221977234e-01 -2.226524502038955688e-01 2.390446327626705170e-02 2.059388011693954468e-01 -1.101894862949848175e-02 1.573100686073303223e-02 -4.440285731106996536e-03 1.936707794666290283e-01 1.111076697707176208e-01 -1.795041753211989999e-04 1.406255513429641724e-01 4.345352295786142349e-03 -1.292410492897033691e-02 8.115845173597335815e-02 -1.527048200368881226e-01 1.902667433023452759e-01 1.716350167989730835e-01 1.750899702310562134e-01 1.300446540117263794e-01 -1.260514557361602783e-01 4.873377829790115356e-02 1.869610548019409180e-01 -1.356648057699203491e-01 -4.822492599487304688e-02 -1.630800813436508179e-01 1.481253057718276978e-01 -4.816775396466255188e-02 1.756020938046276569e-03 2.348959969822317362e-05 7.286206632852554321e-02 2.465713918209075928e-01 -1.714158207178115845e-01 -9.984520077705383301e-02 -3.258686065673828125e-01 2.487724721431732178e-01 6.382396072149276733e-02 2.313168197870254517e-01 1.352716535329818726e-01 1.099615991115570068e-01 1.886845566332340240e-02 -5.697295069694519043e-02 1.370738353580236435e-02 4.518203064799308777e-02 1.946405917406082153e-01
-3.905747458338737488e-02 -1.193803995847702026e-01 -3.896493315696716309e-01 2.007637470960617065e-01 1.190715730190277100e-01 -3.700720965862274170e-01 -3.529362082481384277e-01 -1.755335032939910889e-01 1.596911847591400146e-01 8.301788941025733948e-03 -2.406591325998306274e-01 -9.739531576633453369e-02 -1.554278880357742310e-01 -1.545846164226531982e-01 2.118913531303405762e-01 7.067784667015075684e-02 -3.008195459842681885e-01 1.084704622626304626e-01 4.697793046943843365e-04 3.614965826272964478e-02 9.855444729328155518e-02 -7.669204473495483398e-02 4.690727591514587402e-02 8.409048430621623993e-03 -8.245234191417694092e-02 7.194268703460693359e-02 -9.978833794593811035e-02 8.269098907476291060e-05 7.401305437088012695e-02 2.826261222362518311e-01 3.036693902686238289e-03 1.788967549800872803e-01 -1.575124561786651611e-01 -1.571679711341857910e-01 3.359672427177429199e-01 -1.524095982313156128e-01 -2.101204358041286469e-02 -3.787421286106109619e-01 6.451904773712158203e-03 2.579454183578491211e-01 -1.899917572736740112e-01 -1.090510413050651550e-01 -4.255541600286960602e-03 2.384716421365737915e-01 2.516355216503143311e-01 7.620229851454496384e-03 1.480358988046646118e-01 -2.625342691317200661e-03 -1.789156049489974976e-01 -4.023637250065803528e-02 -1.790634244680404663e-01 -2.660873830318450928e-01 -1.325438451021909714e-02 -3.271079808473587036e-02 7.468443363904953003e-02 1.166271790862083435e-01 1.786617934703826904e-01 2.346571534872055054e-01 9.412977844476699829e-03 -1.438432037830352783e-01 1.118234246969223022e-01 5.583142489194869995e-02 1.305432915687561035e-01 -1.032079383730888367e-01 7.181620597839355469e-02 8.015696704387664795e-02 1.554416026920080185e-03 2.251923978328704834e-01 -1.391727626323699951e-01 1.070442516356706619e-02 -3.259858861565589905e-02 1.223972961306571960e-01 2.618002891540527344e-01 1.500959992408752441e-01 -2.293939590454101562e-01 -1.475248038768768311e-01 1.489942073822021484e-01 1.581753343343734741e-01 7.569556683301925659e-02 1.252109417691826820e-03
8.899623155593872070e-02 7.243959605693817139e-02 1.344353258609771729e-01 1.387967020273208618e-01 -4.228009842336177826e-03 2.479821890592575073e-01 -2.397092804312705994e-02 -2.435136735439300537e-01 1.439048796892166138e-01 3.311278223991394043e-01 1.047083288431167603e-01 -1.342396587133407593e-01 -1.752517968416213989e-01 8.641641587018966675e-02 -7.574321329593658447e-02 -1.661235094070434570e-01 -3.386029303073883057e-01 8.116275072097778320e-02 -2.018356025218963623e-01 -3.314441442489624023e-01 2.104787388816475868e-03 7.966755889356136322e-03 1.806105487048625946e-02 2.011688351631164551e-01 1.519483029842376709e-01 4.626025259494781494e-02 4.587267711758613586e-02 3.998892307281494141e-01 -1.003807876259088516e-03 -1.435608603060245514e-02 -1.838499493896961212e-02 1.466209292411804199e-01 2.385444790124893188e-01 -1.706229299306869507e-01 -1.254822164773941040e-01 7.192683219909667969e-02 3.050948679447174072e-01 1.400840133428573608e-01 -2.698346376419067383e-01 -1.341747641563415527e-01 1.488432884216308594e-01 8.131981641054153442e-02 -1.615919321775436401e-01 2.768374383449554443e-01 -2.863509654998779297e-01 1.912195533514022827e-01 8.193349838256835938e-02 -4.078868776559829712e-02 -5.081561580300331116e-02 2.391042262315750122e-01 1.467310488224029541e-01 -5.262461490929126740e-03 1.693070083856582642e-01 2.562435269355773926e-01 -9.129860252141952515e-02 -2.511111833155155182e-02 2.202826440334320068e-01 1.374153643846511841e-01 -1.020611301064491272e-01 2.182306349277496338e-02 -2.241610735654830933e-02 -3.642445802688598633e-02 -1.077607125043869019e-01 -3.229591250419616699e-01 5.445516944746486843e-05 -1.832717061042785645e-01 -3.305974900722503662e-01 1.782009750604629517e-01 1.118918880820274353e-01 1.518361270427703857e-01 -2.202215492725372314e-01 -2.557998895645141602e-01 -9.056612849235534668e-02 -1.445128470659255981e-01 6.093356013298034668e-02 4.688166081905364990e-02 1.599719226360321045e-01 -1.684046722948551178e-02 -9.527991525828838348e-03 2.310311347246170044e-01
-5.176575854420661926e-02 3.386051654815673828e-01 1.399675011634826660e-01 5.568052828311920166e-02 -1.277993619441986084e-01 2.509071528911590576e-01 1.149912402033805847e-01 -1.155664697289466858e-01 3.826124221086502075e-02 5.248991400003433228e-02 3.962354362010955811e-01 -1.174069568514823914e-01 -2.051250636577606201e-01 8.862605690956115723e-02 3.090528845787048340e-01 -1.509981602430343628e-01 -1.182608976960182190e-01 6.077029276639223099e-03 8.711631596088409424e-02 -7.936342805624008179e-02 -1.325547695159912109e-01 2.089623510837554932e-01 -4.158481955528259277e-02 1.271378248929977417e-01 7.402661442756652832e-02 -9.997627884149551392e-02 -1.857875585556030273e-01 5.103684030473232269e-03 5.166136473417282104e-02 1.396359950304031372e-01 -2.737006917595863342e-02 -2.768323384225368500e-02 -5.313085392117500305e-02 8.841647766530513763e-03 -4.485186189413070679e-02 -9.579189121723175049e-02 2.158616036176681519e-01 1.020713299512863159e-01 -1.859578639268875122e-01 -9.195633977651596069e-02 5.684731528162956238e-03 -2.598715946078300476e-03 -2.116558998823165894e-01 -1.943205744028091431e-01 -6.222009286284446716e-02 -2.832233011722564697e-01 -7.299382239580154419e-02 3.714760020375251770e-02 1.671824008226394653e-01 -4.186059534549713135e-02 -1.349324882030487061e-01 -2.210462838411331177e-01 -2.761815786361694336e-01 5.003673210740089417e-02 -3.132650256156921387e-01 9.727635979652404785e-02 6.739553064107894897e-02 -5.820631608366966248e-02 1.099951043725013733e-01 -1.529192477464675903e-01 -7.755919359624385834e-04 -1.811216399073600769e-02 1.393450796604156494e-01 -9.649293497204780579e-03 -2.369697839021682739e-01 -4.625141248106956482e-02 -1.985113508999347687e-02 -2.850280702114105225e-01 -3.140906095504760742e-01 3.457794487476348877e-01 -6.975167989730834961e-02 -1.936264522373676300e-02 1.100614592432975769e-01 -4.164892435073852539e-02 1.605980247259140015e-01 -1.089274436235427856e-01 -2.573778033256530762e-01 -2.524165809154510498e-01 -1.598529517650604248e-02 -1.527772694826126099e-01
2.214372009038925171e-01 7.630554586648941040e-02 -1.203069835901260376e-01 -1.549013108015060425e-01 2.560850977897644043e-01 1.351002603769302368e-01 -1.544839590787887573e-01 2.672231197357177734e-02 4.667980596423149109e-02 1.432017832994461060e-01 5.700756236910820007e-02 -2.122633904218673706e-01 2.751384302973747253e-02 1.643938869237899780e-01 1.023887023329734802e-01 -1.497936099767684937e-01 8.630602620542049408e-03 4.490710794925689697e-02 1.520687341690063477e-01 2.920956015586853027e-01 -1.050317734479904175e-01 2.295399457216262817e-02 2.939791381359100342e-01 -3.439440131187438965e-01 1.583603620529174805e-01 -2.206746488809585571e-02 -2.078265994787216187e-01 -7.547324895858764648e-02 2.951894327998161316e-02 -8.288639783859252930e-02 -4.661573469638824463e-02 1.086454242467880249e-01 2.144656181335449219e-01 -2.467657327651977539e-01 -9.126654826104640961e-03 -1.649533212184906006e-01 -1.003845185041427612e-01 -1.675533950328826904e-01 1.915048658847808838e-01 3.753787279129028320e-02 1.000963002443313599e-01 -1.847330853343009949e-02 -1.143730208277702332e-01 2.315327227115631104e-01 -2.479279786348342896e-01 -1.330432593822479248e-01 -1.390802264213562012e-01 -1.885630488395690918e-01 -4.963080585002899170e-02 -1.458747833967208862e-01 5.278171971440315247e-02 -3.671008050441741943e-01 7.845859229564666748e-02 -9.074743837118148804e-02 1.913337558507919312e-01 -1.657289117574691772e-01 7.674389332532882690e-02 -2.872273623943328857e-01 -1.609982997179031372e-01 -2.230542898178100586e-02 -1.250613778829574585e-01 -1.039937362074851990e-01 -2.650251686573028564e-01 -3.694587573409080505e-02 7.651128619909286499e-02 3.608468472957611084e-01 2.549044489860534668e-01 -1.429623961448669434e-01 -4.461039975285530090e-02 -9.757731854915618896e-02 -2.781391441822052002e-01 1.721461564302444458e-01 -3.399620205163955688e-02 1.164987906813621521e-01 -2.533547878265380859e-01 1.402077227830886841e-01 3.689366206526756287e-02 4.560830071568489075e-02 6.156355515122413635e-02 1.767727881669998169e-01
1.173045486211776733e-01 3.610584512352943420e-02 -1.407952904701232910e-01 -1.407801955938339233e-01 -2.032497525215148926e-01 2.768655121326446533e-01 8.680482394993305206e-03 -8.888517868399503641e-07 2.327674925327301025e-01 2.612746059894561768e-01 1.915098913013935089e-02 -7.898983359336853027e-02 2.125755883753299713e-02 6.135376915335655212e-02 2.280127555131912231e-01 3.311226144433021545e-02 -7.985612750053405762e-02 -2.790082362480461597e-06 6.486437050625681877e-04 2.598580121994018555e-01 2.077134698629379272e-02 -4.276844114065170288e-02 -6.763820350170135498e-02 3.353094682097434998e-02 9.210039861500263214e-03 2.773600630462169647e-02 1.285718977451324463e-01 -1.728194802999496460e-01 -1.291712373495101929e-01 7.077800482511520386e-02 1.536893397569656372e-01 2.096375375986099243e-01 -6.349468231201171875e-02 1.226122900843620300e-01 1.549892723560333252e-01 -3.085247874259948730e-01 1.254218667745590210e-01 3.685113787651062012e-01 -6.736315786838531494e-02 -3.502893447875976562e-02 1.964520364999771118e-01 -2.409063279628753662e-01 -7.908975332975387573e-02 2.226986438035964966e-01 -1.162437498569488525e-01 1.872999519109725952e-01 -1.126438230276107788e-01 -7.211194932460784912e-02 2.323744595050811768e-01 1.821055859327316284e-01 -1.333697885274887085e-01 3.597440570592880249e-02 4.528319928795099258e-03 9.835318475961685181e-02 -1.963830441236495972e-01 -6.774600129574537277e-03 2.582487761974334717e-01 -1.953681707382202148e-01 2.999946475028991699e-01 -1.009095609188079834e-01 -6.179589778184890747e-02 7.170448452234268188e-02 -1.107760518789291382e-02 -7.029698044061660767e-02 3.216508775949478149e-03 1.541413068771362305e-01 -5.597144365310668945e-02 1.767174005508422852e-01 -2.476229220628738403e-01 1.139418035745620728e-02 8.295714855194091797e-02 -1.848280135163804516e-06 2.507764101028442383e-01 1.909336745738983154e-01 -1.014530882239341736e-01 -2.125132232904434204e-01 -4.753189906477928162e-02 2.595144696533679962e-02 -6.131184101104736328e-02 -3.222623467445373535e-02
2.388420142233371735e-02 -1.825947314500808716e-01 4.637374356389045715e-02 5.894330516457557678e-02 4.159323126077651978e-02 -1.649541854858398438e-01 -1.630955189466476440e-01 -2.013350278139114380e-02 -2.304041385650634766e-01 -1.961221732199192047e-02 -1.980481296777725220e-02 -3.975255787372589111e-02 1.148003339767456055e-01 -1.355025619268417358e-01 -1.764116883277893066e-01 1.207713261246681213e-01 -3.260017931461334229e-01 -1.662196367979049683e-01 -1.667328365147113800e-02 -6.767855584621429443e-02 -6.722237914800643921e-02 7.540323585271835327e-02 -6.612198054790496826e-02 6.236963905394077301e-03 -1.201890707015991211e-01 -8.024919778108596802e-02 1.124474331736564636e-01 -9.930867701768875122e-02 2.061401121318340302e-02 1.005241200327873230e-01 1.779850125312805176e-01 -1.092201247811317444e-01 -1.172528117895126343e-01 4.483664780855178833e-02 1.304380502551794052e-02 1.941416859626770020e-01 4.085996374487876892e-02 7.166892755776643753e-03 -8.222993463277816772e-02 1.772485971450805664e-01 -2.456380985677242279e-03 -9.108152985572814941e-02 1.790504455566406250e-01 2.148898094892501831e-01 -1.648143529891967773e-01 1.047702655196189880e-01 1.040430665016174316e-01 -1.028708443045616150e-01 1.176088582724332809e-02 5.608502030372619629e-02 1.932881623506546021e-01 2.790914177894592285e-01 9.452420473098754883e-02 7.070562243461608887e-02 5.507472530007362366e-02 6.347085673041874543e-06 -1.159854512661695480e-02 -3.626091480255126953e-01 1.822472363710403442e-01 -2.515234351158142090e-01 -2.465714812278747559e-01 8.892832696437835693e-02 -1.288354694843292236e-01 -7.553137838840484619e-02 -9.184708446264266968e-02 1.345963031053543091e-01 2.838657796382904053e-01 2.678244560956954956e-02 2.251235842704772949e-01 -3.798243701457977295e-01 1.026473417878150940e-01 8.112161606550216675e-02 9.660992771387100220e-03 2.411198057234287262e-02 1.803638339042663574e-01 9.812701493501663208e-02 -1.479163318872451782e-01 -8.945000916719436646e-02 5.143743939697742462e-03 -1.274110823869705200e-01
3.379397094249725342e-01 1.253456771373748779e-01 -3.304076194763183594e-02 2.646275758743286133e-01 3.521522739902138710e-03 -9.849020093679428101e-02 6.738856434822082520e-02 -1.226260066032409668e-01 1.186600849032402039e-01 -2.995246648788452148e-01 3.022381279151886702e-04 1.018118262290954590e-01 2.290955744683742523e-03 -1.828815788030624390e-01 2.002667821943759918e-02 -2.092905491590499878e-01 -2.739376388490200043e-02 3.993707895278930664e-02 -1.587540656328201294e-01 -1.806753426790237427e-01 -7.364974170923233032e-02 3.142457902431488037e-01 1.169560849666595459e-01 3.922664374113082886e-02 -1.605713963508605957e-01 2.918065898120403290e-02 -1.765979975461959839e-01 3.625184297561645508e-01 1.012179404497146606e-01 -2.111324220895767212e-01 -1.115242317318916321e-01 -1.182149052619934082e-01 2.823080420494079590e-01 -2.217861711978912354e-01 -2.716601788997650146e-01 3.779732584953308105e-01 6.289622187614440918e-02 -6.181955710053443909e-02 -1.508824378252029419e-01 -1.029816716909408569e-01 1.334459185600280762e-01 -1.062605306506156921e-01 2.930499017238616943e-01 -7.230300456285476685e-02 2.974736988544464111e-01 1.088689193129539490e-01 -1.297934159083524719e-05 -2.495721429586410522e-01 1.121688336133956909e-01 1.140340939164161682e-01 -1.142006088048219681e-02 -1.320546834904234856e-05 -7.870411872863769531e-02 -3.263673186302185059e-01 -5.339395720511674881e-03 1.002438440918922424e-01 7.832105620764195919e-04 -1.446636617183685303e-01 -3.524800240993499756e-01 8.367127925157546997e-02 -9.297593683004379272e-02 -1.402974575757980347e-01 -7.041094452142715454e-02 -2.842955887317657471e-01 8.743816614151000977e-02 4.139949753880500793e-02 -1.297118961811065674e-01 4.856887459754943848e-02 1.373683363199234009e-01 -2.135700732469558716e-02 -9.863049536943435669e-02 1.437524557113647461e-01 -5.513973906636238098e-02 1.716491132974624634e-01 -2.969286218285560608e-02 2.772473692893981934e-01 1.417735964059829712e-01 -1.288862973451614380e-01 4.415432214736938477e-01 -2.619897425174713135e-01
1.234935130923986435e-03 -1.813052743673324585e-01 2.449922412633895874e-01 2.596134543418884277e-01 -2.277431041002273560e-01 -4.718314856290817261e-02 -7.140544056892395020e-02 2.836160063743591309e-01 -1.042496934533119202e-01 3.258186578750610352e-01 -1.667381376028060913e-01 3.050637803971767426e-02 5.006054416298866272e-02 -7.550568878650665283e-02 -3.859621286392211914e-02 -8.894610218703746796e-03 -1.120361387729644775e-01 2.150913178920745850e-01 2.369520254433155060e-02 1.391105540096759796e-02 -1.879414767026901245e-01 -1.326449364423751831e-01 -2.834023237228393555e-01 7.229552417993545532e-02 -1.372480094432830811e-01 -4.813006671611219645e-05 -9.719611704349517822e-02 -3.127849102020263672e-01 2.179159224033355713e-01 -9.897769987583160400e-02 3.552216663956642151e-02 3.290741145610809326e-02 -3.166848719120025635e-01 -1.426430046558380127e-01 1.279657036066055298e-01 1.976629197597503662e-01 4.618563130497932434e-02 -1.889275014400482178e-01 -5.792602524161338806e-02 -2.000015974044799805e-01 6.408622860908508301e-02 3.807284310460090637e-02 2.145452797412872314e-01 2.092142999172210693e-01 -4.085464775562286377e-02 7.109201699495315552e-02 -2.666151523590087891e-02 -2.820707261562347412e-01 -1.788626611232757568e-01 -3.628318011760711670e-02 3.027882277965545654e-01 2.756242454051971436e-02 9.030815213918685913e-02 -1.278183907270431519e-01 2.599194943904876709e-01 -1.763921082019805908e-01 -1.235469728708267212e-01 2.561957240104675293e-01 1.394556909799575806e-01 2.465811790898442268e-03 1.343844980001449585e-01 1.860274747014045715e-02 -1.197266876697540283e-01 1.827819049358367920e-01 1.421551496605388820e-05 -1.044008657336235046e-01 -5.886820703744888306e-02 4.043050855398178101e-02 5.885253474116325378e-02 -2.583126910030841827e-02 3.737999498844146729e-01 -1.948658674955368042e-01 -1.578169763088226318e-01 2.790292501449584961e-01 -1.056999489665031433e-01 -2.589915394783020020e-01 1.217393726110458374e-01 -6.177159771323204041e-02 -1.587661681696772575e-03 9.593097120523452759e-02
2.044597566127777100e-01 1.409578323364257812e-01 5.479041859507560730e-02 1.866262853145599365e-01 1.952866017818450928e-01 -1.344199776649475098e-01 1.460442543029785156e-01 5.573742836713790894e-02 -1.092611551284790039e-01 -2.472284995019435883e-02 -2.090014070272445679e-01 5.368127858673688024e-06 1.736916601657867432e-01 -1.036273222416639328e-02 -2.848750725388526917e-02 2.658326178789138794e-02 -1.456464231014251709e-01 4.004205018281936646e-02 2.059276700019836426e-01 1.359108537435531616e-01 2.292233258485794067e-01 1.083891466259956360e-01 2.526236139237880707e-02 1.138272136449813843e-01 9.175879880785942078e-03 1.228172034025192261e-01 1.291127526201307774e-03 2.879094481468200684e-01 -7.795477751642465591e-03 8.588231354951858521e-02 3.883613348007202148e-01 6.289962679147720337e-02 -1.412111893296241760e-02 -1.861308555817231536e-05 -2.733639068901538849e-02 1.146114300354383886e-05 -6.062006577849388123e-02 -1.341371610760688782e-02 -1.873821765184402466e-01 -1.738594770431518555e-01 2.212732583284378052e-01 -1.885970383882522583e-01 1.945678293704986572e-01 -6.521172821521759033e-03 1.489283442497253418e-01 7.688502222299575806e-02 -9.297708165831863880e-04 4.176969826221466064e-02 1.330133080482482910e-01 -1.183170378208160400e-01 1.094204857945442200e-01 -1.304571479558944702e-01 1.384944170713424683e-01 -2.841838300228118896e-01 3.330661058425903320e-01 -1.315641254186630249e-01 2.949841879308223724e-02 5.850059539079666138e-02 -4.205029457807540894e-03 1.176939010620117188e-01 -1.240824721753597260e-02 -3.195773810148239136e-02 3.433998227119445801e-01 3.222523927688598633e-01 1.106531918048858643e-01 -9.233371168375015259e-02 1.316962987184524536e-01 -1.371672004461288452e-01 1.924977898597717285e-01 1.827361881732940674e-01 1.029931604862213135e-01 -2.624177038669586182e-01 -7.416605949401855469e-02 2.515834867954254150e-01 -2.127303928136825562e-01 2.858720161020755768e-02 -2.922076359391212463e-02 2.896535734180361032e-04 7.939574122428894043e-02 1.290302723646163940e-01
-2.625371217727661133e-01 1.224295049905776978e-01 -1.226981729269027710e-01 -2.051574438810348511e-01 6.572652608156204224e-02 1.428879238665103912e-02 -1.522003412246704102e-01 -2.503136396408081055e-01 1.906772889196872711e-02 -4.878072068095207214e-02 2.711716294288635254e-01 1.932400017976760864e-01 -1.502336282283067703e-02 -3.082997500896453857e-01 -2.391517162322998047e-01 1.157180070877075195e-01 -1.776319742202758789e-01 -4.021431319415569305e-03 9.528937190771102905e-02 -6.603968888521194458e-02 8.363279700279235840e-02 -2.100479304790496826e-01 -3.899709880352020264e-02 -1.280971467494964600e-01 -1.176325511187314987e-02 -1.473257392644882202e-01 -2.547394298017024994e-02 2.386369258165359497e-01 5.813105497509241104e-03 1.053389310836791992e-01 -2.795807123184204102e-01 3.372773900628089905e-02 1.750407069921493530e-01 -1.718530803918838501e-01 -2.889522351324558258e-02 4.052940309047698975e-01 8.080891519784927368e-02 -1.592145413160324097e-01 -8.914108574390411377e-02 -1.089794263243675232e-01 -6.860073655843734741e-02 2.286292612552642822e-02 1.511548906564712524e-01 -1.969145387411117554e-01 -1.356291677802801132e-02 -1.558404266834259033e-01 -9.885875135660171509e-02 7.955010235309600830e-02 -4.880224354565143585e-03 -9.922435879707336426e-02 6.396285444498062134e-02 2.172439917922019958e-02 1.230181828141212463e-01 -2.219819575548171997e-01 -1.079916134476661682e-01 3.588400781154632568e-02 3.630128875374794006e-02 5.455290526151657104e-02 -1.683627963066101074e-01 -3.501506894826889038e-02 -7.948505878448486328e-02 -6.654852628707885742e-02 1.950526386499404907e-01 -2.834998071193695068e-01 7.883704453706741333e-02 -2.197455614805221558e-01 1.168790832161903381e-01 4.775952547788619995e-02 2.076620012521743774e-01 -1.376424431800842285e-01 -2.232604473829269409e-01 1.366728246212005615e-01 -5.181079264730215073e-03 -3.008541166782379150e-01 3.008636995218694210e-04 -1.031104624271392822e-01 3.020353913307189941e-01 -2.092976868152618408e-01 -6.292938441038131714e-02 -9.810824692249298096e-02
-1.257863938808441162e-01 6.122553348541259766e-02 1.308766305446624756e-01 1.648469567298889160e-01 9.295357763767242432e-02 -5.867795273661613464e-02 2.216098010540008545e-01 -9.784732013940811157e-02 -2.147342711687088013e-01 -1.073140501976013184e-01 -3.129442334175109863e-01 -2.133358269929885864e-01 2.825501561164855957e-02 3.298391401767730713e-02 -2.632755935192108154e-01 -1.840933412313461304e-01 1.739643327891826630e-02 -1.919443607330322266e-01 -3.583500981330871582e-01 -1.933107078075408936e-01 -3.145448863506317139e-01 -1.733814477920532227e-01 1.924853585660457611e-02 -4.088249206542968750e-01 -2.287184298038482666e-01 1.377648711204528809e-01 1.432449817657470703e-01 -1.302910037338733673e-02 -9.317063540220260620e-02 1.371577233076095581e-01 1.101250573992729187e-02 -7.275036722421646118e-02 -2.184898704290390015e-01 -2.593929767608642578e-01 -2.214128524065017700e-02 -4.027020931243896484e-02 6.211606040596961975e-02 1.383516378700733185e-02 -2.444250285625457764e-01 5.958610028028488159e-02 -1.498774290084838867e-01 2.083403617143630981e-02 2.203524112701416016e-02 -2.876803278923034668e-01 9.242389351129531860e-02 -2.684924192726612091e-02 -1.087475661188364029e-02 2.193900495767593384e-01 5.775110423564910889e-02 7.110745459794998169e-02 2.974820733070373535e-01 -1.153486296534538269e-01 7.031147927045822144e-02 3.942831233143806458e-02 1.332754492759704590e-01 8.857923001050949097e-02 -3.403572738170623779e-01 2.300068922340869904e-02 1.102751567959785461e-01 1.298822015523910522e-01 2.008387744426727295e-01 -2.539574503898620605e-01 1.474746614694595337e-01 -2.669825851917266846e-01 2.591357007622718811e-02 -2.795073688030242920e-01 1.471162438392639160e-01 1.778276115655899048e-01 1.156252622604370117e-01 1.732987016439437866e-01 1.436917781829833984e-01 -7.583767175674438477e-02 -4.066716134548187256e-01 6.482856720685958862e-02 5.439696460962295532e-02 1.275906413793563843e-01 2.862511277198791504e-01 -2.616455852985382080e-01 -1.114848852157592773e-01 -3.128180205821990967e-01
2.059729844331741333e-01 9.996262937784194946e-02 1.939561814069747925e-01 1.463084369897842407e-01 6.425082683563232422e-02 -5.547427758574485779e-02 1.601525247097015381e-01 -1.257572919130325317e-01 4.188424348831176758e-02 1.685884743928909302e-01 -2.130440324544906616e-01 -5.384481512010097504e-03 -1.356855928897857666e-01 -9.551759064197540283e-02 -1.701843738555908203e-01 2.273711562156677246e-01 -4.004128277301788330e-02 2.610333859920501709e-01 -1.731898337602615356e-01 1.438376158475875854e-01 5.687247216701507568e-02 6.465449929237365723e-02 1.810804009437561035e-01 -9.933618456125259399e-02 -3.065689206123352051e-01 -1.023699417710304260e-01 -5.400549247860908508e-02 -3.351361453533172607e-01 1.191578060388565063e-01 8.567253127694129944e-03 2.570797689259052277e-02 1.126776188611984253e-01 -6.052280217409133911e-02 3.747761249542236328e-02 -1.292468281462788582e-03 1.317337751388549805e-01 -3.295775949954986572e-01 9.979481995105743408e-02 -2.162221446633338928e-02 6.842802464962005615e-02 -1.406670063734054565e-01 -8.915776759386062622e-02 -1.118101626634597778e-01 -1.695640012621879578e-02 1.877375841140747070e-01 -1.533086895942687988e-01 -4.781342670321464539e-02 2.132331430912017822e-01 -1.211064495146274567e-02 -7.189165800809860229e-02 4.601342976093292236e-02 -9.412898123264312744e-02 -4.408666864037513733e-02 5.086699275125283748e-07 -2.727398276329040527e-01 -1.821109652519226074e-01 -6.998258829116821289e-02 -2.196219563484191895e-01 1.442434638738632202e-01 -1.936402916908264160e-02 1.052742153406143188e-01 3.424097970128059387e-02 1.863780468702316284e-01 3.247914612293243408e-01 2.175992904085433111e-06 -1.979001164436340332e-01 1.167169809341430664e-01 -1.334935575723648071e-01 -2.294279336929321289e-01 1.238058358430862427e-01 2.996824681758880615e-01 -4.202309810352744535e-06 1.521763801574707031e-01 1.416430436074733734e-02 2.096206843852996826e-01 4.140641167759895325e-02 2.190602570772171021e-02 -7.559009641408920288e-02 -3.447778895497322083e-02 3.119386173784732819e-02
-2.782347500324249268e-01 -9.042987972497940063e-02 9.074648469686508179e-02 1.803930699825286865e-01 -1.929307132959365845e-01 1.560578346252441406e-01 4.261579513549804688e-01 -1.372546404600143433e-01 -1.756937056779861450e-02 2.991241812705993652e-01 1.434859335422515869e-01 -1.164486408233642578e-01 6.928208470344543457e-02 -1.535473018884658813e-01 2.315192483365535736e-03 -2.195156216621398926e-01 1.369756758213043213e-01 2.210027575492858887e-01 -2.280305325984954834e-01 4.182733595371246338e-02 -8.940532058477401733e-02 1.716069690883159637e-02 -2.244925945997238159e-01 -1.842665486037731171e-02 1.182768344879150391e-01 9.405905148014426231e-04 1.210361719131469727e-01 -3.503769636154174805e-01 -5.607593059539794922e-02 3.789470791816711426e-01 9.792968630790710449e-02 -3.896849751472473145e-01 -8.180682361125946045e-02 -2.218721508979797363e-01 9.095465391874313354e-02 -6.516349315643310547e-02 3.810167014598846436e-01 2.954442799091339111e-01 7.351730950176715851e-03 2.677226364612579346e-01 3.216425478458404541e-01 1.600903272628784180e-01 -2.145331501960754395e-01 2.748738229274749756e-01 3.457492915913462639e-03 -3.227193607017397881e-03 2.245636731386184692e-01 1.290331035852432251e-01 7.783132791519165039e-02 -1.375115066766738892e-01 8.751770947128534317e-04 -1.501917690038681030e-01 1.507871896028518677e-01 7.691457867622375488e-02 -1.623252183198928833e-01 1.010560765862464905e-01 -1.560534536838531494e-01 4.648135229945182800e-02 -1.913584917783737183e-01 -7.196969538927078247e-02 -8.198218420147895813e-03 1.840937882661819458e-01 -7.122200727462768555e-02 1.112973392009735107e-01 6.249142438173294067e-02 1.736760139465332031e-02 9.937507659196853638e-02 -1.103999000042676926e-02 -3.310882672667503357e-02 -1.096580401062965393e-01 4.645206779241561890e-02 -1.035089418292045593e-01 3.606811165809631348e-01 -2.264817357063293457e-01 6.959736347198486328e-02 -4.750167205929756165e-02 2.220104634761810303e-01 2.158978432416915894e-01 1.475566327571868896e-01 -8.424197137355804443e-02
2.412118613719940186e-01 6.840953975915908813e-02 -1.021429598331451416e-01 2.453476339578628540e-01 1.760857552289962769e-01 7.301690429449081421e-02 1.186604052782058716e-01 3.194938004016876221e-01 -5.386671982705593109e-03 2.311299294233322144e-01 4.577933996915817261e-02 2.115744501352310181e-01 -3.797067999839782715e-01 3.660969734191894531e-01 -1.170479133725166321e-01 1.327115595340728760e-01 3.700474044308066368e-03 -2.072193622589111328e-01 1.986027359962463379e-01 6.083887442946434021e-02 1.782333403825759888e-01 -3.099740445613861084e-01 -5.535649135708808899e-02 9.830661863088607788e-02 -1.828999221324920654e-01 -8.435688167810440063e-02 -7.880124449729919434e-02 -1.426941342651844025e-02 -1.153342612087726593e-02 -2.250583767890930176e-01 -8.024462312459945679e-02 -1.831914186477661133e-01 2.793832719326019287e-01 2.546075880527496338e-01 1.289653737330809236e-04 2.094513177871704102e-02 1.193751767277717590e-01 -5.805755034089088440e-02 1.727819591760635376e-01 2.812736928462982178e-01 3.152860701084136963e-01 2.906478708609938622e-03 -1.102978736162185669e-01 5.482901260256767273e-02 1.120987907052040100e-01 2.976301312446594238e-01 -7.538210600614547729e-02 -7.009463012218475342e-02 -1.416437774896621704e-01 2.849563397467136383e-02 -7.222661375999450684e-02 -2.600454352796077728e-02 -1.181962415575981140e-01 -8.752679824829101562e-02 -1.813291162252426147e-01 1.187910959124565125e-01 -1.613216996192932129e-01 -2.681485414505004883e-01 2.086412012577056885e-01 -1.335470676422119141e-01 -1.535732895135879517e-01 -1.270354688167572021e-01 -2.165636718273162842e-01 7.341371383517980576e-05 6.520478427410125732e-02 -3.207556605339050293e-01 -1.006578952074050903e-01 -2.739835716784000397e-02 6.026713177561759949e-02 2.949100360274314880e-02 1.724742352962493896e-01 -8.387251943349838257e-02 1.950710415840148926e-01 5.635211244225502014e-02 -6.750264018774032593e-02 -1.593296788632869720e-02 -3.277493268251419067e-02 1.317690312862396240e-01 -8.440626412630081177e-02 -1.161407977342605591e-01
1.190524082630872726e-02 -4.630165174603462219e-02 -1.632759720087051392e-01 -7.726639509201049805e-02 2.026396095752716064e-01 6.081520766019821167e-02 -1.201613172888755798e-01 1.147447526454925537e-01 6.933030486106872559e-02 3.256960213184356689e-01 -1.771502196788787842e-01 8.040510118007659912e-02 -2.812615036964416504e-01 -6.011367216706275940e-02 -1.581574790179729462e-02 -1.825876384973526001e-01 2.028651535511016846e-02 1.445423364639282227e-01 2.035811096429824829e-01 -2.001717872917652130e-02 -9.072560817003250122e-02 5.264094471931457520e-02 1.084172502160072327e-01 1.298145502805709839e-01 2.733388841152191162e-01 2.080575227737426758e-01 -1.722460389137268066e-01 -9.648030251264572144e-02 2.095281481742858887e-01 2.466862350702285767e-01 1.717077493667602539e-01 -4.025633260607719421e-02 -7.070448994636535645e-02 -8.401791751384735107e-02 2.513851821422576904e-01 4.688362032175064087e-02 -2.593810856342315674e-01 -4.849260300397872925e-02 -7.864850014448165894e-02 -2.328730672597885132e-01 -3.364835083484649658e-01 3.381045907735824585e-02 1.407272368669509888e-01 5.187384411692619324e-02 6.741025298833847046e-02 3.146334886550903320e-01 4.974675178527832031e-02 -4.733480513095855713e-02 2.557128965854644775e-01 5.958637967705726624e-02 2.527980506420135498e-02 -3.418899700045585632e-02 -2.374891340732574463e-01 -3.240647315979003906e-01 2.259360253810882568e-01 -9.639637917280197144e-02 -1.190177574753761292e-01 7.024732977151870728e-02 1.077013876056298614e-04 2.799626290798187256e-01 -1.123452484607696533e-01 -4.190387576818466187e-02 -9.043434262275695801e-02 -4.950520768761634827e-02 1.091652438044548035e-01 -1.858024001121520996e-01 -2.382849156856536865e-01 -1.848950684070587158e-01 -4.124402701854705811e-01 1.731661260128021240e-01 3.196963369846343994e-01 -8.130700141191482544e-02 -2.780478000640869141e-01 1.659426242113113403e-01 9.434244595468044281e-03 1.274289190769195557e-01 -2.770318388938903809e-01 -7.335645705461502075e-02 -1.320838034152984619e-01 9.499260038137435913e-02
1.507316948845982552e-03 1.160429492592811584e-01 -1.227948144078254700e-01 -1.355373114347457886e-01 -1.727882921695709229e-01 -1.641455441713333130e-01 2.845140397548675537e-01 1.204014047980308533e-01 -2.403657585382461548e-01 -1.714273840188980103e-01 -1.000411733984947205e-01 -7.562153041362762451e-02 -3.143680989742279053e-01 3.748584911227226257e-02 -2.293123006820678711e-01 -1.750862598419189453e-01 -1.525281667709350586e-01 -2.426500767469406128e-01 6.247743498533964157e-03 -5.893753841519355774e-03 2.471141964197158813e-01 -7.729910314083099365e-02 1.246474310755729675e-01 -1.542183011770248413e-01 -3.198309242725372314e-02 1.220372468233108521e-01 -2.634870111942291260e-01 9.652561694383621216e-02 2.118898928165435791e-02 -7.197939604520797729e-02 1.250357329845428467e-01 3.745327517390251160e-02 -1.096581593155860901e-01 3.430237472057342529e-01 2.693290635943412781e-02 -1.976343244314193726e-01 1.457578837871551514e-01 -3.577677905559539795e-02 -1.120958942919969559e-03 3.116199746727943420e-02 1.882092356681823730e-01 1.062028929591178894e-01 -1.889540553092956543e-01 -4.639038816094398499e-02 3.237569034099578857e-01 -1.799684576690196991e-02 1.030398309230804443e-01 -2.548924982547760010e-01 2.646269202232360840e-01 1.335433218628168106e-02 1.243187561631202698e-01 2.624152600765228271e-01 1.485098451375961304e-01 -2.486481219530105591e-01 -2.153604477643966675e-01 -2.270249426364898682e-01 3.646006435155868530e-02 -6.308197975158691406e-02 2.398061603307723999e-01 -7.366830017417669296e-03 -9.947546571493148804e-02 -2.977628707885742188e-01 -3.557757437229156494e-01 -4.531522393226623535e-01 -2.055875509977340698e-01 4.425093531608581543e-02 -5.572048202157020569e-02 -6.634198129177093506e-02 -2.143281400203704834e-01 5.626863986253738403e-02 -1.291529368609189987e-02 1.250129491090774536e-01 5.398671329021453857e-02 -1.776413619518280029e-01 -8.808684349060058594e-02 2.252183705568313599e-01 2.216842472553253174e-01 -8.782703429460525513e-02 1.304993629455566406e-01 -3.086590170860290527e-01
7.818510755896568298e-03 1.408596634864807129e-01 -4.493447765707969666e-02 -2.630769610404968262e-01 1.577997654676437378e-01 -1.951233297586441040e-01 -1.648780144751071930e-02 -5.552749615162611008e-03 5.616639181971549988e-02 -1.369814425706863403e-01 2.724771387875080109e-02 -2.579181790351867676e-01 -1.396195404231548309e-02 -1.135401353240013123e-01 3.539921641349792480e-01 -1.929150223731994629e-01 8.899784088134765625e-02 1.607546657323837280e-01 -2.447599545121192932e-02 7.643677236046642065e-06 -2.086380571126937866e-01 1.134911626577377319e-01 1.177372634410858154e-01 -2.661409974098205566e-01 -6.378920748829841614e-03 1.470792442560195923e-01 1.486397534608840942e-01 1.081903576850891113e-01 -2.354884445667266846e-01 -2.763379830867052078e-03 3.728433698415756226e-02 5.026864632964134216e-02 -1.767481565475463867e-01 -1.101312413811683655e-01 -2.751448452472686768e-01 9.947303682565689087e-02 5.732598528265953064e-02 9.819412231445312500e-02 -2.670989632606506348e-01 1.960530579090118408e-01 1.836719363927841187e-02 7.034315913915634155e-02 1.639214903116226196e-01 6.286561489105224609e-02 6.302943080663681030e-02 1.536348462104797363e-01 -2.465790510177612305e-02 2.631738781929016113e-01 4.178272187709808350e-01 -1.556170731782913208e-01 -8.115465193986892700e-02 -1.190777644515037537e-01 -4.653495550155639648e-02 2.753359675407409668e-01 -3.420402407646179199e-01 9.816297888755798340e-02 -1.373353153467178345e-01 -2.691172435879707336e-02 -1.398446112871170044e-01 2.557776570320129395e-01 8.418785035610198975e-02 2.250061482191085815e-01 4.249946773052215576e-02 1.019689440727233887e-02 6.600455380976200104e-03 9.815154224634170532e-02 -3.149458020925521851e-02 5.488893948495388031e-03 4.271139502525329590e-01 1.949719339609146118e-01 -3.810060322284698486e-01 -1.098737269639968872e-01 -2.877533435821533203e-01 2.310913354158401489e-01 1.971428468823432922e-02 -1.045733224600553513e-02 2.876766771078109741e-02 4.145471751689910889e-02 -1.321564614772796631e-01 2.199696749448776245e-01
-2.320624738931655884e-01 6.860968470573425293e-02 -1.019205152988433838e-01 2.958665788173675537e-01 6.982877850532531738e-02 -1.645461842417716980e-02 2.199234366416931152e-01 1.960344343387987465e-05 -2.578423023223876953e-01 -1.555539965629577637e-01 4.451495409011840820e-02 -1.628466546535491943e-01 -9.787526726722717285e-02 -2.556640505790710449e-01 3.917386755347251892e-02 -2.582236826419830322e-01 -4.976030811667442322e-02 6.914058327674865723e-02 -5.969235301017761230e-02 6.529895961284637451e-02 3.109875023365020752e-01 -1.690049655735492706e-02 8.037029951810836792e-02 1.555528789758682251e-01 1.546394526958465576e-01 2.226154506206512451e-01 6.243591755628585815e-02 -7.270526885986328125e-02 3.271248564124107361e-02 -3.266953825950622559e-01 5.797008052468299866e-03 -1.842168569564819336e-01 -2.745076715946197510e-01 1.048578545451164246e-01 8.085987716913223267e-02 2.472035214304924011e-02 9.828373789787292480e-02 1.996951699256896973e-01 -1.059172526001930237e-01 1.194159463047981262e-01 2.185486629605293274e-02 -1.865254938602447510e-01 -1.721573621034622192e-01 1.091087982058525085e-01 -1.622758507728576660e-01 -1.059197261929512024e-02 -1.690555512905120850e-01 -3.679746091365814209e-01 -3.305386304855346680e-01 -4.684079438447952271e-02 3.404194712638854980e-01 -2.116352617740631104e-01 1.701860427856445312e-01 6.288434565067291260e-02 -3.649945184588432312e-02 9.751388430595397949e-02 2.016414701938629150e-02 2.689347565174102783e-01 2.016648054122924805e-01 -2.059629857540130615e-01 3.252136334776878357e-02 -1.820440888404846191e-01 5.631634965538978577e-03 -5.656151846051216125e-02 -1.649860590696334839e-01 2.370422333478927612e-01 1.254796385765075684e-01 8.573660254478454590e-02 5.095500499010086060e-03 -3.043745756149291992e-01 3.874716907739639282e-02 -1.780077069997787476e-01 -1.299787871539592743e-02 2.342665642499923706e-01 9.824448823928833008e-02 2.028694450855255127e-01 8.950939029455184937e-02 5.101785808801651001e-02 1.925577223300933838e-01 3.080240264534950256e-02
-2.752607166767120361e-01 -2.337792068719863892e-01 -4.965559020638465881e-02 -2.164064347743988037e-01 -1.459256466478109360e-02 2.345436215400695801e-01 -2.741423845291137695e-01 2.209511697292327881e-01 -4.490925464779138565e-03 2.068068534135818481e-01 2.005489766597747803e-01 2.366895824670791626e-01 2.115847766399383545e-01 -1.868496835231781006e-01 6.137992441654205322e-02 -2.791371382772922516e-02 -1.096237152814865112e-01 -6.691830698400735855e-03 -1.899541765451431274e-01 -1.712630875408649445e-02 -2.659001350402832031e-01 1.718743145465850830e-01 3.417209982872009277e-01 1.310560405254364014e-01 2.482951581478118896e-01 2.656410038471221924e-01 -2.278864979743957520e-01 1.097254753112792969e-01 2.781760394573211670e-01 -2.797684669494628906e-01 1.199201717972755432e-01 -2.838269174098968506e-01 -1.101813912391662598e-01 1.766612678766250610e-01 -1.850499063730239868e-01 4.890406876802444458e-02 -1.911494694650173187e-02 9.542095661163330078e-02 3.334089517593383789e-01 -1.346089243888854980e-01 1.999437361955642700e-01 1.215920969843864441e-01 2.258577346801757812e-01 6.865038722753524780e-02 3.592726290225982666e-01 -2.086934149265289307e-01 -2.986452281475067139e-01 -1.242844760417938232e-01 -1.709287464618682861e-01 8.640635013580322266e-02 -3.635454773902893066e-01 7.390498369932174683e-02 -4.934119433164596558e-02 3.447167575359344482e-01 -2.121329307556152344e-01 7.097946852445602417e-02 3.633253648877143860e-02 2.033293992280960083e-01 4.951798543334007263e-02 -1.133208721876144409e-01 8.554348722100257874e-03 8.044299483299255371e-02 1.776712015271186829e-02 -3.170147538185119629e-01 3.710468858480453491e-02 2.259615659713745117e-01 -3.397683501243591309e-01 1.557707190513610840e-01 1.856311708688735962e-01 3.281318545341491699e-01 -1.652611643075942993e-01 6.821585446596145630e-02 4.864760041236877441e-01 2.136724889278411865e-01 -9.985657781362533569e-02 1.723478361964225769e-02 -1.178125664591789246e-01 1.915223002433776855e-01 1.008279994130134583e-01 1.181900128722190857e-01
3.581736236810684204e-02 -1.644268184900283813e-01 1.490628272294998169e-01 6.947066634893417358e-02 -3.332663476467132568e-01 -3.811598569154739380e-02 -2.023862749338150024e-01 -1.122794523835182190e-01 1.415242850780487061e-01 -1.417306810617446899e-01 1.284311115741729736e-01 1.218714192509651184e-01 2.155742980539798737e-02 2.431190609931945801e-01 -1.524527519941329956e-01 -2.137397229671478271e-01 -1.441238727420568466e-02 2.228269279003143311e-01 1.911323666572570801e-01 -1.857652701437473297e-02 -9.217774495482444763e-03 4.354975000023841858e-02 -5.736795440316200256e-02 3.515729010105133057e-01 9.731803089380264282e-02 1.270287632942199707e-01 -2.079886198043823242e-01 -1.902337968349456787e-01 1.205188408493995667e-01 3.946388065814971924e-01 1.804375797510147095e-01 1.244868896901607513e-02 3.234025537967681885e-01 -3.203807771205902100e-01 1.884302347898483276e-01 -1.062499433755874634e-01 2.413467317819595337e-01 2.626485824584960938e-01 6.354682892560958862e-02 -4.566637426614761353e-02 4.309706017374992371e-02 -2.477813512086868286e-01 9.423404932022094727e-02 6.857230514287948608e-02 3.986689448356628418e-01 2.179992198944091797e-01 2.005186229944229126e-01 -4.930956661701202393e-02 2.577390660007949919e-06 1.337580978870391846e-01 -2.186222374439239502e-01 -1.933075785636901855e-01 -9.059867262840270996e-02 -4.925616830587387085e-02 6.158044561743736267e-02 -1.294417977333068848e-01 -3.538078069686889648e-01 1.280562877655029297e-01 -3.680018708109855652e-02 1.327607482671737671e-01 3.739020903594791889e-04 2.127924114465713501e-01 -1.487125605344772339e-01 2.855654656887054443e-01 -2.572232857346534729e-02 1.302828341722488403e-01 2.486041374504566193e-02 4.255544021725654602e-02 3.693498671054840088e-02 1.965735405683517456e-01 -1.729936897754669189e-02 -6.222639232873916626e-02 -1.532637625932693481e-01 1.227656304836273193e-01 -7.534133642911911011e-02 1.434801518917083740e-01 4.522106051445007324e-02 -2.472301423549652100e-01 -1.591361686587333679e-02 -3.363062068819999695e-02
-2.432621866464614868e-01 1.900273859500885010e-01 -1.172780022025108337e-01 -3.892059670761227608e-03 1.044414937496185303e-03 3.130949437618255615e-01 -6.652152165770530701e-03 -3.011378943920135498e-01 -2.827587127685546875e-01 -4.224622249603271484e-01 2.315321862697601318e-01 5.781747400760650635e-03 2.124234139919281006e-01 -9.118217974901199341e-02 1.071469709277153015e-01 1.683736033737659454e-02 -1.880372464656829834e-01 -2.583400346338748932e-02 -9.637580066919326782e-02 -4.409493878483772278e-02 -2.528562843799591064e-01 1.132976338267326355e-01 3.222940489649772644e-03 -2.789640426635742188e-02 -4.544804245233535767e-02 1.142146363854408264e-01 -1.274788528680801392e-01 1.169116646051406860e-01 2.204394936561584473e-01 3.451600074768066406e-01 -1.331026703119277954e-01 -5.851109046489000320e-03 -4.621141403913497925e-02 1.382080912590026855e-01 -3.415904641151428223e-01 -6.835623644292354584e-03 -2.944922447204589844e-01 -2.529173493385314941e-01 1.631917506456375122e-01 8.879050612449645996e-03 3.666995838284492493e-02 3.447651863098144531e-01 -2.217136025428771973e-01 7.691646715102251619e-07 -3.998936414718627930e-01 -3.541330574080348015e-03 -1.939867734909057617e-01 1.462893187999725342e-01 3.168196678161621094e-01 2.545424103736877441e-01 2.454534471035003662e-01 3.520283102989196777e-01 -1.766883730888366699e-01 2.080459147691726685e-01 8.193060010671615601e-02 2.704210579395294189e-01 -3.607901511713862419e-03 1.608373522758483887e-01 1.048159822821617126e-01 -1.429694294929504395e-01 1.228752583265304565e-01 -3.353574499487876892e-02 -2.816220000386238098e-02 -2.164649963378906250e-01 -4.170792177319526672e-02 1.867231428623199463e-01 -2.821966707706451416e-01 7.351599633693695068e-03 -1.109992936253547668e-01 -5.128530412912368774e-02 -1.924166232347488403e-01 3.002724982798099518e-02 3.824795186519622803e-01 1.362408399581909180e-01 -1.523212939500808716e-01 -3.383456766605377197e-01 4.035658389329910278e-02 -1.161186024546623230e-01 -1.994910687208175659e-01 4.250300675630569458e-02
1.126827821135520935e-01 -1.652897894382476807e-01 -1.151060238480567932e-01 -1.672382950782775879e-01 2.278178483247756958e-01 1.157707944512367249e-01 1.708262711763381958e-01 -1.553724259138107300e-01 -2.471465989947319031e-02 7.615733146667480469e-02 4.885569587349891663e-02 -3.064766588067868724e-06 -1.724978983402252197e-01 1.506953090429306030e-01 5.668675154447555542e-02 1.571121902088634670e-05 2.395255416631698608e-01 3.308907896280288696e-02 -4.948507994413375854e-03 -5.066639930009841919e-02 5.172157660126686096e-02 -1.139118801802396774e-02 -1.268673390150070190e-01 2.048473060131072998e-02 -1.962761133909225464e-01 -7.235404103994369507e-02 1.073956117033958435e-02 3.761071339249610901e-02 4.964519292116165161e-02 -5.866281315684318542e-02 -2.289874553680419922e-01 2.119632363319396973e-01 9.315173327922821045e-02 -4.825201351195573807e-03 -9.883341938257217407e-02 1.986087858676910400e-01 -1.362279802560806274e-01 3.065821528434753418e-01 -9.058851748704910278e-03 -2.073912508785724640e-02 -3.434695005416870117e-01 -1.195377781987190247e-01 -9.298285096883773804e-02 1.673021018505096436e-01 -2.513882517814636230e-02 -4.884784296154975891e-02 8.378442376852035522e-02 -1.901488900184631348e-01 3.571661934256553650e-02 -1.676197052001953125e-01 -1.137312278151512146e-01 2.242867350578308105e-01 3.496796358376741409e-03 2.332994192838668823e-01 5.284212529659271240e-03 -2.028576273005455732e-05 6.872186809778213501e-02 -1.085795368999242783e-02 6.740722805261611938e-02 6.181181222200393677e-02 2.476701438426971436e-01 -2.934092581272125244e-01 -1.231461949646472931e-02 2.351056784391403198e-02 -7.974424079293385148e-06 3.326348662376403809e-01 7.652242857147939503e-06 4.751068353652954102e-02 1.769203841686248779e-01 -3.322746232151985168e-02 -2.280970811843872070e-01 1.813399605453014374e-02 -1.066049486398696899e-01 1.183691546320915222e-01 3.768020868301391602e-02 -1.062992736697196960e-01 -6.970772892236709595e-02 -6.420834362506866455e-02 1.851901598274707794e-02 -2.438764125108718872e-01
1.153442412614822388e-01 1.630311459302902222e-01 -8.913984894752502441e-02 -1.777606755495071411e-01 3.606714308261871338e-01 -1.509660333395004272e-01 -1.575028523802757263e-02 1.708945631980895996e-01 -2.501930296421051025e-01 2.409440279006958008e-01 -3.494081646203994751e-02 -3.133474662899971008e-02 5.112605541944503784e-02 8.820861577987670898e-02 1.308636069297790527e-01 -2.167151123285293579e-01 2.791109383106231689e-01 6.165696680545806885e-02 1.383956223726272583e-01 2.765237353742122650e-03 -2.012323439121246338e-01 -1.448637396097183228e-01 -2.547402381896972656e-01 2.776059880852699280e-02 1.519517153501510620e-01 -2.825073599815368652e-01 2.966118156909942627e-01 -2.369723618030548096e-01 1.261917203664779663e-01 2.420179992914199829e-01 6.630598101764917374e-03 6.651833187788724899e-03 1.965359747409820557e-01 -2.395808696746826172e-01 -2.935792803764343262e-01 -4.361377283930778503e-02 -1.345900744199752808e-01 -1.306707113981246948e-01 3.911209106445312500e-02 -3.808456286787986755e-02 3.281695246696472168e-01 -1.050626188516616821e-01 1.399114131927490234e-01 3.265053033828735352e-01 2.361945621669292450e-02 -1.736949086189270020e-01 -2.163580358028411865e-01 1.428959071636199951e-01 9.734393656253814697e-02 -1.085766106843948364e-01 -4.952566698193550110e-02 1.428297255188226700e-02 -1.319590508937835693e-01 -1.438851356506347656e-01 2.285243123769760132e-01 8.763678371906280518e-02 1.030716020613908768e-02 7.815484702587127686e-02 9.131709486246109009e-02 -3.429042398929595947e-01 1.397237628698348999e-01 3.012445569038391113e-01 2.053017467260360718e-01 3.758407533168792725e-01 -2.069131582975387573e-01 -4.328235238790512085e-02 -2.827423159033060074e-03 -1.049596294760704041e-01 -4.752495791763067245e-03 -9.005473554134368896e-02 -2.914416417479515076e-02 2.711606323719024658e-01 -5.872820690274238586e-02 -1.588596701622009277e-01 -3.060050867497920990e-02 4.561319481581449509e-03 -5.816759169101715088e-02 1.299862414598464966e-01 -1.001073345541954041e-01 1.379838287830352783e-01
8.058020612224936485e-04 1.556474417448043823e-01 6.800220161676406860e-02 -1.707762181758880615e-01 1.074238792061805725e-01 1.129965782165527344e-01 -1.233155429363250732e-01 -3.171282708644866943e-01 -7.363493740558624268e-02 -1.986706405878067017e-01 2.341861426830291748e-01 -3.140944838523864746e-01 -1.316850185394287109e-01 7.343431562185287476e-02 -1.810988336801528931e-01 -5.532978102564811707e-02 -5.490572191774845123e-03 3.754447773098945618e-02 1.500694006681442261e-01 -4.631927609443664551e-02 -2.172234058380126953e-01 7.515294849872589111e-02 -5.885329097509384155e-03 -1.204366311430931091e-01 1.191291883587837219e-01 1.135735958814620972e-01 1.073531210422515869e-01 2.213982306420803070e-02 -1.645299643278121948e-01 -4.755782335996627808e-02 1.100029945373535156e-01 -9.052958339452743530e-03 -1.239244714379310608e-01 9.558121114969253540e-02 -1.397091150283813477e-01 -2.214547619223594666e-02 1.851104497909545898e-01 -1.865276843309402466e-01 8.886472880840301514e-02 -1.864996701478958130e-01 -1.335363928228616714e-02 -1.972038596868515015e-01 2.780482470989227295e-01 -1.317557971924543381e-02 -9.944798797369003296e-02 7.622344046831130981e-02 -8.903756737709045410e-03 -4.250427708029747009e-02 -5.889668129384517670e-03 1.502069972048047930e-05 -2.564804553985595703e-01 -1.197404488921165466e-01 2.249226719141006470e-01 2.879743278026580811e-01 1.656446158885955811e-01 1.206382057716837153e-05 5.849692225456237793e-02 -3.335365653038024902e-02 1.461957246065139771e-01 -1.441174298524856567e-01 1.733934283256530762e-01 1.945045292377471924e-01 -6.586962938308715820e-02 -2.431287020444869995e-01 6.708891305606812239e-06 -9.452953934669494629e-02 -3.013175427913665771e-01 1.154824197292327881e-01 2.498674541711807251e-01 5.190687254071235657e-02 7.948914915323257446e-02 -3.571482300758361816e-01 1.615010201930999756e-01 1.071516200900077820e-01 -1.168896816670894623e-02 1.748087629675865173e-02 2.352288067340850830e-01 -2.126590460538864136e-01 1.876041442155838013e-01 5.314725637435913086e-02
-4.101109690964221954e-03 -3.204937651753425598e-02 1.412528753280639648e-01 -1.284093856811523438e-01 1.419422477483749390e-01 -1.966329962015151978e-01 -3.139705359935760498e-01 1.281458139419555664e-01 -2.112346515059471130e-02 -1.995105296373367310e-01 8.979941904544830322e-02 2.091166377067565918e-02 -1.865556240081787109e-01 2.025199830532073975e-01 -2.613809518516063690e-02 -3.491738140583038330e-01 -2.389006614685058594e-01 7.766081392765045166e-02 8.375702425837516785e-03 -1.490049958229064941e-01 -9.665766358375549316e-02 -6.852241605520248413e-02 -2.890518009662628174e-01 -5.133417993783950806e-02 8.961846679449081421e-02 1.734128296375274658e-01 4.358926042914390564e-02 2.105265557765960693e-01 -2.768157124519348145e-01 -3.163201808929443359e-01 8.459529280662536621e-02 5.824365466833114624e-02 2.048482000827789307e-01 7.882460206747055054e-02 1.490950882434844971e-01 -3.019199371337890625e-01 3.133797347545623779e-01 1.509801298379898071e-01 1.278895884752273560e-01 -3.583081066608428955e-01 2.141330391168594360e-01 -1.216292195022106171e-02 -1.516459230333566666e-02 2.165096998214721680e-01 1.803508698940277100e-01 2.188530415296554565e-01 8.345063775777816772e-03 3.759532868862152100e-01 2.041053324937820435e-01 3.318597078323364258e-01 -1.079560369253158569e-01 2.635435387492179871e-02 -3.511560335755348206e-02 -2.660514414310455322e-01 2.723270282149314880e-02 -3.918849527835845947e-01 2.438778430223464966e-02 1.547266822308301926e-02 4.001537859439849854e-01 -1.824428513646125793e-02 1.020885035395622253e-01 1.983340680599212646e-01 2.996542118489742279e-02 8.751597255468368530e-02 -2.212355881929397583e-01 4.539376124739646912e-02 4.402152076363563538e-02 -1.133969947695732117e-01 -2.063307352364063263e-02 -2.222072929143905640e-01 3.815162181854248047e-02 -2.186963260173797607e-01 2.091436535120010376e-01 -2.279110252857208252e-01 4.489867761731147766e-02 7.324891630560159683e-03 1.284824975300580263e-05 -2.907775901257991791e-02 2.493039518594741821e-01 -6.542492657899856567e-03
2.614785358309745789e-02 3.657892644405364990e-01 -9.780354052782058716e-02 3.554055690765380859e-01 3.014571033418178558e-03 -6.320367753505706787e-02 1.204467043280601501e-01 -8.371539413928985596e-02 -1.231371145695447922e-02 8.126121014356613159e-02 2.585737705230712891e-01 1.938537061214447021e-01 2.232298105955123901e-01 -3.400782346725463867e-01 -1.067799776792526245e-01 7.670036703348159790e-02 6.620062887668609619e-02 8.914936333894729614e-02 -2.764103710651397705e-01 4.358220472931861877e-02 1.418399065732955933e-01 -1.951257288455963135e-01 7.972052693367004395e-02 -4.018987119197845459e-01 -9.676028974354267120e-03 3.735609725117683411e-02 7.825590670108795166e-02 1.309578865766525269e-01 -1.421135812997817993e-01 7.143980357795953751e-03 -3.142173227388411760e-04 1.371623277664184570e-01 3.516212999820709229e-01 1.032494604587554932e-01 1.748182326555252075e-01 -3.141692578792572021e-01 -1.847454756498336792e-01 2.054122388362884521e-01 2.310159802436828613e-01 -3.596313595771789551e-01 2.235724031925201416e-01 1.391634047031402588e-01 2.518353164196014404e-01 -1.035668253898620605e-01 -2.948465012013912201e-02 -1.772058308124542236e-01 2.679206728935241699e-01 -1.057320684194564819e-01 -3.945975005626678467e-02 -1.716035306453704834e-01 -1.537825614213943481e-01 -1.327201426029205322e-01 3.982131779193878174e-01 -6.488808244466781616e-02 -5.784794688224792480e-02 1.932220620801672339e-04 7.321728765964508057e-02 2.403468638658523560e-01 1.712500900030136108e-01 -2.813706994056701660e-01 -1.957606971263885498e-01 -3.733793199062347412e-01 -2.030867934226989746e-01 1.940151900053024292e-01 1.291675120592117310e-01 -2.999327480792999268e-01 2.409542351961135864e-02 -2.625301778316497803e-01 2.611042559146881104e-01 2.590154409408569336e-01 -1.755648404359817505e-01 -1.972667276859283447e-01 -1.651458293199539185e-01 -1.057918369770050049e-01 4.025965929031372070e-02 -8.719797432422637939e-02 -1.170497089624404907e-01 -2.730163037776947021e-01 1.223440468311309814e-02 4.554945230484008789e-02
2.465910166501998901e-01 -6.190126761794090271e-03 -4.024532437324523926e-01 2.897748947143554688e-01 3.383402228355407715e-01 -3.109356760978698730e-01 3.458642661571502686e-01 -1.634251475334167480e-01 -3.419488966464996338e-01 -1.200871393084526062e-01 5.254190415143966675e-02 -8.306479081511497498e-03 -2.931018173694610596e-01 1.084747388958930969e-01 -3.394658863544464111e-01 -1.173299401998519897e-01 -7.129149138927459717e-02 -1.418997347354888916e-01 -2.784772515296936035e-01 -2.202484160661697388e-01 -6.808514147996902466e-02 1.360854208469390869e-01 1.967274211347103119e-02 -5.636457726359367371e-02 6.279810518026351929e-02 1.103670373558998108e-01 4.883592203259468079e-02 -7.121066004037857056e-02 6.976065784692764282e-02 -1.234385818243026733e-01 -4.987297579646110535e-02 -1.878227144479751587e-01 1.427833437919616699e-01 9.684038162231445312e-02 8.470250666141510010e-02 1.089838370680809021e-01 2.044925838708877563e-02 -1.533257514238357544e-01 2.874435186386108398e-01 -2.763122618198394775e-01 1.518058776855468750e-01 -1.083485856652259827e-01 -1.502957791090011597e-01 -1.612439304590225220e-01 7.870960235595703125e-02 -3.688153252005577087e-02 2.718910276889801025e-01 2.341739647090435028e-02 -2.111777197569608688e-03 3.309491276741027832e-01 3.503193380311131477e-03 -5.146550759673118591e-02 -3.610444068908691406e-02 -3.549932241439819336e-01 1.988956779241561890e-01 -2.674150168895721436e-01 1.623488515615463257e-01 -3.134464472532272339e-02 9.293206781148910522e-02 -3.439874574542045593e-02 -4.903461411595344543e-02 1.846312284469604492e-01 1.461890786886215210e-01 -1.360946744680404663e-01 -1.210499033331871033e-01 4.880088847130537033e-03 -6.042021140456199646e-02 -3.452315181493759155e-02 -2.256175726652145386e-01 8.770723640918731689e-02 -1.017110142856836319e-02 -1.569896936416625977e-01 7.906922698020935059e-02 1.953524351119995117e-01 -1.639507710933685303e-01 4.861776903271675110e-02 1.165128126740455627e-01 -1.703980378806591034e-02 1.188693568110466003e-01 1.473636738955974579e-02
-9.932523593306541443e-03 2.166185826063156128e-01 2.393632233142852783e-01 1.236383095383644104e-01 -3.236789256334304810e-02 9.926159679889678955e-02 -2.911789715290069580e-01 1.590251326560974121e-01 -3.422723151743412018e-03 3.841371461749076843e-02 1.364029198884963989e-01 -1.523977369070053101e-01 -3.934669792652130127e-01 -2.291742861270904541e-01 8.332013338804244995e-02 -1.697157621383666992e-01 -1.970760524272918701e-01 -1.294644922018051147e-01 4.877261072397232056e-02 -1.123689711093902588e-01 -4.571389034390449524e-02 7.758119702339172363e-02 3.543380415067076683e-03 -7.166498899459838867e-02 1.733343154191970825e-01 5.122893303632736206e-02 -2.207577377557754517e-01 -1.086873561143875122e-01 -2.611912228167057037e-02 1.667917817831039429e-01 5.466288700699806213e-02 3.247268125414848328e-02 -8.168879151344299316e-02 7.675467059016227722e-03 -1.729488074779510498e-01 1.686411052942276001e-01 -2.591610699892044067e-02 -1.680223494768142700e-01 3.191466629505157471e-01 -3.156303167343139648e-01 -1.070156320929527283e-01 -2.336291819810867310e-01 -8.654524572193622589e-03 -2.423931360244750977e-01 -1.764045804738998413e-01 -3.130339086055755615e-03 5.856083706021308899e-02 -2.346724420785903931e-01 -3.141008317470550537e-01 -3.346754983067512512e-02 -8.148444443941116333e-02 1.266295611858367920e-01 6.809349358081817627e-02 -2.694733999669551849e-02 -1.166013702750205994e-01 2.660377025604248047e-01 1.041758223436772823e-03 1.358877271413803101e-01 5.695123225450515747e-02 -1.533532589673995972e-01 -1.243664473295211792e-01 2.387887686491012573e-01 -1.288222372531890869e-01 -3.936166688799858093e-02 7.065799832344055176e-02 1.588076204061508179e-01 1.170737203210592270e-03 -7.311030003620544448e-06 -3.826340660452842712e-02 1.596402078866958618e-01 -1.393069028854370117e-01 1.263026334345340729e-02 4.683421179652214050e-02 2.353372424840927124e-02 -2.400442808866500854e-01 2.311987429857254028e-02 2.679350078105926514e-01 -4.048438742756843567e-03 1.461854726076126099e-01 -3.627512138336896896e-03
-3.656934499740600586e-01 1.140115633606910706e-01 1.183001771569252014e-01 -1.199488416314125061e-01 -9.307865053415298462e-02 -7.910318672657012939e-02 2.295050583779811859e-02 1.460041701793670654e-01 1.638607122004032135e-02 -2.220123559236526489e-01 1.058638840913772583e-01 7.996127009391784668e-02 1.009659692645072937e-01 -1.794420629739761353e-01 9.566386789083480835e-02 -1.433361321687698364e-01 2.801469713449478149e-02 2.805549651384353638e-02 -1.728802770376205444e-01 9.086695313453674316e-02 -1.419728100299835205e-01 -1.990594267845153809e-01 -1.153610367327928543e-02 -1.309870481491088867e-01 -9.886809438467025757e-02 1.396476477384567261e-01 -2.817858569324016571e-02 4.473941773176193237e-02 -2.895756065845489502e-01 1.303436700254678726e-02 -1.537414491176605225e-01 -2.072991579771041870e-01 7.465980947017669678e-02 -2.764418125152587891e-01 4.161207377910614014e-02 1.335264146327972412e-01 -3.216797113418579102e-02 1.363507360219955444e-01 1.494609564542770386e-01 9.903714060783386230e-02 -1.087737306952476501e-01 1.531278789043426514e-01 1.136793643236160278e-01 1.994612962007522583e-01 -1.411289870738983154e-01 -8.081273734569549561e-02 -3.697407618165016174e-02 -2.030389010906219482e-01 9.868254512548446655e-02 3.195381760597229004e-01 2.019238471984863281e-02 -1.414593458175659180e-01 -1.844334155321121216e-01 -2.258937209844589233e-01 -1.296097785234451294e-01 9.788861870765686035e-02 1.381069049239158630e-02 -6.112887337803840637e-02 1.079767383635044098e-02 -1.017377376556396484e-01 -6.905020773410797119e-02 -4.507702961564064026e-02 8.870556205511093140e-02 2.756842374801635742e-01 1.878518983721733093e-02 -3.142223954200744629e-01 2.489127665758132935e-01 -2.261942476034164429e-01 -1.120563670992851257e-01 -3.166981041431427002e-01 -1.779564619064331055e-01 2.389576286077499390e-01 -4.471014738082885742e-01 -2.776040881872177124e-02 4.168177247047424316e-01 5.033516511321067810e-02 -3.170955693349242210e-03 -2.269738018512725830e-01 -2.289389222860336304e-01 -3.346284627914428711e-01
1.161295101046562195e-01 -2.045631110668182373e-01 -3.146203458309173584e-01 -2.862209081649780273e-01 -1.655236184597015381e-01 -1.977239251136779785e-01 2.936627566814422607e-01 4.644725844264030457e-02 -3.728898167610168457e-01 3.345772325992584229e-01 -8.613931387662887573e-02 -6.985197216272354126e-02 1.951177837327122688e-03 -3.006573319435119629e-01 1.344466954469680786e-01 -5.293513461947441101e-02 6.419436633586883545e-02 -2.735733687877655029e-01 2.528489828109741211e-01 -2.436954826116561890e-01 1.159034892916679382e-01 -5.827328562736511230e-02 -2.113148942589759827e-02 -1.615480482578277588e-01 -2.989082634449005127e-01 -3.100894950330257416e-02 -4.337281361222267151e-02 1.056314259767532349e-01 -1.225261166691780090e-01 -2.026165574789047241e-01 -2.085109204053878784e-01 1.740458048880100250e-02 2.313595265150070190e-01 -2.125272601842880249e-01 2.841664478182792664e-02 2.739520277827978134e-03 2.065110057592391968e-01 2.215007841587066650e-01 -1.596122086048126221e-01 -3.511227071285247803e-01 -3.395554423332214355e-02 -5.550282448530197144e-02 -5.842417851090431213e-02 4.839977622032165527e-02 1.226808056235313416e-01 2.287557274103164673e-01 5.928447470068931580e-02 6.985165178775787354e-02 -1.887525171041488647e-01 -3.019127249717712402e-01 -1.024699062108993530e-01 -2.022136747837066650e-01 1.416920218616724014e-02 1.351449936628341675e-01 -1.211124658584594727e-01 1.871170752565376461e-05 -7.767169736325740814e-03 1.417333185672760010e-01 -2.799455523490905762e-01 -1.591930687427520752e-01 3.628397826105356216e-03 4.783568903803825378e-02 4.655921459197998047e-02 -3.940977454185485840e-01 -5.418506264686584473e-02 -1.002680212259292603e-01 2.334098517894744873e-01 4.530027974396944046e-03 -1.088069230318069458e-01 3.849318996071815491e-02 2.379944175481796265e-01 1.956085562705993652e-01 7.689119782298803329e-03 4.385304823517799377e-02 1.543782353401184082e-01 2.154955118894577026e-01 2.206220477819442749e-01 -7.924492820166051388e-06 1.566546708345413208e-01 -8.691586554050445557e-03
-1.162558123469352722e-01 -2.531041800975799561e-01 8.638180792331695557e-02 -2.235910743474960327e-01 6.561188399791717529e-02 -5.600817874073982239e-02 -2.234090818092226982e-03 -1.145362257957458496e-01 3.311813622713088989e-02 -1.019618753343820572e-02 6.952960044145584106e-02 -2.841441631317138672e-01 2.828422188758850098e-01 -3.445347025990486145e-02 -9.533981792628765106e-03 3.556570708751678467e-01 -2.706652581691741943e-01 4.524723161011934280e-03 -1.943166181445121765e-02 2.453159987926483154e-01 -9.217071533203125000e-02 1.288471370935440063e-01 -5.215961858630180359e-02 4.879545047879219055e-02 4.997907951474189758e-02 1.558993607759475708e-01 1.425298005342483521e-01 2.776064351201057434e-02 1.786523908376693726e-01 2.306603491306304932e-01 -3.157225847244262695e-01 -1.171594709157943726e-01 -3.400288149714469910e-02 2.680775523185729980e-01 -1.598539799451828003e-01 6.727518141269683838e-02 2.624240815639495850e-01 2.186512649059295654e-01 -6.289716809988021851e-02 7.476689666509628296e-02 1.568352282047271729e-01 1.360994726419448853e-01 2.448464743793010712e-02 -1.220121309161186218e-01 1.462209969758987427e-01 1.443307548761367798e-01 3.984988033771514893e-01 2.396476119756698608e-01 9.250354953110218048e-03 8.671456575393676758e-02 1.286671906709671021e-01 9.019058197736740112e-02 -9.033915400505065918e-02 -2.499201744794845581e-01 1.586769074201583862e-01 -5.073946714401245117e-02 3.483638539910316467e-02 -2.830312550067901611e-01 1.064042896032333374e-01 4.138240590691566467e-02 3.996467292308807373e-01 1.266209688037633896e-02 7.891263067722320557e-02 3.899689316749572754e-01 -1.448719799518585205e-01 2.809686120599508286e-03 -4.015945270657539368e-02 -7.681016623973846436e-02 -1.136547997593879700e-01 1.703824847936630249e-01 -6.696210056543350220e-02 -1.776876598596572876e-01 4.013661295175552368e-02 -2.840968370437622070e-01 -4.327448084950447083e-02 -7.145447283983230591e-02 -6.413632631301879883e-02 6.426642835140228271e-02 -4.219335503876209259e-03 -1.620272099971771240e-01
-1.929621547460556030e-01 1.310930773615837097e-02 1.117861494421958923e-01 3.707671537995338440e-02 -3.267304226756095886e-02 3.936227783560752869e-02 -4.835496842861175537e-02 -2.308189123868942261e-01 -1.000176742672920227e-01 -3.505062758922576904e-01 2.338921427726745605e-01 1.903993189334869385e-01 -9.429906308650970459e-02 1.797975450754165649e-01 -1.651505082845687866e-01 2.067861706018447876e-01 -2.566976547241210938e-01 -1.354057937860488892e-01 2.739462256431579590e-01 2.493308784323744476e-06 -3.194454908370971680e-01 -4.547697491943836212e-03 -3.182326853275299072e-01 8.392032980918884277e-02 2.233152091503143311e-01 5.847234278917312622e-02 6.060602515935897827e-02 2.121090143918991089e-01 1.775411963462829590e-01 1.185680180788040161e-01 -2.608211338520050049e-01 3.072664374485611916e-03 7.383349537849426270e-02 3.325923681259155273e-01 5.364787951111793518e-02 3.992969915270805359e-02 1.912127584218978882e-01 3.862661719322204590e-01 4.218983054161071777e-01 -3.978539258241653442e-02 -2.316826432943344116e-01 1.664429306983947754e-01 -2.626952528953552246e-01 -3.570316731929779053e-01 7.659939676523208618e-02 -1.756959706544876099e-01 -2.460952401161193848e-01 -3.428297862410545349e-02 -1.128962039947509766e-01 -8.330643177032470703e-02 2.467561513185501099e-01 1.383206993341445923e-01 -2.033238112926483154e-01 1.003115251660346985e-01 1.304574608802795410e-01 6.161251291632652283e-02 1.792654991149902344e-01 -3.545033931732177734e-01 -1.549136191606521606e-01 -4.166851565241813660e-02 4.675572738051414490e-03 -2.448356449604034424e-01 9.506265819072723389e-02 -2.499350011348724365e-01 -1.066567301750183105e-01 2.830296158790588379e-01 1.100716367363929749e-01 -2.526777982711791992e-01 -7.291200011968612671e-02 8.037105947732925415e-02 -1.572164297103881836e-01 2.079412192106246948e-01 -6.661142408847808838e-02 -3.657377362251281738e-01 -1.599444299936294556e-01 -7.747885584831237793e-02 -2.677224576473236084e-01 -9.717882610857486725e-03 -3.068357408046722412e-01 2.643884345889091492e-02
