9.207964874804019928e-03
5.522424820810556412e-03
1.554107386618852615e-02
-3.075617714785039425e-04
7.830507121980190277e-03
1.832539215683937073e-02
1.355494000017642975e-02
-5.230474751442670822e-03
-2.190690254792571068e-03
-1.284529455006122589e-02
6.278805085457861423e-04
8.920900523662567139e-03
-1.198030263185501099e-02
-4.803414922207593918e-03
1.089511252939701080e-02
-4.941611550748348236e-03
-1.775816548615694046e-03
4.368582740426063538e-03
-1.993062207475304604e-03
-5.387105047702789307e-03
-1.337832771241664886e-02
-6.027122028172016144e-03
2.621404267847537994e-02
-4.539403133094310760e-03
-1.184287481009960175e-02
-3.791053546592593193e-03
-7.331417873501777649e-03
4.677720740437507629e-02
-2.721623703837394714e-02
-1.853918097913265228e-02
5.995768122375011444e-03
-1.948134973645210266e-03
4.031487274914979935e-03
9.985569864511489868e-03
8.174992166459560394e-03
-1.207742281258106232e-02
1.928487443365156651e-03
5.850832443684339523e-03
9.817708283662796021e-03
2.397731645032763481e-03
