6.922671198844909668e-02 1.666879747062921524e-03 -1.262520849704742432e-01 -1.116111055016517639e-01 -7.400195300579071045e-02 2.687864303588867188e-01 1.478890925645828247e-01 8.897650986909866333e-02 1.669506132602691650e-01 1.988768130540847778e-01 9.167464822530746460e-02 -7.684192061424255371e-02 8.645736426115036011e-02 2.411128208041191101e-02 2.780869603157043457e-01 1.785051524639129639e-01 -1.310984343290328979e-01 -8.693169802427291870e-02 -2.808275222778320312e-01 2.679951786994934082e-01
1.380251199007034302e-01 -1.316861808300018311e-01 -7.580948621034622192e-02 1.678234785795211792e-01 -1.492030173540115356e-01 -8.839797228574752808e-03 1.196905449032783508e-01 1.827256381511688232e-01 1.430515795946121216e-01 5.453997105360031128e-02 3.864971175789833069e-02 -6.573975086212158203e-02 -2.018512226641178131e-02 -1.603547297418117523e-02 -8.670844882726669312e-02 1.166929826140403748e-01 5.657107755541801453e-02 -2.413549087941646576e-02 -1.358312219381332397e-01 1.186849251389503479e-01
-1.175061538815498352e-01 -1.536587625741958618e-01 -2.131743282079696655e-01 1.172052845358848572e-01 -9.377872943878173828e-02 -3.782303035259246826e-01 -3.501106053590774536e-02 -1.405875235795974731e-01 -9.619502723217010498e-02 9.549301862716674805e-02 1.529180444777011871e-02 -1.327687650918960571e-01 -2.843091487884521484e-01 1.299709174782037735e-02 -1.585669517517089844e-01 -1.281315088272094727e-01 1.646163910627365112e-01 -6.029951572418212891e-02 -9.269064292311668396e-03 1.040937453508377075e-01
