9.642380475997924805e-02 -5.936228036880493164e-01 -2.680035308003425598e-02 4.951935261487960815e-02 -3.547497093677520752e-01 2.323126494884490967e-01 1.867867559194564819e-01 4.528920352458953857e-01 -2.858237028121948242e-01 3.446797563810832798e-06 -8.200480602681636810e-03 5.069275721325539052e-05 1.979065984487533569e-01 -9.818249940872192383e-02 -6.409445405006408691e-02 5.519902706146240234e-01 1.422500908374786377e-01 5.390846133232116699e-01 -2.024860531091690063e-01 2.263632565736770630e-01 2.167621068656444550e-02 1.629415601491928101e-01 1.160116493701934814e-02 -4.508798718452453613e-01 4.533773288130760193e-02 2.737436294555664062e-01 -2.859177254140377045e-02 -4.369049966335296631e-01 5.490278601646423340e-01 2.212163209915161133e-01 2.209297865629196167e-01 -2.563253045082092285e-01 -3.913538902997970581e-02 2.770274579524993896e-01 1.963168084621429443e-01 -3.537925779819488525e-01 -2.339016050100326538e-01 -1.664092093706130981e-01 8.991320431232452393e-02 5.075898766517639160e-01 -2.911026030778884888e-02 6.025859713554382324e-01 1.602303683757781982e-01 5.561044439673423767e-03 8.340605348348617554e-02 4.104841947555541992e-01 3.224214911460876465e-01 -2.604838907718658447e-01 -6.075845956802368164e-01 2.041226774454116821e-01 1.914128214120864868e-01 -1.421473361551761627e-02 -6.142180413007736206e-02 3.516036570072174072e-01 -3.434848189353942871e-01 1.734879165887832642e-01 3.076893091201782227e-01 -5.976437032222747803e-02 -3.167251050472259521e-01 4.207187294960021973e-01 -4.162287712097167969e-02 -9.842552244663238525e-02 -4.322803914546966553e-01 3.841694593429565430e-01 -1.844727098941802979e-01 -2.233588397502899170e-01 -9.726577997207641602e-02 -4.606262743473052979e-01 -1.879022866487503052e-01 -2.441889420151710510e-02 -3.668164834380149841e-02 3.768793344497680664e-01 2.872776985168457031e-01 1.362265795469284058e-01 -2.070826303679496050e-05 -4.799802005290985107e-01 -8.999710530042648315e-02 2.640228271484375000e-01 -1.963409930467605591e-01 -4.677028860896825790e-03
-1.235283389687538147e-01 -1.481281034648418427e-02 -1.356358826160430908e-01 1.854164600372314453e-01 -5.800735950469970703e-01 9.292685240507125854e-02 1.746810525655746460e-01 1.887933462858200073e-01 -4.056237041950225830e-01 1.784536242485046387e-02 -1.147626876831054688e+00 1.788353472948074341e-01 6.602940559387207031e-01 -4.333313107490539551e-01 8.832383900880813599e-02 2.942368388175964355e-01 4.769412875175476074e-01 3.053219616413116455e-01 -2.681840658187866211e-01 4.309409856796264648e-01 -1.263082474470138550e-01 2.038118988275527954e-01 -8.036693185567855835e-02 -4.335944354534149170e-01 2.664691805839538574e-01 -4.746301099658012390e-02 1.404650602489709854e-02 -1.839794814586639404e-01 6.139476895332336426e-01 3.982929587364196777e-01 7.346556335687637329e-02 -3.637198731303215027e-02 -1.343992710113525391e+00 6.541687250137329102e-01 1.234173923730850220e-01 -2.970603108406066895e-01 -1.987945437431335449e-01 1.446583271026611328e-01 2.679802179336547852e-01 6.841149926185607910e-01 2.761212885379791260e-01 4.950208663940429688e-01 1.317626684904098511e-01 2.522022128105163574e-01 7.891308665275573730e-01 3.571770489215850830e-01 -2.632911503314971924e-01 -6.930614355951547623e-03 -6.634097695350646973e-01 3.101547062397003174e-01 2.630737125873565674e-01 9.304001182317733765e-02 -3.900179266929626465e-01 4.438492357730865479e-01 1.178677752614021301e-02 4.194539189338684082e-01 2.169433683156967163e-01 1.763063967227935791e-01 -4.204147681593894958e-02 1.332990050315856934e+00 2.869323790073394775e-01 4.708521533757448196e-03 2.003107666969299316e-01 1.814635097980499268e-01 -3.440730869770050049e-01 -1.565836817026138306e-01 -8.440997451543807983e-02 -6.476727128028869629e-01 -3.456465601921081543e-01 2.974231243133544922e-01 -4.026372730731964111e-01 1.771767809987068176e-02 -1.180284097790718079e-01 1.377072483301162720e-01 -4.582772776484489441e-02 -5.891994833946228027e-01 -1.674536913633346558e-01 -2.579881846904754639e-01 -5.584847331047058105e-01 -4.813226163387298584e-01
-4.247309267520904541e-02 -8.950154185295104980e-01 -8.097357153892517090e-01 5.155074596405029297e-01 -3.220399618148803711e-01 -1.013745144009590149e-01 2.891025245189666748e-01 1.228329166769981384e-01 -4.334591925144195557e-01 -2.688592672348022461e-01 -5.373445153236389160e-01 3.385994136333465576e-01 -1.218812242150306702e-01 4.772214379045180976e-05 -5.152937228558585048e-05 4.732671976089477539e-01 6.734663248062133789e-01 1.369774192571640015e-01 -2.505377233028411865e-01 5.527473092079162598e-01 -8.149192668497562408e-03 2.824844121932983398e-01 -3.572399616241455078e-01 -1.494575738906860352e-01 -1.151207610964775085e-01 2.000139802694320679e-01 1.079263240098953247e-01 -2.571589648723602295e-01 4.271647632122039795e-01 -1.711886674165725708e-01 -6.491277217864990234e-01 -2.740952968597412109e-01 2.683357000350952148e-01 2.777285277843475342e-01 3.434036299586296082e-02 -1.340352185070514679e-02 -3.068662062287330627e-02 -1.324321143329143524e-02 4.485269188880920410e-01 1.019571900367736816e+00 -5.640582367777824402e-02 -5.247565917670726776e-03 1.582766771316528320e-01 6.947360038757324219e-01 -4.455318450927734375e-01 5.876300334930419922e-01 1.862175464630126953e-01 -1.885505765676498413e-01 -2.285122722387313843e-01 -4.793961644172668457e-01 5.157405734062194824e-01 5.780310928821563721e-02 -5.370633602142333984e-01 6.156113743782043457e-01 -4.947845041751861572e-01 1.878693550825119019e-01 6.169665139168500900e-03 1.105332672595977783e-01 -2.537590265274047852e-01 1.265370965003967285e+00 1.973986811935901642e-02 2.024299837648868561e-02 -3.281573951244354248e-01 2.986476123332977295e-01 -5.958433747291564941e-01 7.289879024028778076e-02 -1.468307077884674072e-01 -1.207392334938049316e+00 -6.843510866165161133e-01 -7.567597180604934692e-02 -2.410605847835540771e-01 8.519692420959472656e-01 5.176635980606079102e-01 2.500080130994319916e-02 -3.608332574367523193e-02 -5.999594926834106445e-01 -8.282640576362609863e-02 4.285910725593566895e-01 -5.918383598327636719e-01 -2.468627244234085083e-01
4.864072892814874649e-03 5.021715164184570312e-01 5.585285425186157227e-01 4.992818087339401245e-02 1.543640494346618652e-01 -1.446004211902618408e-01 7.780486345291137695e-02 -4.109445810317993164e-01 3.214066475629806519e-02 1.931093931198120117e-01 3.216052353382110596e-01 -2.038392703980207443e-03 -2.023935616016387939e-01 3.677964806556701660e-01 -1.220008358359336853e-01 -3.428021669387817383e-01 -1.702205836772918701e-01 -9.129653871059417725e-02 1.635019779205322266e-01 -2.662488818168640137e-02 1.545711457729339600e-01 2.308369427919387817e-02 -1.881762035191059113e-02 3.232348561286926270e-01 -9.430218487977981567e-02 -3.342815041542053223e-01 -6.056421995162963867e-02 2.442040592432022095e-01 -1.793590784072875977e-01 -2.102678641676902771e-02 6.676853895187377930e-01 3.161211013793945312e-01 2.662667632102966309e-01 1.050794199109077454e-01 -6.879878044128417969e-02 -5.242965742945671082e-02 5.110832452774047852e-01 2.530933618545532227e-01 1.546628028154373169e-01 -4.855317175388336182e-01 4.276909232139587402e-01 -1.322554051876068115e-01 2.035335783148184419e-04 -5.505648255348205566e-01 2.404440492391586304e-01 7.190674077719449997e-03 -2.824223637580871582e-01 -8.122529089450836182e-02 4.683573842048645020e-01 8.554160594940185547e-01 -1.495635360479354858e-01 -7.239162176847457886e-02 -1.371799111366271973e-01 -2.193061560392379761e-01 5.515934228897094727e-01 -3.144007623195648193e-01 -1.080734133720397949e-01 8.588440716266632080e-02 4.442656934261322021e-01 -6.008532047271728516e-01 -2.908714413642883301e-01 -7.356141507625579834e-02 4.479407370090484619e-01 -7.612980902194976807e-02 1.796430647373199463e-01 7.546842098236083984e-03 3.099924698472023010e-02 1.004474878311157227e+00 -1.588934212923049927e-01 -3.088624775409698486e-01 -2.034257203340530396e-01 -6.145931482315063477e-01 -6.489244103431701660e-01 -7.287994027137756348e-02 1.377541571855545044e-01 -9.682389645604416728e-08 -8.501648902893066406e-02 2.206389605998992920e-01 -1.157433763146400452e-01 2.556095719337463379e-01
2.416820451617240906e-02 -2.570879161357879639e-01 -2.965171635150909424e-01 7.409844547510147095e-02 6.122088059782981873e-02 1.929351538419723511e-01 -1.051122471690177917e-01 4.502969384193420410e-01 1.778258047124836594e-05 6.791433785110712051e-03 -1.572214514017105103e-01 -9.680622071027755737e-02 1.005265414714813232e-01 4.141912758350372314e-01 -1.847839951515197754e-01 5.406404137611389160e-01 3.713585436344146729e-01 -1.068214550614356995e-01 4.719070158898830414e-03 3.529238700866699219e-02 1.595184803009033203e-01 -2.329028099775314331e-01 3.090638294816017151e-02 -2.283391077071428299e-03 -4.655682668089866638e-02 6.514225155115127563e-02 -1.248063170351088047e-03 1.150124613195657730e-02 1.447533369064331055e-01 2.226970158517360687e-03 1.111028622835874557e-02 5.367719754576683044e-02 -8.837332576513290405e-02 -1.356554776430130005e-02 -6.289629265666007996e-03 -3.133565187454223633e-01 1.011944655328989029e-02 8.382854610681533813e-02 4.965885728597640991e-02 2.670362293720245361e-01 -1.465222835540771484e-01 2.021777927875518799e-01 3.804680332541465759e-02 2.209410220384597778e-01 3.596776425838470459e-01 2.352207899093627930e-01 -2.857826417312026024e-03 -1.290063373744487762e-02 -2.801640927791595459e-01 -5.713980179280042648e-03 1.434256434440612793e-01 -1.127067804336547852e-01 2.206586115062236786e-02 2.910269796848297119e-01 -1.565771251916885376e-01 -2.437576055526733398e-01 -1.297634840011596680e-01 2.432459443807601929e-01 1.775533258914947510e-01 2.698953747749328613e-01 -3.850255906581878662e-01 4.195680376142263412e-03 -9.967355430126190186e-02 -2.015098482370376587e-01 -2.160393446683883667e-01 1.288541555404663086e-01 -4.758580029010772705e-01 2.460153847932815552e-01 -4.001369234174489975e-03 2.183398604393005371e-02 5.478566884994506836e-02 1.273302175104618073e-02 4.427371323108673096e-01 -1.064984574913978577e-01 2.396344542503356934e-01 1.744827330112457275e-01 1.633695662021636963e-01 1.997560858726501465e-01 3.426288720220327377e-03 -2.025839686393737793e-01
-2.075573243200778961e-02 3.217159509658813477e-01 2.586353719234466553e-01 -8.911284804344177246e-02 4.479674622416496277e-02 -3.680745794554241002e-05 1.254720985889434814e-01 6.630617380142211914e-02 1.897451728582382202e-01 2.275672554969787598e-01 5.009065270423889160e-01 2.879824936389923096e-01 -1.725486218929290771e-01 6.548138707876205444e-02 -5.552760884165763855e-02 -1.568765044212341309e-01 -1.251494586467742920e-01 3.482717147562652826e-06 2.540574371814727783e-01 -3.150544166564941406e-01 -4.432428628206253052e-02 1.666550040245056152e-01 1.922720670700073242e-01 2.552908658981323242e-02 -1.655032187700271606e-01 2.421912997961044312e-01 3.174052238464355469e-01 -1.359844356775283813e-01 -5.275504663586616516e-03 -2.170207351446151733e-02 1.354269385337829590e-01 5.295372605323791504e-01 2.554736137390136719e-01 -4.335862100124359131e-01 -1.049069315195083618e-01 2.802574634552001953e-01 9.047715365886688232e-02 -1.774552166461944580e-01 -1.107781566679477692e-02 -5.906766653060913086e-01 4.000110924243927002e-01 9.248504042625427246e-02 -3.041667863726615906e-02 -3.630113005638122559e-01 -2.637119293212890625e-01 -2.231215834617614746e-01 4.869404137134552002e-01 -3.573691472411155701e-02 -7.459107786417007446e-02 2.753413021564483643e-01 2.367038279771804810e-01 3.944708034396171570e-02 1.171372830867767334e-01 2.503557801246643066e-01 3.969949185848236084e-01 -8.073417702689766884e-04 8.187853544950485229e-02 -2.427829355001449585e-01 -4.088960215449333191e-02 -3.168171644210815430e-01 1.834415644407272339e-01 3.187292441725730896e-02 2.321260581084061414e-05 -4.001138508319854736e-01 1.438145786523818970e-01 3.214089199900627136e-03 3.246222734451293945e-01 4.591061472892761230e-01 3.996273502707481384e-02 -3.908527493476867676e-01 -3.560757249942980707e-05 -2.276221215724945068e-01 1.413086056709289551e-01 -6.276645511388778687e-02 -1.665356010198593140e-01 -4.625044390559196472e-02 -1.958206593990325928e-01 1.643136441707611084e-01 1.107962708920240402e-02 2.208389490842819214e-01
1.778015345335006714e-01 3.605883717536926270e-01 2.979689836502075195e-01 5.705966427922248840e-02 2.144484370946884155e-01 -2.444045543670654297e-01 6.624197214841842651e-02 -3.053777813911437988e-01 3.897192180156707764e-01 1.449331492185592651e-01 3.267107009887695312e-01 -2.600687444210052490e-01 6.832785904407501221e-02 1.577654629945755005e-01 -2.021909356117248535e-01 -2.455012500286102295e-01 -2.265863493084907532e-02 7.886439561843872070e-03 1.580307334661483765e-01 -2.083597183227539062e-01 -7.474719732999801636e-02 -1.404997520148754120e-02 -1.338689029216766357e-01 3.852012753486633301e-02 2.748769819736480713e-01 -3.083953261375427246e-01 -1.564205139875411987e-01 5.007193612982518971e-05 -3.350563943386077881e-01 -1.450718790292739868e-01 6.132310032844543457e-01 1.321065425872802734e-01 1.166056767106056213e-01 5.923709645867347717e-02 8.041990548372268677e-02 3.960005640983581543e-01 1.312182992696762085e-01 2.583928406238555908e-02 -6.853198260068893433e-02 -5.354799032211303711e-01 1.661680452525615692e-02 -1.514403223991394043e-01 -7.470279186964035034e-02 -3.794787824153900146e-01 -1.789983063936233521e-01 8.959662169218063354e-02 -1.849875003099441528e-01 3.880060836672782898e-02 4.297747910022735596e-01 8.270056247711181641e-01 -1.973756402730941772e-01 -1.018946915864944458e-01 1.012590527534484863e-01 -2.004556506872177124e-01 5.506179332733154297e-01 -1.140399742871522903e-02 -1.488398313522338867e-01 3.652786910533905029e-01 -8.063402958214282990e-03 -6.319267749786376953e-01 4.037490487098693848e-02 1.911492049694061279e-01 8.722393959760665894e-02 -3.122707270085811615e-02 3.109021782875061035e-01 -9.712316840887069702e-02 1.888423562049865723e-01 7.979383468627929688e-01 5.073192715644836426e-02 -9.935045382007956505e-04 6.286834925413131714e-02 -1.042766347527503967e-01 -1.288789391517639160e+00 -2.371456772089004517e-01 3.365789598319679499e-05 1.255696713924407959e-01 7.454062597389565781e-06 1.402607709169387817e-01 3.225453197956085205e-03 4.521384239196777344e-01
-3.321596384048461914e-01 -2.902271226048469543e-02 -3.095838129520416260e-01 7.968506962060928345e-02 3.184003233909606934e-01 3.815838098526000977e-01 -1.324590388685464859e-02 -2.905621565878391266e-02 -2.077237665653228760e-01 -9.099842607975006104e-02 -3.736852705478668213e-01 2.439111173152923584e-01 3.930866122245788574e-01 1.167957112193107605e-01 3.902166783809661865e-01 4.376424849033355713e-02 -2.793372571468353271e-01 -9.609481692314147949e-02 -1.242353115230798721e-02 4.322053492069244385e-01 -1.506868470460176468e-02 -4.235278069972991943e-02 7.942661643028259277e-02 6.865201890468597412e-02 2.152948291040956974e-04 1.418481115251779556e-03 -8.015342056751251221e-02 -7.529792934656143188e-02 2.376946955919265747e-01 3.642494678497314453e-01 -6.748997569084167480e-01 -1.315039694309234619e-01 8.700271695852279663e-02 -3.288007676601409912e-01 2.840034961700439453e-01 -6.263379007577896118e-02 1.334761977195739746e-01 -2.631197571754455566e-01 2.021179907023906708e-02 4.026720300316810608e-02 -3.693443431984633207e-04 -6.579127907752990723e-02 2.325208298861980438e-02 5.421222746372222900e-02 3.552587330341339111e-01 -2.013325095176696777e-01 4.166112840175628662e-01 1.844445616006851196e-01 -1.469275355339050293e-01 -4.727512896060943604e-01 -2.705773413181304932e-01 1.535646915435791016e-01 1.710719019174575806e-01 -2.130986154079437256e-01 -7.500172406435012817e-02 1.065754986484535038e-06 1.361906342208385468e-02 -7.002265006303787231e-02 4.340750724077224731e-02 4.907877445220947266e-01 2.504669427871704102e-01 -8.077456186583731323e-06 -8.326673507690429688e-02 -4.957612138241529465e-03 2.289182245731353760e-01 2.215026179328560829e-03 -1.860830634832382202e-01 -3.984325528144836426e-01 -1.801995746791362762e-02 5.484781414270401001e-02 -2.667393535375595093e-02 2.091016806662082672e-02 7.814370989799499512e-01 -2.316236495971679688e-01 -3.083659410476684570e-01 3.504367172718048096e-01 -7.756156474351882935e-02 -3.311053290963172913e-02 2.629695236682891846e-01 -3.694361448287963867e-01
1.831556111574172974e-01 6.362665891647338867e-01 2.935607135295867920e-01 1.617960073053836823e-02 5.145002529025077820e-02 3.056447803974151611e-01 2.038257196545600891e-02 -1.026648133993148804e-01 6.171315908432006836e-01 4.726320207118988037e-01 6.680889129638671875e-01 4.757783972308970988e-05 -5.823102593421936035e-01 6.730540841817855835e-02 -3.709402084350585938e-01 -4.276804029941558838e-01 -1.072755455970764160e-01 -1.371964663267135620e-01 5.093126744031906128e-02 -1.471477895975112915e-01 -2.181797772645950317e-01 1.733847966534085572e-05 -2.401899918913841248e-02 3.925705254077911377e-01 -4.132223427295684814e-01 -3.884430602192878723e-02 1.012457311153411865e-01 -2.478552778484299779e-05 -6.528697013854980469e-01 -1.265303343534469604e-01 2.465061098337173462e-01 4.305730760097503662e-01 5.547179579734802246e-01 -7.344078272581100464e-02 -2.146393805742263794e-02 7.690904140472412109e-01 4.538082778453826904e-01 -2.011352926492691040e-01 -1.367362886667251587e-01 -8.985211849212646484e-01 3.154471814632415771e-01 -2.304822653532028198e-01 2.292115092277526855e-01 -4.313969612121582031e-01 -4.574220776557922363e-01 -6.300140619277954102e-01 -5.852034315466880798e-02 3.634634241461753845e-02 5.089287757873535156e-01 -8.700384944677352905e-02 -1.349944174289703369e-01 -1.547122597694396973e-01 2.670488059520721436e-01 1.044850721955299377e-01 7.139537334442138672e-01 -2.504454851150512695e-01 1.140857208520174026e-02 -1.772242784500122070e-01 1.552156824618577957e-02 -1.438936114311218262e+00 1.986520141363143921e-01 -5.429452285170555115e-03 -2.478912323713302612e-01 -3.651750981807708740e-01 2.535466253757476807e-01 -6.198919191956520081e-02 1.867475658655166626e-01 9.083310961723327637e-01 8.576288074254989624e-02 -3.142670989036560059e-01 -1.383218616247177124e-01 -2.835331261157989502e-01 -3.821366429328918457e-01 -1.141843423247337341e-01 -6.000269949436187744e-02 7.460071146488189697e-02 1.173566488432697952e-07 4.697657227516174316e-01 2.209969907999038696e-01 3.468074500560760498e-01
-1.487793922424316406e-01 2.301073670387268066e-01 3.977433443069458008e-01 -2.385544925928115845e-01 3.582178652286529541e-01 -8.677021414041519165e-02 3.728177770972251892e-02 -2.820696234703063965e-01 1.591478884220123291e-01 6.023462116718292236e-02 1.364177167415618896e-01 3.399239182472229004e-01 4.065284132957458496e-02 1.003454849123954773e-01 -1.202703104354441166e-03 -4.213736355304718018e-01 -2.692310810089111328e-01 -2.898254692554473877e-01 -3.648847937583923340e-01 -1.471615135669708252e-01 -5.279292464256286621e-01 7.255414873361587524e-02 3.125958144664764404e-01 -1.424617171287536621e-01 2.650339007377624512e-01 1.020416840910911560e-01 2.382421791553497314e-01 -4.759024456143379211e-02 -8.234347403049468994e-02 2.643411606550216675e-02 -4.432950317859649658e-01 -2.599705755710601807e-02 -1.063084453344345093e-01 -3.584518134593963623e-01 2.712288796901702881e-01 1.914536058902740479e-01 5.336489528417587280e-02 -1.048915907740592957e-01 -1.514262855052947998e-01 -3.359750509262084961e-01 1.781328767538070679e-01 2.045402303338050842e-02 -6.608366966247558594e-02 8.412954775849357247e-05 -7.745711505413055420e-02 -1.314960569143295288e-01 2.025543153285980225e-01 3.194767236709594727e-01 3.244070410728454590e-01 -6.956965327262878418e-01 -3.000099062919616699e-01 1.065930873155593872e-01 2.726006507873535156e-01 -4.815937876701354980e-01 -3.088791854679584503e-02 2.080942392349243164e-01 4.016339778900146484e-01 -1.005206555128097534e-01 -1.731395870447158813e-01 -3.251872360706329346e-01 -1.039947420358657837e-01 -3.607808053493499756e-01 -4.594682455062866211e-01 -1.603729091584682465e-02 1.685655303299427032e-02 -8.544218540191650391e-02 1.002816203981637955e-02 6.089202314615249634e-02 1.966142952442169189e-01 4.515387117862701416e-03 -1.906166523694992065e-01 2.211823165416717529e-01 2.136014401912689209e-01 -4.623121023178100586e-01 -1.738404738716781139e-03 4.746435880661010742e-01 -3.010182082653045654e-02 3.270544484257698059e-02 8.577385544776916504e-02 4.085505753755569458e-02
1.276172418147325516e-02 -4.436257854104042053e-02 2.973484694957733154e-01 2.482807636260986328e-01 1.926128566265106201e-02 -2.126834727823734283e-02 8.956100791692733765e-04 4.320542514324188232e-01 1.021046414971351624e-01 1.592390835285186768e-01 1.085095107555389404e-03 1.696832329034805298e-01 8.533831685781478882e-03 1.153989285230636597e-01 1.970962062478065491e-02 3.577705845236778259e-02 2.982331514358520508e-01 6.192715093493461609e-02 -4.117466881871223450e-02 2.367503568530082703e-02 1.256333142518997192e-01 -3.318053859402425587e-05 -4.112018048763275146e-01 1.688751131296157837e-01 2.540740370750427246e-01 -1.330230385065078735e-01 -1.166000515222549438e-01 9.955349564552307129e-02 -2.059674710035324097e-01 -1.385472714900970459e-01 7.666380405426025391e-01 3.022311925888061523e-01 3.186768889427185059e-01 3.804981708526611328e-01 4.167790059000253677e-03 9.630995243787765503e-02 1.129557937383651733e-01 8.812268788460642099e-05 -9.933891892433166504e-02 -1.382901370525360107e-01 1.150849685072898865e-01 -2.353463321924209595e-01 -2.232795953750610352e-01 -2.890306413173675537e-01 -2.095420211553573608e-01 -6.618438661098480225e-02 -1.977948844432830811e-01 9.107398241758346558e-02 6.739834696054458618e-02 8.564476370811462402e-01 2.859662175178527832e-01 1.477119745686650276e-03 -3.921334147453308105e-01 -5.327275767922401428e-02 2.252482920885086060e-01 -3.017511335201561451e-05 -9.513530135154724121e-02 -7.633253186941146851e-02 8.450891822576522827e-02 -8.106098771095275879e-01 1.116535440087318420e-02 1.804568320512771606e-01 2.163824886083602905e-01 -2.040638178586959839e-01 -3.170083165168762207e-01 2.372726202011108398e-01 1.020197495818138123e-01 8.703008890151977539e-01 -1.233636513352394104e-01 -1.004357263445854187e-02 -3.335376828908920288e-02 -1.442455202341079712e-01 -1.116090536117553711e+00 2.103344798088073730e-01 2.078887224197387695e-01 -3.276624977588653564e-01 1.398243755102157593e-01 1.908967941999435425e-01 -6.123868282884359360e-03 9.707902371883392334e-02
-2.156758159399032593e-01 5.656332373619079590e-01 5.997112989425659180e-01 -4.974672794342041016e-01 4.818252325057983398e-01 6.747291237115859985e-02 -3.796650767326354980e-01 -6.466239690780639648e-01 2.792141735553741455e-01 5.970551073551177979e-02 2.653263211250305176e-01 -6.293578445911407471e-02 -2.214492112398147583e-02 -1.587416231632232666e-02 1.666743457317352295e-01 -5.463653206825256348e-01 -5.559591054916381836e-01 8.029073476791381836e-02 1.233660802245140076e-01 1.394946873188018799e-01 -2.875699102878570557e-01 -1.593122929334640503e-01 4.135028719902038574e-01 6.672372221946716309e-01 9.600961208343505859e-02 8.766843378543853760e-02 9.498488903045654297e-02 6.652857700828462839e-05 -3.555277884006500244e-01 1.379177123308181763e-01 -2.208131402730941772e-01 2.375034540891647339e-01 -3.024985492229461670e-01 -4.805358350276947021e-01 -2.680759429931640625e-01 3.224446177482604980e-01 5.541011318564414978e-02 2.983659942401573062e-05 -6.317731738090515137e-01 -8.740487098693847656e-01 5.886644497513771057e-02 -3.611087203025817871e-01 -1.670566946268081665e-01 -1.974263340234756470e-01 3.408410251140594482e-01 -5.673227906227111816e-01 -1.623558998107910156e-02 9.438552707433700562e-02 5.222209692001342773e-01 -4.308180510997772217e-01 -4.988594055175781250e-01 1.186766177415847778e-01 5.831425786018371582e-01 -7.723559737205505371e-01 1.649763137102127075e-01 -1.850887238979339600e-01 -2.053605159744620323e-03 1.085044220089912415e-01 -6.178854778409004211e-02 -6.050854325294494629e-01 -4.899213090538978577e-02 -2.000232338905334473e-01 6.242528185248374939e-02 -1.379386335611343384e-01 6.189671158790588379e-01 -1.672047525644302368e-01 -5.796841159462928772e-02 4.555324912071228027e-01 4.505873620510101318e-01 7.776258140802383423e-02 5.931130424141883850e-02 -4.111644327640533447e-01 3.829908668994903564e-01 -2.720809578895568848e-01 -9.495337508269585669e-06 4.907422065734863281e-01 -2.755246896413154900e-05 -3.788556158542633057e-01 7.557588219642639160e-01 1.539679467678070068e-01
2.578816749155521393e-02 3.178998455405235291e-02 2.923569083213806152e-01 1.033398732542991638e-01 -2.952181100845336914e-01 -2.341679781675338745e-01 3.566961884498596191e-01 -2.524615079164505005e-02 -2.227715998888015747e-01 -1.862993836402893066e-01 -2.978712320327758789e-01 -1.446582525968551636e-01 -2.089384347200393677e-01 1.976391822099685669e-01 -2.240938991308212280e-01 -1.818868219852447510e-01 1.786513179540634155e-01 -1.816311925649642944e-01 -1.438801176846027374e-02 -3.031127899885177612e-02 2.869695425033569336e-02 -3.861129283905029297e-01 -4.652824401855468750e-01 8.857470750808715820e-02 1.338247656822204590e-01 -1.890717446804046631e-01 -4.293311014771461487e-02 2.706417441368103027e-01 -8.361588232219219208e-03 9.917709231376647949e-02 4.423673152923583984e-01 7.641790900379419327e-03 -3.183613121509552002e-01 1.267521679401397705e-01 -4.388489469420164824e-05 -1.365479920059442520e-02 3.251054286956787109e-01 7.122296839952468872e-02 4.199723303318023682e-01 1.603389345109462738e-02 2.255056239664554596e-02 -8.817872405052185059e-02 -3.765135770663619041e-04 -3.951834142208099365e-02 -5.687612295150756836e-02 -3.699958324432373047e-02 -1.690404266119003296e-01 -3.173803091049194336e-01 3.341076374053955078e-01 1.035175204277038574e+00 2.480545826256275177e-02 -2.282053679227828979e-01 -6.114939600229263306e-02 1.720623522996902466e-01 -2.432631701231002808e-02 -3.610556200146675110e-02 2.125027775764465332e-01 1.280672848224639893e-01 8.892134577035903931e-02 -3.971370756626129150e-01 1.181481480598449707e-01 2.016492336988449097e-01 1.915706694126129150e-01 -2.230030447244644165e-01 -3.941853716969490051e-02 -9.907969273626804352e-03 -1.147296372801065445e-02 1.041734516620635986e-01 -2.016194462776184082e-01 1.631825715303421021e-01 9.813582897186279297e-02 1.704339683055877686e-01 -1.032197237014770508e+00 -3.384036943316459656e-02 1.140413284301757812e-01 -4.796571433544158936e-01 -2.130223624408245087e-02 -2.392942607402801514e-01 -4.509167373180389404e-01 9.626544397178804502e-07
3.232356011867523193e-01 -1.714477092027664185e-01 1.469750404357910156e-01 -5.086168274283409119e-02 -1.099117845296859741e-01 4.841389134526252747e-02 -3.363233432173728943e-02 -2.624867856502532959e-01 2.952148020267486572e-02 -6.849738955497741699e-02 -2.055574655532836914e-01 1.588702350854873657e-01 -4.131953790783882141e-02 5.370992766984272748e-06 -1.085613742470741272e-01 2.589758113026618958e-02 3.099633455276489258e-01 1.658112853765487671e-01 4.890509694814682007e-02 2.203110046684741974e-02 8.406251668930053711e-02 -7.759285718202590942e-02 -1.317492336966097355e-03 2.468426078557968140e-01 -1.633456051349639893e-01 -8.646892011165618896e-02 -3.117797672748565674e-01 2.161994725465774536e-01 -1.346328295767307281e-02 -3.081744313240051270e-01 5.610112100839614868e-02 2.392700314521789551e-01 1.924661844968795776e-01 4.168338477611541748e-01 -1.236528456211090088e-01 -6.121610850095748901e-02 2.287085354328155518e-01 7.682915776968002319e-02 4.174471199512481689e-01 2.724435031414031982e-01 -2.631099820137023926e-01 -8.856443315744400024e-02 7.331331074237823486e-02 -7.177037745714187622e-02 3.120522946119308472e-02 3.882447490468621254e-03 -1.093864440917968750e-01 4.660440608859062195e-02 -2.732756733894348145e-02 5.039319396018981934e-01 3.447106182575225830e-01 -2.010947018861770630e-01 3.310750424861907959e-02 3.986217677593231201e-01 3.480377495288848877e-01 -1.417765270161908120e-05 -1.888420246541500092e-02 1.050460636615753174e-01 7.480720430612564087e-02 -1.369128823280334473e-01 -1.719462125038262457e-05 3.621209859848022461e-01 2.870712876319885254e-01 1.149717643857002258e-01 3.506123647093772888e-02 2.487317770719528198e-01 1.807606713555287570e-05 2.330504804849624634e-01 -1.292300820350646973e-01 -3.342182636260986328e-01 -2.269184142351150513e-01 -2.760439813137054443e-01 -6.096687912940979004e-01 3.263986110687255859e-01 3.404707610607147217e-01 -1.053223758935928345e-01 2.260184010083321482e-05 6.800668314099311829e-03 -1.875775307416915894e-01 1.426433306187391281e-02
-1.203288137912750244e-01 2.878736555576324463e-01 5.615329146385192871e-01 -4.075230062007904053e-01 -9.951271116733551025e-03 -1.596518754959106445e-01 -3.570412993431091309e-01 -1.787122935056686401e-01 2.793960571289062500e-01 3.683620989322662354e-01 6.672232747077941895e-01 -3.941313028335571289e-01 4.844674170017242432e-01 -2.103568613529205322e-01 3.180147111415863037e-01 -2.847107052803039551e-01 -3.968597352504730225e-01 -3.440499305725097656e-02 3.663220629096031189e-02 -4.391131997108459473e-01 1.677706539630889893e-01 -3.811658322811126709e-01 1.507792919874191284e-01 -1.987068355083465576e-01 4.405815899372100830e-01 -2.556433081626892090e-01 -4.295778926461935043e-03 2.662145793437957764e-01 -1.289675235748291016e-01 6.477022767066955566e-01 -7.862000167369842529e-02 2.426409162580966949e-02 -9.009928107261657715e-01 -4.459387063980102539e-01 -7.374900579452514648e-02 -4.283046424388885498e-01 1.147704496979713440e-01 3.359087109565734863e-01 -7.771094441413879395e-01 -1.029760599136352539e+00 3.643639013171195984e-02 4.416637718677520752e-01 -1.703134775161743164e-01 -3.258989453315734863e-01 7.846745252609252930e-01 -8.210011571645736694e-02 2.503501437604427338e-02 -2.600784413516521454e-03 2.162418812513351440e-01 -3.814994394779205322e-01 -7.856687903404235840e-01 2.438496500253677368e-01 3.919969499111175537e-01 -6.678766012191772461e-01 5.932385921478271484e-01 5.270592868328094482e-02 -2.267272025346755981e-01 5.408093333244323730e-01 1.635619066655635834e-02 -2.700863592326641083e-02 -1.627881824970245361e-02 -8.590000867843627930e-02 4.367084428668022156e-02 1.680026948451995850e-01 7.029521465301513672e-01 -5.227129161357879639e-02 -3.697491288185119629e-01 4.358559250831604004e-01 4.484727084636688232e-01 2.414216697216033936e-01 5.264496207237243652e-01 -1.945655494928359985e-01 7.813739180564880371e-01 1.191744133830070496e-01 2.532823085784912109e-01 5.356895923614501953e-01 1.477315369993448257e-02 -4.878350198268890381e-01 6.431110501289367676e-01 3.567119240760803223e-01
-7.872281223535537720e-02 -2.965747714042663574e-01 -3.395168483257293701e-01 9.776133298873901367e-02 -3.802931606769561768e-01 -2.041673958301544189e-01 2.270601689815521240e-01 1.167055889964103699e-01 -6.862255930900573730e-02 -7.702971994876861572e-02 -6.496961712837219238e-01 -1.504367589950561523e-01 -2.559372782707214355e-02 -2.975391782820224762e-02 1.836387068033218384e-02 5.724443122744560242e-03 5.415830612182617188e-01 4.861467480659484863e-01 -8.164010941982269287e-02 1.329222321510314941e-01 3.247524499893188477e-01 1.013305634260177612e-01 -5.605666041374206543e-01 -3.831996917724609375e-01 -1.824370352551341057e-03 -2.513824217021465302e-02 -3.452720344066619873e-01 -1.989027857780456543e-02 -7.567264139652252197e-03 1.033602878451347351e-01 1.286661624908447266e-01 -2.831258773803710938e-01 3.241693601012229919e-02 6.879144310951232910e-01 -4.090001061558723450e-02 -5.400432200985960662e-05 4.870539851253852248e-05 7.227041351143270731e-05 5.341161489486694336e-01 7.410409450531005859e-01 5.963211879134178162e-02 7.950474321842193604e-02 -1.795690506696701050e-01 4.137771204113960266e-02 3.663497511297464371e-03 5.666720971930772066e-05 -1.248582545667886734e-02 4.355924902483820915e-04 -1.794878393411636353e-01 9.226739406585693359e-01 6.155880093574523926e-01 3.159584850072860718e-02 -6.216366291046142578e-01 5.074633359909057617e-01 -1.642900332808494568e-02 8.304668962955474854e-02 -1.267738789319992065e-01 1.931924819946289062e-01 -2.806180529296398163e-02 6.196343898773193359e-01 4.365237429738044739e-02 6.292131543159484863e-02 2.955693602561950684e-01 2.862866818904876709e-01 -2.509586811065673828e-01 -8.730877743801102042e-05 2.679979801177978516e-02 -5.833601355552673340e-01 -2.559656202793121338e-01 2.308934181928634644e-02 -3.277342393994331360e-02 1.408918797969818115e-01 -6.294227242469787598e-01 -1.576569117605686188e-02 7.636460941284894943e-05 -5.459532141685485840e-01 1.442726850509643555e-01 1.298742294311523438e-01 -5.399005413055419922e-01 -5.479186400771141052e-02
-1.559899151325225830e-01 8.893797546625137329e-02 -2.613958669826388359e-03 3.074798882007598877e-01 -1.192718595266342163e-01 -2.256060242652893066e-01 4.434231519699096680e-01 -2.775257527828216553e-01 8.718488365411758423e-02 -4.107142239809036255e-02 -5.216947942972183228e-02 7.433131337165832520e-02 6.446463614702224731e-02 1.115504577755928040e-01 2.822058741003274918e-03 1.150643005967140198e-01 8.889217674732208252e-02 1.581214666366577148e-01 3.422002792358398438e-01 -4.150993525981903076e-01 1.875286102294921875e-01 1.034683547914028168e-02 -3.574760854244232178e-01 1.605725735425949097e-01 2.623530104756355286e-02 -1.511314660310745239e-01 6.452490389347076416e-02 2.386506821494549513e-05 9.355525672435760498e-02 1.749408431351184845e-03 3.678472042083740234e-01 2.837540805339813232e-01 3.336529135704040527e-01 -8.296756446361541748e-02 -7.766340672969818115e-02 1.770638773450627923e-04 1.682104468345642090e-01 1.845954656600952148e-01 8.728288114070892334e-02 1.551903039216995239e-01 1.143213286995887756e-01 1.497137099504470825e-01 -2.031861394643783569e-01 -7.093660533428192139e-02 4.544929787516593933e-02 1.431737840175628662e-01 -4.908282458782196045e-01 -8.515165746212005615e-02 -7.456385344266891479e-02 8.388789892196655273e-01 2.529007494449615479e-01 -1.604883223772048950e-01 -2.597405314445495605e-01 9.237999469041824341e-02 1.985392421483993530e-01 -1.512900441884994507e-01 3.766549751162528992e-03 -2.774842828512191772e-02 9.800361096858978271e-02 -2.383480519056320190e-01 -3.289114534854888916e-01 2.479534409940242767e-02 1.924297511577606201e-01 -2.957725524902343750e-01 -1.142534017562866211e-01 2.087958306074142456e-01 -2.356142848730087280e-01 8.384913206100463867e-01 -1.303579956293106079e-01 -4.281190633773803711e-01 -4.890350252389907837e-02 -1.301603019237518311e-02 -4.447671175003051758e-01 1.490938812494277954e-01 3.820165097713470459e-01 -1.649801270104944706e-03 9.566380083560943604e-02 -7.461998611688613892e-02 -1.118771284818649292e-01 3.791070729494094849e-02
-1.665246188640594482e-01 2.865810394287109375e-01 1.065730005502700806e-01 4.522007657214999199e-05 -2.621760591864585876e-03 1.440655589103698730e-01 -3.214944303035736084e-01 1.182626634836196899e-01 3.512207651510834694e-03 1.018060487695038319e-03 4.449455812573432922e-02 2.656846344470977783e-01 6.476301699876785278e-02 -8.045952767133712769e-02 1.459865365177392960e-02 -2.645071968436241150e-02 -1.173230707645416260e-01 5.256426054984331131e-03 -1.578641533851623535e-01 -5.060151591897010803e-02 -8.670265227556228638e-02 3.368301987648010254e-01 2.975535392761230469e-01 -1.213699765503406525e-02 1.769800037145614624e-01 4.307527706259861588e-05 4.304541349411010742e-01 -7.956260815262794495e-03 -3.427232801914215088e-01 3.757387399673461914e-02 -3.048848509788513184e-01 2.016363143920898438e-01 -9.961540997028350830e-02 -4.225412607192993164e-01 3.401530981063842773e-01 3.761017024517059326e-01 -1.595862209796905518e-01 -2.123355418443679810e-01 -3.260635435581207275e-01 -2.340352684259414673e-01 1.098952218890190125e-01 2.994334399700164795e-01 5.905993748456239700e-03 -3.385472297668457031e-01 -1.697499454021453857e-01 -9.353889524936676025e-02 3.385848701000213623e-01 -4.780459217727184296e-03 6.665417551994323730e-02 -5.813218951225280762e-01 -3.957448899745941162e-01 -1.094027385115623474e-01 5.498200058937072754e-01 -2.986541092395782471e-01 -1.619056165218353271e-01 1.833708956837654114e-03 2.210183739662170410e-01 -7.514215260744094849e-02 -5.088540911674499512e-01 -2.646512985229492188e-01 7.051609372865641490e-06 -9.826514869928359985e-02 -7.130315303802490234e-01 1.053311154246330261e-01 -1.624834090471267700e-01 -3.719707429409027100e-01 3.474766016006469727e-01 -1.341478377580642700e-01 3.483472466468811035e-01 6.826360523700714111e-02 -1.679146438837051392e-01 1.408130954951047897e-02 1.139798387885093689e-01 3.898381441831588745e-02 -8.432143181562423706e-02 1.487444248050451279e-02 -1.232109665870666504e-01 -1.977216452360153198e-01 6.655166298151016235e-02 2.430313229560852051e-01
2.021728307008743286e-01 8.834880590438842773e-02 -5.765698477625846863e-02 -1.450390219688415527e-01 2.435398101806640625e-01 1.706641167402267456e-03 -2.207480520009994507e-01 -5.710625648498535156e-01 -1.135733053088188171e-01 -2.720627747476100922e-02 2.006795257329940796e-02 -3.725275397300720215e-01 3.830803930759429932e-01 2.298899292945861816e-01 4.016183316707611084e-02 -2.027984857559204102e-01 -2.222734838724136353e-01 -2.473575323820114136e-01 -1.665560714900493622e-02 2.644823193550109863e-01 -9.394359588623046875e-02 -3.182467818260192871e-01 -1.072663590312004089e-01 1.870387420058250427e-02 7.169976830482482910e-02 -3.272461891174316406e-02 -4.486268460750579834e-01 5.909270048141479492e-02 -1.126065477728843689e-01 2.172313630580902100e-01 3.678686171770095825e-02 2.868446707725524902e-01 -3.570300936698913574e-01 -1.576944999396800995e-02 -2.744742929935455322e-01 5.715491250157356262e-02 -9.493267163634300232e-03 5.031815767288208008e-01 -7.252974063158035278e-02 2.033437490463256836e-01 1.068417131900787354e-01 -6.391170620918273926e-02 -4.052987396717071533e-01 8.057823032140731812e-02 3.605859279632568359e-01 -9.041054546833038330e-02 -7.641497254371643066e-01 1.972573250532150269e-01 1.156609430909156799e-01 9.500317275524139404e-02 2.517765760421752930e-01 -3.224878609180450439e-01 -9.129007160663604736e-02 -7.431724667549133301e-02 9.054306149482727051e-02 -7.049643248319625854e-02 -3.197910487651824951e-01 1.846108883619308472e-01 5.999377369880676270e-01 1.553565114736557007e-01 -1.202329546213150024e-01 1.565791219472885132e-01 6.007361412048339844e-01 -1.054326444864273071e-01 2.102180384099483490e-02 -8.181905001401901245e-02 -1.823782771825790405e-01 9.915293753147125244e-02 -1.507961153984069824e-01 2.963349521160125732e-01 1.474872529506683350e-01 -2.170367687940597534e-01 -1.994434744119644165e-02 -1.062932312488555908e-01 7.868173718452453613e-02 1.154516339302062988e-01 5.091057573736179620e-06 -1.266668085008859634e-02 3.592872619628906250e-01 4.320752993226051331e-02
3.157765865325927734e-01 2.287374585866928101e-01 -2.667092382907867432e-01 1.547036916017532349e-01 3.754434641450643539e-03 -2.401030957698822021e-01 4.451708495616912842e-01 -3.936246037483215332e-02 -1.731663644313812256e-01 -3.438506647944450378e-02 -1.221960037946701050e-01 -2.020498365163803101e-01 2.509635686874389648e-02 2.832117974758148193e-01 -9.328494779765605927e-03 -4.729917272925376892e-02 1.115961521863937378e-01 -2.306515723466873169e-01 1.516851335763931274e-01 2.124049812555313110e-01 2.120552062988281250e-01 -1.203774809837341309e-01 -2.453359961509704590e-01 8.020170778036117554e-02 -2.675333917140960693e-01 -1.533261034637689590e-02 -2.170381844043731689e-01 -4.063076153397560120e-02 8.790128678083419800e-02 4.232222214341163635e-02 1.142791733145713806e-01 7.014025747776031494e-02 -1.758262068033218384e-01 2.740212976932525635e-01 -2.305459827184677124e-01 -8.970475941896438599e-02 2.355795800685882568e-01 2.300047576427459717e-01 5.912997722625732422e-01 9.062230587005615234e-03 -4.067497700452804565e-02 -1.904075294733047485e-01 -2.379229366779327393e-01 -8.213774859905242920e-02 7.979062944650650024e-02 -1.860329657793045044e-01 -2.117348760366439819e-01 -1.494417488574981689e-01 1.068710535764694214e-01 8.807603716850280762e-01 -3.608538210391998291e-02 -1.275472640991210938e-01 -1.229997873306274414e-01 8.102682977914810181e-02 -6.749828904867172241e-02 -3.675416707992553711e-01 1.609556726180016994e-03 8.539752662181854248e-02 1.205441951751708984e-01 3.291210159659385681e-02 -2.537003755569458008e-01 4.313004612922668457e-01 2.649381160736083984e-01 -5.815818440169095993e-03 -1.848189830780029297e-01 3.859199285507202148e-01 1.525583416223526001e-01 2.508115172386169434e-01 2.150167012587189674e-03 1.340020541101694107e-02 -1.350350491702556610e-02 -1.135391891002655029e-01 -5.179004669189453125e-01 1.205875277519226074e-01 2.799392938613891602e-01 -3.591747879981994629e-01 4.057981371879577637e-01 1.661049723625183105e-01 -1.013030186295509338e-01 -6.799752265214920044e-02
2.271338701248168945e-01 -7.818538695573806763e-03 -4.988218843936920166e-01 -3.647191822528839111e-02 1.788365282118320465e-02 -3.296715021133422852e-01 4.156773686408996582e-01 -2.626807987689971924e-01 -7.082135975360870361e-02 -2.618843913078308105e-01 -3.368005454540252686e-01 -4.248530566692352295e-01 1.559032201766967773e-01 1.496295183897018433e-01 3.034131135791540146e-03 -1.600908115506172180e-02 2.455002218484878540e-01 -1.855084896087646484e-01 2.484552264213562012e-01 -3.741046041250228882e-02 1.778786927461624146e-01 -1.422848552465438843e-01 -1.300193816423416138e-01 -1.371992677450180054e-01 2.095496207475662231e-01 -2.382122576236724854e-01 -2.767693698406219482e-01 1.038988307118415833e-01 -2.917519770562648773e-02 2.288573086261749268e-01 5.867927148938179016e-02 -2.365372180938720703e-01 -2.107413709163665771e-01 1.848819851875305176e-01 -3.335658907890319824e-01 -2.325276583433151245e-01 -1.727039664983749390e-01 2.978821694850921631e-01 4.833884537220001221e-01 2.731260359287261963e-01 -7.431267201900482178e-02 -5.861759185791015625e-02 -1.468439400196075439e-01 -1.452732086181640625e-01 1.684516370296478271e-01 4.080841317772865295e-03 -6.818556785583496094e-01 -1.719530671834945679e-01 -5.535590462386608124e-03 3.141153752803802490e-01 2.217959612607955933e-01 -2.484548240900039673e-01 -5.127230882644653320e-01 2.252364158630371094e-01 3.820118028670549393e-03 -1.361209303140640259e-01 -4.763581752777099609e-01 -1.415186189115047455e-02 3.013645485043525696e-02 -1.467120368033647537e-02 -2.346893250942230225e-01 2.177231162786483765e-01 4.416054487228393555e-01 1.657563000917434692e-01 -9.283725172281265259e-03 -4.009351506829261780e-02 -3.061246313154697418e-02 -4.719537496566772461e-01 -5.516362562775611877e-02 3.398879925953224301e-05 -1.715494245290756226e-01 -5.853908369317650795e-04 -3.348106443881988525e-01 3.195433691143989563e-02 3.563913702964782715e-01 -1.544803678989410400e-01 3.329321146011352539e-01 -1.312647573649883270e-02 -2.834207117557525635e-01 -5.007075611501932144e-03
7.651618123054504395e-02 3.044243156909942627e-01 7.633646130561828613e-01 4.836443345993757248e-03 1.480958014726638794e-01 -5.179969321034150198e-06 -2.585878409445285797e-02 -6.009848713874816895e-01 6.526922434568405151e-02 2.750336527824401855e-01 3.559334278106689453e-01 -4.535698735708137974e-06 -1.988828331232070923e-01 -7.891992479562759399e-02 -4.895829036831855774e-02 -6.811125874519348145e-01 -5.101808905601501465e-01 -4.787942767143249512e-01 2.039911746978759766e-01 3.631622166722081602e-05 -3.045078217983245850e-01 5.255002179183065891e-06 1.956974714994430542e-01 1.882827281951904297e-01 -1.814518509490881115e-05 2.884404063224792480e-01 1.208636909723281860e-01 -4.417876526713371277e-02 -4.458282887935638428e-01 2.301058024168014526e-01 3.172232806682586670e-01 8.452621102333068848e-02 3.681876957416534424e-01 -2.637437880039215088e-01 -3.180187568068504333e-02 2.173405289649963379e-01 2.816429138183593750e-01 2.419758675387129188e-05 -1.918590217828750610e-01 -7.637921571731567383e-01 5.323294997215270996e-01 -1.142858937382698059e-01 -2.581772506237030029e-01 -3.777232170104980469e-01 -1.191292330622673035e-01 -2.968384325504302979e-01 -4.789330996572971344e-03 1.293271631002426147e-01 2.297168672084808350e-01 -2.488182298839092255e-02 -5.965770483016967773e-01 -4.012003913521766663e-02 2.097811549901962280e-01 -3.133167624473571777e-01 8.077279329299926758e-01 -7.696210592985153198e-02 2.234313637018203735e-01 -2.385903447866439819e-01 9.427506010979413986e-04 -6.358928680419921875e-01 -1.594094373285770416e-02 6.140679866075515747e-02 -4.481702670454978943e-02 -4.089536070823669434e-01 2.765411734580993652e-01 -1.953473687171936035e-01 1.340250950306653976e-02 6.694508194923400879e-01 4.870328009128570557e-01 -1.750343143939971924e-01 -1.058156602084636688e-02 -5.817757248878479004e-01 1.404354274272918701e-01 -4.829039573669433594e-01 -7.951959967613220215e-02 2.287869602441787720e-01 -2.225477807223796844e-02 4.325603246688842773e-01 3.727362751960754395e-01 2.078576833009719849e-01
1.464872807264328003e-02 -3.053117394447326660e-01 -1.177740767598152161e-01 2.151978909969329834e-01 -7.365386188030242920e-02 -3.651320189237594604e-02 5.045606568455696106e-02 1.235289573669433594e-01 -9.182458743453025818e-03 6.733673624694347382e-03 5.315484851598739624e-02 7.753212004899978638e-02 -3.567004501819610596e-01 5.515829846262931824e-02 2.474074959754943848e-01 2.921237377449870110e-03 8.124533295631408691e-02 2.747941389679908752e-02 2.376745045185089111e-01 2.122347988188266754e-02 1.060997173190116882e-01 2.688321471214294434e-01 3.965630009770393372e-02 -7.666817400604486465e-04 -2.626245021820068359e-01 -1.257590920431539416e-04 -4.831277579069137573e-02 -2.683318257331848145e-01 3.834867849946022034e-02 -2.907158434391021729e-01 2.724635601043701172e-01 1.071834936738014221e-02 8.116828799247741699e-01 2.146602421998977661e-01 2.904197946190834045e-02 2.937439130619168282e-04 6.570023298263549805e-02 -9.185243397951126099e-02 3.645694553852081299e-01 5.035080015659332275e-02 1.627830897632520646e-05 3.160557523369789124e-02 5.006163567304611206e-02 1.912231370806694031e-02 -5.944551825523376465e-01 -1.759018152952194214e-01 1.373233646154403687e-01 -1.494075506925582886e-01 -1.009245067834854126e-01 4.568483829498291016e-01 3.569422364234924316e-01 -1.600345224142074585e-01 -8.619417995214462280e-02 2.193951159715652466e-01 -2.407358288764953613e-01 2.202469669282436371e-02 4.539970755577087402e-01 -1.522771716117858887e-01 -3.028219938278198242e-01 6.538130342960357666e-02 1.434490531682968140e-01 1.006474196910858154e-01 -2.931890785694122314e-01 -5.013713613152503967e-02 5.698893219232559204e-02 1.665605232119560242e-02 4.086757600307464600e-01 -7.610955834388732910e-02 -3.640736043453216553e-01 -1.404670625925064087e-01 7.255713641643524170e-02 -1.902214884757995605e-01 4.839362949132919312e-02 -1.383985877037048340e-01 -8.690217882394790649e-02 -1.712174154818058014e-02 -1.990873962640762329e-01 4.874753654003143311e-01 -2.695582620799541473e-02 1.080328226089477539e-01
2.004382461309432983e-01 -2.392627000808715820e-01 -1.855845302343368530e-01 -5.591791123151779175e-02 5.142197012901306152e-02 -1.376995146274566650e-01 1.836113184690475464e-01 7.823536545038223267e-02 -1.781099885702133179e-01 -6.865354627370834351e-02 -4.976570010185241699e-01 -2.789069712162017822e-01 -4.338875785470008850e-02 2.118933647871017456e-01 6.399084627628326416e-02 1.281786058098077774e-02 3.101183474063873291e-01 5.674811825156211853e-02 -1.401728689670562744e-01 4.209715873003005981e-02 3.157191872596740723e-01 5.992895364761352539e-02 -4.093704372644424438e-02 -5.386174321174621582e-01 1.280981749296188354e-01 -1.558912992477416992e-01 -1.301522701978683472e-01 2.563071548938751221e-01 8.383975178003311157e-02 6.361991912126541138e-02 7.048836350440979004e-02 -2.767635583877563477e-01 -6.090276837348937988e-01 4.981283470988273621e-02 -3.593319654464721680e-01 -5.961545321042649448e-05 -4.863507747650146484e-01 1.616283208131790161e-01 2.628495693206787109e-01 5.209178328514099121e-01 -2.571142017841339111e-01 2.442504614591598511e-01 -3.923837244510650635e-01 6.449503451585769653e-02 1.698417812585830688e-01 7.248474750667810440e-03 -1.685426831245422363e-01 -3.204188048839569092e-01 1.076134517788887024e-01 2.670837938785552979e-01 2.761518359184265137e-01 -2.136360108852386475e-01 -5.600178241729736328e-01 8.261852781288325787e-05 -2.059230655431747437e-01 -9.833643585443496704e-02 3.733827173709869385e-02 1.431012898683547974e-01 4.050034880638122559e-01 3.208944797515869141e-01 -1.953218430280685425e-01 1.079066470265388489e-01 2.263282984495162964e-01 4.112657904624938965e-02 -3.708816170692443848e-01 1.224485933780670166e-01 7.551071047782897949e-02 -4.161250889301300049e-01 -1.683403700590133667e-01 3.141790628433227539e-01 1.900750398635864258e-01 1.768796294927597046e-01 -5.226644873619079590e-01 2.775323987007141113e-01 2.251978814601898193e-01 -2.268484681844711304e-01 1.022529825568199158e-01 -3.450048267841339111e-01 -1.963313966989517212e-01 -2.277765721082687378e-01
1.161204278469085693e-01 9.768915176391601562e-01 1.080945491790771484e+00 -1.438500732183456421e-02 1.028953865170478821e-01 -1.380218418489675969e-05 -7.783894240856170654e-02 -6.731660962104797363e-01 5.189234614372253418e-01 4.696275591850280762e-01 6.151054501533508301e-01 -1.012707874178886414e-02 -1.665301434695720673e-02 6.097495555877685547e-02 -7.712128013372421265e-02 -8.276283144950866699e-01 -3.023554682731628418e-01 -2.175114750862121582e-01 3.242896497249603271e-01 -2.547450363636016846e-01 -2.001030594110488892e-01 -1.356094981019850820e-05 6.139760464429855347e-02 4.935164451599121094e-01 -3.182099163532257080e-01 -2.763099502772092819e-03 -3.601545095443725586e-02 5.680030881194397807e-05 -6.004436612129211426e-01 1.174561493098735809e-02 1.256359964609146118e-01 3.690278828144073486e-01 5.144730210304260254e-01 -3.677015900611877441e-01 -1.037594154477119446e-01 2.032635211944580078e-01 6.354566216468811035e-01 4.727218474727123976e-04 -1.076527684926986694e-01 -1.421157717704772949e+00 2.561590075492858887e-01 -2.235598415136337280e-01 3.678739815950393677e-02 -2.094797939062118530e-01 -4.132673740386962891e-01 -5.164721608161926270e-01 3.355790302157402039e-02 3.409092128276824951e-01 6.151985526084899902e-01 2.035730183124542236e-01 -5.067807435989379883e-01 -2.205246984958648682e-01 3.463507294654846191e-01 -3.650944530963897705e-01 1.244502305984497070e+00 -1.015033796429634094e-01 3.528059720993041992e-01 4.972276464104652405e-02 1.067046448588371277e-02 -9.526276588439941406e-01 -2.290478721261024475e-02 -1.636415719985961914e-01 2.594557106494903564e-01 -4.276430606842041016e-01 5.277092456817626953e-01 1.498160958290100098e-01 3.011801242828369141e-01 5.372074842453002930e-01 1.320431679487228394e-01 -1.536905765533447266e-01 -1.420034375041723251e-02 -1.141839623451232910e+00 -6.352077424526214600e-02 -1.669313758611679077e-01 1.116432576964143664e-05 2.541541755199432373e-01 1.052972220350056887e-05 4.460743665695190430e-01 6.767137050628662109e-01 1.852295398712158203e-01
1.443659812211990356e-01 2.131059765815734863e-01 4.441766738891601562e-01 -6.540094316005706787e-02 4.994212463498115540e-02 -1.595456600189208984e-01 5.654473975300788879e-02 -4.699341058731079102e-01 3.332700133323669434e-01 2.155417799949645996e-01 2.635878324508666992e-01 -2.333544939756393433e-01 1.001274585723876953e-01 -1.838857679103966802e-05 -3.215306997299194336e-01 -1.488650888204574585e-01 -2.215405702590942383e-01 -4.573879241943359375e-01 2.648984036568435840e-06 -5.844561848789453506e-03 2.903354465961456299e-01 -2.817951738834381104e-01 -2.804152201861143112e-03 5.578481554985046387e-01 4.041572083224309608e-06 -3.825221359729766846e-01 -1.094441395252943039e-04 1.106596291065216064e-01 -2.070221006870269775e-01 -2.027804702520370483e-01 1.636234074831008911e-01 3.878380358219146729e-01 -1.054413244128227234e-01 6.110775098204612732e-02 -3.564097583293914795e-01 6.488750874996185303e-02 1.020243167877197266e-01 2.808006107807159424e-01 -1.380867511034011841e-01 -4.587001502513885498e-01 3.816280066967010498e-01 -3.824804723262786865e-01 -4.172989428043365479e-01 -1.434292942285537720e-01 -4.068293049931526184e-02 -4.081970453262329102e-01 -3.061289787292480469e-01 -4.005617275834083557e-02 -3.012027777731418610e-02 6.276212334632873535e-01 -6.337170302867889404e-02 -4.216735363006591797e-01 -1.539856791496276855e-01 -1.783888339996337891e-01 6.153507828712463379e-01 -3.021540343761444092e-01 -7.047730832709930837e-06 1.738586723804473877e-01 3.771977424621582031e-01 -5.992574691772460938e-01 -1.298535466194152832e-01 3.245192021131515503e-02 3.921518027782440186e-01 -1.080804169178009033e-01 -9.220920503139495850e-02 5.703616887331008911e-03 2.309964895248413086e-01 8.174929618835449219e-01 2.400419674813747406e-02 -6.075508520007133484e-02 2.735244669020175934e-02 -6.400035023689270020e-01 -5.969083309173583984e-01 -6.548967212438583374e-02 1.935647428035736084e-01 5.777244269847869873e-02 2.207995802164077759e-01 -1.782374456524848938e-02 8.152454346418380737e-02 6.777114421129226685e-02
-3.683460503816604614e-02 1.171448752284049988e-01 -1.654960513114929199e-01 -3.183097839355468750e-01 2.988989837467670441e-02 3.887569298967719078e-03 1.038088127970695496e-01 -1.649304181337356567e-01 -3.399570584297180176e-01 -1.126829460263252258e-01 -5.006834864616394043e-01 -3.439591266214847565e-03 -1.602504402399063110e-01 -6.096242740750312805e-02 8.719549328088760376e-02 8.966597169637680054e-02 2.471094392240047455e-02 -1.947385044331895187e-06 8.058833330869674683e-02 5.431857332587242126e-02 3.654697164893150330e-02 -4.395816028118133545e-01 -8.914013206958770752e-02 -2.778782546520233154e-01 1.940711885690689087e-01 -2.537428140640258789e-01 -1.231514811515808105e-01 4.512720108032226562e-01 1.468172371387481689e-01 6.941653043031692505e-02 -8.614265918731689453e-02 -1.837413874454796314e-04 -3.272713124752044678e-01 -1.577846147119998932e-02 -4.004606604576110840e-01 -7.971820235252380371e-02 -4.227780997753143311e-01 1.417844444513320923e-01 2.226860262453556061e-03 3.689245283603668213e-01 -3.920521140098571777e-01 -3.346168398857116699e-01 -3.385297060012817383e-01 1.966546177864074707e-01 3.307435214519500732e-01 8.127068728208541870e-02 -4.783262312412261963e-01 -2.999887336045503616e-03 6.382822245359420776e-02 1.187735423445701599e-01 8.545940369367599487e-02 -1.917132735252380371e-01 1.595041751861572266e-01 1.857602000236511230e-01 -1.148402914404869080e-01 -4.213960170745849609e-01 2.236465178430080414e-02 -5.257953424006700516e-03 3.985069096088409424e-01 3.207236826419830322e-01 -1.645890772342681885e-01 3.346869051456451416e-01 5.208265781402587891e-01 -1.036106646060943604e-01 2.570410072803497314e-01 -1.700718142092227936e-02 2.555936872959136963e-01 -3.017409443855285645e-01 6.433290243148803711e-02 1.619787216186523438e-01 -1.048269793391227722e-01 1.648080945014953613e-01 -4.389341473579406738e-01 -2.338927835226058960e-01 4.685671031475067139e-01 1.881085634231567383e-01 7.029856741428375244e-02 -1.220069080591201782e-01 -7.182848453521728516e-02 -3.213339745998382568e-01
1.806695759296417236e-01 -1.017130538821220398e-01 1.850284487009048462e-01 -9.698174893856048584e-03 2.176579460501670837e-02 1.319560222327709198e-02 -1.269788593053817749e-01 -2.832465171813964844e-01 -2.147367782890796661e-02 -1.144074276089668274e-01 -1.924878507852554321e-01 -4.355372115969657898e-02 2.153163105249404907e-01 7.342656143009662628e-03 1.054174900054931641e-01 7.905039191246032715e-02 1.002861466258764267e-02 -2.575941681861877441e-01 -2.799099497497081757e-02 2.129658907651901245e-01 8.326805382966995239e-02 -9.147300571203231812e-02 4.134156554937362671e-02 6.289735436439514160e-02 -1.089589856564998627e-02 -4.786287993192672729e-02 2.465602010488510132e-01 1.507888883352279663e-01 1.312526911497116089e-01 9.365735203027725220e-02 -4.885881245136260986e-01 -7.653081417083740234e-02 -1.093217078596353531e-02 -1.115405037999153137e-01 1.912491861730813980e-04 -3.693215250968933105e-01 1.449273675680160522e-01 -1.421835713699692860e-05 -3.522925376892089844e-01 1.428904943168163300e-02 -6.747763603925704956e-02 1.960844546556472778e-02 3.100078999996185303e-01 3.867587447166442871e-01 6.861641258001327515e-02 3.486723452806472778e-02 -3.185116052627563477e-01 7.783793658018112183e-02 -1.363650560379028320e-01 -7.028003334999084473e-01 2.011699507420416921e-06 9.722445905208587646e-02 2.480737864971160889e-01 -9.535779803991317749e-02 -3.277423232793807983e-02 4.387868940830230713e-02 -2.081901282072067261e-01 2.056087180972099304e-02 -6.030393706168979406e-05 6.870754361152648926e-01 1.884200125932693481e-01 9.009677171707153320e-02 -6.444577872753143311e-02 4.746155813336372375e-02 -2.016396494582295418e-03 3.017476992681622505e-03 -1.409508436918258667e-01 -6.328207254409790039e-01 1.917456090450286865e-01 3.966272175312042236e-01 2.126709371805191040e-01 -6.202074885368347168e-02 9.963310956954956055e-01 1.611403375864028931e-02 1.241873111575841904e-02 -5.142708122730255127e-02 -1.343725025653839111e-01 -2.420663684606552124e-01 4.833226799964904785e-01 1.194909308105707169e-02
8.817131817340850830e-02 7.224957644939422607e-02 3.036364447325468063e-03 3.826842457056045532e-02 -3.212092444300651550e-02 1.699190586805343628e-01 -3.325958251953125000e-01 6.415428966283798218e-02 3.303245306015014648e-01 1.508487761020660400e-01 2.274186909198760986e-01 3.714043796062469482e-01 -1.394938328303396702e-03 -2.177450507879257202e-01 2.374130673706531525e-02 4.946267604827880859e-02 -9.639609605073928833e-02 8.681828528642654419e-02 -6.851197686046361923e-03 -3.617410361766815186e-02 -4.958574473857879639e-01 3.112611174583435059e-01 1.564963459968566895e-01 -1.175894364714622498e-01 -7.870489731431007385e-03 4.925958514213562012e-01 4.460777640342712402e-01 -9.458727389574050903e-02 9.034404158592224121e-02 -2.564507350325584412e-02 -5.219168588519096375e-02 8.022855035960674286e-03 2.987911105155944824e-01 -9.435915946960449219e-02 1.181967034935951233e-01 1.088438630104064941e-01 5.918184178881347179e-04 -3.804044425487518311e-01 -1.802331358194351196e-01 -2.125564217567443848e-01 1.784920692443847656e-01 4.400227963924407959e-01 1.671002656221389771e-01 -9.778596460819244385e-02 -2.972660958766937256e-01 1.505643576383590698e-01 4.594753682613372803e-01 2.311745434999465942e-01 2.573568224906921387e-01 -3.058630526065826416e-01 -1.799420863389968872e-01 3.710576519370079041e-02 3.633136674761772156e-02 -1.691739819943904877e-02 5.775393545627593994e-02 1.437065601348876953e-01 7.066398859024047852e-02 -2.320218235254287720e-01 -3.768370151519775391e-01 -2.993686869740486145e-02 2.482969462871551514e-01 -4.307243525981903076e-01 -5.244561433792114258e-01 2.451011724770069122e-02 -5.748818628489971161e-03 6.900568306446075439e-02 -1.902391016483306885e-02 -6.266143918037414551e-02 1.757826358079910278e-01 -3.604763448238372803e-01 1.734820194542407990e-02 3.555737808346748352e-02 5.731565952301025391e-01 1.107957735657691956e-01 -1.321084052324295044e-01 1.174854207783937454e-02 -7.083843927830457687e-03 2.138127833604812622e-01 1.459692418575286865e-01 4.265169203281402588e-01
2.840096689760684967e-02 -2.418759763240814209e-01 6.688750535249710083e-02 1.084336414933204651e-01 -2.750621736049652100e-01 7.070025894790887833e-04 2.291608154773712158e-01 3.570978343486785889e-01 -1.016870886087417603e-01 -3.451315569691359997e-04 2.689839899539947510e-01 -1.504491865634918213e-01 2.641923129558563232e-01 2.556434273719787598e-01 -6.796982139348983765e-02 3.942902013659477234e-02 -1.051306575536727905e-01 -3.121795132756233215e-02 2.683594822883605957e-01 -8.068837225437164307e-02 4.330947995185852051e-01 -2.602885961532592773e-01 1.234646700322628021e-02 3.190324902534484863e-01 -3.692132234573364258e-02 -4.198123514652252197e-01 -1.552725434303283691e-01 1.807706505060195923e-01 3.059870600700378418e-01 -9.786276146769523621e-03 4.054470360279083252e-01 -6.135940924286842346e-02 2.132973968982696533e-01 2.192919701337814331e-01 -2.108938544988632202e-01 -4.756395705044269562e-03 1.756968200206756592e-01 6.876015663146972656e-02 3.559970259666442871e-01 -9.883057326078414917e-02 1.301333010196685791e-01 1.324281003326177597e-02 -2.566969096660614014e-01 -3.102150978520512581e-03 -1.264678686857223511e-01 1.169450208544731140e-01 -3.843396604061126709e-01 -1.054701507091522217e-01 7.773327082395553589e-02 8.584510684013366699e-01 2.380590736865997314e-01 -3.325192630290985107e-01 -4.668170809745788574e-01 2.287275940179824829e-01 4.891416803002357483e-02 -3.391123712062835693e-01 -2.798809297382831573e-02 -1.152957044541835785e-02 2.433433532714843750e-01 -1.166045293211936951e-01 -1.289109885692596436e-01 2.770891487598419189e-01 4.551726281642913818e-01 -3.345881104469299316e-01 -3.789369761943817139e-02 7.405785471200942993e-02 -7.592855487018823624e-03 7.890428304672241211e-01 9.033036231994628906e-02 -8.927910029888153076e-02 -6.264217197895050049e-02 -1.345048546791076660e-01 -6.996254324913024902e-01 -1.001030486077070236e-02 1.991859227418899536e-01 -8.896163105964660645e-02 1.026844009757041931e-01 3.965300023555755615e-01 -4.645526111125946045e-01 1.853851824998855591e-01
6.819647550582885742e-02 -9.438453316688537598e-01 -8.107535839080810547e-01 4.172811806201934814e-01 -3.499162495136260986e-01 7.856079936027526855e-02 8.030354976654052734e-02 6.604654788970947266e-01 -3.143956661224365234e-01 -1.419876515865325928e-01 -2.782820165157318115e-01 1.575531959533691406e-01 3.413991630077362061e-01 4.889983756584115326e-06 -2.017942667007446289e-01 3.697038590908050537e-01 3.435276150703430176e-01 5.505262315273284912e-02 2.004529386758804321e-01 -4.896269179880619049e-03 1.179301273077726364e-02 2.884195558726787567e-02 -3.340032100677490234e-01 -3.217689990997314453e-01 -8.225975185632705688e-02 1.198244979605078697e-03 -1.032187864184379578e-01 9.372519701719284058e-02 5.726381540298461914e-01 -8.353744447231292725e-02 4.094925895333290100e-02 -5.822362378239631653e-02 -1.343806833028793335e-01 9.520988911390304565e-02 -2.222025245428085327e-01 -4.831388592720031738e-01 -2.013837099075317383e-01 2.652063667774200439e-01 7.848565280437469482e-02 1.118260979652404785e+00 -4.488566517829895020e-01 1.656108200550079346e-01 -4.794746473635314032e-06 1.282113790512084961e-01 5.017220973968505859e-01 4.382798969745635986e-01 1.286056041717529297e-01 -1.860885471105575562e-01 -4.659098982810974121e-01 7.765977978706359863e-01 4.998188912868499756e-01 -8.772003639023751020e-07 -2.934396862983703613e-01 3.030527532100677490e-01 -4.710015058517456055e-01 -1.791100353002548218e-01 -2.917152941226959229e-01 2.579533159732818604e-01 1.734575815498828888e-02 2.794215977191925049e-01 7.065290957689285278e-02 -6.040940433740615845e-02 -4.850151017308235168e-02 2.269707918167114258e-01 -2.184022814035415649e-01 2.392749190330505371e-01 8.590216189622879028e-02 -3.855066299438476562e-01 -2.845683395862579346e-01 -6.987137347459793091e-02 2.885975539684295654e-01 6.007813811302185059e-01 8.807147294282913208e-02 1.808821856975555420e-01 1.545155495405197144e-01 -5.829661488533020020e-01 6.042186170816421509e-02 9.998060017824172974e-02 -4.881143867969512939e-01 -1.943918615579605103e-01
5.167760699987411499e-02 -8.160628080368041992e-01 -7.365921139717102051e-01 1.097630485892295837e-01 -3.236812725663185120e-02 -1.092021912336349487e-01 2.629450894892215729e-02 3.338049650192260742e-01 -3.770909011363983154e-01 -4.266593158245086670e-01 -9.407474398612976074e-01 4.812293499708175659e-02 4.139140844345092773e-01 -7.725379429757595062e-03 4.947116971015930176e-02 7.751206755638122559e-01 3.485234081745147705e-01 3.269952535629272461e-02 2.837723493576049805e-02 1.834270507097244263e-01 -2.914770878851413727e-02 -1.396208107471466064e-01 -6.946114450693130493e-02 -5.214357376098632812e-01 8.000805228948593140e-02 -2.688063085079193115e-01 2.160721669497434050e-05 7.371682673692703247e-02 5.497058033943176270e-01 -2.390920668840408325e-01 -6.078097224235534668e-01 -4.670626819133758545e-01 -5.291347503662109375e-01 1.340865641832351685e-01 -1.094138845801353455e-01 -1.039774343371391296e-01 -4.005236923694610596e-01 -7.952078431844711304e-02 1.816662251949310303e-01 1.129165530204772949e+00 -4.992884993553161621e-01 -6.804163102060556412e-03 4.395629093050956726e-02 3.971762657165527344e-01 1.639704555273056030e-01 7.282274365425109863e-01 -1.513538509607315063e-01 -7.678812742233276367e-02 -8.185967803001403809e-01 -8.342153429985046387e-01 3.940789699554443359e-01 -8.528301864862442017e-02 -5.085883736610412598e-01 4.054266214370727539e-01 -1.165921688079833984e+00 2.239610105752944946e-01 2.777067571878433228e-02 5.778828199254348874e-05 -2.276216447353363037e-02 1.303589224815368652e+00 7.618094980716705322e-02 1.793643236160278320e-01 -1.582434214651584625e-02 4.698717296123504639e-01 -1.785664260387420654e-01 -1.054687052965164185e-01 -1.638947725296020508e-01 -1.027326822280883789e+00 -2.632680237293243408e-01 1.721568554639816284e-01 1.719034509733319283e-03 6.756168603897094727e-01 5.438565611839294434e-01 5.579470470547676086e-02 2.083637118339538574e-01 -1.976427733898162842e-01 -1.518800854682922363e-05 -4.065659642219543457e-01 -3.612941801548004150e-01 -1.065200045704841614e-01
8.059787750244140625e-02 2.532458864152431488e-02 2.022396028041839600e-02 2.840321660041809082e-01 -7.135462760925292969e-02 2.864825539290904999e-03 8.704256266355514526e-02 -1.063390076160430908e-02 2.125725597143173218e-01 -5.818286538124084473e-02 -3.833133354783058167e-02 -1.465907394886016846e-01 -2.678613662719726562e-01 2.595280110836029053e-01 1.929144188761711121e-02 -2.428879290819168091e-01 4.925478994846343994e-01 1.216532438993453979e-01 3.697509644553065300e-03 -2.686376869678497314e-02 2.867428660392761230e-01 1.709467470645904541e-01 -2.848726511001586914e-02 -2.924795746803283691e-01 -8.669758215546607971e-03 -2.332111299037933350e-01 -2.370845973491668701e-01 5.557634722208604217e-05 2.934731355708208866e-06 6.516774650663137436e-03 3.195126652717590332e-01 -2.287573963403701782e-01 1.494656056165695190e-01 3.125814199447631836e-01 -9.975342452526092529e-02 -1.947374790906906128e-01 -1.016801297664642334e-01 4.951062798500061035e-02 2.514739930629730225e-01 3.853206336498260498e-01 -3.288001567125320435e-02 -4.308922886848449707e-01 -3.009429872035980225e-01 -1.225625892402604222e-04 -2.619372308254241943e-01 6.968710571527481079e-03 -1.227156743407249451e-01 -4.074690043926239014e-01 -2.553341984748840332e-01 5.852842926979064941e-01 4.614114165306091309e-01 -7.104544341564178467e-02 -2.616599500179290771e-01 6.407453417778015137e-01 -8.679497241973876953e-02 -8.462521433830261230e-02 -1.760467439889907837e-01 -5.396177619695663452e-02 5.613074079155921936e-02 4.641095921397209167e-02 -4.019315838813781738e-01 2.713882327079772949e-01 5.696666240692138672e-01 -6.329227983951568604e-02 -1.442337632179260254e-01 5.657329410314559937e-02 -8.919227868318557739e-02 1.943662315607070923e-01 -1.009217724204063416e-01 -2.154575735330581665e-01 9.020372293889522552e-03 -1.991042196750640869e-01 -8.666730523109436035e-01 2.350514382123947144e-01 3.359515592455863953e-02 -1.495855599641799927e-01 1.326625943183898926e-01 1.003862451761960983e-02 -3.498088121414184570e-01 -3.291734755039215088e-01
-5.608664080500602722e-02 -1.079889610409736633e-01 -1.803448200225830078e-01 -1.262203305959701538e-01 1.684113778173923492e-02 -1.906758695840835571e-01 -2.804680466651916504e-01 -2.961753606796264648e-01 -1.822479963302612305e-01 -4.042985439300537109e-01 -5.969967842102050781e-01 -1.304208035435294732e-05 7.695603370666503906e-02 7.905763573944568634e-03 4.032851755619049072e-01 7.980223745107650757e-02 -2.220897227525711060e-01 -1.498566716909408569e-01 -1.654575914144515991e-01 6.757522374391555786e-02 -2.280535548925399780e-01 -3.544231643900275230e-03 -2.596585266292095184e-02 3.423006534576416016e-01 1.647534372750669718e-05 1.177624985575675964e-01 2.286762744188308716e-01 3.244589269161224365e-02 3.094173967838287354e-01 2.233335971832275391e-01 -4.150160551071166992e-01 2.608287334442138672e-01 1.904696971178054810e-01 -1.766324788331985474e-01 -6.012936681509017944e-02 -2.131841182708740234e-01 -2.635496258735656738e-01 -7.084812223911285400e-02 -6.924605986569076777e-05 1.564089506864547729e-01 1.411847323179244995e-01 2.209322750568389893e-01 -2.710011601448059082e-01 4.676909744739532471e-01 2.525497376918792725e-01 1.925386190414428711e-01 1.458734422922134399e-01 4.232444167137145996e-01 -3.377414122223854065e-02 -3.743460774421691895e-01 -9.038376063108444214e-02 1.563177444040775299e-02 3.862274587154388428e-01 -3.177299499511718750e-01 -1.166527625173330307e-02 -3.279888629913330078e-02 1.435298025608062744e-01 4.278123378753662109e-01 6.978527835599379614e-06 6.821053028106689453e-01 3.012936562299728394e-02 -1.382562071084976196e-01 6.651781499385833740e-02 3.181260824203491211e-02 1.127800121903419495e-01 -7.522982358932495117e-02 -1.734860124997794628e-03 -6.187357306480407715e-01 9.526237100362777710e-02 -1.615750044584274292e-02 2.944401204586029053e-01 1.143443658947944641e-01 7.393870949745178223e-01 -3.196538090705871582e-01 8.853206038475036621e-02 8.320984989404678345e-02 1.362798660993576050e-01 -1.781054027378559113e-02 9.707327932119369507e-03 -3.075488805770874023e-01
-1.968253552913665771e-01 2.552435696125030518e-01 3.954994976520538330e-01 -2.269086986780166626e-01 -7.254873216152191162e-02 9.818909317255020142e-02 -3.529031872749328613e-01 -5.246489048004150391e-01 -2.022415548563003540e-01 -2.653976380825042725e-01 4.115863740444183350e-01 -6.695542484521865845e-02 -1.458722651004791260e-01 -5.139298737049102783e-02 2.743887007236480713e-01 1.131742540746927261e-02 -1.891418844461441040e-01 3.508810698986053467e-01 -2.568301558494567871e-01 -4.056569635868072510e-01 -1.349064707756042480e-01 1.228987276554107666e-01 3.084030747413635254e-01 6.650990843772888184e-01 -1.194526478648185730e-01 8.491585403680801392e-02 -4.410642199218273163e-03 7.042375206947326660e-02 -2.559140324592590332e-01 1.878735423088073730e-01 1.539639472961425781e+00 2.093900442123413086e-01 4.875926673412322998e-01 -3.338072896003723145e-01 8.424288034439086914e-02 7.026007026433944702e-02 3.224245831370353699e-02 3.941885195672512054e-03 -3.388226330280303955e-01 -7.845713198184967041e-02 1.409548521041870117e-01 5.844429507851600647e-02 1.041642948985099792e-01 -1.737865209579467773e-01 -1.608216464519500732e-01 5.258367583155632019e-02 3.826731443405151367e-02 2.651875019073486328e-01 5.279535055160522461e-01 1.917290210723876953e+00 -3.129360675811767578e-01 2.598761618137359619e-01 2.645450532436370850e-01 -2.169572860002517700e-01 4.922777414321899414e-01 3.535076379776000977e-01 1.741731613874435425e-01 7.715807761996984482e-03 -7.717852294445037842e-02 -1.327264428138732910e+00 2.630782127380371094e-01 -3.784079849720001221e-02 -2.093598693609237671e-01 -9.898664429783821106e-03 1.221583262085914612e-01 -3.889035061001777649e-02 1.171907782554626465e-01 1.888913989067077637e+00 3.077795505523681641e-01 -7.654937356710433960e-02 8.035176992416381836e-02 -2.893039025366306305e-02 -2.147282361984252930e+00 -1.793358102440834045e-02 -5.620375648140907288e-02 1.737978309392929077e-01 -3.588885813951492310e-02 1.781066507101058960e-01 1.684887409210205078e-01 -2.255163788795471191e-01
-8.159554004669189453e-02 -1.984835267066955566e-01 -2.915705442428588867e-01 4.169905878370627761e-05 -3.066847473382949829e-02 7.349188625812530518e-02 -4.629858732223510742e-01 2.755995988845825195e-01 -2.974421381950378418e-01 -9.644366055727005005e-02 -1.294078081846237183e-01 2.840806245803833008e-01 9.856791794300079346e-02 2.458180487155914307e-02 5.040534585714340210e-02 3.645724952220916748e-01 -3.565321266651153564e-01 -1.487226486206054688e-01 -1.517983525991439819e-01 -7.324689626693725586e-02 -3.139335215091705322e-01 1.110087335109710693e-01 -3.792736306786537170e-02 -2.696317732334136963e-01 4.675576090812683105e-02 6.303989142179489136e-02 1.350350826978683472e-01 -1.603565216064453125e-01 3.625125885009765625e-01 2.333904206752777100e-01 -5.778989195823669434e-01 -1.704025566577911377e-01 6.253581494092941284e-02 -2.858821451663970947e-01 -4.552143067121505737e-02 -4.684432968497276306e-02 -2.207357436418533325e-01 -2.023251503705978394e-01 2.866481197997927666e-03 1.273512989282608032e-01 -3.214820325374603271e-01 3.993722796440124512e-01 1.718889921903610229e-01 1.471758186817169189e-01 3.048887252807617188e-01 3.736740648746490479e-01 3.683546185493469238e-01 2.303432114422321320e-02 -1.847660988569259644e-01 -3.814898729324340820e-01 -1.894092261791229248e-01 2.910572886466979980e-01 -6.685603410005569458e-02 -2.850093692541122437e-02 -2.557758986949920654e-01 3.506220132112503052e-02 1.333594769239425659e-01 2.494768053293228149e-01 -5.029594302177429199e-01 2.771803736686706543e-01 4.953253269195556641e-01 -4.521224647760391235e-02 -5.314168334007263184e-01 2.934914827346801758e-02 -6.528148427605628967e-03 3.814098238945007324e-02 1.378169357776641846e-01 -3.170240819454193115e-01 1.144972816109657288e-01 -4.336291567597072572e-06 3.364688530564308167e-02 2.761915028095245361e-01 6.869529485702514648e-01 1.483110785484313965e-01 -2.149768322706222534e-01 3.166985809803009033e-01 -1.209279373288154602e-01 -2.034150622785091400e-02 -2.454651333391666412e-02 3.546167165040969849e-02
-1.471490412950515747e-01 -3.141077458858489990e-01 -3.432322293519973755e-02 -1.088397055864334106e-01 -1.648923754692077637e-01 1.121248533308971673e-05 3.036071546375751495e-02 -2.607230246067047119e-01 -1.222701296210289001e-01 -3.676486015319824219e-01 -4.787397682666778564e-01 2.807382494211196899e-02 1.129764020442962646e-01 1.548362672328948975e-01 3.052908778190612793e-01 2.247039079666137695e-01 2.731805294752120972e-02 -2.979130148887634277e-01 -9.435929358005523682e-03 6.392006762325763702e-04 -4.608439803123474121e-01 7.436382770538330078e-02 1.354020237922668457e-01 6.798631697893142700e-02 8.489745855331420898e-02 1.246239873580634594e-03 1.766542196273803711e-01 8.360411971807479858e-03 2.241995185613632202e-01 8.044282905757427216e-03 -4.146434664726257324e-01 -2.761469222605228424e-02 -8.788672834634780884e-02 -8.779374882578849792e-03 4.267325103282928467e-01 -1.360272914171218872e-01 8.790373802185058594e-02 -4.911347031593322754e-01 -1.004385873675346375e-01 1.078638359904289246e-01 1.293139606714248657e-01 2.907078862190246582e-01 -1.793463826179504395e-01 2.834220184013247490e-03 4.660120904445648193e-01 2.447416484355926514e-01 1.545560359954833984e-01 7.545471191406250000e-02 -4.394134283065795898e-01 -2.935629487037658691e-01 -2.675959467887878418e-01 2.742033917456865311e-03 4.646582603454589844e-01 -2.549746334552764893e-01 -7.178082317113876343e-02 1.201211661100387573e-01 4.067184925079345703e-01 1.438755542039871216e-01 -3.219125270843505859e-01 8.601560443639755249e-02 8.450569957494735718e-02 -1.209626644849777222e-01 -5.259788595139980316e-04 -1.159930415451526642e-02 -5.225577857345342636e-03 -2.105654478073120117e-01 -3.862203285098075867e-02 -6.315417289733886719e-01 1.019585505127906799e-01 1.271121650934219360e-01 7.881440967321395874e-02 1.462217569351196289e-01 8.311504721641540527e-01 -2.364495098590850830e-01 -1.909605711698532104e-01 1.010960042476654053e-01 -1.275750715285539627e-02 -9.225589781999588013e-02 3.772227466106414795e-01 -9.310643374919891357e-02
-2.891664505004882812e-01 -4.239977002143859863e-01 -5.915891528129577637e-01 -2.839902341365814209e-01 -4.772314056754112244e-02 2.490123063325881958e-01 -2.254461869597434998e-03 1.090747267007827759e-01 -2.224300801753997803e-01 -2.227455079555511475e-01 -1.389005929231643677e-01 1.481150928884744644e-02 -6.416289508342742920e-02 -3.651772737503051758e-01 -1.823576912283897400e-02 1.094576492905616760e-01 -1.975848376750946045e-01 -1.502930885180830956e-03 -2.158381044864654541e-02 6.740642338991165161e-02 9.029588662087917328e-03 2.327951639890670776e-01 2.325564026832580566e-01 -1.676005423069000244e-01 -1.015564799308776855e-01 1.287841296289116144e-04 4.280352368368767202e-05 -1.206950172781944275e-01 -9.330273605883121490e-03 -9.744980931282043457e-02 -3.971683681011199951e-01 -1.826301366090774536e-01 -2.998485863208770752e-01 -2.964665293693542480e-01 5.505413748323917389e-03 -2.632393315434455872e-02 -2.890957891941070557e-01 -1.608903259038925171e-01 9.803128987550735474e-02 2.877158820629119873e-01 4.398128762841224670e-02 2.257462441921234131e-01 1.681695878505706787e-01 4.532942548394203186e-03 1.108387038111686707e-01 8.628546446561813354e-02 4.355322420597076416e-01 1.417144536972045898e-01 -2.777194082736968994e-01 -9.068090319633483887e-01 -3.071150779724121094e-01 3.348827362060546875e-01 1.615701764822006226e-01 1.003016158938407898e-01 -1.012246459722518921e-01 1.854086853563785553e-02 -1.800450980663299561e-01 3.217905387282371521e-02 -4.359923303127288818e-02 5.609961748123168945e-01 2.933436632156372070e-01 -1.024340167641639709e-01 -1.374866366386413574e-01 5.313391983509063721e-02 1.671762317419052124e-01 4.783761873841285706e-02 -2.311936169862747192e-01 -8.175436258316040039e-01 -2.694856226444244385e-01 5.446699634194374084e-02 2.465154230594635010e-01 9.491733461618423462e-02 7.206354141235351562e-01 2.000250667333602905e-01 -3.949004113674163818e-01 -2.591125369071960449e-01 7.947266101837158203e-02 1.375146359205245972e-01 -2.255354076623916626e-01 -7.783251814544200897e-03
3.346026316285133362e-02 2.769504301249980927e-02 1.020317152142524719e-01 4.776866361498832703e-02 9.076875448226928711e-02 -2.481699287891387939e-01 3.438466191291809082e-01 2.463930249214172363e-01 3.211619555950164795e-01 1.499722898006439209e-01 -1.051178574562072754e-01 -1.926706433296203613e-01 2.471399754285812378e-01 1.682988107204437256e-01 -1.805111765861511230e-01 -2.179706469178199768e-03 -2.532634437084197998e-01 -5.901319384574890137e-01 4.117063805460929871e-02 2.814364135265350342e-01 9.515549242496490479e-02 4.525782540440559387e-02 4.311509430408477783e-02 2.059296332299709320e-02 2.218091040849685669e-01 -5.128660798072814941e-02 -1.547155529260635376e-01 1.087445393204689026e-01 8.861965686082839966e-02 -1.160381138324737549e-01 -1.489332437515258789e+00 -1.578303724527359009e-01 -5.004225969314575195e-01 -7.655726373195648193e-02 -1.307938098907470703e-01 -4.907156154513359070e-02 2.129083424806594849e-01 1.197671890258789062e-01 1.252890527248382568e-01 -6.499109417200088501e-02 -1.206474006175994873e-02 8.370625227689743042e-02 -5.657605454325675964e-02 2.947407960891723633e-01 1.577842384576797485e-01 -4.912113770842552185e-02 -2.598495185375213623e-01 -6.861197948455810547e-02 -1.579077243804931641e-01 -1.836196184158325195e+00 1.469762325286865234e-01 -3.772704303264617920e-01 9.767584502696990967e-02 1.824524402618408203e-01 2.469548881053924561e-01 -1.911236196756362915e-01 -1.346100717782974243e-01 3.285481333732604980e-01 7.126919925212860107e-02 1.068549156188964844e+00 -1.775110363960266113e-01 -1.467810478061437607e-03 3.395862877368927002e-01 2.504283429516362958e-06 1.151053756475448608e-01 3.305349673610180616e-05 -9.978682547807693481e-02 -1.619144439697265625e+00 2.247223109006881714e-01 2.318443953990936279e-01 1.003523766994476318e-01 -1.324833333492279053e-01 1.822306156158447266e+00 -1.291739046573638916e-01 6.488251686096191406e-02 -2.027971111238002777e-02 1.972091011703014374e-02 -1.803810447454452515e-01 -9.773394465446472168e-02 -5.450514331459999084e-02
2.101522171869874001e-03 6.673136949539184570e-01 3.408669233322143555e-01 3.061290979385375977e-01 -1.590735018253326416e-01 -4.666225239634513855e-02 -1.898239925503730774e-02 1.723375171422958374e-01 -1.359779387712478638e-02 2.765523456037044525e-02 3.044438362121582031e-01 1.019662693142890930e-01 -5.533047392964363098e-02 4.430013149976730347e-02 1.508281193673610687e-02 -3.558605909347534180e-01 1.614122539758682251e-01 4.514112770557403564e-01 -1.318248957395553589e-01 -5.003386139869689941e-01 -2.428049966692924500e-02 -1.888747327029705048e-03 -3.470209427177906036e-03 1.965164989233016968e-01 -5.823144689202308655e-02 1.987591534852981567e-01 7.313425093889236450e-02 2.522985823452472687e-02 -3.077007457613945007e-02 6.434765458106994629e-02 9.020701646804809570e-01 1.289645284414291382e-01 -1.702523678541183472e-01 -1.306387688964605331e-02 2.550248503684997559e-01 3.616773784160614014e-01 3.018782101571559906e-02 2.377303242683410645e-01 -2.005090415477752686e-01 -3.877369761466979980e-01 -8.188101649284362793e-02 1.017612442374229431e-01 -3.479447960853576660e-02 -5.325123667716979980e-01 -6.109881773591041565e-02 -1.124273166060447693e-01 6.219069473445415497e-03 7.498825341463088989e-02 4.881672859191894531e-01 9.584197998046875000e-01 -2.329928129911422729e-01 3.906077891588211060e-02 1.324601024389266968e-01 -1.573162227869033813e-01 4.394372701644897461e-01 3.734466060996055603e-02 1.110903769731521606e-01 -3.895425200462341309e-01 -1.131830438971519470e-01 -8.429548740386962891e-01 1.457977443933486938e-01 -1.106180206988938153e-06 3.599638491868972778e-02 -1.694472320377826691e-02 -1.750158369541168213e-01 -1.576009765267372131e-02 2.245303541421890259e-01 1.085112571716308594e+00 8.027581125497817993e-02 -8.196269627660512924e-04 -3.485431969165802002e-01 -1.973097622394561768e-01 -1.535147666931152344e+00 -6.024470925331115723e-02 7.361868023872375488e-02 4.322190582752227783e-02 1.125865951180458069e-01 1.596005260944366455e-01 2.595345675945281982e-01 3.462377190589904785e-01
