7.997584816621383652e-07 -7.534943506470881402e-06 -1.068590336217312142e-06 -5.831300768477376550e-06 -1.494428306614281610e-05 -2.708902457015938126e-06 -1.167449227068573236e-06 9.714404768601525575e-06 -3.625727231337805279e-06 -4.678376626543467864e-06 -6.239597496460191905e-07 -2.072305505862459540e-05 -1.571446955495048314e-05 -1.480807804910000414e-05 -6.741348443028982729e-06 1.643763243919238448e-05 -3.697762167576001957e-06 9.749311175255570561e-06 -8.926358532335143536e-06 2.475739568471908569e-01 7.344646746787475422e-06 -8.502668151777470484e-07 -4.855828592553734779e-06 2.697328627109527588e-01 -4.433079993759747595e-06 1.379156628900091164e-06 5.368928668758599088e-06 -2.201057213824242353e-06 7.322084002225892618e-06 -5.959527697996236384e-06 1.150826938101090491e-05 8.242499461630359292e-06 -2.150115733456914313e-06 -4.601203799247741699e-01 6.979363206482958049e-06 1.023053303360939026e-01 -6.766775186406448483e-06 -2.078353911638259888e-01 -7.387515779555542395e-06 1.409981632605195045e-05
-6.322837180050555617e-06 3.808433575613889843e-06 -1.696069352328777313e-02 3.957150511268991977e-06 -4.180575609207153320e-01 -8.830671757459640503e-02 -1.848281323909759521e-01 3.572831153869628906e-01 1.266361095986212604e-06 -1.891566171252634376e-06 7.678187103010714054e-06 3.156223148107528687e-02 3.786744400713359937e-06 -1.725389665807597339e-05 -4.380941689014434814e-01 3.853640258312225342e-01 -4.660672129830345511e-05 -7.631846528965979815e-06 5.701149702072143555e-01 3.918615877628326416e-01 4.354341030120849609e-01 5.430914759635925293e-01 2.653188130352646112e-05 7.357312440872192383e-01 -4.411264359951019287e-01 -1.378288970954599790e-06 1.064016744494438171e-01 -6.027809831721242517e-06 3.221542328901705332e-06 9.343639016151428223e-01 8.585716485977172852e-01 -7.218939117592526600e-07 -7.123440504074096680e-01 -8.656592965126037598e-01 -9.236488040187396109e-06 5.915665626525878906e-01 -3.751657903194427490e-01 -4.936594069004058838e-01 -8.364605903625488281e-02 3.165774614899419248e-05
1.924794614315032959e-01 1.793619594536721706e-05 -1.349507656414061785e-04 -1.417448584106750786e-05 -8.586342632770538330e-02 1.541218080092221498e-05 -2.440141884108015802e-07 2.728764593484811485e-05 -6.166077582747675478e-06 -5.048820639785844833e-06 6.237257122993469238e-01 5.143527232576161623e-05 -1.015991620079148561e-05 1.106754098145756871e-05 4.341743533586850390e-06 3.248029679525643587e-05 -5.118613262311555445e-05 -3.390138954273425043e-05 1.393824458122253418e+00 -1.039821290760301054e-05 3.335085213184356689e-01 9.839210510253906250e-01 -1.076787611964391544e-05 -1.245626299350988120e-05 -3.453133106231689453e-01 -1.192314130094018765e-06 1.561858206987380981e-01 -3.259497880935668945e-01 1.815261566662229598e-05 1.410012841224670410e+00 3.640284240245819092e-01 -2.502885945432353765e-05 -2.083362489938735962e-01 -3.150485754013061523e-01 -2.941401362477336079e-05 7.233966886997222900e-02 -1.467666029930114746e-01 2.090626549033913761e-05 -3.839901182800531387e-05 1.559636439196765423e-05
1.632373631000518799e-01 3.270690740464488044e-06 -5.376661647460423410e-06 9.148401659331284463e-06 2.301025006090640090e-06 1.618597821106959600e-06 2.469573928465251811e-06 -8.406642564295907505e-07 -3.648734036687528715e-06 -8.755117960390634835e-06 4.057923797518014908e-03 1.376336513203568757e-06 -7.487540642614476383e-06 -9.108801350521389395e-06 2.900129402405582368e-06 -3.645739525381941348e-06 -7.255398941197199747e-06 5.326480418443679810e-02 1.329767853021621704e-01 -3.600458204746246338e-01 -4.797142992174485698e-06 1.581097649250295945e-06 -1.832498674048110843e-05 -2.509340643882751465e-01 -2.442034201521892101e-06 2.334706485271453857e-02 5.299635176925221458e-06 4.733292826131219044e-06 2.722141516642295755e-06 1.979065835475921631e-01 -4.865152732236310840e-06 1.653656363487243652e-05 4.214248747302917764e-06 4.993287920951843262e-01 -3.312961780466139317e-07 -6.123073490016395226e-06 -1.655157120694639161e-06 3.185768127441406250e-01 5.789750616713718046e-07 5.944255008216714486e-06
5.219525694847106934e-01 1.418366628058720380e-05 -2.180573392251972109e-05 -2.454188506817445159e-05 1.185565361083718017e-05 2.933720315922982991e-05 9.659977877163328230e-06 4.091325536137446761e-06 -5.090647391625680029e-06 -2.781324110401328653e-05 4.961560964584350586e-01 1.510080801381263882e-05 6.550180842168629169e-07 -2.713049252633936703e-05 1.957284621312282979e-05 1.466446065023774281e-06 -1.108243850467260927e-05 -3.190246570738963783e-05 7.693222761154174805e-01 -5.128413066267967224e-02 3.039431248907931149e-05 5.364650132833048701e-05 5.788141606899444014e-06 -7.120107114315032959e-02 -3.285485581727698445e-05 1.500659584999084473e-01 1.985709604923613369e-05 -3.452727794647216797e-01 1.024574612529249862e-05 8.146186470985412598e-01 -1.754825825628358871e-05 1.009261268336558715e-06 1.552420690131839365e-05 3.344078868394717574e-05 -1.992894794966559857e-05 -1.995788989006541669e-05 -2.651616705406922847e-05 4.591916203498840332e-01 -5.581723598879761994e-06 -5.676129603671142831e-06
-3.655500222521368414e-07 -6.700952326355036348e-06 -3.308339273644378409e-06 -1.928410711116157472e-05 -1.902678923215717077e-05 -1.208315491676330566e-01 -1.431410419172607362e-05 8.715547664905898273e-06 4.366699158708797768e-06 9.688122190709691495e-06 -2.040001345449127257e-05 -1.637963214307092130e-05 -8.576347681810148060e-06 5.316975148161873221e-06 -3.987877368927001953e-01 2.208402656833641231e-05 -1.702767985989339650e-05 6.801904419262427837e-06 -1.527422136859968305e-05 7.020023465156555176e-01 1.357889868813799694e-05 2.668111392267746851e-06 6.630737516388762742e-06 5.842031836509704590e-01 -5.358617727324599400e-06 4.537283530225977302e-06 5.856731149833649397e-06 -2.829490540534607135e-06 4.440199518285226077e-06 -1.082081871572881937e-05 5.857180356979370117e-01 -1.773302528818021528e-06 -2.491722702980041504e-01 -6.616998910903930664e-01 2.689936991373542696e-06 5.744344592094421387e-01 -7.261374776135198772e-06 -4.349117875099182129e-01 -1.589967905601952225e-05 3.503791231196373701e-05
6.276366114616394043e-02 1.459552368032746017e-05 -6.447025953093543649e-05 -3.964513962273485959e-05 -3.453910039752372541e-06 1.063434137904550880e-05 -5.456923645397182554e-06 2.761134965112432837e-05 -6.157574716780800372e-08 -2.094410092468024231e-06 2.028408348560333252e-01 -2.365264322179427836e-07 7.515684956160839647e-06 2.551752913859672844e-06 3.913976797775831074e-06 2.934032272605691105e-05 -2.324373235751409084e-05 -1.888073347799945623e-05 7.100813984870910645e-01 -8.175019502232316881e-06 8.925051952246576548e-05 2.527406811714172363e-01 4.930489012622274458e-07 -8.592493941250722855e-06 -2.606035923236049712e-05 -1.198931477119913325e-05 2.161464180971961468e-05 -5.340776851880946197e-07 1.803997474780771881e-05 7.943868637084960938e-01 -3.859220669255591929e-06 1.518266344646690413e-05 -2.031504209298873320e-08 -1.189326308667659760e-02 -1.886673999251797795e-05 -4.085122782271355391e-06 -3.885815749526955187e-05 1.025812707666773349e-05 -4.061476647621020675e-05 1.133409205067437142e-05
-1.944247742358129472e-06 4.906725735054351389e-06 2.010797106777317822e-05 5.648520527756772935e-06 -5.257459633867256343e-06 1.000077463686466217e-05 2.888604285544715822e-05 8.246076504292432219e-06 -3.987261607107939199e-06 -1.389996486977906898e-05 -1.858153336797840893e-05 2.161439260817132890e-05 -2.193718137277755886e-05 -1.126184179156553000e-05 1.878538569144438952e-07 1.414434564139810391e-06 6.428626875276677310e-08 3.628595004556700587e-05 -5.174115358386188745e-07 1.931580845848657191e-05 1.103995236917398870e-05 -1.940897709573619068e-05 -7.355186426138971001e-06 -7.892016583355143666e-06 -9.140122529061045498e-06 -2.829413915605982766e-06 5.832078841194743291e-06 1.016140231513418257e-06 1.325660559814423323e-05 -5.109333869768306613e-06 -1.122714820667169988e-05 2.819811015797313303e-07 6.321479304460808635e-07 4.711639576271409169e-06 8.645571142551489174e-06 1.437645551050081849e-05 -8.309518307214602828e-06 -6.896153536217752844e-06 -7.337882379943039268e-06 -8.484311365464236587e-06
1.148401679529342800e-05 -9.317198419012129307e-06 1.167799055110663176e-04 -1.932831582962535322e-05 2.291858436365146190e-06 -7.150342298700707033e-06 1.786111880619500880e-07 -2.287432107550557703e-05 4.146526862314203754e-06 -2.002473138418281451e-06 -9.145666658878326416e-02 -4.471414285944774747e-05 7.920096322777681053e-06 5.805207365483511239e-06 -2.742028755164938048e-06 -2.960003439511638135e-05 5.686386793968267739e-05 1.906071884150151163e-05 -1.014272689819335938e+00 8.397255442105233669e-06 -8.873170736478641629e-05 -4.907799661159515381e-01 -2.193122782045975327e-05 8.389908543904311955e-06 3.028431456186808646e-05 1.117576175602152944e-05 -2.006965223699808121e-05 4.320808329794090241e-06 -1.575017631694208831e-05 -1.010890483856201172e+00 -2.875927975765080191e-06 -1.831355984904803336e-05 -3.494226348266238347e-07 6.930594798177480698e-03 1.665973468334414065e-05 2.288687028340063989e-06 3.695113991852849722e-05 -1.219183104694820940e-05 3.933492553187534213e-05 -6.054146979295182973e-07
-1.078431248664855957e+00 -3.420852408453356475e-06 -1.248575806617736816e+00 -5.744707777921576053e-06 -8.666759133338928223e-01 -2.692537903785705566e-01 -1.377321183681488037e-01 1.145742177963256836e+00 7.691109203733503819e-06 1.093820173991844058e-05 -2.680884599685668945e-01 1.190146565437316895e+00 2.819699147948995233e-05 -3.561017001629807055e-05 -4.113464653491973877e-01 1.377559781074523926e+00 -8.135588169097900391e-01 -8.676781058311462402e-01 6.992865204811096191e-01 6.809337735176086426e-01 1.151325821876525879e+00 1.137031078338623047e+00 9.019395292853005230e-06 6.245483756065368652e-01 -9.300341606140136719e-01 -7.777682542800903320e-01 4.234433174133300781e-01 4.761693179607391357e-01 6.933578848838806152e-01 7.388767004013061523e-01 6.971565485000610352e-01 -4.104261279280763119e-06 -9.072634577751159668e-01 -7.665186524391174316e-01 -1.165413022041320801e+00 3.770409822463989258e-01 -9.651180505752563477e-01 -7.347078919410705566e-01 -1.313997983932495117e+00 2.218483239412307739e-01
-1.134311795234680176e+00 3.436208963394165039e-01 6.969316473259823397e-06 9.652198968979064375e-07 6.426845970963768195e-07 -1.202033087611198425e-01 1.741635060170665383e-06 7.998070941539481282e-06 3.111279283984913491e-06 2.136202510882867500e-06 -1.210691332817077637e+00 4.780278205871582031e-01 -4.160255230090115219e-06 -1.430182965123094618e-05 -1.839097308220516425e-06 5.853561106050619856e-06 -3.229757339795469306e-06 -7.264812588691711426e-01 -1.720228195190429688e-01 6.274339556694030762e-02 -1.343854364677099511e-05 -3.070533693971810862e-06 3.213845047866925597e-05 4.988799244165420532e-02 1.501092924627300818e-06 -7.708718180656433105e-01 -9.756613508216105402e-07 8.808626532554626465e-01 8.871353429640294053e-07 -2.280216962099075317e-01 -3.339786189826554619e-06 -9.285724445362575352e-06 1.641020389797631651e-06 1.935115278683952056e-06 -6.822486519813537598e-01 7.056777179241180420e-02 1.365425418953236658e-06 -4.074879288673400879e-01 -2.198945139753050171e-06 1.166284619102953002e-05
1.644431710243225098e+00 -3.365871608257293701e-01 3.434349855524487793e-05 -1.921798684634268284e-06 -2.642549134179716930e-06 -2.651788690855028108e-06 1.181362858915235847e-05 -1.075562369078397751e-02 -1.573166991875041276e-05 -1.545348277431912720e-05 1.730331301689147949e+00 -1.073827624320983887e+00 1.134168269345536828e-05 1.867529499577358365e-05 -7.493682460335548967e-06 -3.604303174142842181e-06 4.263933078618720174e-06 1.631225228309631348e+00 -1.737909587973263115e-05 -1.089532971382141113e-01 6.109942205512197688e-07 -2.083657636831048876e-05 -8.507387065037619323e-06 -2.643949483172036707e-05 1.597726077307015657e-05 1.528701782226562500e+00 -6.279468834691215307e-06 -1.327640175819396973e+00 -1.211603648698655888e-05 -1.177929152618162334e-05 2.204740121669601649e-05 -1.166134734376100823e-05 -3.700570232467725873e-06 -3.411686702747829258e-05 1.118695378303527832e+00 2.035594116023276001e-05 1.148327555711148307e-05 3.567514121532440186e-01 1.571903885633219033e-05 -4.777931735588936135e-06
4.717164756584679708e-06 -8.700703801878262311e-08 1.127796167565975338e-05 -1.971592791960574687e-05 -2.178475915570743382e-05 -4.482160875340923667e-06 1.423096910002641380e-05 2.498810772522119805e-06 -3.874973572237649933e-06 4.263421578798443079e-05 1.250740024261176586e-05 -9.578376193530857563e-06 -6.667222351097734645e-06 1.453656932426383719e-05 4.074038770340848714e-06 -2.275803490192629397e-05 -6.840676178399007767e-06 -3.593870133045129478e-06 -1.047468504111748189e-05 5.814066753373481333e-06 6.889825272082816809e-06 3.791544804698787630e-05 -6.693817795166978613e-06 4.920496394333895296e-06 9.751502147992141545e-06 -1.143788358604069799e-05 8.634478035673964769e-06 -2.244697134301532060e-05 2.428596872050547972e-06 -8.721483027329668403e-06 8.845441698213107884e-06 -8.930789590522181243e-06 -4.480949428398162127e-06 -8.041019100346602499e-06 -1.844328107836190611e-05 1.249946762982290238e-05 9.064340702025219798e-06 6.035468686604872346e-06 -1.172961674456018955e-05 8.175875336746685207e-06
8.014264702796936035e-01 4.137115320190787315e-05 -5.375743785407394171e-05 5.247126864560414106e-06 6.267036042117979378e-06 2.791514998534694314e-05 1.211240396514767781e-05 -6.680656952084973454e-06 -1.525692368886666372e-05 -1.150475691247265786e-05 8.515709638595581055e-01 1.701129986031446606e-05 8.028084266697987914e-06 6.057074642740190029e-06 1.522232287243241444e-05 -6.343847417156212032e-06 -7.021636974968714640e-06 -3.836132964352145791e-05 1.294896483421325684e+00 -8.955418318510055542e-02 5.821347440360113978e-05 1.771358102560043335e-01 1.409549622621852905e-05 -8.819127082824707031e-02 -3.700781962834298611e-05 3.926359415054321289e-01 2.394180228293407708e-05 -7.139332294464111328e-01 2.578080511739244685e-06 1.224547505378723145e+00 3.210461465641856194e-03 -2.085024243569932878e-05 1.095949210139224306e-05 -2.526280240999767557e-06 -2.562021836638450623e-05 -5.270699602988315746e-06 -3.474855111562646925e-05 4.263747632503509521e-01 -9.703296200314071029e-06 -1.413732206856366247e-06
2.343942523002624512e-01 2.777382633212255314e-06 -9.723172297526616603e-06 -2.016589678532909602e-05 3.935901531804120168e-06 1.541174054145812988e-01 3.922747964679729193e-06 -2.498956955969333649e-02 -5.152142875886056572e-06 -8.575331776228267699e-06 1.146696284413337708e-01 3.530611138558015227e-06 -7.178577106969896704e-06 1.368980520055629313e-05 3.389736320968950167e-06 -9.226725524058565497e-06 -3.674764457173296250e-06 -4.444408205017680302e-06 6.076206773286685348e-06 -2.790796160697937012e-01 -8.232540494645945728e-06 1.992088982660789043e-08 9.046827472047880292e-06 -3.633925020694732666e-01 -8.070865078479982913e-07 2.325419634580612183e-01 6.106713044573552907e-06 -6.739731132984161377e-02 3.948028279410209507e-06 5.166442861082032323e-06 -9.350264008389785886e-06 4.562068170343991369e-06 6.426310847018612549e-06 3.996945023536682129e-01 -2.074458279821556062e-06 -7.847954293538350612e-06 8.468556984553288203e-07 1.886683404445648193e-01 3.608676024668966420e-06 4.529924808593932539e-06
-1.317853450775146484e+00 -1.904591590573545545e-05 -2.086901962757110596e-01 -1.696985236776527017e-05 -1.799152493476867676e-01 -2.481761425733566284e-01 -1.507504566689021885e-05 6.331001520156860352e-01 2.740861054917331785e-05 2.960062556667253375e-05 -8.928480148315429688e-01 6.904410719871520996e-01 -5.546272404899355024e-06 -1.430711563443765044e-05 -2.794137299060821533e-01 5.908688306808471680e-01 -1.873224824666976929e-01 -7.480543255805969238e-01 -3.384497904335148633e-05 3.091552853584289551e-01 2.562839537858963013e-02 3.711801469326019287e-01 8.044899914239067584e-06 6.459581255912780762e-01 -2.951147556304931641e-01 -1.041260242462158203e+00 6.444499376812018454e-06 1.011500597000122070e+00 1.088684126734733582e-01 -1.648667421250138432e-05 3.273833394050598145e-01 7.484235538868233562e-06 -3.468098640441894531e-01 -6.825883984565734863e-01 -9.499913454055786133e-01 1.384958326816558838e-01 -2.246312052011489868e-01 -8.457530140876770020e-01 -5.751788616180419922e-01 6.724810600280761719e-02
8.225761055946350098e-01 5.257991688267793506e-06 6.603280326089588925e-06 -4.128836280870018527e-06 5.783195774711202830e-06 1.787215843796730042e-02 7.650704901607241482e-06 -2.398064285516738892e-01 -8.764785889070481062e-06 -9.917926945490762591e-06 4.788026213645935059e-01 -2.234740853309631348e-01 -3.565452971088234335e-06 1.992784746107645333e-05 2.178480923175811768e-01 -1.413804238836746663e-05 7.426675438182428479e-06 4.831913709640502930e-01 -4.955335706472396851e-02 -3.756102547049522400e-02 -1.829586472013033926e-05 -1.614720672369003296e-01 -6.773381755920127034e-06 -9.017187170684337616e-03 1.026270613074302673e-01 4.772280752658843994e-01 -1.499019617767771706e-06 -2.654308080673217773e-01 -9.491296850683283992e-07 -9.038999676704406738e-02 -6.027828021615277976e-06 -1.091063404601300135e-05 1.731091924011707306e-02 3.310242295265197754e-02 5.895467400550842285e-01 -5.781118488812353462e-06 6.410625246644485742e-06 6.286953389644622803e-02 9.059809893369674683e-02 1.640910340938717127e-06
-8.491496443748474121e-01 -2.857745494111441076e-05 -3.957379460334777832e-01 4.046753929287660867e-06 -5.869475007057189941e-01 -2.347320318222045898e-01 -1.498973688285332173e-05 8.919057846069335938e-01 1.537814205221366137e-05 1.575786882312968373e-05 -3.879034817218780518e-01 6.689514517784118652e-01 7.321919838432222605e-06 -5.617327133222715929e-06 -4.388110339641571045e-01 9.114581346511840820e-01 -3.725911080837249756e-01 -3.720716834068298340e-01 1.851969808340072632e-01 4.759623706340789795e-01 4.232779443264007568e-01 5.964030623435974121e-01 -2.068559479084797204e-05 8.025973439216613770e-01 -3.868102133274078369e-01 -6.975126266479492188e-01 2.399637252092361450e-01 4.723465740680694580e-01 2.516807615756988525e-01 1.712876707315444946e-01 7.664290070533752441e-01 -3.512266630423255265e-06 -5.770083069801330566e-01 -8.297251462936401367e-01 -7.746821641921997070e-01 6.432718038558959961e-01 -3.944622576236724854e-01 -6.549872756004333496e-01 -8.428919911384582520e-01 2.554723918437957764e-01
6.109676178311929107e-06 1.707012870610924438e-06 3.099314272403717041e-01 -1.183616859634639695e-06 5.850437879562377930e-01 2.938797473907470703e-01 2.928663492202758789e-01 -5.404891967773437500e-01 -4.189729224890470505e-06 -3.658847845144919120e-06 -5.030749889556318521e-06 -2.197148203849792480e-01 -2.000523818423971534e-05 -1.141970642493106425e-05 4.874894917011260986e-01 -6.430220007896423340e-01 7.133188773877918720e-05 6.233192834770306945e-06 -6.085959672927856445e-01 -5.439869761466979980e-01 -7.012314796447753906e-01 -8.773199319839477539e-01 -2.043773747573141009e-05 -5.034149885177612305e-01 4.339274168014526367e-01 5.677384251612238586e-08 -2.937939465045928955e-01 1.153472476289607584e-05 -3.677097260951995850e-01 -8.911345005035400391e-01 -1.004821896553039551e+00 2.915646518886205740e-06 5.508082509040832520e-01 9.214164018630981445e-01 2.043866217136383057e-01 -5.770538449287414551e-01 5.313559174537658691e-01 4.691091775894165039e-01 4.002608060836791992e-01 -9.695287793874740601e-02
4.906321167945861816e-01 2.362715349590871483e-05 -6.456873961724340916e-05 1.592199168953811750e-06 2.925261924247024581e-06 2.071645394607912749e-05 7.390295195364160463e-06 1.571999018779024482e-05 -7.834919415472541004e-06 -1.439578954887110740e-05 6.172463893890380859e-01 2.631932875374332070e-05 1.297529706789646298e-05 -1.178549791802652180e-05 9.096696885535493493e-06 1.545841951156035066e-05 -1.460067505831830204e-05 -3.229522917536087334e-05 1.242977976799011230e+00 -7.969275861978530884e-02 8.333625737577676773e-05 3.937678039073944092e-01 -7.234020813484676182e-06 -2.746090649452526122e-05 -3.575046503101475537e-05 2.052804380655288696e-01 2.583661080279853195e-05 -5.178264975547790527e-01 1.105338924389798194e-05 1.347030162811279297e+00 1.136434171348810196e-02 -1.628844984224997461e-05 4.924354470858816057e-06 -1.559778349474072456e-03 -2.172102904296480119e-05 -4.129703484068159014e-06 -3.774298602365888655e-05 4.209964722394943237e-02 -2.581912121968343854e-05 -2.595179466879926622e-07
