1.352122277021408081e-01 6.079521030187606812e-02 1.411934047937393188e-01 -3.560346662998199463e-01 -3.341356217861175537e-01 1.834452003240585327e-01 -5.452379211783409119e-02 -8.216431736946105957e-02 3.015212155878543854e-02 1.005086600780487061e-01 -1.857293099164962769e-01 2.140072435140609741e-01 -2.091940343379974365e-01 2.277396768331527710e-01 6.960897892713546753e-02 -9.061390534043312073e-03 3.311656117439270020e-01 -3.359811753034591675e-02 -4.715561568737030029e-01 -6.421151012182235718e-02 -7.877047359943389893e-02 2.640131711959838867e-01 -1.642989963293075562e-01 5.748015269637107849e-02 4.904968440532684326e-01 -3.242095410823822021e-01 -9.406938403844833374e-02 -2.190814465284347534e-01 -4.981414973735809326e-01 -1.353759467601776123e-01 -2.955843694508075714e-03 -4.743565246462821960e-02 1.440764814615249634e-01 -1.793143451213836670e-01 -3.573803007602691650e-01 1.083620935678482056e-01 -1.401664316654205322e-01 1.824477910995483398e-01 -7.223044335842132568e-02 -9.742759168148040771e-02 -8.339750021696090698e-02 6.641661375761032104e-02 -1.068586111068725586e-01 -2.265731245279312134e-01 1.824646145105361938e-01 -2.095226943492889404e-01 -2.051434069871902466e-01 -2.724828124046325684e-01 1.098129004240036011e-01 -2.139823883771896362e-01 -9.954925626516342163e-02 -1.459511928260326385e-02 4.990413412451744080e-02 9.123155474662780762e-02 1.631140708923339844e-01 -3.111814260482788086e-01 -5.781514570116996765e-02 1.434708237648010254e-01 -7.587007246911525726e-03 -3.881280124187469482e-02 2.929057925939559937e-02 -2.990996539592742920e-01 1.535933613777160645e-01 -1.503296047449111938e-01 -1.550940424203872681e-02 -3.462378978729248047e-01 -9.681912511587142944e-02 -2.159378230571746826e-01 -2.075913697481155396e-01 2.123983949422836304e-02 2.810734137892723083e-02 9.736092388629913330e-02 -2.780852317810058594e-01 2.877027355134487152e-02 1.681137681007385254e-01 2.788439691066741943e-01 2.722547054290771484e-01 2.491486221551895142e-01 6.706177443265914917e-02 1.148647069931030273e-01
7.660450041294097900e-02 1.599188148975372314e-02 -1.785129457712173462e-01 -8.335117250680923462e-02 -3.073298335075378418e-01 -2.105777338147163391e-02 1.347071118652820587e-02 -1.950251124799251556e-02 8.081939816474914551e-02 -1.537524908781051636e-01 -2.424871176481246948e-01 2.121149376034736633e-02 9.057188034057617188e-02 1.698091775178909302e-01 7.012395560741424561e-02 -1.126871556043624878e-01 2.698813378810882568e-01 3.059756159782409668e-01 2.504307031631469727e-01 -1.479379534721374512e-01 2.296811342239379883e-01 -2.130343616008758545e-01 2.001679539680480957e-01 1.050205603241920471e-01 1.941886097192764282e-01 3.903703391551971436e-01 -2.992575466632843018e-01 2.185082286596298218e-01 -4.264662265777587891e-01 -1.553834602236747742e-02 3.350199665874242783e-03 1.413983404636383057e-01 -2.597227096557617188e-01 -1.826172173023223877e-01 2.886048750951886177e-03 -1.782881170511245728e-01 4.458558280020952225e-03 3.820290043950080872e-02 -1.346952766180038452e-01 -2.435971610248088837e-02 -2.275937795639038086e-02 -2.840485274791717529e-01 -4.591421782970428467e-02 5.609340965747833252e-02 2.190016359090805054e-01 2.858614921569824219e-01 1.122898831963539124e-01 7.522293180227279663e-02 1.886788904666900635e-01 1.689074486494064331e-01 -3.226323053240776062e-02 -2.605729699134826660e-01 -1.221592277288436890e-01 -4.226108267903327942e-02 3.212628960609436035e-01 -7.167707085609436035e-01 2.169032841920852661e-01 5.532043427228927612e-02 3.875645101070404053e-01 -1.343017537146806717e-02 -1.451671868562698364e-01 3.038630485534667969e-01 9.947536885738372803e-02 1.110978797078132629e-01 -5.509796738624572754e-02 2.366190552711486816e-01 7.389965653419494629e-02 -3.130439817905426025e-01 -4.864756166934967041e-01 -2.658834159374237061e-01 5.613663792610168457e-02 -2.036083936691284180e-01 9.740106761455535889e-02 -1.035807058215141296e-01 2.764845788478851318e-01 -1.337057799100875854e-01 -7.612014561891555786e-02 -1.468479931354522705e-01 1.153556928038597107e-01 -8.820974081754684448e-02
-9.039292484521865845e-02 5.070823431015014648e-02 -3.014581277966499329e-03 -1.016190722584724426e-01 2.242124080657958984e-01 -2.489748448133468628e-01 4.061134904623031616e-02 2.302347309887409210e-02 -2.521355450153350830e-01 1.872175335884094238e-01 1.370144933462142944e-01 1.050818040966987610e-01 2.310900688171386719e-01 -1.937608718872070312e-01 7.829955220222473145e-02 -1.005783379077911377e-01 1.745531568303704262e-03 1.745935529470443726e-01 -1.393377631902694702e-01 1.819763779640197754e-01 1.079596132040023804e-01 2.428604364395141602e-01 1.152563169598579407e-01 -2.517601847648620605e-01 4.985120147466659546e-02 2.884525619447231293e-02 9.901952743530273438e-02 -2.769088745117187500e-01 -2.521724402904510498e-01 2.164943367242813110e-01 -2.381112128496170044e-01 3.113189153373241425e-02 3.604897260665893555e-01 -2.349205166101455688e-01 -4.481792151927947998e-01 1.582470834255218506e-01 1.678992621600627899e-02 2.676617167890071869e-02 1.893834918737411499e-01 1.959684044122695923e-01 -1.680184900760650635e-01 -1.477878242731094360e-01 -9.340189397335052490e-02 -3.827019333839416504e-01 -7.207065820693969727e-02 -8.739327639341354370e-02 -5.556693067774176598e-04 1.993741095066070557e-01 -1.783477365970611572e-01 -1.900946795940399170e-01 2.384286373853683472e-01 7.317192107439041138e-02 2.610711455345153809e-01 -9.294594824314117432e-02 -7.082003355026245117e-02 3.024961054325103760e-01 3.765093162655830383e-02 2.545060589909553528e-03 -3.162707015872001648e-02 3.369000256061553955e-01 -3.147121965885162354e-01 2.318736463785171509e-01 1.662897318601608276e-01 -2.888376414775848389e-01 1.058553084731101990e-01 -1.758547127246856689e-01 3.771937191486358643e-01 -2.740211784839630127e-01 8.640868216753005981e-02 2.768652141094207764e-01 3.047642111778259277e-01 1.686210483312606812e-01 4.227502644062042236e-02 -4.001737236976623535e-01 -3.041008254513144493e-03 -1.596173793077468872e-01 1.343997418880462646e-01 -1.260042190551757812e-01 8.067934960126876831e-02 -5.557890236377716064e-02
9.363649040460586548e-02 3.659262147266417742e-04 2.415017783641815186e-01 1.434212774038314819e-01 2.800074778497219086e-02 -1.866316199302673340e-01 9.686596691608428955e-02 4.061066806316375732e-01 3.808853775262832642e-02 1.079277470707893372e-01 -2.473620325326919556e-02 -8.276338130235671997e-02 1.224688664078712463e-01 7.973150163888931274e-02 -7.336104661226272583e-02 7.508238404989242554e-02 2.954753302037715912e-02 1.793619692325592041e-01 3.382421135902404785e-01 -8.874232321977615356e-02 -7.190862298011779785e-02 2.661038339138031006e-01 1.581610888242721558e-01 1.894900798797607422e-01 -2.947804033756256104e-01 2.784755825996398926e-01 7.390388846397399902e-02 3.353184759616851807e-01 1.238330900669097900e-01 -3.690755069255828857e-01 -2.024090141057968140e-01 3.938288986682891846e-02 1.138765066862106323e-01 -3.274119794368743896e-01 3.124766349792480469e-01 -2.767111957073211670e-01 -3.561788201332092285e-01 -2.528997063636779785e-01 -4.277466237545013428e-02 9.131880104541778564e-02 -7.573492079973220825e-02 -1.753771863877773285e-02 2.583602368831634521e-01 -1.154089495539665222e-01 9.050510823726654053e-02 -2.031099349260330200e-01 -3.266182541847229004e-01 1.449178606271743774e-01 -9.156613051891326904e-02 1.312132179737091064e-01 4.426253959536552429e-02 -2.721223235130310059e-02 -2.277446538209915161e-02 8.046206831932067871e-02 7.879892736673355103e-02 5.742931962013244629e-01 8.870044350624084473e-02 1.091360375285148621e-01 1.846566498279571533e-01 6.955555081367492676e-02 3.026756225153803825e-03 -1.115557104349136353e-01 -4.142344594001770020e-01 1.822763979434967041e-01 1.066201180219650269e-01 -3.711521998047828674e-02 -2.629884779453277588e-01 3.843913227319717407e-02 6.165016070008277893e-02 3.653437495231628418e-01 5.298237875103950500e-02 2.455896139144897461e-01 -2.077753990888595581e-01 -7.714778929948806763e-02 3.972190618515014648e-02 1.130157113075256348e-01 1.086867004632949829e-01 1.673517227172851562e-01 7.750342041254043579e-02 7.534133642911911011e-02
-1.418405175209045410e-01 -1.057897061109542847e-01 1.576488912105560303e-01 -1.026448756456375122e-01 -1.902095526456832886e-01 -1.312475055456161499e-01 -6.486182659864425659e-02 5.323029588907957077e-03 6.214081123471260071e-02 1.807764023542404175e-01 -1.003175042569637299e-02 1.154970005154609680e-01 -8.194595575332641602e-02 -1.663036830723285675e-02 3.987820819020271301e-02 -2.114264369010925293e-01 -8.582856389693915844e-05 3.022821843624114990e-01 -2.096619606018066406e-01 -7.917127013206481934e-02 3.706126511096954346e-01 1.157857328653335571e-01 -1.271525472402572632e-01 -1.242109760642051697e-01 8.841910958290100098e-02 1.183740422129631042e-01 -1.745345890522003174e-01 8.413147181272506714e-02 6.641332060098648071e-02 -2.136571891605854034e-02 4.149399697780609131e-02 -2.873389720916748047e-01 -5.919627845287322998e-02 8.336955308914184570e-02 1.397083848714828491e-01 1.044678837060928345e-01 -2.196258455514907837e-01 8.133365213871002197e-02 5.243952572345733643e-02 -1.345430016517639160e-01 -8.320637792348861694e-02 2.104025930166244507e-01 3.125925660133361816e-01 1.411385387182235718e-01 2.404105514287948608e-01 1.151009351015090942e-01 -2.758252806961536407e-02 -2.871459424495697021e-01 -1.248029842972755432e-01 1.046060174703598022e-01 2.398954331874847412e-01 -4.383615031838417053e-02 -2.343165725469589233e-01 -2.626843750476837158e-01 4.094181954860687256e-02 3.106257915496826172e-01 5.270660668611526489e-02 -3.119945339858531952e-02 -4.783508777618408203e-01 -1.578810811042785645e-02 6.976971053518354893e-04 3.477217853069305420e-01 -2.473104596138000488e-01 -5.710632354021072388e-02 1.721378862857818604e-01 -1.336740553379058838e-01 7.631848100572824478e-03 3.058235906064510345e-02 -1.153765525668859482e-02 2.311318814754486084e-01 1.715280264616012573e-01 -5.665156990289688110e-02 -1.954222768545150757e-01 -1.353308558464050293e-01 -2.690474390983581543e-01 1.633150503039360046e-02 -5.687450990080833435e-02 -2.118353843688964844e-01 -9.935547411441802979e-02 -5.886908993124961853e-02
2.781552374362945557e-01 -3.470553755760192871e-01 4.186092689633369446e-02 1.024737805128097534e-01 -1.795788481831550598e-02 -1.473259478807449341e-01 1.602924764156341553e-01 6.179202813655138016e-03 -2.485335022211074829e-01 -1.482797265052795410e-01 3.321772813796997070e-01 2.335335612297058105e-01 8.755955100059509277e-02 8.670567721128463745e-02 1.283458769321441650e-01 3.052234835922718048e-02 7.450090348720550537e-02 9.603598713874816895e-02 1.008058041334152222e-01 1.365621984004974365e-01 7.246260344982147217e-02 -3.219570219516754150e-02 -1.861214786767959595e-01 7.724121958017349243e-02 -1.434458140283823013e-02 -3.666686415672302246e-01 -1.641213446855545044e-01 -1.256433781236410141e-02 8.724005520343780518e-02 1.969674825668334961e-01 5.304774269461631775e-02 -2.466582059860229492e-01 7.240623701363801956e-03 2.590697817504405975e-02 6.971333920955657959e-02 2.259756177663803101e-01 9.701736271381378174e-02 2.911924421787261963e-01 -2.648363821208477020e-02 4.110382869839668274e-03 2.521165609359741211e-01 -3.275220096111297607e-01 -7.920113950967788696e-02 4.076022803783416748e-01 -9.845360182225704193e-03 1.267667412757873535e-01 3.403191864490509033e-01 -1.704882085323333740e-01 4.344318807125091553e-02 -2.835156023502349854e-01 3.907629474997520447e-02 -4.015348553657531738e-01 -7.531765103340148926e-02 -3.714456856250762939e-01 -1.612594276666641235e-01 2.845937758684158325e-02 -4.763110727071762085e-02 3.574660122394561768e-01 -2.506144046783447266e-01 -1.380071491003036499e-01 -1.557787209749221802e-01 -2.922461330890655518e-01 -5.006206780672073364e-02 -5.339010432362556458e-02 -5.218846723437309265e-02 -2.236107289791107178e-01 -2.806546986103057861e-01 -1.411968022584915161e-01 -1.248963847756385803e-01 -3.048368990421295166e-01 -8.763450384140014648e-02 2.741862554103136063e-03 7.432723790407180786e-02 -5.437595024704933167e-02 -7.090085744857788086e-02 3.876843675971031189e-02 -6.849077995866537094e-03 5.742395296692848206e-02 -1.842833310365676880e-01 1.953126862645149231e-02
7.487568259239196777e-02 1.153940558433532715e-01 5.251986533403396606e-02 -3.390603885054588318e-02 -6.554760038852691650e-02 -3.289614617824554443e-01 2.666432596743106842e-02 1.249766796827316284e-01 -4.619921743869781494e-01 1.107431277632713318e-01 3.815588057041168213e-01 -7.492236047983169556e-02 -1.474797129631042480e-01 4.211276397109031677e-02 1.590403765439987183e-01 -3.710697591304779053e-01 -1.095267608761787415e-01 -2.420286685228347778e-01 2.121985405683517456e-01 -3.423440828919410706e-02 -2.586358189582824707e-01 -2.649277150630950928e-01 1.284973025321960449e-01 -2.372936606407165527e-01 -1.546488106250762939e-01 6.543353945016860962e-02 9.023033827543258667e-02 -9.293007850646972656e-02 4.327903687953948975e-01 1.803694963455200195e-01 -4.473270177841186523e-01 1.819559186697006226e-01 1.074114665389060974e-01 1.582903861999511719e-01 3.884993195533752441e-01 -6.856164336204528809e-02 1.140871942043304443e-01 4.313379898667335510e-02 -6.569343060255050659e-02 1.779574751853942871e-01 1.827636510133743286e-01 -1.312622427940368652e-02 2.545976042747497559e-01 2.098097503185272217e-01 2.118397802114486694e-01 -7.960815727710723877e-02 3.822614252567291260e-01 -1.514588147401809692e-01 1.509386003017425537e-01 -3.222886472940444946e-02 -2.283136546611785889e-01 6.666123121976852417e-02 1.626546531915664673e-01 -2.090399116277694702e-01 -2.303521484136581421e-01 -6.039339676499366760e-02 1.941568553447723389e-01 -1.173115000128746033e-01 -3.450051546096801758e-01 1.056366041302680969e-01 -3.616662323474884033e-02 -3.731201291084289551e-01 1.544565707445144653e-02 -1.014578267931938171e-01 -1.016874760389328003e-01 2.123610526323318481e-01 1.510137766599655151e-01 1.176782324910163879e-01 4.503216445446014404e-01 2.065839767456054688e-01 1.669220179319381714e-01 4.268800839781761169e-02 -1.229193806648254395e-02 1.383676528930664062e-01 8.160250633955001831e-02 2.479015290737152100e-01 3.221842050552368164e-01 -3.363588824868202209e-02 -2.881932854652404785e-01 -2.487063705921173096e-01
1.824738830327987671e-02 -1.187296435236930847e-01 1.197836324572563171e-01 2.934933006763458252e-01 -1.691433489322662354e-01 -1.053571477532386780e-01 1.678368747234344482e-01 -2.519286870956420898e-01 -3.584763109683990479e-01 1.132124066352844238e-01 -2.314377874135971069e-01 -9.832606464624404907e-02 8.972889184951782227e-02 2.604081034660339355e-01 1.209808662533760071e-01 3.247777819633483887e-01 -4.354503154754638672e-01 -1.187798008322715759e-01 1.157898381352424622e-01 7.426766306161880493e-02 2.730426788330078125e-01 -1.948583573102951050e-01 -1.209115609526634216e-01 2.894653677940368652e-01 2.290302067995071411e-01 6.536508351564407349e-02 -3.703658655285835266e-02 3.299271464347839355e-01 -1.961717009544372559e-01 -1.994609273970127106e-02 -6.414735317230224609e-02 -9.216923266649246216e-02 1.596604138612747192e-01 -9.348734468221664429e-02 -2.630695141851902008e-02 -3.295348286628723145e-01 -2.528204917907714844e-01 -2.102490663528442383e-01 7.688900828361511230e-02 1.306065469980239868e-01 2.681709527969360352e-01 1.163942515850067139e-01 -1.350227743387222290e-01 -7.870736718177795410e-02 -8.367910236120223999e-02 -1.084422469139099121e-01 -2.060314454138278961e-02 2.222867496311664581e-02 -5.707178730517625809e-03 -8.191020041704177856e-02 -6.003287807106971741e-02 2.009235769510269165e-01 -2.848142087459564209e-01 -2.006219923496246338e-01 -2.262936979532241821e-01 9.988553822040557861e-03 1.468657702207565308e-01 -1.823519915342330933e-02 -5.482199043035507202e-02 1.931034401059150696e-02 -3.126532137393951416e-01 1.183573231101036072e-01 -1.191096156835556030e-01 6.602002680301666260e-02 -5.383039638400077820e-02 -2.595194149762392044e-03 -7.629211992025375366e-02 -4.245756566524505615e-02 -3.027673363685607910e-01 -2.869826853275299072e-01 -2.834304869174957275e-01 -1.454960405826568604e-01 1.734495162963867188e-01 2.747245430946350098e-01 -1.372573524713516235e-01 1.401426196098327637e-01 2.906678915023803711e-01 -1.305157989263534546e-01 -1.193851009011268616e-01 2.206028252840042114e-01
-1.213195621967315674e-01 -3.699689358472824097e-02 -2.877335250377655029e-01 1.332820355892181396e-01 1.101063415408134460e-01 -3.897777199745178223e-02 -2.218419164419174194e-01 -3.422748148441314697e-01 -6.828958541154861450e-02 -8.958162367343902588e-02 5.995210260152816772e-02 1.033400818705558777e-01 -1.175594702363014221e-01 -8.572065271437168121e-03 1.217949483543634415e-02 -1.671215891838073730e-01 -6.912473589181900024e-02 1.292196810245513916e-01 -1.358445435762405396e-01 2.774892933666706085e-02 2.223408408463001251e-02 3.602632507681846619e-02 1.937102526426315308e-01 4.597749412059783936e-01 -9.432589262723922729e-02 8.656245470046997070e-02 1.003962978720664978e-01 -2.101540863513946533e-01 1.321310549974441528e-01 2.045251801609992981e-02 2.753887474536895752e-01 2.778873443603515625e-01 -3.061892688274383545e-01 2.687634229660034180e-01 2.477621287107467651e-01 -3.561320155858993530e-02 -1.167837809771299362e-02 5.914487317204475403e-02 8.840523660182952881e-02 -2.412026375532150269e-01 -7.029877603054046631e-02 1.434158086776733398e-01 2.235782593488693237e-01 -9.621503762900829315e-03 -6.445900350809097290e-02 2.164327204227447510e-01 1.371911317110061646e-01 -2.198033481836318970e-01 7.968021929264068604e-02 -1.349876821041107178e-01 2.700391411781311035e-02 -4.083864018321037292e-02 -2.844778299331665039e-01 1.607112735509872437e-01 3.514662012457847595e-02 5.610118806362152100e-02 -1.316051483154296875e-01 -5.275792791508138180e-04 -1.196082606911659241e-01 -6.019107997417449951e-02 9.296641498804092407e-02 -1.491585373878479004e-01 2.460528314113616943e-01 -7.825976610183715820e-02 -1.576711237430572510e-01 3.665026649832725525e-02 2.090449184179306030e-01 3.903934061527252197e-01 2.735716700553894043e-01 2.370225191116333008e-01 2.467377334833145142e-01 -1.980256736278533936e-01 8.285020291805267334e-02 3.334201276302337646e-01 6.589639186859130859e-02 2.264228016138076782e-01 1.296635810285806656e-02 9.430809319019317627e-02 3.367073135450482368e-03 1.378024071455001831e-01
1.005170419812202454e-01 2.713395841419696808e-02 7.946458458900451660e-02 -1.837303787469863892e-01 -2.210663110017776489e-01 4.945321381092071533e-02 -1.071960083208978176e-03 1.042890101671218872e-01 -6.159619614481925964e-02 2.849579155445098877e-01 -1.093052774667739868e-01 -4.684638231992721558e-03 9.005111455917358398e-02 -2.577018737792968750e-01 -3.468719124794006348e-01 -1.888003498315811157e-01 2.359326034784317017e-01 2.468920685350894928e-02 -5.862275138497352600e-02 4.682689905166625977e-02 1.180022954940795898e-01 6.581349670886993408e-02 -8.942434936761856079e-02 -1.060596555471420288e-01 4.334343224763870239e-02 -3.694779425859451294e-02 -3.386522084474563599e-02 -1.154831945896148682e-01 -5.622650310397148132e-02 -9.696786105632781982e-02 3.431011736392974854e-01 -5.887310579419136047e-02 -2.073321491479873657e-01 -3.711894750595092773e-01 -3.487562835216522217e-01 -4.284173995256423950e-02 -6.342899054288864136e-02 -1.349520385265350342e-01 -3.900764286518096924e-01 -4.514558613300323486e-02 1.427333354949951172e-01 8.179438859224319458e-02 1.965065598487854004e-01 -1.433525085449218750e-01 -1.829157620668411255e-01 4.179343581199645996e-01 1.730422377586364746e-01 -6.502513587474822998e-02 1.713678240776062012e-02 2.375650852918624878e-01 -3.385714590549468994e-01 -4.109788537025451660e-01 -3.427019715309143066e-01 1.695767790079116821e-01 -7.558121532201766968e-02 -2.021492719650268555e-01 -1.906159520149230957e-02 1.675261110067367554e-01 2.046802490949630737e-01 3.298712670803070068e-01 1.492715775966644287e-01 6.173679605126380920e-03 3.506720662117004395e-01 -8.410263806581497192e-02 -2.997292876243591309e-01 -4.034961462020874023e-01 3.450919687747955322e-02 -1.981433182954788208e-01 -2.329260706901550293e-01 -2.366761490702629089e-02 1.909012198448181152e-01 3.972150385379791260e-02 2.761338353157043457e-01 8.688946813344955444e-02 1.172421798110008240e-01 2.284060120582580566e-01 3.041526861488819122e-02 -1.227106302976608276e-01 1.085241958498954773e-01 1.701037138700485229e-01
-2.450015693902969360e-01 9.071434289216995239e-02 1.084345504641532898e-01 -1.556000411510467529e-01 -9.472992271184921265e-02 2.434437423944473267e-01 -3.243568241596221924e-01 6.089074164628982544e-02 -1.700621396303176880e-01 1.023181825876235962e-01 1.697168126702308655e-02 3.357057571411132812e-01 -3.855424225330352783e-01 2.510451972484588623e-01 -2.332939803600311279e-01 3.789437562227249146e-02 8.289471268653869629e-03 2.476990669965744019e-01 7.809803634881973267e-02 1.005936712026596069e-01 1.447746902704238892e-01 -2.173163294792175293e-01 -1.041578054428100586e-01 2.864146418869495392e-02 -4.410826563835144043e-01 -3.711551427841186523e-01 -5.477118864655494690e-02 -2.750968337059020996e-01 2.792370021343231201e-01 -1.342540699988603592e-02 -1.496351659297943115e-01 7.517311722040176392e-03 2.094272710382938385e-02 -1.271381527185440063e-01 3.111698329448699951e-01 -1.947701871395111084e-01 -9.335310012102127075e-02 3.215117752552032471e-02 -1.357826739549636841e-01 3.421173989772796631e-02 -2.346336096525192261e-01 2.183127105236053467e-01 -6.550011038780212402e-02 -1.805993914604187012e-01 3.544120490550994873e-02 -2.562740258872509003e-02 7.861682772636413574e-02 -2.559829056262969971e-01 2.642197348177433014e-02 2.247070074081420898e-01 -2.228915244340896606e-01 3.175537288188934326e-02 1.506828218698501587e-01 -1.617928743362426758e-01 -3.788692504167556763e-02 2.777351140975952148e-01 2.013121843338012695e-01 -1.498886793851852417e-01 9.233222901821136475e-02 1.144541054964065552e-01 1.678127646446228027e-01 7.170142233371734619e-02 5.424274504184722900e-02 -1.637826114892959595e-01 1.611131578683853149e-01 1.167470123618841171e-02 -2.011782228946685791e-01 1.361683942377567291e-02 1.278527528047561646e-01 1.050342768430709839e-01 2.112064659595489502e-01 -1.029992243275046349e-03 -3.070780932903289795e-01 2.727461159229278564e-01 1.435893177986145020e-01 -2.090859562158584595e-01 -9.710851311683654785e-02 -4.107630252838134766e-02 -6.054192408919334412e-02 -2.805796563625335693e-01
3.847748637199401855e-01 -3.811411187052726746e-02 2.917431853711605072e-02 -1.258505880832672119e-01 -1.265465170145034790e-01 1.671359837055206299e-01 6.979664415121078491e-02 -1.766803860664367676e-02 1.374726090580224991e-02 -5.560087785124778748e-02 3.415550664067268372e-02 6.497496366500854492e-02 5.091950669884681702e-02 -6.150358170270919800e-02 3.974996805191040039e-01 2.759585380554199219e-01 3.019587323069572449e-02 -6.519503891468048096e-02 3.854869902133941650e-01 -4.208226874470710754e-02 -1.128834560513496399e-01 -8.072201907634735107e-02 6.276300549507141113e-02 1.630954891443252563e-01 6.510290503501892090e-02 2.052560895681381226e-01 1.595310866832733154e-01 2.083216011524200439e-01 2.038908153772354126e-01 7.015728205442428589e-02 2.455412447452545166e-01 7.273783441632986069e-03 2.950019836425781250e-01 -7.598597556352615356e-02 1.271572709083557129e-01 -1.906614601612091064e-01 1.277926266193389893e-01 -2.290041297674179077e-01 -1.129866763949394226e-02 -4.124721046537160873e-03 9.020892530679702759e-02 -1.345705091953277588e-01 7.283271104097366333e-02 1.001443713903427124e-01 -2.606016993522644043e-01 2.648464143276214600e-01 -1.245122104883193970e-01 2.428363412618637085e-01 -3.061786480247974396e-02 -1.245096251368522644e-01 4.811371862888336182e-02 1.858085989952087402e-01 7.390848547220230103e-02 3.107198886573314667e-02 -8.431218564510345459e-02 7.081454992294311523e-02 6.555913388729095459e-02 -7.692388445138931274e-02 2.532180547714233398e-01 -2.192572951316833496e-01 1.107147932052612305e-01 9.235281497240066528e-02 3.360652923583984375e-01 2.945465743541717529e-01 1.643935292959213257e-01 -9.295660257339477539e-02 1.069599017500877380e-01 2.573180496692657471e-01 -3.319581151008605957e-01 -8.505345135927200317e-02 1.671075075864791870e-02 2.790300846099853516e-01 8.216685056686401367e-02 2.637368440628051758e-01 1.321367621421813965e-01 -1.214992776513099670e-01 -1.872463226318359375e-01 1.755478233098983765e-01 1.962797343730926514e-02 1.560124307870864868e-01
3.577943891286849976e-02 -6.552753504365682602e-03 -2.380754612386226654e-02 -7.441756129264831543e-02 -3.279060497879981995e-02 1.784182041883468628e-01 -1.130254492163658142e-01 2.184278098866343498e-03 -3.412819206714630127e-01 -1.746880076825618744e-02 -8.132786303758621216e-02 -7.367719709873199463e-02 -7.912933826446533203e-02 -7.586848735809326172e-02 -2.577855587005615234e-01 -3.373613357543945312e-01 -1.422738432884216309e-01 2.637071013450622559e-01 -2.220699787139892578e-01 -6.292171776294708252e-02 -5.391517188400030136e-03 1.991996355354785919e-02 1.584212630987167358e-01 -1.002374663949012756e-01 -2.587414113804697990e-03 -3.283627331256866455e-03 -2.281541191041469574e-02 3.203284442424774170e-01 1.542438380420207977e-02 -1.198859438300132751e-01 1.977997422218322754e-01 2.418265677988529205e-02 1.600892096757888794e-01 -7.469654083251953125e-02 3.698033392429351807e-01 -2.247781455516815186e-01 3.121523559093475342e-02 -7.188162952661514282e-02 4.628290422260761261e-03 -1.770242452621459961e-01 -9.980745613574981689e-02 2.639110684394836426e-01 -1.404845267534255981e-01 1.943529210984706879e-02 -1.635516136884689331e-01 9.207290410995483398e-02 -1.599185615777969360e-01 -2.752331793308258057e-01 1.072009056806564331e-01 -6.817746162414550781e-02 -3.073194921016693115e-01 -3.741505146026611328e-01 -1.307350248098373413e-01 1.944258809089660645e-01 -2.579900026321411133e-01 -2.720128595829010010e-01 7.862632721662521362e-02 -8.066835999488830566e-02 3.701595664024353027e-01 1.581707447767257690e-01 7.311677187681198120e-02 2.086096853017807007e-01 9.933051466941833496e-02 8.464081585407257080e-02 8.576527237892150879e-02 3.690341860055923462e-02 2.423318773508071899e-01 3.314138054847717285e-01 -7.517350465059280396e-02 1.105266739614307880e-03 2.525727450847625732e-01 2.819367945194244385e-01 -6.267705559730529785e-02 2.024953067302703857e-01 1.464855521917343140e-01 -2.656067907810211182e-01 -3.558328151702880859e-01 1.884183734655380249e-01 -1.533290445804595947e-01 -3.637233376502990723e-02
1.644487828016281128e-01 -6.482643634080886841e-02 -2.669133543968200684e-01 -2.315927483141422272e-02 -5.570840090513229370e-02 -8.415296673774719238e-02 1.705969274044036865e-01 4.752012342214584351e-02 -1.275231540203094482e-01 3.299705386161804199e-01 2.807107940316200256e-02 -7.352125644683837891e-02 4.419897496700286865e-01 3.428827598690986633e-02 -7.037750631570816040e-02 5.159254372119903564e-02 1.398335844278335571e-01 -3.055782755836844444e-03 -1.365727931261062622e-01 -1.093577370047569275e-01 -1.246139314025640488e-02 3.724727034568786621e-02 -8.093425631523132324e-02 -1.403049081563949585e-01 -9.346261620521545410e-02 5.353006720542907715e-02 -1.157269254326820374e-01 1.707320043351501226e-04 -1.715268641710281372e-01 4.381943866610527039e-02 -1.003040522336959839e-01 4.245220422744750977e-01 2.221557050943374634e-01 3.087967038154602051e-01 1.818784773349761963e-01 -4.958727210760116577e-02 2.015590369701385498e-01 -2.214511483907699585e-02 -1.093337908387184143e-01 -9.084158390760421753e-02 -1.046346500515937805e-01 -2.599498927593231201e-01 -1.237782761454582214e-01 2.136016264557838440e-02 -1.142922043800354004e-02 1.476349681615829468e-01 1.741906851530075073e-01 5.391652137041091919e-02 1.263670474290847778e-01 1.282776147127151489e-01 -2.341241762042045593e-02 -2.102670669555664062e-01 1.386887878179550171e-01 3.010062500834465027e-02 1.938343644142150879e-01 -2.183053493499755859e-01 1.355788558721542358e-01 6.122244149446487427e-02 2.460104674100875854e-01 2.049498111009597778e-01 2.288274019956588745e-01 2.293263524770736694e-01 7.414918392896652222e-02 1.730472594499588013e-01 3.426930680871009827e-02 -9.385132044553756714e-02 -5.589533247984945774e-04 8.125443942844867706e-03 1.402637064456939697e-01 -9.280901402235031128e-02 -2.622066736221313477e-01 6.419763714075088501e-02 -2.800174951553344727e-01 2.272515594959259033e-01 3.485869169235229492e-01 -3.904881179332733154e-01 -3.078257143497467041e-01 -2.114288210868835449e-01 -1.082702875137329102e-01 -3.076711855828762054e-02
3.991109505295753479e-02 7.399983704090118408e-02 -3.454980552196502686e-01 9.025678783655166626e-02 -1.539568156003952026e-01 -7.640410214662551880e-02 1.486468017101287842e-01 -7.135130465030670166e-02 1.664797812700271606e-01 1.148336082696914673e-01 1.920897513628005981e-01 -2.072296887636184692e-01 4.647298157215118408e-01 2.551854550838470459e-01 -4.114395380020141602e-02 -1.606690734624862671e-01 -1.994647085666656494e-01 -1.115144267678260803e-01 -2.324339449405670166e-01 1.638319492340087891e-01 3.499611914157867432e-01 2.419752180576324463e-01 1.535242497920989990e-01 2.743899822235107422e-01 2.943505346775054932e-01 -1.635812222957611084e-01 2.068622112274169922e-01 1.422473192214965820e-01 -3.000495433807373047e-01 -9.607562422752380371e-02 4.233367741107940674e-02 -5.709348991513252258e-02 2.533525228500366211e-01 1.815878301858901978e-01 1.270260214805603027e-01 5.081310495734214783e-02 8.765672147274017334e-02 1.384612023830413818e-01 2.994060143828392029e-02 -1.017566174268722534e-01 1.177259460091590881e-01 4.620344191789627075e-02 5.138010531663894653e-02 6.726778298616409302e-02 -3.146846294403076172e-01 -4.696696251630783081e-02 -1.058211028575897217e-01 -1.615829914808273315e-01 1.053147092461585999e-01 1.751700937747955322e-01 1.587305963039398193e-01 -1.500670909881591797e-01 2.214927673339843750e-01 -1.845364645123481750e-02 3.500289842486381531e-02 -1.379594206809997559e-01 -4.146338626742362976e-02 -3.619993478059768677e-02 2.197146564722061157e-01 -3.099064230918884277e-01 -3.712728619575500488e-01 1.192527413368225098e-01 9.928445518016815186e-02 1.548512373119592667e-02 -4.310689866542816162e-02 -1.167584136128425598e-01 -3.527253866195678711e-01 3.911812603473663330e-02 -6.991902738809585571e-02 -4.085848033428192139e-01 -3.069722950458526611e-01 -3.288764357566833496e-01 -1.203804463148117065e-01 1.549402773380279541e-01 2.836170494556427002e-01 -2.512691020965576172e-01 1.221285983920097351e-01 1.465394943952560425e-01 1.519650667905807495e-01 9.873721003532409668e-02
2.786334753036499023e-01 1.637673676013946533e-01 8.105868101119995117e-02 -1.351705044507980347e-01 -2.553834319114685059e-01 -8.971856534481048584e-02 -3.660337626934051514e-02 2.979944646358489990e-01 -3.399010896682739258e-01 -9.070332348346710205e-02 3.186168968677520752e-01 1.070178896188735962e-01 -1.316050812602043152e-02 1.026014387607574463e-01 3.168470039963722229e-02 -8.646290749311447144e-02 1.105158478021621704e-01 3.693950176239013672e-01 -4.391894936561584473e-01 1.308010220527648926e-01 1.534867733716964722e-01 4.261893033981323242e-01 1.043470948934555054e-01 -1.787528842687606812e-01 2.303584367036819458e-01 1.587679684162139893e-01 2.131601572036743164e-01 -2.626088857650756836e-01 -2.513837516307830811e-01 3.238781094551086426e-01 1.034228280186653137e-01 1.664566993713378906e-01 -2.952262163162231445e-01 -1.083855554461479187e-01 -7.103357464075088501e-02 -2.085780492052435875e-03 2.677311897277832031e-01 2.851330637931823730e-01 2.209251523017883301e-01 5.938490107655525208e-02 1.794536411762237549e-01 1.816993206739425659e-02 -2.442802488803863525e-01 1.609838157892227173e-01 -6.105694919824600220e-03 3.705973504111170769e-03 -3.438388705253601074e-01 -1.732991933822631836e-01 -1.496833115816116333e-01 -6.105187907814979553e-02 1.321199983358383179e-01 -2.547503709793090820e-01 -1.318767666816711426e-01 -2.376491874456405640e-01 8.405355364084243774e-02 -7.742571085691452026e-02 2.966876924037933350e-01 3.172161877155303955e-01 2.504428029060363770e-01 1.008378788828849792e-01 -2.897286973893642426e-02 -9.972671419382095337e-02 1.656195521354675293e-01 8.157485723495483398e-02 2.925968468189239502e-01 -7.736176997423171997e-02 -1.924297660589218140e-01 -2.503234744071960449e-01 -4.463648423552513123e-02 -2.099976688623428345e-01 -4.602076485753059387e-02 1.702918112277984619e-01 -4.603267312049865723e-01 -1.128903403878211975e-02 -3.392631933093070984e-02 -5.466727539896965027e-02 1.322403997182846069e-01 1.887618005275726318e-02 -6.702794134616851807e-02 -1.276862174272537231e-01
5.919158831238746643e-02 -2.958526893053203821e-04 3.705582395195960999e-02 -4.966302216053009033e-02 -9.711056202650070190e-02 3.234129548072814941e-01 1.141169145703315735e-01 4.657315462827682495e-02 4.351469129323959351e-02 3.335415124893188477e-01 -5.468180775642395020e-02 1.901226490736007690e-01 -2.562838792800903320e-01 1.695346087217330933e-01 -8.227176964282989502e-02 -3.230206966400146484e-01 -1.552185863256454468e-01 -1.536288261413574219e-01 1.137660965323448181e-01 1.587292999029159546e-01 -1.775192171335220337e-01 -6.973110884428024292e-02 3.691972792148590088e-02 6.510359048843383789e-02 -7.294734567403793335e-02 -1.126804426312446594e-01 4.239186272025108337e-02 3.502673506736755371e-01 4.343291223049163818e-01 2.542179524898529053e-01 -9.500347077846527100e-02 6.878025084733963013e-02 7.461546361446380615e-02 -1.418840140104293823e-02 3.678676187992095947e-01 -2.950282692909240723e-01 5.324228852987289429e-02 -2.741956710815429688e-01 5.638962388038635254e-01 9.235701709985733032e-02 6.337039172649383545e-02 7.731545716524124146e-02 2.909258566796779633e-02 -1.780673712491989136e-01 -3.827367424964904785e-01 -2.262513786554336548e-01 1.420082896947860718e-01 1.378216892480850220e-01 -9.595237672328948975e-02 -1.785399466753005981e-01 -3.137169480323791504e-01 5.543194711208343506e-02 1.045905128121376038e-01 -1.717844903469085693e-01 -2.781174778938293457e-01 4.812747538089752197e-01 -7.549256086349487305e-02 -3.091513812541961670e-01 -1.195068210363388062e-01 2.250938415527343750e-01 4.793123807758092880e-03 9.485339373350143433e-02 -2.690860331058502197e-01 -1.134973019361495972e-01 -2.710598707199096680e-02 1.187018677592277527e-02 2.710173130035400391e-01 -9.204918146133422852e-02 3.241803348064422607e-01 3.994264006614685059e-01 3.089092969894409180e-01 -2.300353646278381348e-01 -2.810042500495910645e-01 1.762198656797409058e-01 8.921670913696289062e-02 2.645181119441986084e-01 -1.873937696218490601e-01 -2.437244206666946411e-01 1.064935326576232910e-01 2.538214325904846191e-01
-6.222343817353248596e-02 2.213127762079238892e-01 -8.474324643611907959e-02 -2.085109949111938477e-01 2.276996523141860962e-01 3.353801369667053223e-01 -2.660695612430572510e-01 4.422397166490554810e-02 -1.267922073602676392e-01 -1.452696137130260468e-02 -1.032157465815544128e-01 6.631525605916976929e-02 1.953999400138854980e-01 -6.711575388908386230e-02 1.760835200548171997e-01 -2.385374158620834351e-02 2.724684476852416992e-01 2.018046081066131592e-01 -1.187477186322212219e-01 -2.516604363918304443e-01 2.109771780669689178e-02 3.411637544631958008e-01 -2.961791157722473145e-01 1.416254788637161255e-01 1.106166392564773560e-01 -1.190873011946678162e-01 1.999027580022811890e-01 -6.072915717959403992e-02 -2.936230003833770752e-01 -7.568436861038208008e-02 -4.577229171991348267e-02 -1.171569079160690308e-01 -1.078256219625473022e-01 -3.250916898250579834e-01 1.072108000516891479e-01 3.428958356380462646e-02 -6.580431014299392700e-02 -2.056805491447448730e-01 8.147795498371124268e-02 -4.160100594162940979e-02 -2.726759761571884155e-02 2.847441136837005615e-01 2.346296012401580811e-01 2.614469826221466064e-01 2.417693585157394409e-01 1.753505915403366089e-01 -4.090333823114633560e-03 -3.373394310474395752e-01 -2.962197959423065186e-01 -2.902627289295196533e-01 -9.141856431961059570e-02 -1.863560974597930908e-01 -2.814463675022125244e-01 1.248157210648059845e-02 -8.630725741386413574e-02 -1.931791156530380249e-01 1.453582048416137695e-01 3.854320049285888672e-01 4.250772893428802490e-01 4.144462943077087402e-02 1.528491824865341187e-01 -3.039657473564147949e-01 1.476622093468904495e-02 -1.245431527495384216e-01 9.615263342857360840e-02 -8.403615653514862061e-02 2.076249867677688599e-01 1.496066600084304810e-01 -2.589986622333526611e-01 2.451920211315155029e-01 -4.036111831665039062e-01 -9.804850816726684570e-02 3.174630226567387581e-03 6.284061074256896973e-02 1.624647229909896851e-01 1.199950426816940308e-01 -2.687306702136993408e-02 2.644448280334472656e-01 -1.240215077996253967e-02 -1.961047798395156860e-01
3.625833392143249512e-01 -2.201377749443054199e-01 1.095200031995773315e-01 -1.261185109615325928e-01 -2.511322796344757080e-01 8.046378195285797119e-02 3.336177021265029907e-02 2.373670227825641632e-02 -4.077438712120056152e-01 -3.291624784469604492e-01 2.612074613571166992e-01 -7.198540121316909790e-02 4.384607821702957153e-02 1.030869185924530029e-01 1.665374450385570526e-02 5.144207924604415894e-02 1.540916115045547485e-01 1.874364614486694336e-01 -1.861251443624496460e-01 1.100754514336585999e-01 -1.096938923001289368e-01 -1.766532808542251587e-01 2.248159945011138916e-01 -2.352860942482948303e-02 1.835112869739532471e-01 2.626699209213256836e-01 9.393225610256195068e-02 -2.935401201248168945e-01 -3.164834380149841309e-01 -9.163104742765426636e-02 2.988326549530029297e-01 1.959468275308609009e-01 -2.551307976245880127e-01 -3.419062495231628418e-01 4.231280460953712463e-02 -8.202314376831054688e-02 2.579562664031982422e-01 9.187566488981246948e-02 -7.733003050088882446e-02 -1.728596724569797516e-02 1.488287895917892456e-01 -8.183025568723678589e-02 -3.166145682334899902e-01 -2.873606793582439423e-02 4.262227118015289307e-01 2.035137116909027100e-01 4.057923853397369385e-01 1.278418600559234619e-01 3.355475962162017822e-01 2.688058912754058838e-01 -3.064532876014709473e-01 -2.987111210823059082e-01 2.132621407508850098e-01 -6.196218356490135193e-02 -1.596179306507110596e-01 -6.670347601175308228e-02 -2.299615293741226196e-01 -1.407774444669485092e-02 4.487344026565551758e-01 2.637014091014862061e-01 7.593618333339691162e-02 1.690427511930465698e-01 9.452262520790100098e-02 1.179524287581443787e-01 7.428384572267532349e-02 3.499437272548675537e-01 -2.036250829696655273e-01 -6.322699785232543945e-02 -2.105467021465301514e-01 -8.866630494594573975e-02 -6.263344734907150269e-02 -2.029460072517395020e-01 -3.021216988563537598e-01 1.151302754878997803e-01 -2.938387170433998108e-02 -7.480359077453613281e-02 5.257823318243026733e-02 2.008357197046279907e-01 -2.250686585903167725e-01 8.668336272239685059e-02
3.171441555023193359e-01 -2.234116345643997192e-01 1.500791013240814209e-01 -2.197471447288990021e-02 -1.335384994745254517e-01 1.438459306955337524e-01 1.803345382213592529e-01 -5.460293218493461609e-02 3.436185717582702637e-01 8.231374621391296387e-02 -1.481202244758605957e-01 6.711734831333160400e-02 2.684280872344970703e-01 2.291612476110458374e-01 -3.899137377738952637e-01 -1.985063999891281128e-01 4.233638346195220947e-01 2.648337185382843018e-01 -1.338625699281692505e-01 8.729369938373565674e-02 -1.037945598363876343e-01 9.522891044616699219e-02 9.757393598556518555e-02 -2.951194345951080322e-01 -1.739463508129119873e-01 2.124247997999191284e-01 -1.897897338494658470e-03 3.756794705986976624e-02 4.707864671945571899e-02 -1.064455062150955200e-01 -5.594743043184280396e-02 4.946359992027282715e-02 -2.964385086670517921e-03 2.184007465839385986e-01 -5.782731994986534119e-02 2.109823971986770630e-01 -3.698160052299499512e-01 9.827668964862823486e-02 -6.920783314853906631e-03 1.735754497349262238e-02 -2.890840172767639160e-01 6.558600068092346191e-02 2.958243340253829956e-02 1.493533849716186523e-01 1.609060168266296387e-01 -2.169962972402572632e-02 1.141947060823440552e-01 4.178667813539505005e-02 2.206438332796096802e-01 -3.759866058826446533e-01 -2.298270352184772491e-02 -1.630527973175048828e-01 3.388602659106254578e-02 -1.943162232637405396e-01 6.847523897886276245e-02 -6.760390847921371460e-02 2.399800419807434082e-01 -3.307861462235450745e-02 -3.184498548507690430e-01 1.551659405231475830e-01 2.247610241174697876e-01 5.229089874774217606e-03 -6.905753165483474731e-02 -1.904780864715576172e-01 -6.372888386249542236e-02 2.369883209466934204e-01 4.419024884700775146e-01 2.014726027846336365e-02 1.620947010815143585e-02 1.541960239410400391e-02 -8.543099276721477509e-03 1.796537190675735474e-01 -8.833862096071243286e-02 -1.264033466577529907e-01 -6.328212562948465347e-03 -1.854145899415016174e-02 -5.829250812530517578e-02 -3.635119646787643433e-02 1.308289915323257446e-01 -1.037221252918243408e-01
-2.030028551816940308e-01 3.784572482109069824e-01 1.893362104892730713e-01 1.742414236068725586e-01 -4.705931246280670166e-02 1.493000537157058716e-01 -1.620086133480072021e-01 -1.175590381026268005e-01 -2.150032818317413330e-01 -1.224983781576156616e-01 -1.015741825103759766e-01 -3.020573779940605164e-02 5.323737114667892456e-02 -2.112153023481369019e-01 -2.949046492576599121e-01 -3.683054447174072266e-01 -3.838204741477966309e-01 -2.374808937311172485e-01 9.723148494958877563e-02 -2.198804318904876709e-01 2.245472669601440430e-01 5.427287146449089050e-02 4.156643450260162354e-01 -1.031958833336830139e-01 2.380128577351570129e-02 1.034002900123596191e-01 1.231963783502578735e-01 2.469222247600555420e-02 -1.201019734144210815e-01 6.542327255010604858e-02 -1.477534621953964233e-01 9.898328781127929688e-02 1.451002359390258789e-01 1.201464235782623291e-01 2.517929971218109131e-01 -3.223352506756782532e-02 -1.396919637918472290e-01 1.539786756038665771e-01 2.412997782230377197e-01 1.374444365501403809e-01 1.569310426712036133e-01 1.380963344126939774e-02 5.669570714235305786e-02 2.039486765861511230e-01 7.302641123533248901e-02 -2.583272457122802734e-01 -2.932905256748199463e-01 1.909138560295104980e-01 -8.645999431610107422e-02 -2.133143842220306396e-01 -2.393485158681869507e-01 9.342497587203979492e-02 1.573850512504577637e-01 -1.734725832939147949e-01 -4.750359430909156799e-02 1.782542020082473755e-01 -1.235466450452804565e-02 -7.995892316102981567e-02 -1.001075729727745056e-01 -3.627236932516098022e-02 -5.789667740464210510e-02 1.339984834194183350e-01 1.893912553787231445e-01 -2.584745585918426514e-01 -4.425309598445892334e-03 -3.556196019053459167e-02 5.201337486505508423e-02 -1.995439082384109497e-02 9.987281262874603271e-02 2.511216700077056885e-01 1.278300583362579346e-01 -4.073706269264221191e-02 1.056313589215278625e-01 1.150899976491928101e-01 2.631366252899169922e-01 3.041900880634784698e-02 -1.986003965139389038e-01 8.306677639484405518e-02 1.753436177968978882e-01 -1.849763393402099609e-01
4.059331864118576050e-02 6.422847509384155273e-02 -1.671109795570373535e-01 -2.343636900186538696e-01 1.254134811460971832e-02 3.546275794506072998e-01 -2.721980810165405273e-01 -1.149890869855880737e-01 1.682377308607101440e-01 9.015148505568504333e-03 1.652225479483604431e-02 -3.191747888922691345e-02 -5.186843127012252808e-02 -1.342980414628982544e-01 4.442964792251586914e-01 1.339341253042221069e-01 -1.001292169094085693e-01 2.697156369686126709e-01 1.789643913507461548e-01 -4.941346868872642517e-02 -2.571844756603240967e-01 1.801536381244659424e-01 7.895441353321075439e-02 -2.061821222305297852e-01 -8.232596516609191895e-02 4.758365824818611145e-02 -2.932912111282348633e-01 5.344770848751068115e-02 -6.612033247947692871e-01 -2.752237319946289062e-01 4.543464630842208862e-02 -1.357218623161315918e-01 -5.933775007724761963e-02 -4.380815923213958740e-01 -5.448387265205383301e-01 3.297575935721397400e-02 9.869998693466186523e-02 2.327629029750823975e-01 2.397049665451049805e-01 -4.382629394531250000e-01 -4.370045065879821777e-01 -6.416978687047958374e-02 -1.261315196752548218e-01 -1.654165238142013550e-01 2.694320678710937500e-01 -2.167991846799850464e-01 -2.532536089420318604e-01 3.215324282646179199e-01 -7.294327020645141602e-02 -2.274797111749649048e-01 -6.733493506908416748e-02 1.786405034363269806e-02 -1.858571171760559082e-01 2.949404120445251465e-01 2.275823354721069336e-01 1.054725646972656250e-01 1.137723550200462341e-01 3.162188529968261719e-01 1.885442882776260376e-01 1.097519136965274811e-02 1.172502245754003525e-02 -5.848076194524765015e-02 -3.260117173194885254e-01 -2.693190574645996094e-01 -2.354891002178192139e-01 -6.038626283407211304e-02 -7.849590480327606201e-02 -4.447187185287475586e-01 -1.241502314805984497e-01 1.113259270787239075e-01 -7.766702771186828613e-02 6.721142679452896118e-02 -3.571755886077880859e-01 -6.971177458763122559e-02 -4.745967686176300049e-02 8.957610465586185455e-03 -2.087457329034805298e-01 -4.045819640159606934e-01 -1.382196396589279175e-01 2.828241288661956787e-01
-1.179152056574821472e-01 -3.967228531837463379e-02 -2.649199590086936951e-02 -1.119387000799179077e-01 -3.408090025186538696e-02 1.411764323711395264e-01 -1.711328029632568359e-01 -3.589972853660583496e-01 2.844563126564025879e-01 -5.628639087080955505e-02 4.934199526906013489e-02 -3.320468962192535400e-02 2.563733756542205811e-01 1.836664229631423950e-01 3.251617774367332458e-02 -1.826321035623550415e-01 4.646549001336097717e-02 1.078104376792907715e-01 3.574198856949806213e-02 -3.492465987801551819e-02 1.325281113386154175e-01 -1.146558597683906555e-01 -2.502940595149993896e-01 1.988457441329956055e-01 1.176328063011169434e-01 3.225787281990051270e-01 3.121219947934150696e-02 1.103906556963920593e-01 -4.331732392311096191e-01 2.623491883277893066e-01 2.096349000930786133e-01 -5.083158239722251892e-02 1.273838132619857788e-01 -1.638813167810440063e-01 -4.913771450519561768e-01 -2.137315645813941956e-02 2.055274248123168945e-01 -2.608372569084167480e-01 3.271910548210144043e-02 -4.333607852458953857e-01 -3.164417147636413574e-01 -3.856933116912841797e-01 1.169727146625518799e-01 -8.372902870178222656e-02 -1.374799311161041260e-01 1.777128577232360840e-01 -1.843262910842895508e-01 -8.159395307302474976e-02 -3.026443719863891602e-02 -2.876290306448936462e-02 3.551144003868103027e-01 -1.415429413318634033e-01 1.453847140073776245e-01 -3.512040078639984131e-01 4.091436509042978287e-03 -2.153591513633728027e-01 -3.828633129596710205e-01 2.030755579471588135e-01 4.164815843105316162e-01 -2.808913588523864746e-01 6.320024840533733368e-03 1.601487100124359131e-01 6.435330957174301147e-02 2.180097810924053192e-02 -9.915544092655181885e-02 -6.168426945805549622e-02 -9.663130342960357666e-02 1.006897762417793274e-01 -2.411419898271560669e-01 9.556025266647338867e-02 -2.414482235908508301e-01 7.779697328805923462e-02 2.368644773960113525e-01 2.870335280895233154e-01 1.610854864120483398e-01 8.220805227756500244e-02 -4.097820818424224854e-02 7.231063395738601685e-02 -3.571597486734390259e-02 1.168770641088485718e-01
3.916999995708465576e-01 4.980328679084777832e-02 2.420558780431747437e-01 5.482252314686775208e-02 -2.127076685428619385e-01 -3.023782372474670410e-01 1.559959799051284790e-01 -2.105011492967605591e-01 6.733334809541702271e-02 1.971394717693328857e-01 2.093706130981445312e-01 1.465988457202911377e-01 -6.319686025381088257e-02 3.631094992160797119e-01 -1.044033542275428772e-01 3.040547966957092285e-01 -1.130105704069137573e-01 -9.339320659637451172e-02 -3.490884229540824890e-02 1.502405852079391479e-01 -1.453991532325744629e-01 -9.468135982751846313e-02 3.503497242927551270e-01 1.693330258131027222e-01 1.170323416590690613e-01 3.793793618679046631e-01 -1.244666948914527893e-01 -1.267683953046798706e-01 -2.172671258449554443e-02 -1.731545627117156982e-01 1.062797009944915771e-01 -2.006074041128158569e-01 -1.773801445960998535e-01 -2.441406250000000000e-02 -1.139646046794950962e-03 3.349436819553375244e-01 -2.199224429205060005e-03 -1.568516045808792114e-01 -7.529231905937194824e-02 4.336934983730316162e-01 3.129744231700897217e-01 5.979957059025764465e-02 1.287010312080383301e-01 -1.007818728685379028e-01 1.318826079368591309e-01 -2.695354223251342773e-01 6.658789515495300293e-02 -9.021134674549102783e-02 1.909075528383255005e-01 -9.996532648801803589e-02 -1.573618799448013306e-01 2.056358456611633301e-01 3.272070288658142090e-01 -1.170200034976005554e-01 -1.119547560811042786e-01 3.867580592632293701e-01 -5.564286559820175171e-02 -2.465062588453292847e-01 3.220824599266052246e-01 -3.003642857074737549e-01 1.215051934123039246e-01 6.759180128574371338e-02 1.350240223109722137e-02 8.530951291322708130e-02 8.969999104738235474e-02 -1.339129507541656494e-01 1.846237666904926300e-02 -2.402537316083908081e-01 -2.713619172573089600e-02 -2.867808192968368530e-02 1.093215271830558777e-01 -1.220128089189529419e-01 -8.038786053657531738e-02 2.647133171558380127e-01 -7.417287677526473999e-02 -1.942266970872879028e-01 1.424672007560729980e-01 -1.077713146805763245e-01 1.611393392086029053e-01 9.960617125034332275e-02
-9.927611798048019409e-02 -1.789392083883285522e-01 4.761473461985588074e-02 1.962313354015350342e-01 4.474417567253112793e-01 3.219584524631500244e-01 8.172355592250823975e-02 1.689726710319519043e-01 -2.124436944723129272e-01 -1.830248385667800903e-01 -2.303084284067153931e-01 -2.726723253726959229e-01 1.634645015001296997e-01 4.804078955203294754e-03 -1.317884474992752075e-01 2.284199446439743042e-01 -4.372712690383195877e-03 -2.578271031379699707e-01 -1.365525871515274048e-01 -1.067827492952346802e-01 9.461112320423126221e-02 5.787795409560203552e-03 3.343836590647697449e-02 -4.825936257839202881e-02 -3.882315456867218018e-01 1.267747730016708374e-01 -4.471671301871538162e-03 1.737249456346035004e-02 5.727029442787170410e-01 -8.375573158264160156e-02 1.306629925966262817e-01 -1.191101372241973877e-01 -1.073207408189773560e-01 2.045835554599761963e-01 2.149201929569244385e-02 -1.194256544113159180e-02 2.124710530042648315e-01 5.690170451998710632e-02 2.696882933378219604e-02 -2.348068058490753174e-01 3.173913955688476562e-01 1.582652330398559570e-01 2.125514894723892212e-01 -3.014360368251800537e-01 -5.592582747340202332e-02 -2.262691706418991089e-01 -4.648784399032592773e-01 -1.072971075773239136e-01 -1.007671430706977844e-01 2.752748429775238037e-01 9.702830016613006592e-02 4.436612129211425781e-02 -7.304033637046813965e-02 -4.233022332191467285e-01 1.762890964746475220e-01 5.631960034370422363e-01 5.674886330962181091e-02 -3.121574819087982178e-01 3.322702646255493164e-02 -3.457070887088775635e-02 -1.181044429540634155e-01 6.561513245105743408e-02 -1.892043501138687134e-01 9.957209974527359009e-02 2.029227614402770996e-01 2.792284078896045685e-02 9.926898032426834106e-02 3.315877914428710938e-01 2.525157034397125244e-01 3.365245461463928223e-01 1.877649873495101929e-02 -2.959433495998382568e-01 -1.778839081525802612e-01 6.472166627645492554e-02 9.846366196870803833e-02 1.118491664528846741e-01 -7.671354711055755615e-02 6.529757380485534668e-02 -3.098971843719482422e-01 -1.582963168621063232e-01
-1.358199566602706909e-01 2.096764296293258667e-01 -1.940669119358062744e-01 6.121594458818435669e-02 3.171555399894714355e-01 -1.708441674709320068e-01 -1.558968126773834229e-01 -2.738752663135528564e-01 1.313705295324325562e-01 -2.036478817462921143e-01 2.094877958297729492e-01 1.604390442371368408e-01 -1.131053343415260315e-01 2.619939148426055908e-01 -1.348437666893005371e-01 -1.364803016185760498e-01 1.184872686862945557e-01 2.460823655128479004e-01 -4.079985022544860840e-01 3.609230518341064453e-01 -2.869918644428253174e-01 -5.353392288088798523e-02 6.198704242706298828e-02 -1.904075294733047485e-01 -1.661726087331771851e-01 -1.795821487903594971e-01 -7.528825849294662476e-02 -2.253772169351577759e-01 -1.947044581174850464e-01 -1.961690336465835571e-01 -1.405729949474334717e-01 -2.963203489780426025e-01 -4.069247245788574219e-01 -1.271271705627441406e-01 1.159918382763862610e-01 2.342757731676101685e-01 3.570812344551086426e-01 3.041061460971832275e-01 2.813176214694976807e-01 3.841993510723114014e-01 -2.243754565715789795e-01 -1.814801692962646484e-01 3.326568305492401123e-01 -5.430618673563003540e-02 1.925980448722839355e-01 1.897142082452774048e-01 2.877749204635620117e-01 -6.167422980070114136e-03 1.085809469223022461e-01 9.802990406751632690e-02 9.636247158050537109e-02 -4.524220526218414307e-01 -3.389977514743804932e-01 -1.077120006084442139e-01 -1.409319136291742325e-02 -6.739386916160583496e-02 1.165677830576896667e-01 -3.583533763885498047e-01 -8.589288592338562012e-02 -1.665548980236053467e-02 -9.082523733377456665e-02 -6.108809611760079861e-04 -1.727180033922195435e-01 -1.249439939856529236e-01 3.126324415206909180e-01 7.882121205329895020e-02 -1.793976500630378723e-02 -2.159585431218147278e-02 2.352109104394912720e-01 2.112037688493728638e-01 -1.575181484222412109e-01 -3.631027638912200928e-01 -1.984300315380096436e-01 -1.425780802965164185e-01 3.493658453226089478e-02 -1.470680907368659973e-02 1.718451082706451416e-01 -4.643867164850234985e-02 2.523356080055236816e-01 9.098295122385025024e-02
4.328137636184692383e-02 1.350115537643432617e-01 3.247468471527099609e-01 -2.679094672203063965e-01 -5.607763305306434631e-02 -1.519360244274139404e-01 -1.729167848825454712e-01 1.559785157442092896e-01 3.526084721088409424e-01 5.274733901023864746e-02 2.620398104190826416e-01 -1.636192649602890015e-01 -1.958488374948501587e-01 1.745518147945404053e-01 -1.076933220028877258e-01 -1.714330017566680908e-01 1.900108344852924347e-02 -5.496784672141075134e-02 3.417429029941558838e-01 -7.204785477370023727e-03 -3.061504662036895752e-02 -2.695669829845428467e-01 1.107471212744712830e-01 1.128846853971481323e-01 -3.141067326068878174e-01 7.411340624094009399e-02 -8.771057426929473877e-02 2.106567844748497009e-02 -2.071001976728439331e-01 1.125137358903884888e-01 1.243661642074584961e-01 9.389597922563552856e-02 1.699143499135971069e-01 4.599951580166816711e-02 2.664858698844909668e-01 -2.873558551073074341e-02 1.312237977981567383e-01 -1.926722824573516846e-01 8.879727870225906372e-02 4.401255249977111816e-01 -8.372440189123153687e-02 2.062857523560523987e-02 -8.875885605812072754e-02 -2.110687345266342163e-01 2.651066780090332031e-01 -1.396728307008743286e-01 8.661775290966033936e-02 -4.380490258336067200e-02 2.529328167438507080e-01 -7.332842051982879639e-02 -5.151126980781555176e-01 4.047964811325073242e-01 8.119079470634460449e-02 3.816710039973258972e-02 -3.964310586452484131e-01 -1.834677904844284058e-01 1.491558998823165894e-01 -1.143679469823837280e-01 -2.780326306819915771e-01 -1.743296384811401367e-01 3.596319556236267090e-01 -4.616602882742881775e-02 2.755651175975799561e-01 1.616220362484455109e-02 7.951640337705612183e-02 2.354312688112258911e-01 -2.368213050067424774e-02 -5.081160366535186768e-02 3.784710764884948730e-01 -2.101768702268600464e-01 8.862163126468658447e-02 1.980542577803134918e-02 2.026276737451553345e-01 -2.422752380371093750e-01 -4.704468324780464172e-02 -3.610985586419701576e-04 6.758804619312286377e-02 1.913213357329368591e-02 1.499808281660079956e-01 -1.516396999359130859e-01
1.633599996566772461e-01 -2.147871106863021851e-01 1.007329449057579041e-01 7.144241034984588623e-02 -1.141367927193641663e-01 -3.266030550003051758e-01 -1.805541664361953735e-01 -1.312298923730850220e-01 5.647974461317062378e-02 -2.304108627140522003e-02 3.014282882213592529e-01 9.177518635988235474e-02 -1.207141503691673279e-01 -3.207480907440185547e-01 -2.238509356975555420e-01 -2.188530415296554565e-01 1.936818212270736694e-01 1.516095548868179321e-01 2.886494696140289307e-01 3.274032846093177795e-02 2.690868675708770752e-01 1.804360002279281616e-01 2.899580299854278564e-01 -2.626051306724548340e-01 1.024437174201011658e-01 -3.247126042842864990e-01 -2.498607486486434937e-01 1.920204907655715942e-01 -1.533652096986770630e-01 2.935266196727752686e-01 -1.172455847263336182e-01 -9.844559431076049805e-02 8.115386962890625000e-02 8.380496501922607422e-02 9.461417794227600098e-02 1.750538647174835205e-01 -4.117605090141296387e-01 8.301525563001632690e-02 3.857661783695220947e-01 -2.004240751266479492e-01 9.981407225131988525e-02 6.505134701728820801e-02 3.288772106170654297e-01 1.924977600574493408e-01 1.305571049451828003e-01 -4.229964017868041992e-01 -4.647894203662872314e-02 -2.130755782127380371e-02 -5.280215665698051453e-02 -3.537156879901885986e-01 1.501552909612655640e-01 3.645932078361511230e-01 1.319773495197296143e-01 6.544866412878036499e-02 3.407777473330497742e-02 3.868019953370094299e-02 -1.231459230184555054e-01 9.693770110607147217e-02 -1.863576918840408325e-01 -4.502633586525917053e-02 2.253767400979995728e-01 1.497974395751953125e-01 -2.189985811710357666e-01 4.446889832615852356e-02 2.700106501579284668e-01 -1.827004700899124146e-01 -1.398726999759674072e-01 -2.647813968360424042e-02 -2.102387249469757080e-01 5.597358569502830505e-02 -2.041381224989891052e-02 7.020939141511917114e-02 3.768559694290161133e-01 -1.879852563142776489e-01 -1.881596632301807404e-02 2.435507178306579590e-01 -2.440247237682342529e-01 -1.414358764886856079e-01 -3.605526685714721680e-01 -1.834042817354202271e-01
3.778242692351341248e-02 -8.063602447509765625e-02 -8.592191338539123535e-02 1.262312382459640503e-01 -2.618512511253356934e-01 -2.342512458562850952e-01 1.406948361545801163e-02 -2.733610570430755615e-01 6.588159501552581787e-02 6.921808421611785889e-02 2.367201596498489380e-01 -5.989718437194824219e-02 1.524502635002136230e-01 -2.654896490275859833e-02 2.262366414070129395e-01 -1.049650460481643677e-02 -1.272685942240059376e-03 2.086872793734073639e-02 -1.248158961534500122e-01 2.870869636535644531e-01 -2.585896253585815430e-01 -4.210452735424041748e-02 -4.448474571108818054e-02 -3.386645913124084473e-01 2.834108425304293633e-03 -1.651081144809722900e-01 -8.251387625932693481e-02 -1.386594325304031372e-01 -4.459965601563453674e-02 1.396724879741668701e-01 -9.321202337741851807e-02 -1.429950073361396790e-02 1.080222725868225098e-01 1.091516986489295959e-01 1.700472645461559296e-02 -3.822543919086456299e-01 2.132345736026763916e-01 -4.023008048534393311e-02 -1.086897403001785278e-01 -4.150399863719940186e-01 -1.104333102703094482e-01 1.201814785599708557e-01 1.352319419384002686e-01 -1.085595879703760147e-02 -1.899837702512741089e-01 -1.445637941360473633e-01 4.007124900817871094e-02 3.169579207897186279e-01 -2.776368558406829834e-01 9.033229947090148926e-02 3.843711018562316895e-01 1.884846538305282593e-01 1.680276393890380859e-01 -1.632684841752052307e-02 -1.127413511276245117e-01 -1.393149197101593018e-01 1.051753014326095581e-01 4.226881861686706543e-01 2.610066235065460205e-01 3.350895643234252930e-02 -1.763318032026290894e-01 -1.110032550059258938e-03 -1.121807619929313660e-01 -1.125904694199562073e-01 3.336344361305236816e-01 8.189625293016433716e-02 -3.689028322696685791e-02 -1.704828292131423950e-01 8.525390177965164185e-02 1.843687891960144043e-01 7.801635563373565674e-02 6.624577194452285767e-02 2.166295945644378662e-01 -7.956805080175399780e-02 1.402996629476547241e-01 1.764732599258422852e-02 1.727961003780364990e-01 3.633621847257018089e-03 8.996794372797012329e-02 -2.594329230487346649e-02
-1.720986962318420410e-01 2.094426900148391724e-01 9.722131490707397461e-02 -7.416637986898422241e-02 -3.074904978275299072e-01 1.191289126873016357e-01 -7.994580268859863281e-02 -2.857799269258975983e-02 2.650752365589141846e-01 -5.268522351980209351e-02 -1.560356616973876953e-01 -2.971493080258369446e-02 1.015151515603065491e-01 5.411682277917861938e-02 2.130392193794250488e-01 2.824256122112274170e-01 3.571945726871490479e-01 9.173603355884552002e-02 -1.249806731939315796e-01 4.951870813965797424e-02 -1.373681798577308655e-02 4.328425228595733643e-01 -5.182686820626258850e-02 -9.492887556552886963e-02 1.122543588280677795e-02 3.060654401779174805e-01 -3.135611116886138916e-02 -8.946482092142105103e-02 -3.077799975872039795e-01 1.711174696683883667e-01 1.556392461061477661e-01 7.907093316316604614e-02 1.212175562977790833e-01 -4.460479319095611572e-02 2.144491225481033325e-01 2.858615219593048096e-01 2.991572022438049316e-01 -3.344888389110565186e-01 -1.531908847391605377e-02 1.291095465421676636e-01 -8.740183711051940918e-02 -1.630580425262451172e-02 -2.764338254928588867e-01 1.988178640604019165e-01 8.249336481094360352e-02 -1.716023832559585571e-01 1.129594594240188599e-01 -3.439789414405822754e-01 9.720648825168609619e-02 -2.587881088256835938e-01 -3.345260024070739746e-01 7.105233520269393921e-02 3.019133210182189941e-01 1.171031445264816284e-01 -3.952648639678955078e-01 -4.293148815631866455e-01 2.056629806756973267e-01 1.799815744161605835e-01 -1.295537054538726807e-01 3.549867868423461914e-01 9.730584919452667236e-02 6.301868706941604614e-02 -8.299838006496429443e-02 -2.143632918596267700e-01 -1.447431975975632668e-03 2.336294054985046387e-01 -2.394305616617202759e-01 -9.761230647563934326e-02 -3.992465436458587646e-01 -5.329844728112220764e-02 -2.885507047176361084e-01 1.039157286286354065e-01 -2.477604150772094727e-01 -1.319366991519927979e-01 -1.675246208906173706e-01 -2.335360348224639893e-01 -2.731842100620269775e-01 8.036220073699951172e-02 5.798123776912689209e-02 -2.018237672746181488e-02
1.107963174581527710e-01 -2.265586284920573235e-03 1.418691873550415039e-01 -7.407564669847488403e-02 -3.238142430782318115e-01 -6.888209283351898193e-02 -1.899812021292746067e-03 5.822292715311050415e-02 -3.053011596202850342e-01 4.166692495346069336e-02 -1.754030883312225342e-01 1.555042117834091187e-01 -1.163918152451515198e-02 3.220547437667846680e-01 -4.561147466301918030e-02 -2.457819432020187378e-01 -2.349089831113815308e-01 3.402582183480262756e-02 -2.194034159183502197e-01 2.306738942861557007e-01 -6.089288368821144104e-02 -1.339820027351379395e-01 -2.337995916604995728e-01 -1.542837917804718018e-01 5.056509003043174744e-02 3.153814971446990967e-01 1.981543451547622681e-01 5.412316694855690002e-02 2.221270091831684113e-02 2.158353663980960846e-02 1.720653921365737915e-01 1.371791213750839233e-01 -1.508818715810775757e-01 -6.168084964156150818e-02 2.477549761533737183e-01 1.473626643419265747e-01 2.800559699535369873e-01 3.525705039501190186e-01 3.494206070899963379e-02 -2.566227614879608154e-01 1.043175235390663147e-01 -3.561275005340576172e-01 1.905850134789943695e-03 -3.251542523503303528e-02 1.410444527864456177e-01 3.529978916049003601e-02 1.370297521352767944e-01 -1.632509529590606689e-01 -1.663229167461395264e-01 -1.455056518316268921e-01 -3.132296353578567505e-02 -2.448946833610534668e-01 -4.012477397918701172e-01 -1.039121076464653015e-01 4.484652876853942871e-01 -4.960301220417022705e-01 2.093919515609741211e-01 -2.404919266700744629e-01 2.414367944002151489e-01 -1.127375289797782898e-01 -2.692729532718658447e-01 1.484029740095138550e-01 3.110052943229675293e-01 -3.686216473579406738e-01 -2.568321675062179565e-02 -4.838756918907165527e-01 -1.876682490110397339e-01 -6.109498441219329834e-02 2.786144912242889404e-01 1.696995049715042114e-01 -3.285855948925018311e-01 2.808117307722568512e-02 -1.198282241821289062e-01 -2.244530022144317627e-01 -3.040749207139015198e-02 -3.835782036185264587e-02 7.081965357065200806e-02 -2.084189057350158691e-01 -8.223506063222885132e-02 -7.743695750832557678e-03
2.010843604803085327e-01 -2.218037396669387817e-01 1.825138740241527557e-02 -9.280103445053100586e-02 2.889747321605682373e-01 2.415352016687393188e-01 3.889487683773040771e-01 3.392761945724487305e-02 -3.988956809043884277e-01 3.391652405261993408e-01 3.799476847052574158e-02 -1.128707453608512878e-01 -2.475232034921646118e-01 2.381804436445236206e-01 9.561313688755035400e-02 4.575439915060997009e-02 5.261508002877235413e-02 -1.235821694135665894e-01 -4.818680882453918457e-02 -1.961272954940795898e-01 2.651363611221313477e-01 9.532122313976287842e-02 2.743731252849102020e-02 -2.909329831600189209e-01 -8.423393964767456055e-02 -9.453325718641281128e-02 -1.294486075639724731e-01 -6.773466616868972778e-02 2.192476391792297363e-01 -5.318424105644226074e-02 -1.202632859349250793e-01 -1.849460005760192871e-01 3.909981250762939453e-01 -1.971870064735412598e-01 -9.549780935049057007e-02 1.105884462594985962e-01 2.952685356140136719e-01 -2.897067070007324219e-01 1.683211922645568848e-01 -1.416012644767761230e-01 2.596408426761627197e-01 1.678944081068038940e-01 2.518077194690704346e-01 3.399600088596343994e-02 6.119128689169883728e-02 2.153932601213455200e-01 -1.044132038950920105e-01 -1.329407747834920883e-02 -1.195228770375251770e-01 -3.070502877235412598e-01 -1.644058376550674438e-01 -4.103342816233634949e-02 -5.240062251687049866e-02 -2.302361093461513519e-02 -2.963115870952606201e-01 -9.710604697465896606e-02 2.007835954427719116e-01 -5.690069869160652161e-03 -2.512856125831604004e-01 -2.681244909763336182e-01 2.464005947113037109e-01 -3.839041292667388916e-02 -3.297345712780952454e-02 2.174681872129440308e-01 -3.631223365664482117e-02 1.544789671897888184e-01 -3.271233439445495605e-01 1.587926596403121948e-01 -3.478110134601593018e-01 -3.623708188533782959e-01 -4.236914217472076416e-02 1.966152936220169067e-01 1.670080870389938354e-01 -3.990297317504882812e-01 1.864325255155563354e-01 1.847429014742374420e-02 7.779958844184875488e-02 -1.679702699184417725e-01 -1.854982078075408936e-01 -1.218027994036674500e-01
-2.359556220471858978e-02 -3.371495008468627930e-01 -1.270330101251602173e-01 -1.880157738924026489e-01 2.366747334599494934e-02 2.897757291793823242e-02 -1.792503744363784790e-01 -2.163877189159393311e-01 6.282970309257507324e-02 -1.250932663679122925e-01 7.676456123590469360e-02 -2.257536500692367554e-01 6.629839539527893066e-02 -3.990228101611137390e-02 -5.176009610295295715e-02 -1.413240432739257812e-01 -1.818621754646301270e-01 1.995226591825485229e-01 1.997112035751342773e-01 -1.176018044352531433e-01 3.863747045397758484e-02 2.118423953652381897e-02 4.416717588901519775e-01 -1.767293899320065975e-03 -1.701974719762802124e-01 -1.525466591119766235e-01 -2.324142158031463623e-01 -7.824525982141494751e-02 1.487025469541549683e-01 -2.001761831343173981e-02 -3.835580646991729736e-01 1.099008768796920776e-01 1.614928096532821655e-01 -3.114295005798339844e-02 3.202378284186124802e-03 1.071074604988098145e-01 5.480234697461128235e-02 -9.266930818557739258e-02 3.856671452522277832e-01 2.315371185541152954e-01 3.646816015243530273e-01 -2.326075732707977295e-01 -2.478905767202377319e-02 6.911051459610462189e-04 1.428598314523696899e-01 8.697086945176124573e-03 -3.202852010726928711e-01 3.457414805889129639e-01 1.788251250982284546e-01 -7.802110165357589722e-02 -1.013220772147178650e-01 2.260951697826385498e-01 -6.653537601232528687e-02 -9.738447517156600952e-02 -1.635095775127410889e-01 -9.866476058959960938e-03 1.106096133589744568e-01 5.250940099358558655e-02 9.304603189229965210e-02 -2.141409218311309814e-01 2.875339053571224213e-02 -1.423342525959014893e-01 -4.753943532705307007e-02 2.011056989431381226e-01 6.657934188842773438e-02 1.455168575048446655e-01 -1.115249842405319214e-01 3.406624197959899902e-01 1.268777400255203247e-01 1.403270512819290161e-01 -8.922499418258666992e-02 3.665262460708618164e-02 2.630571722984313965e-01 1.156297475099563599e-01 3.013620972633361816e-01 -1.491943448781967163e-01 1.330859959125518799e-01 3.457271754741668701e-01 -1.278403550386428833e-01 -1.618789136409759521e-01
2.307895421981811523e-01 -4.281059652566909790e-02 -3.348166048526763916e-01 -2.444345951080322266e-01 -3.948570787906646729e-02 1.608613282442092896e-01 -3.221002817153930664e-01 -1.402714550495147705e-01 9.209365397691726685e-02 1.169556099921464920e-02 1.683510839939117432e-01 -2.683117985725402832e-02 -1.323428656905889511e-02 -3.070769906044006348e-01 1.178008392453193665e-01 3.484790623188018799e-01 -1.171255633234977722e-01 -2.421764284372329712e-01 2.470676451921463013e-01 7.327498495578765869e-02 8.588224649429321289e-02 3.734918311238288879e-02 6.288402527570724487e-02 4.528349265456199646e-02 9.397798031568527222e-02 -1.953725814819335938e-01 1.058029979467391968e-01 1.337431371212005615e-01 5.481871962547302246e-02 -1.626123934984207153e-01 2.347597628831863403e-01 2.616001665592193604e-01 1.385789811611175537e-01 -2.604188621044158936e-01 -4.223927855491638184e-02 6.583683192729949951e-02 1.647374182939529419e-01 -7.036943733692169189e-02 2.430060207843780518e-01 4.758663475513458252e-02 -1.959863007068634033e-01 -1.737466454505920410e-01 1.996965408325195312e-01 1.592667251825332642e-01 -1.745967194437980652e-02 -1.301573365926742554e-01 -1.206565797328948975e-01 -2.707257270812988281e-01 -2.064184695482254028e-01 -1.202752515673637390e-01 -5.269488692283630371e-02 4.881710410118103027e-01 1.891326345503330231e-02 1.086454316973686218e-01 -2.821246087551116943e-01 4.714215993881225586e-01 2.038514241576194763e-02 -2.815726101398468018e-01 -1.913941353559494019e-01 -1.496109813451766968e-01 7.000098004937171936e-03 -3.851321339607238770e-01 -2.644022703170776367e-01 -2.388146333396434784e-02 -1.265396624803543091e-01 -8.218666166067123413e-02 -5.444475635886192322e-02 1.696385741233825684e-01 -3.603355959057807922e-02 6.582255475223064423e-03 -1.285407543182373047e-01 -2.518289489671587944e-03 3.541507422924041748e-01 1.606103628873825073e-01 9.410195797681808472e-02 1.197815537452697754e-01 -1.354132145643234253e-01 1.525371819734573364e-01 1.816600263118743896e-01 2.578163743019104004e-01
-1.082979664206504822e-01 1.179969534277915955e-01 3.190566599369049072e-01 2.240459322929382324e-01 7.906135171651840210e-02 8.757326751947402954e-02 2.996786236763000488e-01 -3.154416382312774658e-01 3.359363675117492676e-01 2.415500730276107788e-01 6.285090744495391846e-02 -2.129629403352737427e-01 -6.764817237854003906e-02 -1.022982522845268250e-01 -1.675104051828384399e-01 5.324393138289451599e-02 -7.600590586662292480e-02 2.201367914676666260e-02 -1.580932363867759705e-02 -7.617367058992385864e-02 3.106728196144104004e-01 -1.867880225181579590e-01 1.518870592117309570e-01 -1.404947787523269653e-01 4.517541080713272095e-02 8.330583572387695312e-02 -2.846606969833374023e-01 6.742881238460540771e-02 -1.395875364542007446e-01 -8.064930886030197144e-02 -1.246379911899566650e-01 -1.949000060558319092e-01 2.589732594788074493e-02 -2.253099679946899414e-01 -1.548328846693038940e-01 1.869965046644210815e-01 4.174295812845230103e-02 1.577374339103698730e-01 2.090826332569122314e-01 -1.814437285065650940e-02 -1.107082962989807129e-01 1.738676130771636963e-01 -1.348408758640289307e-01 1.680281907320022583e-01 -1.985021233558654785e-01 2.733164727687835693e-01 3.442274630069732666e-01 -1.146805435419082642e-01 5.265684798359870911e-02 -2.124681137502193451e-02 3.603502362966537476e-02 -2.157547771930694580e-01 -3.658206015825271606e-02 -8.622039854526519775e-02 -8.223938941955566406e-02 6.654730439186096191e-02 2.840106785297393799e-01 -6.453300267457962036e-02 3.253080882132053375e-03 8.874991908669471741e-03 -1.429867278784513474e-02 3.256800770759582520e-01 -1.007831562310457230e-02 -1.728183180093765259e-01 4.173596575856208801e-02 2.245361804962158203e-01 1.007527634501457214e-01 2.378653548657894135e-02 1.449683010578155518e-01 7.779088616371154785e-02 -1.622428148984909058e-01 3.428850322961807251e-02 -3.885187208652496338e-02 -4.239854216575622559e-02 -1.524224579334259033e-01 2.207563370466232300e-01 -1.440866291522979736e-01 -1.124288886785507202e-02 4.558632895350456238e-02 4.774673655629158020e-02
-4.934995993971824646e-02 1.642573177814483643e-01 7.581785321235656738e-02 -2.800085544586181641e-01 -3.166643157601356506e-02 -5.272265989333391190e-03 -1.373634934425354004e-01 6.410353630781173706e-02 -1.334767905063927174e-03 -2.285147905349731445e-01 -1.028062254190444946e-01 9.935659170150756836e-02 -3.588593304157257080e-01 -2.466675192117691040e-01 1.830369681119918823e-01 -1.623436510562896729e-01 2.155500352382659912e-01 2.225071936845779419e-01 -1.601616144180297852e-01 2.935861349105834961e-01 -1.660288125276565552e-01 2.512982673943042755e-02 2.803519070148468018e-01 -1.291477866470813751e-02 -2.676681578159332275e-01 -5.392877385020256042e-02 -1.048543453216552734e-01 -1.514947861433029175e-01 1.215879619121551514e-01 -3.825912177562713623e-01 1.389020979404449463e-01 -2.605575323104858398e-01 5.396348610520362854e-02 1.175700500607490540e-01 -1.744214296340942383e-01 5.273436382412910461e-02 2.385407984256744385e-01 1.777985543012619019e-01 1.041506826877593994e-01 -1.219876036047935486e-01 8.712714165449142456e-02 4.352680593729019165e-02 -7.860938459634780884e-02 -1.303876489400863647e-01 -9.606966376304626465e-02 -2.991659380495548248e-02 -1.441676765680313110e-01 -1.218840479850769043e-01 -1.423494424670934677e-02 8.932874351739883423e-02 -2.014019042253494263e-01 1.296320855617523193e-01 -1.857878863811492920e-01 1.108488738536834717e-01 -1.053397431969642639e-01 2.136011570692062378e-01 -2.474938482046127319e-01 -1.195178329944610596e-01 -1.652594208717346191e-01 8.411907404661178589e-02 -5.149547383189201355e-02 1.506631169468164444e-02 3.778683543205261230e-01 -2.023938894271850586e-01 8.223181962966918945e-02 -9.051260352134704590e-02 2.104640193283557892e-02 -4.452445730566978455e-02 2.555901408195495605e-01 2.231117933988571167e-01 1.209649592638015747e-01 2.934360178187489510e-03 -1.861743330955505371e-01 -1.699282079935073853e-01 -4.493489116430282593e-02 -1.083441972732543945e-01 -1.239428594708442688e-01 2.088654339313507080e-01 3.917972370982170105e-02 -4.936254583299160004e-03
2.202835083007812500e-01 7.787327468395233154e-02 8.013091981410980225e-02 -6.301935017108917236e-02 2.411111444234848022e-01 -3.345771133899688721e-01 -2.275286614894866943e-01 -2.388577722012996674e-02 -2.915549874305725098e-01 -5.433585867285728455e-02 -2.913973629474639893e-01 -1.347504705190658569e-01 -3.886764124035835266e-02 6.748987734317779541e-02 -1.879161596298217773e-01 -1.714235246181488037e-01 2.664242982864379883e-01 -2.146952028851956129e-04 -2.111282348632812500e-01 1.372676435858011246e-02 3.308053361251950264e-03 3.855120539665222168e-01 3.030824065208435059e-01 -1.111164502799510956e-02 -4.441155865788459778e-02 -2.775605954229831696e-02 -1.363338530063629150e-01 -2.114389464259147644e-02 9.984906762838363647e-02 -1.729170531034469604e-01 3.075957894325256348e-01 2.166736125946044922e-01 1.162370890378952026e-01 2.064890265464782715e-01 -3.515286603942513466e-03 -1.487010568380355835e-01 -7.809264212846755981e-02 1.613734811544418335e-01 -8.079071342945098877e-02 7.732022553682327271e-02 -2.137416154146194458e-01 1.336656063795089722e-01 1.346546113491058350e-01 1.051824614405632019e-01 -3.283522427082061768e-01 1.295792758464813232e-01 1.236145198345184326e-01 -2.414950728416442871e-01 1.915505528450012207e-01 -2.493302375078201294e-01 -2.618829905986785889e-01 7.202602177858352661e-02 2.792845070362091064e-01 -2.175864875316619873e-01 -1.861868984997272491e-02 -7.715455442667007446e-02 1.412132978439331055e-01 -4.910160228610038757e-02 -1.817891299724578857e-01 9.067998267710208893e-03 -2.880769670009613037e-01 -2.024468034505844116e-01 2.193340361118316650e-01 -1.532467156648635864e-01 -9.786432981491088867e-02 2.733277380466461182e-01 1.901790350675582886e-01 -1.772053837776184082e-01 -9.436062723398208618e-02 -2.564515769481658936e-01 3.237442374229431152e-01 -1.577333807945251465e-01 1.081044524908065796e-01 -5.940087884664535522e-02 5.998691916465759277e-02 -1.981762796640396118e-01 -9.708309918642044067e-02 -2.898395657539367676e-01 3.607867062091827393e-01 -3.262989223003387451e-01
2.790228426456451416e-01 8.081378042697906494e-02 6.348948925733566284e-02 1.170567423105239868e-01 1.244254931807518005e-01 5.897469446063041687e-02 3.829414844512939453e-01 7.006558030843734741e-02 3.700197637081146240e-01 2.903631627559661865e-01 2.192904651165008545e-01 8.164898306131362915e-02 -2.606993615627288818e-01 2.163058966398239136e-01 8.836516737937927246e-02 1.956816017627716064e-01 3.220019638538360596e-01 3.143402338027954102e-01 -8.670992404222488403e-02 4.879090469330549240e-03 -5.099723115563392639e-03 -6.640066951513290405e-02 -1.498080193996429443e-01 -4.630806669592857361e-02 -2.764181792736053467e-01 1.957943737506866455e-01 -1.183042302727699280e-01 -2.868383824825286865e-01 -6.803514808416366577e-02 -5.176309868693351746e-02 -1.307904422283172607e-01 2.311912924051284790e-01 -6.770756840705871582e-02 -8.100606501102447510e-03 -4.919351264834403992e-02 -5.408861860632896423e-02 1.891032010316848755e-01 -2.601912319660186768e-01 3.136238753795623779e-01 2.072390317916870117e-01 1.675622165203094482e-01 1.437127888202667236e-01 -2.912629246711730957e-01 1.881735771894454956e-01 1.097439453005790710e-01 2.478682398796081543e-01 -3.524933708831667900e-03 -3.327955305576324463e-01 1.030936911702156067e-01 -7.794824242591857910e-02 -2.247254401445388794e-01 -2.290445119142532349e-01 2.372814863920211792e-01 -2.376836836338043213e-01 -1.749491691589355469e-01 3.522173315286636353e-02 2.669254541397094727e-01 -1.660715192556381226e-01 -1.054471358656883240e-01 -4.271786287426948547e-02 3.774894773960113525e-02 -9.883214533329010010e-02 -8.373598009347915649e-02 1.106822267174720764e-01 7.464715093374252319e-02 2.587760984897613525e-01 1.460372954607009888e-01 2.935066819190979004e-01 2.681473195552825928e-01 1.984091103076934814e-01 -1.067864894866943359e-01 3.536917567253112793e-01 3.504128754138946533e-01 -3.093708753585815430e-01 -8.504281938076019287e-02 2.107078768312931061e-02 -3.663511574268341064e-01 -1.302860956639051437e-02 -1.221447717398405075e-02 -5.163846909999847412e-02
2.168117910623550415e-01 4.715999960899353027e-02 -2.031386271119117737e-02 3.247605562210083008e-01 -3.326801061630249023e-01 1.662910282611846924e-01 3.175865411758422852e-01 -1.018224135041236877e-01 -9.987211227416992188e-02 1.018152479082345963e-02 2.530493140220642090e-01 2.581616491079330444e-02 -1.053808629512786865e-01 9.986314922571182251e-03 7.282371073961257935e-02 -1.199026480317115784e-01 2.236840128898620605e-01 1.562072932720184326e-01 -1.271910592913627625e-02 -2.982124984264373779e-01 5.249293055385351181e-03 4.038231670856475830e-01 -1.404308080673217773e-01 1.916466206312179565e-01 1.864106357097625732e-01 7.785339653491973877e-02 1.630211025476455688e-01 7.032396644353866577e-02 2.721564173698425293e-01 1.908233910799026489e-01 3.179079592227935791e-01 8.847923576831817627e-02 2.274255901575088501e-01 1.913627237081527710e-02 -1.669673435389995575e-02 1.198493838310241699e-01 -5.668585002422332764e-02 1.848521977663040161e-01 -2.323426008224487305e-01 -1.623375862836837769e-01 -1.864534765481948853e-01 -1.830082535743713379e-01 -1.505196392536163330e-01 -1.097277179360389709e-01 2.278194427490234375e-01 1.403569132089614868e-01 -2.365837544202804565e-01 2.295909225940704346e-01 -3.827305883169174194e-02 -1.846411675214767456e-01 -1.451191753149032593e-01 -3.419180214405059814e-01 -2.640340030193328857e-01 -2.112190276384353638e-01 -2.671955712139606476e-02 -3.215895891189575195e-01 -4.748414084315299988e-02 4.452503100037574768e-02 1.853984147310256958e-01 -3.467788994312286377e-01 -6.329096108675003052e-02 -1.572455652058124542e-02 2.198197543621063232e-01 -1.282893121242523193e-01 1.848497390747070312e-01 -7.884139567613601685e-02 -1.369332820177078247e-01 3.841897547245025635e-01 -2.706037759780883789e-01 1.257697194814682007e-01 -2.297816425561904907e-01 -1.711593270301818848e-01 -4.427151679992675781e-01 3.318445011973381042e-02 3.376384377479553223e-01 8.113910257816314697e-02 6.366518139839172363e-02 2.558415532112121582e-01 -2.375281155109405518e-01 1.282419823110103607e-02
-2.417265437543392181e-02 -2.072304785251617432e-01 2.047411650419235229e-01 -2.371679097414016724e-01 -2.135193645954132080e-01 2.886236272752285004e-02 -3.484550714492797852e-01 1.249769032001495361e-01 2.246504873037338257e-01 -7.596950978040695190e-02 3.713876381516456604e-02 2.966137528419494629e-01 -9.736476838588714600e-02 2.183530479669570923e-01 -4.290359914302825928e-01 3.699261844158172607e-01 -1.907998174428939819e-01 2.892550528049468994e-01 1.389035880565643311e-01 3.455115556716918945e-01 -7.830934226512908936e-02 1.894965469837188721e-01 2.556885033845901489e-02 -1.779216080904006958e-01 -8.613210916519165039e-02 3.574790358543395996e-01 2.429651021957397461e-01 -2.422306835651397705e-01 3.696308732032775879e-01 3.409732878208160400e-02 1.381258480250835419e-02 -6.198573112487792969e-02 3.312355279922485352e-01 -1.015879288315773010e-01 8.622394502162933350e-02 -1.244481429457664490e-01 -1.352804750204086304e-01 9.932251274585723877e-02 3.192091360688209534e-02 3.517439067363739014e-01 -2.854849211871623993e-02 1.411018371582031250e-01 -4.183818399906158447e-02 -2.568651176989078522e-02 3.362860083580017090e-01 -5.284228920936584473e-02 2.025581747293472290e-01 -1.668472141027450562e-01 -6.206478551030158997e-02 -1.014122646301984787e-02 -4.161016941070556641e-01 3.717495203018188477e-01 1.062679737806320190e-01 1.349662691354751587e-01 1.197677105665206909e-01 3.299926817417144775e-01 -3.163252770900726318e-01 -1.822645664215087891e-01 8.350463956594467163e-02 -6.968896090984344482e-02 3.251026198267936707e-02 -2.309947907924652100e-01 3.004186153411865234e-01 4.150639846920967102e-02 -2.411520294845104218e-02 3.760328749194741249e-03 -3.631201386451721191e-01 -1.033226475119590759e-01 2.675579786300659180e-01 -6.130850687623023987e-02 2.169933170080184937e-01 1.666069626808166504e-01 1.358569860458374023e-01 -3.031293675303459167e-02 -2.313264161348342896e-01 -2.237604707479476929e-01 -2.150176465511322021e-01 -7.992595434188842773e-02 1.941915452480316162e-01 2.636685967445373535e-01
