3.239265084266662598e-02
-1.517973933368921280e-02
-3.003945108503103256e-03
-8.604409522376954556e-04
-5.974350497126579285e-03
1.335073914378881454e-02
6.003133021295070648e-03
1.085807755589485168e-02
1.196170821785926819e-01
5.554049741476774216e-03
-4.461973533034324646e-02
4.823471419513225555e-03
-3.341356664896011353e-02
3.998187836259603500e-03
-1.998179219663143158e-02
1.797841745428740978e-03
1.726925000548362732e-02
-4.359238594770431519e-02
4.157052561640739441e-02
-2.550047263503074646e-02
5.410153418779373169e-02
-2.167136408388614655e-02
1.477946154773235321e-02
-9.448696859180927277e-03
1.674593612551689148e-02
-3.449196461588144302e-03
-3.729995712637901306e-02
-9.680756367743015289e-03
9.798440150916576385e-03
7.919559255242347717e-03
-3.377958014607429504e-02
-2.885276824235916138e-02
1.404085475951433182e-02
3.416615724563598633e-02
1.593103073537349701e-02
2.274353615939617157e-02
8.592810481786727905e-03
5.988316237926483154e-02
1.720829121768474579e-02
-3.972898796200752258e-02
