-9.077522903680801392e-03
4.389844834804534912e-03
5.821956694126129150e-02
5.832348018884658813e-03
-2.215444110333919525e-02
-1.978407381102442741e-03
-4.980586934834718704e-03
-3.400149568915367126e-02
-4.059742204844951630e-03
-9.700983762741088867e-03
-5.805823951959609985e-03
-2.987297624349594116e-02
-6.211680825799703598e-03
3.321018069982528687e-02
3.461391106247901917e-02
-2.149909362196922302e-02
2.324651367962360382e-02
1.952257007360458374e-02
-1.578879891894757748e-03
6.911082193255424500e-03
-1.413684920407831669e-03
-3.502000123262405396e-02
-6.917817983776330948e-03
-7.920438656583428383e-04
1.189632993191480637e-02
-1.883541001006960869e-03
-5.371165461838245392e-03
-5.220187455415725708e-02
-4.551750142127275467e-03
-8.925215341150760651e-03
1.207987591624259949e-02
-2.246679738163948059e-02
4.958204925060272217e-03
3.238435462117195129e-02
-4.472004622220993042e-02
-1.801511039957404137e-03
1.687073893845081329e-02
-4.833914339542388916e-03
9.752734564244747162e-03
1.618345640599727631e-02
