2.066705189645290375e-02 7.154571449063951150e-06 -1.239995211362838745e-01 -3.707292307808529586e-06 -3.379415022209286690e-03 1.146842446178197861e-02 9.099430826609022915e-06 -1.473987254030362237e-06 1.109556630253791809e-01 2.647237665951251984e-02 -3.398277163505554199e-01 4.092952394785243087e-07 -4.317282885313034058e-02 1.579899340867996216e-02 2.693397163966437802e-06 3.398243710398674011e-02 -7.370574772357940674e-02 1.406094729900360107e-01 -9.823030268307775259e-06 1.780609227716922760e-02 -3.173294089720002376e-06 1.849760301411151886e-02 4.718362819403409958e-03 5.088917532702907920e-05 -3.542078957252670079e-06 -2.661639824509620667e-02 -3.024360537528991699e-01 -3.379798028618097305e-03 -1.295393705368041992e-01 1.777722984552383423e-01 -5.509619787335395813e-02 1.548627551528625190e-06 -1.355606400466058403e-05 8.412645001953933388e-06 3.914591616194229573e-06 -3.153847903013229370e-02 -3.357306013640481979e-06 1.496147457510232925e-02 -1.231110559274384286e-06 -9.542020507069537416e-08 -1.988706799238570966e-06 -8.151600923156365752e-06 -1.326114033872727305e-05 8.702062815427780151e-02 1.619872932678845245e-06 1.252462416887283325e-01 1.088375256586004980e-06 -1.555920221107953694e-06 -1.208418793976306915e-02 2.401386154815554619e-06 -1.454803395972703584e-06 -9.775689250091090798e-06 -1.191975388792343438e-05 -1.002640798687934875e-01 3.384662568569183350e-01 7.008494549154420383e-07 -6.331772056000772864e-06 1.603392320248531178e-06 -1.050919877343403641e-06 -1.401181907567661256e-05 -1.663080416619777679e-02 1.841891207732260227e-05 8.392581776206498034e-07 -1.960873045027256012e-02 -1.242367397935595363e-05 1.107699426938779652e-05 -1.507385604782029986e-06 1.889285886136349291e-05 -3.473694436252117157e-03 -1.674810846452601254e-05 1.076027005910873413e-02 4.627158492803573608e-02 4.327658116817474365e-01 2.643575370311737061e-01 3.563087582588195801e-01 2.871423021133523434e-06 2.871624380350112915e-02 -8.796829206403344870e-06 -7.456325192833901383e-07 5.066190169600304216e-07
1.735096611082553864e-02 5.554595077228441369e-07 -2.871629595756530762e-01 -9.027456144394818693e-06 -5.486427653522696346e-06 6.137519790172518697e-07 -1.845394945121370256e-05 -1.695553237368585542e-06 4.617193713784217834e-02 1.255476176738739014e-01 -1.687624305486679077e-01 1.694814562797546387e-01 -8.402693271636962891e-02 1.366073936223983765e-01 1.001020109470118769e-06 5.774787068367004395e-02 -4.077269434928894043e-01 4.862292110919952393e-02 -8.308161341119557619e-06 4.053174507134826854e-06 -2.671579977686633356e-06 9.006909067466040142e-07 -2.526070177555084229e-02 3.710595365191693418e-06 -2.434356701996875927e-06 -9.893847163766622543e-07 -3.906112015247344971e-01 -8.930918511396157555e-07 -1.611997336149215698e-01 1.109317839145660400e-01 -3.301325705251656473e-06 -2.964636905744555406e-06 5.534694992093136534e-06 5.845378836966119707e-06 -6.358576501952484250e-05 -2.604280412197113037e-02 1.016464375425130129e-05 -3.409063538128975779e-07 3.553226861185976304e-06 2.729126663325587288e-06 -9.004086678032763302e-06 5.442539986688643694e-06 -1.186906956718303263e-05 6.547462362505029887e-06 -1.924278194564976729e-06 2.664605517566087656e-06 -4.387613444123417139e-06 4.045815330755431205e-06 -2.856124183381325565e-06 -2.263274836877826601e-06 4.349835307948524132e-06 1.062474075297359377e-05 -1.908859312534332275e-01 -2.134341299533843994e-01 2.202667891979217529e-01 -4.005967639386653900e-06 1.214777694258373231e-05 -3.194060354871908203e-06 2.563687530710012652e-06 6.562431735801510513e-06 -2.016975283622741699e-01 -2.629755044836201705e-07 6.789305806159973145e-02 -2.336264550685882568e-01 -8.184022135537816212e-07 -2.584007233963347971e-06 3.937923338526161388e-06 -7.274000381585210562e-06 -3.610265627503395081e-02 -1.290372074436163530e-05 -1.144163434219080955e-05 4.626170173287391663e-02 5.625728368759155273e-01 1.988203227519989014e-01 8.070297837257385254e-01 -4.132117510380339809e-07 8.870708825270412490e-07 -3.934491905965842307e-05 -5.211585971665044781e-07 1.382426489726640284e-06
1.434536216038395651e-06 8.343324225279502571e-06 2.882924079895019531e-01 -1.608865022717509419e-05 -2.175950794480741024e-05 -4.220543814881239086e-06 -2.761322684818878770e-05 3.901200216205324978e-07 6.483061313629150391e-01 2.860297172446735203e-06 -7.969155311584472656e-01 1.168200242318562232e-06 -3.905398026108741760e-02 1.502020040788920596e-06 -1.391583509757765569e-06 3.897621354553848505e-06 1.929730024130549282e-05 -2.857007075363071635e-08 1.179236005555139855e-05 1.743607754178810865e-06 -1.385757286698208191e-06 2.939937822520732880e-02 1.143949702964164317e-05 9.458028216613456607e-06 -1.326219944530748762e-06 2.065854914690135047e-06 -2.397760599851608276e-01 -6.507924757897853851e-03 -4.364291271485853940e-06 1.024739146232604980e-01 -4.690556579589610919e-06 -4.631597221305128187e-06 -1.638312824070453644e-06 4.958299086865736172e-06 4.516788521868875250e-06 -1.400627102702856064e-02 -3.456593731243629009e-06 -4.552412974589969963e-06 7.905950042186304927e-06 7.914162779343314469e-06 2.528468030504882336e-06 -2.166377817047759891e-05 9.108763151743914932e-06 -3.199511766433715820e-02 -2.906292820625822060e-06 1.148750743595883250e-05 -1.001420605462044477e-05 7.805854693287983537e-06 2.353117452003061771e-06 2.938089892268180847e-06 1.373724899167427793e-05 1.180604067485546693e-05 1.082572180166607723e-05 -5.261018127202987671e-02 -4.830848411074839532e-06 -3.374263542355038226e-06 1.084798896044958383e-05 -4.508799065661150962e-06 6.173016117827501148e-06 6.551753358507994562e-06 1.710433707557967864e-06 -9.774951649887952954e-06 2.010095840887515806e-06 -1.031988561153411865e-01 8.755740964261349291e-06 2.959431003546342254e-05 7.161512257880531251e-06 -2.117809344781562686e-06 -4.670692607760429382e-03 -1.268049800273729488e-06 4.701447323895990849e-04 -3.261880920035764575e-06 4.308465868234634399e-02 4.340239167213439941e-01 -1.171782165765762329e-01 -1.020341180264949799e-02 -5.296869403537129983e-06 1.578038185834884644e-02 -2.056156063190428540e-07 5.490491275850217789e-06
2.678512828424572945e-06 -1.257940584764583036e-05 -3.520729839801788330e-01 2.907731413870351389e-06 -9.664746357884723693e-06 6.534526164614362642e-06 -1.829395114327780902e-05 -7.988119250512681901e-07 -5.548825860023498535e-01 1.053227606462314725e-06 3.978011012077331543e-01 -1.807359240046935156e-07 6.873660604469478130e-04 6.601499080716166645e-07 3.816055595962097868e-06 1.891789906949270517e-07 -1.570960921526420861e-05 2.012562390518723987e-06 -1.004549176286673173e-06 1.960450845217565075e-06 -1.679427441558800638e-08 -5.764819889009231701e-06 -1.568200787005480379e-05 -8.381311999983154237e-06 -3.045270204893313348e-07 -1.615704604773782194e-06 1.044760420918464661e-01 3.446460823397501372e-06 1.307618276769062504e-06 -1.954438266693614423e-05 7.696398824919015169e-06 1.049734237312804908e-05 -2.557552306825527921e-06 -3.933157586288871244e-06 -9.452936865272931755e-06 3.574273705453379080e-06 1.682470974628813565e-05 4.977675416739657521e-06 -1.146945214713923633e-05 -8.780922144069336355e-06 1.542275458632502705e-05 2.650426722539123148e-06 -2.152357956219930202e-05 4.446931143320398405e-06 5.687697466782992706e-06 -1.291195712838089094e-05 1.435695867257891223e-05 -1.153966150013729930e-05 -6.246786142583005130e-06 3.239877969463123009e-06 -1.358548433927353472e-05 -1.015566249407129362e-05 -5.818360477860551327e-06 -3.339021986903389916e-06 1.768734182405751199e-05 -2.655674506968352944e-07 1.775690543581731617e-05 1.015303314488846809e-05 -1.114595124818151817e-05 -2.794552528939675540e-06 -6.227133781067095697e-06 6.487550763267790899e-06 4.031599019072018564e-07 4.999352991580963135e-02 -3.137241947115398943e-06 -1.255706229130737484e-05 -1.115826307795941830e-05 3.741624823305755854e-06 7.375620043603703380e-07 7.939545866975095123e-06 -2.390640474914107472e-06 5.683044037141371518e-06 -2.402201853692531586e-02 -7.718725502490997314e-02 2.435069233179092407e-01 5.674793555954238400e-06 5.788912858406547457e-06 7.072031166899250820e-06 -1.304607849306194112e-06 -9.264151231036521494e-06
-3.903566721419338137e-06 -5.268211680231615901e-06 6.919442512298701331e-06 -3.321561962366104126e-06 2.244435745524242520e-05 2.710312628551037051e-06 -1.603812052053399384e-07 4.167968654655851424e-07 -5.271756052970886230e-01 -4.219385573378531262e-06 4.375772774219512939e-01 1.300175767937616911e-06 7.310603978112339973e-04 -1.090150931304378901e-06 2.122062596754403785e-06 -4.446062575880205259e-06 -4.567930318444268778e-06 -5.255556516203796491e-06 -1.258483916899422184e-05 -2.381815647822804749e-06 2.001743496293784119e-06 -4.336343408795073628e-06 -5.129376859258627519e-06 -7.268696663231821731e-06 1.756631149874010589e-06 -3.571921297407243401e-06 3.502701222896575928e-01 1.951496415131259710e-06 4.111091584491077811e-06 -1.366537660360336304e-01 7.457411289215087891e-02 7.932864718895871192e-06 -2.177631540689617395e-05 -6.666303761448943987e-06 -2.895785200962563977e-06 1.072417944669723511e-02 1.641820017539430410e-05 4.733986315841320902e-06 -1.041532777890097350e-05 -7.047855433484073728e-06 -2.062432486127363518e-06 1.611204424989409745e-05 6.866294370411196724e-06 7.377013389486819506e-06 7.067128535709343851e-06 -1.053124889731407166e-01 9.552174560667481273e-06 -9.273514478991273791e-06 8.978303185358527116e-07 -2.736814167292322963e-06 -9.027167834574356675e-06 1.704038731986656785e-05 -3.884443685819860548e-06 1.751384297676850110e-05 -1.465582499804440886e-06 5.086293640488293022e-06 -5.534890988201368600e-06 8.164779501385055482e-06 -8.530893865099642426e-06 2.411598416074411944e-06 1.285657845073728822e-06 2.740991658356506377e-05 -1.034781234920956194e-06 8.070715516805648804e-02 -5.733938451157882810e-06 3.251245743740582839e-07 -9.096274879993870854e-06 6.030845725035760552e-07 2.090140696964226663e-06 1.341256574960425496e-05 -1.826542575145140290e-05 -7.771857326588360593e-07 -1.468259990215301514e-01 -4.334141314029693604e-01 8.081357918854337186e-06 5.188234808883862570e-06 3.797113322434597649e-06 -1.401703229930717498e-05 -6.130760539235780016e-07 -4.597036877385107800e-06
2.701031917240470648e-06 -1.245108251168858260e-06 1.920592933893203735e-01 8.344045454578008503e-06 -3.105589030383271165e-06 1.546118710393784568e-06 6.927401955181267112e-06 -1.242747998730919790e-06 8.435213203483726829e-07 1.839500100686564110e-06 8.744169463170692325e-06 1.748787440192245413e-06 1.132593452930450439e-01 1.982893081731162965e-06 1.466175717723672278e-06 2.189002316299593076e-06 1.129225492477416992e-01 2.050924194918479770e-06 -2.112035508616827428e-05 1.488642851654731203e-06 -1.587208657838345971e-06 2.411016566838952713e-06 -6.434262331822537817e-07 -1.678023977547127288e-06 -1.892117438728746492e-06 1.321245349572564010e-06 5.672422503266716376e-06 -1.855793925642501563e-06 -2.970892865050700493e-06 -2.551579200371634215e-06 3.501050741760991514e-06 3.375671440153382719e-07 1.328483722318196669e-05 -1.692970181466080248e-05 -8.554777650715550408e-07 -3.243253559048753232e-06 -4.837972483073826879e-06 1.937738034030189738e-06 -4.489212415137444623e-07 -1.378191541334672365e-06 -1.473646352678770199e-05 2.676601980056148022e-06 3.784415639529470354e-06 7.494337296520825475e-06 5.416363819676917046e-07 -1.476898319197061937e-06 -5.742546136389137246e-07 -1.200847123072890099e-06 -2.286557446495862678e-06 3.150186103084706701e-06 -1.394225137119065039e-06 5.767537004430778325e-06 -4.062680091010406613e-06 2.980005774588789791e-06 3.203463393219863065e-06 -7.888652362453285605e-07 -1.859287658589892089e-05 7.040661103019374423e-07 1.835043121900525875e-07 1.258235170098487288e-05 -2.213940206274855882e-06 -7.328158972086384892e-06 9.189492402583709918e-07 2.573505342006683350e-01 -8.936216545407660306e-06 2.226221840828657150e-05 -1.084110181182040833e-06 -8.609365067968610674e-06 2.010392770171165466e-02 9.892412890621926636e-06 3.920557901437859982e-06 2.134178430424071848e-06 6.555445906997192651e-06 1.232351678481791168e-06 -4.011546075344085693e-01 1.527831841485749464e-06 3.142619107165955938e-06 -2.546550149418180808e-06 -1.801054736461082939e-06 -1.569423602632014081e-06
-4.771209205500781536e-09 7.585190360259730369e-06 1.203255578875541687e-01 9.401633178640622646e-07 -2.305823181814048439e-05 -5.997445441607851535e-06 2.124543698300840333e-06 2.281504976053838618e-06 5.366479754447937012e-01 1.262089426745660603e-06 -5.509230494499206543e-01 -5.279246124700875953e-06 -1.286604721099138260e-02 -3.832886932286783122e-07 -3.331516609250684269e-06 6.567067885043798015e-07 9.186060196952894330e-06 -1.391230966873990837e-06 -1.899749622680246830e-05 3.924193379134521820e-07 3.405232291697757319e-07 1.827706466428935528e-03 1.039678318193182349e-05 9.123895324592012912e-06 9.643713383411522955e-08 -2.314146740900469013e-06 -5.182448625564575195e-01 1.733199951559072360e-06 -9.499276529822964221e-07 6.770008802413940430e-02 -1.673710793256759644e-01 -7.994556654011830688e-06 9.039471478899940848e-06 -3.200859282515011728e-06 5.835231149831088260e-06 -2.862605469999834895e-06 -8.549885933462064713e-06 -6.009434400766622275e-06 9.301253157900646329e-06 8.600137334724422544e-06 5.209010851103812456e-06 -8.710121619515120983e-07 9.018891432788223028e-06 -3.549139201641082764e-02 -7.515055131079861894e-06 9.469285032537300140e-06 -1.006549609883222729e-05 9.445597243029624224e-06 4.805364369531162083e-06 -3.292699148005340248e-06 1.261652050743578002e-05 8.323444490088149905e-06 8.807057383819483221e-06 -1.029484793543815613e-01 -3.732212235263432376e-06 -9.765644790604710579e-07 -2.033704731729812920e-06 -8.309374607051722705e-06 8.404779691773001105e-06 -7.893335350672714412e-06 3.288999778305878863e-06 4.357397301646415144e-06 -2.116886662406614050e-06 -9.263569861650466919e-02 -7.861629455874208361e-06 6.005674549669492990e-06 8.866222742653917521e-06 -4.267020813131239265e-06 1.689900500423391350e-06 1.579538002260960639e-05 2.417272116872482002e-05 -3.801657840085681528e-06 6.030558422207832336e-02 4.962871074676513672e-01 -1.749980583554133773e-05 -4.431672766804695129e-02 -5.591206900135148317e-06 6.909261923283338547e-03 3.210241629858501256e-06 7.292245300050126389e-06
4.343975888332352042e-06 1.273572479476570152e-06 6.523039246530970559e-07 -1.935055479407310486e-05 -1.410957429470727220e-05 2.211502305726753548e-06 9.215706086251884699e-06 -1.980511115107219666e-07 -1.733168587088584900e-02 3.263019258156418800e-03 3.981516510248184204e-02 -7.784787565469741821e-02 5.862737447023391724e-02 3.114689206995535642e-06 1.457352936995448545e-06 3.650984581327065825e-06 1.726325899362564087e-01 2.368912659585475922e-02 -9.655972462496720254e-06 2.977598796860547736e-06 -1.193746243188797962e-06 2.231082817161222920e-06 6.701451638946309686e-06 5.545630301639903337e-07 -1.350677166556124575e-06 -3.631140862125903368e-05 9.882786124944686890e-02 1.899638772010803223e-01 -4.439559234015177935e-06 -9.523782864562235773e-07 2.121221541528939269e-06 1.115032773668644950e-06 -1.312448512180708349e-05 1.365630851068999618e-05 1.316344651058898307e-06 -3.930384991690516472e-06 7.252158866322133690e-06 2.909744125645374879e-06 -7.090349072313983925e-07 -8.594962537245010026e-07 8.324292139150202274e-06 1.748458635120186955e-05 -1.042468647938221693e-05 1.648706346750259399e-01 9.142020189756294712e-07 -3.652182840596651658e-07 7.781367230563773774e-07 -1.801136477297404781e-06 -1.760258101057843305e-06 -2.460885606706142426e-02 -1.313550342274538707e-06 -2.136338480340782553e-05 -6.614021003770176321e-06 -7.491480118915205821e-06 4.413439910422312096e-06 1.593712227077048738e-06 -1.346020326309371740e-05 8.331799108418636024e-07 -5.038250492361839861e-07 -1.050550690706586465e-05 -1.162631861006957479e-06 7.585841103718848899e-06 -2.364765805396018550e-08 3.714275062084197998e-01 -6.447288797062356025e-06 1.015797533909790218e-05 -8.673067668496514671e-07 7.971645572979468852e-06 6.929911673069000244e-02 -1.980064189410768449e-05 2.316239988431334496e-03 4.759323596954345703e-02 1.208558205689769238e-05 3.785864450037479401e-03 -1.442215442657470703e-01 1.453596837563964073e-06 3.922614455223083496e-02 -6.592226028442382812e-02 -3.228859668524819426e-07 -4.765111043525394052e-07
-5.377968773245811462e-03 6.358607151923933998e-07 2.552747726440429688e-01 1.347688521491363645e-05 1.026076915877638385e-05 -6.778143415431259200e-07 -2.594387115095742047e-05 2.553978003561496735e-02 -4.126927852630615234e-01 -1.045984961092472076e-02 2.718369364738464355e-01 -3.723525106906890869e-01 2.291426360607147217e-01 -1.019114851951599121e-01 -3.986752744822297245e-06 -3.684446960687637329e-02 6.568557620048522949e-01 -2.757054865360260010e-01 -7.387902769551146775e-06 -6.563146412372589111e-02 1.706800460815429688e-01 -1.280541904270648956e-02 7.753627747297286987e-02 -5.078960384707897902e-06 1.192161813378334045e-02 -2.045823335647583008e-01 3.685775399208068848e-01 3.855713903903961182e-01 3.122356906533241272e-02 -2.294052392244338989e-01 7.602166384458541870e-02 2.226218157375114970e-06 1.462544787500519305e-06 5.124861672811675817e-07 5.300327762961387634e-02 3.879248723387718201e-02 7.281561920535750687e-06 -6.629238669120240957e-07 -4.328633622208144516e-06 -3.478591906969086267e-06 2.230718564533162862e-06 1.838108983065467328e-05 1.029813574859872460e-05 1.811466738581657410e-02 4.571861609292682260e-07 -9.187608957290649414e-02 4.827116754313465208e-06 -3.347188339830609038e-06 6.636018399149179459e-03 -6.602713838219642639e-03 -5.479913397721247748e-06 -2.933445466624107212e-05 2.385228425264358521e-01 2.357456833124160767e-05 -2.816058099269866943e-01 5.705195665359497070e-02 1.089759825845248997e-05 1.905817725855740719e-06 -2.304478357473271899e-06 1.624955257284455001e-05 1.038507674820721149e-03 -2.153553759853821248e-05 -2.101406157016754150e-01 7.309265732765197754e-01 1.735294790705665946e-05 1.418903411831706762e-05 -3.293823510830407031e-06 -4.398857981868786737e-06 4.445154070854187012e-01 -6.414660674636252224e-06 7.442533387802541256e-06 -5.971092730760574341e-03 -3.124154508113861084e-01 -3.952262103557586670e-01 -4.748750329017639160e-01 -9.982377378037199378e-07 -3.745117038488388062e-02 -1.419235616922378540e-01 1.437561511993408203e-01 2.910428520408459008e-07
-2.904389519244432449e-03 -2.715064398944377899e-02 1.195417135022580624e-03 7.241831553983502090e-06 1.944198738783597946e-03 -2.739474666668684222e-06 1.189129670819966123e-05 -1.057579311236622743e-06 3.692457079887390137e-02 -6.029824144206941128e-04 -1.957179754972457886e-01 9.614721685647964478e-02 -3.811228275299072266e-02 3.263946273364126682e-04 -1.343577991974598262e-06 -6.254219333641231060e-04 2.765444340184330940e-03 -3.230136371712433174e-06 -7.857812306610867381e-06 -4.404904757393524051e-06 9.399325335834873840e-07 -1.924145180964842439e-06 -6.753749400377273560e-02 -5.050722137093544006e-02 1.145379201261675917e-06 5.894332379102706909e-02 -1.418798267841339111e-01 -1.604169048368930817e-02 6.149582077341619879e-06 5.056726187467575073e-02 -3.272558748722076416e-02 -1.086141651285288390e-06 -1.188453825307078660e-05 6.132659109425731003e-06 -9.028536733239889145e-04 4.234206244291272014e-06 -1.772337782313115895e-05 -3.251964699302334338e-06 8.123594170683645643e-07 3.791515155171509832e-07 2.129367021552752703e-05 -1.104035891330568120e-05 -6.231305178516777232e-06 -6.173398718237876892e-02 -8.043332400120561942e-07 -2.225189518867409788e-06 -5.383734560382436030e-07 1.286550514123518951e-06 2.004898760787909850e-06 -1.539203822176204994e-06 1.245206035673618317e-02 8.081190571829210967e-06 1.051314939104486257e-05 3.414234146475791931e-02 -6.712928414344787598e-02 -1.544033875688910484e-05 -1.163140950666274875e-05 -9.384333452544524334e-07 6.340648042169050314e-07 1.665887066337745637e-05 1.218173679262690712e-06 -1.071761653292924166e-05 1.575158421474043280e-06 -9.121567010879516602e-02 -1.465694185753818601e-05 1.990952659980393946e-05 1.584583401381678414e-06 4.443842954060528427e-06 -1.664719661675917450e-06 -1.508100194769212976e-05 -1.219115033745765686e-02 -5.023359321057796478e-03 -8.680957555770874023e-02 -6.026549264788627625e-03 -3.886234760284423828e-02 -1.127114956034347415e-06 -4.548108336166478693e-06 2.875283360481262207e-02 -1.465088985241891351e-06 -1.344516590506827924e-06
-1.093001570552587509e-02 -5.384693395171780139e-06 2.401028424501419067e-01 5.323656750988448039e-07 1.883517485111951828e-03 8.873344086168799549e-07 -4.223458745400421321e-06 2.497403696179389954e-02 -5.967742800712585449e-01 -1.239346638321876526e-01 6.636987924575805664e-01 -1.709690690040588379e-01 2.638015747070312500e-01 -6.094161048531532288e-02 -4.957562685012817383e-02 -3.124966286122798920e-02 5.113533735275268555e-01 -4.850209876894950867e-02 -1.078685909305932000e-05 -5.547137930989265442e-02 2.218961901962757111e-02 -3.631682693958282471e-02 -4.743966201203875244e-05 -1.092085614800453186e-02 2.280236929655075073e-01 -6.063709501177072525e-03 8.237488269805908203e-01 1.710450500249862671e-01 1.376140117645263672e-01 -5.610322952270507812e-01 3.141321539878845215e-01 1.498093411100853700e-06 1.019956744130467996e-05 3.809664121945388615e-07 4.507135145104257390e-07 9.701667726039886475e-02 1.079239154933020473e-05 2.026675929300836287e-06 -3.474063305475283414e-06 -7.130729045456973836e-06 1.194026117445901036e-05 -2.005413261940702796e-05 -1.177663762064184994e-06 6.503774970769882202e-02 -1.634436473250389099e-02 -1.544433385133743286e-01 4.306457412894815207e-06 -3.361187509653973393e-06 4.511185456067323685e-03 -7.186339795589447021e-02 -4.496379006013739854e-06 -1.015012458083219826e-05 1.034848690032958984e-01 6.197844818234443665e-02 -3.734449744224548340e-01 4.357687011361122131e-02 3.072321760555496439e-06 1.706726266093028244e-06 -2.818400162141188048e-06 2.013853918469976634e-05 9.685550630092620850e-02 7.507590453315060586e-06 -6.074298173189163208e-02 4.442470073699951172e-01 1.165932280855486169e-05 1.267817424377426505e-06 -3.576138851713039912e-06 2.210008460679091513e-07 1.309996992349624634e-01 -4.218902176944538951e-06 7.999268746061716229e-06 -2.446538474032422528e-06 -3.643397986888885498e-01 -8.806748986244201660e-01 -5.814137458801269531e-01 2.444725483655929565e-02 3.406877340239589103e-06 -5.337858796119689941e-01 1.178506389260292053e-02 -2.692546331672929227e-06
2.256693392992019653e-01 -1.194079369306564331e-01 5.185701847076416016e-01 -8.127345608954783529e-06 2.402694150805473328e-02 2.125916182994842529e-01 -1.099841574614401907e-05 -7.747299969196319580e-02 1.496375054121017456e-01 2.104689031839370728e-01 7.904130220413208008e-02 3.874851763248443604e-02 7.376756519079208374e-02 9.860686212778091431e-02 9.933587908744812012e-02 1.774729937314987183e-01 5.393438935279846191e-01 2.428351789712905884e-01 1.890192834252957255e-06 1.638997495174407959e-01 -5.475947260856628418e-02 5.806402117013931274e-02 -1.703451424837112427e-01 -2.079955786466598511e-01 -7.215077988803386688e-03 2.158261686563491821e-01 3.050166964530944824e-01 -2.854565717279911041e-02 -1.163005828857421875e-01 -3.890877664089202881e-01 1.587411910295486450e-01 4.326911643147468567e-03 -1.453871391277061775e-05 2.015637619479093701e-05 -8.556272834539413452e-02 -9.096205234527587891e-02 2.130003667843993753e-05 2.177153378725051880e-01 -5.774925276637077332e-02 -1.992549002170562744e-01 -3.272012691013514996e-05 1.328157850366551429e-06 -3.019365976797416806e-05 5.048596262931823730e-01 3.153033554553985596e-02 -2.395222634077072144e-01 4.918493703007698059e-02 -3.364719450473785400e-02 -1.566945463418960571e-01 -1.031579747796058655e-01 -5.531559509108774364e-06 -1.203334818455914501e-06 -1.497429423034191132e-02 1.879577040672302246e-01 -3.275173250585794449e-03 -1.302835941314697266e-01 -1.174697445094352588e-05 9.636083245277404785e-02 -8.679667860269546509e-02 1.999759479076601565e-05 -1.228665485978126526e-01 -1.125357994169462472e-05 2.438250370323657990e-02 5.793947577476501465e-01 2.504051008145324886e-05 -2.440165189909748733e-06 -5.870201438665390015e-02 -3.664794348878785968e-06 -3.964564204216003418e-02 -2.058045720332302153e-05 1.516009797342121601e-03 2.984705269336700439e-01 4.865320399403572083e-02 -4.959088563919067383e-01 -4.402466118335723877e-01 -7.734858081676065922e-04 2.810744941234588623e-01 -7.720003128051757812e-01 -5.374716594815254211e-02 -9.051456302404403687e-02
8.387828529521357268e-07 1.094653907784959301e-05 3.282286822795867920e-01 -3.938439476769417524e-06 -9.163288772106170654e-02 -5.723070898966398090e-06 8.101578714558854699e-07 1.286353381146909669e-06 7.128611803054809570e-01 1.751985564624192193e-06 -8.469175696372985840e-01 -9.318093816546024755e-07 -6.714123487472534180e-02 3.811905160546302795e-02 -1.700305119811673649e-06 2.458086328260833398e-06 3.159547923132777214e-03 -2.402299514869810082e-06 8.132366815516434144e-07 1.499424456596898381e-06 -1.832746079344360624e-06 9.697310626506805420e-02 1.805714236979838461e-05 1.322292337135877460e-05 -1.693431499916187022e-06 8.048734798649093136e-07 -3.139720857143402100e-01 -1.485835760831832886e-02 -5.468484945595264435e-03 1.894915401935577393e-01 -1.960960626602172852e-01 -5.251714810583507642e-06 1.868602339527569711e-05 1.630969200050458312e-05 8.601792615081649274e-06 -3.464320302009582520e-02 -4.163100675214082003e-05 -6.452821253333240747e-06 7.334877409448381513e-06 1.036843423207756132e-05 3.800014383159577847e-06 1.189002796309068799e-05 2.397775688223191537e-06 -1.104492172598838806e-01 -3.415680112084373832e-06 5.728532373905181885e-02 -8.019564120331779122e-06 7.688622645218856633e-06 4.359329068392980844e-06 4.444305971264839172e-02 9.171822966891340911e-06 -1.138245443144114688e-05 1.308858336415141821e-04 -1.720746308565139771e-01 -7.114450454537291080e-06 -2.403074176982045174e-06 5.496311132446862757e-06 -5.264251740300096571e-06 5.090785634820349514e-06 4.166759026702493429e-06 3.648916390375234187e-06 3.957650551456026733e-05 8.021925168577581644e-07 -1.332736462354660034e-01 9.149075594905298203e-06 1.060225622495636344e-05 7.312258276215288788e-06 -1.819594217522535473e-05 -2.422989532351493835e-02 -2.281256274727638811e-05 1.334269344806671143e-01 -6.362890417221933603e-06 7.910571992397308350e-02 2.975517213344573975e-01 -1.851761490106582642e-01 -5.175327260076301172e-06 -8.740147677599452436e-06 1.435995101928710938e-01 1.348371142739779316e-06 8.764856829657219350e-06
-2.633287294884212315e-06 -2.341809022254892625e-07 9.245303544958005659e-07 -1.278916533919982612e-05 6.515683708130382001e-06 -2.041459083557128906e-06 5.225378117756918073e-06 3.982447651651455089e-07 -3.049704901059158146e-06 -2.755512923613423482e-06 -8.868074473866727203e-06 -1.217325007019098848e-06 1.546502403471095022e-06 -2.407485226285643876e-06 -1.870233631962037180e-06 -2.744881385297048837e-06 4.682559392676921561e-06 -2.621371550048934296e-06 -4.244969659339403734e-06 -2.618956841615727171e-06 1.629254029467119835e-06 -1.721772491691808682e-06 9.098857844946905971e-08 1.148915771409519948e-06 1.693426384008489549e-06 -4.693561095336917788e-07 -5.646104909828864038e-06 1.353549237137485761e-06 3.572678906493820250e-06 2.448622581141535193e-06 -3.222590748919174075e-06 -7.088265192578546703e-07 -1.274025180464377627e-05 1.277665342058753595e-05 -3.910546411134419031e-07 3.542950025803293101e-06 2.180320370825938880e-05 -2.316564859938807786e-06 3.559765673344372772e-07 1.695724449746194296e-07 -2.164534453186206520e-05 1.460968087485525757e-05 1.278310537600191310e-05 -9.918236732482910156e-02 -8.122113968056510203e-07 5.898325525777181610e-07 5.874272801520419307e-07 4.448488652997184545e-07 1.126883489632746205e-06 -1.412400592926132958e-06 -8.465290193271357566e-07 7.929911589599214494e-06 4.561408331937855110e-06 4.492733296501683071e-07 -3.412104206290678121e-06 2.924597310993704014e-07 -1.258005067938938737e-05 2.903038875956553966e-07 4.328051090851658955e-07 2.098812547046691179e-05 1.358906615678279195e-06 2.110941204591654241e-05 -8.692701385371037759e-07 3.064372094740974717e-06 8.425984560744836926e-06 -2.198569563915953040e-05 8.857472266754484735e-07 4.300002274248981848e-06 7.678846714043174870e-07 3.654036163425189443e-06 -6.502638825622852892e-06 -2.612623120512580499e-06 -7.286585059773642570e-06 -5.054744178778491914e-06 7.001338154077529907e-02 -1.171718622572370805e-06 -2.654856416484108195e-06 1.950024397956440225e-06 7.391138296952703968e-07 -1.988428266486153007e-07
3.937131168640917167e-06 6.191758075146935880e-07 -3.173981010913848877e-01 -4.448750587471295148e-06 -6.563254828506615013e-06 -2.341493654967052862e-06 -2.813076207530684769e-06 -2.177678197622299194e-01 9.641052782535552979e-02 5.929556209594011307e-06 -3.653301596641540527e-01 2.645667493343353271e-01 -5.241393446922302246e-01 6.961022317409515381e-02 -7.239625574584351853e-07 1.771660894155502319e-01 -5.700286626815795898e-01 5.186339095234870911e-02 1.557623909320682287e-05 3.134163989670923911e-06 -7.692511379718780518e-02 1.244599297642707825e-01 -2.835607342422008514e-02 4.378275207272963598e-06 -1.090529859066009521e-01 2.470042772984015755e-06 -4.845655560493469238e-01 -3.456521630287170410e-01 -2.123256474733352661e-01 9.683523327112197876e-02 -8.478445559740066528e-02 -4.091761638846946880e-06 1.520308069302700460e-05 8.048753443290479481e-06 -2.029286861215950921e-06 -6.937203556299209595e-02 -1.132927536673378199e-05 -3.100874437222955748e-06 5.146339390194043517e-06 5.266934749670326710e-06 1.864823934738524258e-05 8.075010555330663919e-06 2.260874316561967134e-05 -8.785452693700790405e-02 1.355960778892040253e-02 5.511172275873832405e-06 -6.060911800886970013e-06 5.599027645075693727e-06 -2.178386921514174901e-06 -1.886910922621609643e-06 7.717895641690120101e-06 -1.139647429226897657e-05 -2.804795503616333008e-01 -7.744832336902618408e-02 3.363250494003295898e-01 -3.537333309650421143e-01 -1.382934442517580464e-05 -4.171954515186371282e-06 4.636654921341687441e-06 8.093407814158126712e-06 -2.714799620662233792e-06 9.209059498971328139e-06 2.310000581928761676e-06 -4.462827146053314209e-01 -1.894520391942933202e-05 2.216142274846788496e-05 4.736902155855204910e-06 -1.013148084894055501e-05 -1.200998127460479736e-01 -1.264077309315325692e-05 -1.542380778118968010e-05 -7.526607532781781629e-07 3.314898908138275146e-01 3.456230163574218750e-01 7.481077909469604492e-01 -2.066926072075148113e-06 -4.834554147237213328e-06 1.164726199931465089e-07 -2.609902322292327881e-01 1.728005372569896281e-06
-4.810668997379252687e-06 1.524820277154503856e-06 8.532799482345581055e-01 3.762458800338208675e-05 -9.661780297756195068e-02 -3.026065655831189360e-07 -4.164909569226438180e-06 9.767582014319486916e-07 -4.850964527577161789e-03 -4.181189979135524482e-06 -1.078262692317366600e-03 1.675764724495820701e-05 4.188614338636398315e-02 -9.369339295517420396e-07 -2.146882707165786996e-07 -3.379671625225455500e-06 7.957078218460083008e-01 -1.219317987561225891e-01 1.521926060377154499e-05 -2.681183332242653705e-06 9.869172572507523000e-07 4.821988753974437714e-03 3.800416152444086038e-06 -3.788517005887115374e-06 9.931317208611289971e-07 3.265968643972883001e-06 3.856475055217742920e-01 3.571981936693191528e-02 4.792608706338796765e-06 -1.725175678730010986e-01 -1.253091113539994694e-06 1.667710876063210890e-07 1.485214124841149896e-05 -1.586319740454200655e-05 3.201860408807988279e-06 9.546378123559406959e-07 -2.951832357211969793e-05 -2.081635102513246238e-06 -8.288956223623245023e-07 -6.108823527029016986e-07 2.304260306118521839e-06 9.155517545877955854e-06 -1.623757270863279700e-05 -9.107014629989862442e-04 5.839405048391199671e-07 -1.583876496624725405e-06 1.141421535066911019e-07 2.211613718827720731e-07 4.797558176505845040e-06 8.938779501477256417e-06 -2.300281494171940722e-07 -1.221308139065513387e-06 4.280841350555419922e-01 -1.167174801230430603e-02 -3.146286308765411377e-01 4.043983153678709641e-06 -2.349348142161034048e-05 3.750113819478428923e-07 -4.694206836575176567e-07 1.385131054121302441e-05 5.119959951116470620e-06 -1.554061418573837727e-05 3.432018729654373601e-06 3.220648467540740967e-01 2.590617896203184500e-06 -5.863475053047295660e-06 -3.243624178139725700e-07 7.492071745218709111e-06 1.463692933320999146e-01 -8.827730198390781879e-06 1.272892057895660400e-01 -7.954252396302763373e-06 -1.437290012836456299e-01 -4.132470190525054932e-01 -1.206223368644714355e+00 -3.986858246207702905e-06 -1.030932980938814580e-05 -2.238874731119722128e-05 1.025899450723954942e-06 1.165345793197047897e-07
6.858738288428867236e-07 -3.101095444435486570e-06 1.165854651480913162e-02 5.461253749672323465e-06 9.228841008734889328e-06 3.592106168071040884e-06 9.458357453695498407e-06 -1.921584498632000759e-06 -1.012975256890058517e-02 3.995919541921466589e-07 1.488986760377883911e-01 4.362396339274710044e-06 1.270153671503067017e-01 -2.844400703907012939e-02 3.981416739406995475e-06 -3.509844839572906494e-02 3.944927155971527100e-01 -4.303506557334912941e-06 -3.262916152380057611e-06 1.497056246080319397e-06 -1.385200903314398602e-06 9.339228199678473175e-07 -2.044111624854849651e-06 -6.298232165136141703e-06 -1.910670789584401064e-06 -1.202348016704490874e-06 2.793654203414916992e-01 2.105571031570434570e-01 -3.907598511432297528e-07 -1.175691977550741285e-05 4.478407845454057679e-06 6.159246822790009901e-06 8.542623618268407881e-06 -2.391370799159631133e-07 -1.495328206146950833e-06 1.131609224103158340e-07 -1.356449865852482617e-05 3.784938598982989788e-06 -7.395428838208317757e-06 -5.860043984284857288e-06 1.627581150387413800e-05 1.132082616095431149e-05 2.456638139847200364e-05 9.258012141799554229e-06 5.908566436119144782e-06 -6.538769412145484239e-06 6.993778697506058961e-06 -6.383743311744183302e-06 -1.023640152197913267e-06 3.796973032876849174e-06 -6.477995157183613628e-06 -1.670790334173943847e-05 -5.170119493413949385e-06 9.054992005985695869e-06 -9.452559798955917358e-02 9.935967624187469482e-02 2.731744280026759952e-05 6.524395757878664881e-06 -7.448099495377391577e-06 6.342431788652902469e-06 2.230169251561164856e-02 -1.868680737970862538e-05 2.045215524049126543e-06 2.684560716152191162e-01 -2.008754745475016534e-05 -4.837881533603649586e-06 -7.320794793486129493e-06 -4.670390808314550668e-06 -3.039758667000569403e-09 4.462789092940511182e-06 -1.890236489998642355e-06 1.798916287043539342e-06 -9.429039806127548218e-02 -1.708659231662750244e-01 -5.516544580459594727e-01 4.816744876734446734e-06 4.007091320090694353e-06 1.580210664542391896e-07 -2.458827111695427448e-06 -4.285353497834876180e-06
7.135258783819153905e-06 -3.181827196385711432e-06 9.370638508698903024e-06 -1.165393132396275178e-05 -3.410641511436551809e-07 -3.820273377641569823e-06 -7.601879588037263602e-06 7.700308742641936988e-06 1.693725789664313197e-05 4.599334261001786217e-06 4.092244125786237419e-07 8.005213203432504088e-06 3.982679118053056300e-06 -1.036953472066670656e-05 -1.442333632439840585e-05 -3.468288014119025320e-06 -4.225263182888738811e-06 4.754929250339046121e-07 7.595990609843283892e-06 7.264620762725826353e-06 -2.480623516021296382e-05 9.539804523228667676e-06 5.969798621663358063e-06 -2.400350240350235254e-05 1.254242852155584842e-05 -3.305769496364519000e-06 -1.840561890276148915e-05 -1.340349353995407000e-05 7.911357897683046758e-06 -1.739848448778502643e-05 7.887251740612555295e-06 -4.657794306694995612e-06 -2.156206210202071816e-05 -8.844310286804102361e-06 -4.185042143944883719e-06 8.500715921400114894e-06 6.667376055702334270e-06 -1.809760760806966573e-05 -7.452009640473988838e-07 -1.363016053801402450e-06 -2.482791387592442334e-06 -1.265311129827750847e-05 -5.465205504151526839e-06 1.514753785158973187e-05 -1.101246743928641081e-05 1.233360762853408232e-06 -7.882435056671965867e-06 -2.832281097653321922e-06 -4.772668489749776199e-06 -8.696245458850171417e-06 -1.841567609517369419e-07 8.830063961795531213e-06 -7.366085810645017773e-06 -1.080823858501389623e-05 -2.794039392028935254e-05 -9.553613381285686046e-06 9.058879186341073364e-06 -2.719822805374860764e-05 -1.493069521529832855e-05 4.911298219667514786e-06 -1.269196945941075683e-05 5.490770035976311192e-06 2.579443389549851418e-06 2.436558588669868186e-06 -1.291355692956130952e-05 -2.473542554071173072e-05 -5.671668986906297505e-06 -1.946906377270352095e-05 2.251770456496160477e-05 5.417366992332972586e-06 -6.627185939578339458e-06 -1.847474777605384588e-07 1.912712650664616376e-05 3.991875473730033264e-06 1.100965437217382714e-05 3.764584107557311654e-06 1.033766147884307429e-05 1.251145476999226958e-06 6.045030204404611140e-06 2.210992352047469467e-05
1.362284456263296306e-05 5.176954687158286106e-07 -2.281404286623001099e-01 -2.853390651580411941e-05 -6.994938757998170331e-06 2.089971303576021455e-06 -3.593674591684248298e-06 -3.412154001125600189e-06 6.203446164727210999e-02 3.387259785085916519e-03 -2.676382362842559814e-01 1.590847820043563843e-01 -6.840059906244277954e-02 7.049500197172164917e-02 2.674748657227610238e-06 2.827402018010616302e-02 -2.870687842369079590e-01 1.692599803209304810e-01 6.252301773201907054e-06 5.886157850909512490e-06 -4.172715762251755223e-06 2.791144652292132378e-06 2.756316462182439864e-06 2.453286015224875882e-06 -3.979682787758065388e-06 4.735548486678453628e-08 -4.570418596267700195e-01 -1.546019613742828369e-01 -1.235764250159263611e-01 7.786566019058227539e-02 -1.225984306074678898e-06 -2.951804162876214832e-06 -6.945406312297564000e-07 2.131626388290897012e-05 -1.340971493846154772e-06 -7.904168963432312012e-02 1.385580799251329154e-05 4.220662503939820454e-07 4.264192739356076345e-06 2.902518190239788964e-06 7.690887287026271224e-07 2.283684079884551466e-05 1.214978965435875580e-05 8.936538506532087922e-06 -4.658961927361815469e-07 5.053951591253280640e-02 -5.415729447122430429e-06 4.699719738709973171e-06 -1.080685928463935852e-01 1.073578005161834881e-06 5.786246219940949231e-06 -7.736884072073735297e-06 -1.057254667102824897e-05 -1.206071227788925171e-01 3.645144999027252197e-01 -5.437192612589569762e-06 9.095298082684166729e-06 -3.746968786799698137e-06 2.947695975308306515e-06 -7.042472134344279766e-06 -4.343292857811320573e-06 1.284651352762011811e-05 3.975246567279100418e-03 -4.087439179420471191e-01 1.874401277746073902e-05 -1.163274191640084609e-05 3.195759745722170919e-06 1.119408261729404330e-05 -1.064473316073417664e-01 -5.527224857360124588e-06 -6.542382834595628083e-06 1.383432187139987946e-02 4.503520727157592773e-01 3.138143122196197510e-01 5.556476116180419922e-01 7.417402798637340311e-07 5.307946354150772095e-03 -3.118962195003405213e-05 -1.839305582507222425e-06 4.728880185211892240e-07
4.766274287248961627e-06 2.774102176772430539e-05 9.219044841302093118e-06 7.610007742187008262e-06 1.266766048502177000e-05 -1.523477567388908938e-05 -3.669209490908542648e-06 -2.173437860619742423e-05 -1.994075773836812004e-06 7.865512998250778764e-06 5.786991550849052146e-06 -1.504199371993308887e-05 6.330181349767372012e-06 1.146202794188866392e-05 9.574835530656855553e-06 -1.466850972065003589e-05 -1.446190981368999928e-05 1.548507134430110455e-05 -1.293252717005088925e-05 -9.943913028109818697e-06 5.405961019278038293e-06 1.318386784987524152e-05 -9.647092156228609383e-06 -1.271912515221629292e-05 1.561597309773787856e-05 1.096456617233343422e-05 -2.033500641118735075e-05 -5.808193691336782649e-06 -1.260766293853521347e-05 -9.982973097066860646e-06 2.476012559782247990e-05 -4.846227056987117976e-06 1.293298828386468813e-05 -1.937399611051660031e-05 2.142846642527729273e-05 -1.621938281459733844e-06 -2.999967364303302020e-06 1.934252031787764281e-05 1.339533082500565797e-05 -1.051536310114897788e-05 -1.287499071622733027e-05 1.972225845747743733e-06 -1.300608710153028369e-05 -4.839495431951945648e-06 -1.676363353908527642e-05 9.923246580001432449e-07 1.124169648392125964e-05 -8.497839189658407122e-06 1.005617559712845832e-05 1.129373595176730305e-05 -1.520311798230977729e-05 8.846119271765928715e-06 -8.585609066358301789e-06 3.074287178606027737e-06 -3.211716830264776945e-07 1.384243023494491354e-05 -5.489916020451346412e-06 -1.799750680220313370e-05 -2.000075710384408012e-06 1.935607360792346299e-05 7.313052265089936554e-06 6.652359843428712338e-06 1.298744791711214930e-05 -2.457310074532870203e-06 -1.302771124755963683e-05 -1.290122418140526861e-05 -3.823314273176947609e-06 -4.900501153315417469e-06 -1.245267139893257990e-05 -1.293860168516403064e-05 -6.264192052185535431e-06 -5.735317245125770569e-06 2.250169927719980478e-06 2.650864416864351369e-07 1.719826832413673401e-05 -1.179466562462039292e-05 2.242143455077894032e-05 -8.562795301259029657e-06 4.117222488275729120e-06 5.064814104116521776e-06
-6.666967919954913668e-07 6.835168278485070914e-06 5.631505697965621948e-02 -5.914076609769836068e-06 -1.133840851252898574e-05 -5.891136424907017499e-06 5.030226930102799088e-06 2.156938535335939378e-06 3.454139828681945801e-01 -2.484837295924080536e-07 -4.984400868415832520e-01 -4.193004315311554819e-06 -1.322553902864456177e-01 5.036669108449132182e-07 -3.221373845008201897e-06 5.643832992063835263e-07 7.931254003779031336e-06 2.146258282209601020e-09 -3.468659087957348675e-06 -6.533985015266807750e-07 -4.664615289584617130e-07 2.769318598438985646e-06 8.326542229042388499e-06 8.113509466056711972e-06 3.101673655692138709e-07 -9.669873861639644019e-07 -3.236926198005676270e-01 1.777135594238643534e-06 -1.027020402943890076e-06 1.343185007572174072e-01 -2.692816080525517464e-03 -6.030943495716201141e-06 -1.542415884614456445e-05 4.614706540451152250e-06 6.179364390845876187e-06 -2.713924004638101906e-06 -7.280465524672763422e-06 -4.947129127685911953e-06 7.887687388574704528e-06 8.477692972519434988e-06 -2.753224180196411908e-06 6.420668796636164188e-08 -3.856993316730950028e-06 -1.406336426734924316e-01 -6.621011380048003048e-06 5.962013080716133118e-02 -1.310437073698267341e-05 9.738481821841560304e-06 2.869461241061799228e-06 -3.957138233090518042e-06 1.418926512997131795e-05 2.825265983119606972e-05 6.285675226536113769e-06 -9.899879992008209229e-02 -2.609993089208728634e-06 8.568565590394428000e-08 1.347152192465728149e-05 -7.356438800343312323e-06 8.249154234363231808e-06 -2.202319410571362823e-05 2.333639486096217297e-06 -5.828699613630305976e-06 -1.341604843219101895e-06 -8.214320987462997437e-02 -1.319721286563435569e-05 -2.133740053977817297e-06 9.311755093222018331e-06 5.724666152673307806e-06 1.406541400683636311e-06 1.709665593807585537e-05 1.040579263644758612e-05 -2.082905211864272133e-06 4.358789697289466858e-02 3.462541401386260986e-01 -1.220806825585896149e-05 -7.296946023416239768e-06 -6.626073627558071166e-06 3.160853339068125933e-06 2.169937260987353511e-06 8.018349035410210490e-06
1.419348609488224611e-05 -1.174097633338533342e-05 -6.707455213472712785e-06 -1.944352698046714067e-05 5.781544587080134079e-06 1.201824488816782832e-05 1.291909757128451020e-05 -1.406088267685845494e-05 1.341238748864270747e-05 -9.825710549193900079e-06 -1.386420535709476098e-05 -1.621928095119073987e-05 -1.205711123475339264e-05 2.827510343195172027e-06 2.562660483818035573e-06 7.096028639352880418e-06 -6.659780410700477660e-06 4.095742770005017519e-05 -8.821925803204067051e-06 2.415313974779564887e-05 5.924803190282545984e-06 -2.165907790185883641e-05 -5.422992217063438147e-06 -4.310730673751095310e-06 1.172411975858267397e-05 8.169739885488525033e-06 -1.569959749758709222e-05 -1.757650352374184877e-05 -1.918786256283055991e-05 1.198140034830430523e-05 2.318279257451649755e-06 -1.088571480067912489e-05 -7.627179911651182920e-06 -8.863324183039367199e-06 -3.609139821492135525e-05 7.665801604161970317e-06 -1.277350202144589275e-05 1.960292138392105699e-05 1.615666224097367376e-05 -1.732461350911762565e-05 8.893349331628996879e-06 1.093594619305804372e-07 -6.667376055702334270e-06 1.866029379016254097e-06 2.559753738751169294e-05 -2.982358637382276356e-05 8.800901923677884042e-06 1.387384145346004516e-06 9.455241524847224355e-06 3.314009063615230843e-06 5.507978130481205881e-06 7.522166924900375307e-06 4.976388936483999714e-07 -2.648396184667944908e-05 -3.957401077059330419e-06 -3.455898422544123605e-06 -2.153398781956639141e-05 1.455373785574920475e-05 -1.017711110762320459e-05 -2.623317413963377476e-06 8.770421118242666125e-06 -2.413948823232203722e-05 1.320126102655194700e-06 2.319599298061802983e-05 -1.292045271839015186e-05 -8.847588105709291995e-06 -2.715612572501413524e-05 -1.296297432418214157e-05 -1.416702343703946099e-05 6.676992597931530327e-06 -6.194433808559551835e-06 9.561386832501739264e-06 1.073616567737190053e-05 -2.281863316966337152e-06 4.017306764581007883e-06 1.622446507099084556e-05 1.242660437128506601e-05 -2.958851109724491835e-05 -1.202284420287469402e-05 -1.561341923661530018e-05
5.999751010676845908e-06 6.087758265493903309e-06 -1.469209928472992033e-05 -1.935221371240913868e-05 3.149797339574433863e-05 -1.224724996973236557e-06 5.471358235809020698e-06 2.062762723653577268e-05 -1.885304118331987411e-05 -2.284427864651661366e-05 -3.794495205511339009e-05 -8.927538146963343024e-06 1.710857031866908073e-05 -9.704578587843570858e-06 4.532923412625677884e-06 6.332334123726468533e-06 -8.097560566966421902e-06 1.326510300714289770e-05 -8.838189387461170554e-06 -2.138564377673901618e-05 -1.002194494503783062e-05 -6.256987944652792066e-06 4.268820703146047890e-05 -3.551555892045143992e-06 1.567650360811967403e-05 5.365684501157375053e-06 -7.286139407369773835e-06 3.501693572616204619e-05 1.851513297879137099e-05 -2.528990080463699996e-06 1.808028900995850563e-05 1.074775991583010182e-05 -6.661263796559069306e-06 -2.158576899091713130e-05 6.762610610167030245e-06 -3.368808165760128759e-07 1.097528911486733705e-05 -8.452494512312114239e-06 1.699026142887305468e-05 1.878270632005296648e-05 -1.290555519517511129e-05 1.267997686227317899e-05 6.699305686197476462e-06 3.162527355016209185e-05 -2.637131001392845064e-05 1.889089980977587402e-05 -8.756270290177781135e-06 -5.751838216383475810e-06 -1.317303394898772240e-05 1.610024992260150611e-05 -1.704688475001603365e-05 -6.651444891758728772e-06 3.034674591617658734e-07 -1.876295300462516025e-06 -1.449714545742608607e-05 5.575930117629468441e-06 5.587198756984435022e-06 -1.051160870702005923e-05 1.398980111844139174e-05 -8.883295777195598930e-06 -9.918369414663175121e-07 -1.294640605919994414e-05 -2.054278411378618330e-05 8.649321898701600730e-06 -1.941978916875086725e-05 6.707315151288639754e-06 -1.332838746748166159e-05 -8.829871148918755352e-06 1.292064553126692772e-06 -2.163190765713807195e-05 -6.116756594565231353e-06 6.989232133491896093e-06 2.031868461926933378e-05 -3.133058271487243474e-05 -1.028417318593710661e-05 8.037495717871934175e-06 2.433259396639186889e-05 1.288740804739063606e-06 6.778254828532226384e-06 1.723833520372863859e-05
6.369421498675365001e-06 5.609955678664846346e-06 3.819931671023368835e-02 -8.465206065011443570e-07 -3.045254925382323563e-05 -1.515461917733773589e-06 -3.866126462526153773e-06 -1.197370465888525359e-06 3.820052742958068848e-01 2.020646119490265846e-03 -5.269403457641601562e-01 -8.999022611533291638e-07 -2.878214791417121887e-02 4.127418622374534607e-02 1.020438958221348003e-06 1.250939816236495972e-02 4.160837761446600780e-06 1.206426694989204407e-02 -2.855980028471094556e-06 3.979506800533272326e-06 -1.977314695977838710e-06 2.586154453456401825e-02 8.767734470893628895e-06 6.786288849980337545e-06 -6.940314918756484985e-02 -2.789673771985690109e-07 -4.383270442485809326e-01 -4.652582481503486633e-02 -1.165825724601745605e-01 1.870515495538711548e-01 -1.491568982601165771e-01 -2.874176061595790088e-06 -1.820458419388160110e-05 9.706118362373672426e-06 3.126765022898325697e-06 -7.967722415924072266e-02 -1.048770172928925604e-07 -2.283652065671049058e-06 4.900799467577598989e-06 6.417529675672994927e-06 -1.580038588144816458e-05 3.328959792270325124e-06 6.750909051334019750e-06 -2.194068953394889832e-02 -1.197025994770228863e-06 2.144894152879714966e-01 -5.466039510793052614e-06 4.606458787748124450e-06 -1.228762243954406586e-06 1.007230594041175209e-06 6.377005774993449450e-06 -2.483047865098342299e-05 3.408231805224204436e-06 -2.192152887582778931e-01 2.191943489015102386e-02 -2.700812648981809616e-03 -1.006720503937685862e-05 -2.999703383466112427e-06 4.214550699543906376e-06 1.432303179171867669e-05 -1.906878082991170231e-06 -1.078487093764124438e-05 1.106027588248252869e-01 -2.864678204059600830e-01 -7.703111805312801152e-06 -6.299864253378473222e-06 3.505139602566487156e-06 -2.349565693293698132e-05 -1.722806543111801147e-01 7.047111921565374359e-06 2.620848135848063976e-05 5.635058641928480938e-07 1.289015561342239380e-01 6.686360836029052734e-01 -8.588437594880815595e-06 -1.976548219317919575e-06 -3.521484359225723892e-06 2.170148945879191160e-06 -3.566515260899905115e-08 4.202677246212260798e-06
1.903330981731414795e-01 2.623844466143054888e-06 -6.516807526350021362e-02 -1.698419873719103634e-05 -8.376683108508586884e-03 2.878764830529689789e-02 -1.118629643315216526e-05 -5.378538742661476135e-02 4.969490468502044678e-01 6.791462749242782593e-02 -3.517897129058837891e-01 2.361366748809814453e-01 -2.086574137210845947e-01 2.602025866508483887e-01 3.684138506650924683e-02 1.859417557716369629e-01 -4.112589955329895020e-01 2.214552760124206543e-01 4.150810127612203360e-06 5.665072426199913025e-02 -3.964201360940933228e-02 3.143076300621032715e-01 1.015109592117369175e-05 6.812124865973601118e-06 -1.090792845934629440e-02 7.214477285742759705e-03 -4.187394082546234131e-01 -2.900040149688720703e-01 -2.040770202875137329e-01 1.970629990100860596e-01 -3.641758561134338379e-01 2.199149776060949080e-06 -2.177670103264972568e-05 -2.901251718867570162e-06 -1.035497575685440097e-06 -3.543149530887603760e-01 -7.956299668876454234e-06 1.397094503045082092e-02 -8.751557061259518377e-07 1.867685568868182600e-06 -4.104861363884992898e-05 -1.042224903358146548e-05 4.485290446609724313e-06 -1.485075335949659348e-02 1.224801242351531982e-01 4.483218617679085582e-06 -1.281296363231376745e-06 -1.166504148386593442e-06 -1.929777860641479492e-01 2.407205784038524143e-06 1.334419607701420318e-06 1.023473851091694087e-05 -7.058148831129074097e-02 -4.474115371704101562e-01 3.948181569576263428e-01 -3.972096741199493408e-02 -1.240147503267508000e-05 1.919090664159739390e-06 -8.216604783228831366e-07 -1.607771446288097650e-05 -4.444386065006256104e-02 3.366982127772644162e-06 4.790134355425834656e-02 -3.855945467948913574e-01 -1.070714006345951930e-05 -9.644870260672178119e-06 -1.410284767189295962e-06 3.429075513849966228e-05 -7.476403564214706421e-02 -1.468472964916145429e-05 2.519739427953027189e-05 2.167162746191024780e-01 4.830959737300872803e-01 7.668287158012390137e-01 5.192779302597045898e-01 -7.816813141107559204e-02 4.419045895338058472e-02 -3.382360097020864487e-03 -1.558564305305480957e-01 -1.981998138944618404e-07
-2.422337383031845093e-01 2.460698187351226807e-01 -5.786120295524597168e-01 -6.745454811607487500e-06 -1.075652980944141746e-04 -1.770661473274230957e-01 -1.407676063536200672e-05 8.576503396034240723e-02 -4.413726925849914551e-02 -1.852870881557464600e-01 1.442737225443124771e-02 -5.165632069110870361e-02 2.113248966634273529e-02 -4.844147339463233948e-02 -9.171275794506072998e-02 -2.006473392248153687e-01 -3.314864337444305420e-01 -2.560981214046478271e-01 1.001471900963224471e-07 -1.430202275514602661e-01 1.737087368965148926e-01 -1.200530119240283966e-02 3.504934906959533691e-01 3.527006804943084717e-01 1.738130450248718262e-01 -5.835368037223815918e-01 -2.041178643703460693e-01 7.305376231670379639e-02 6.000172719359397888e-02 2.756753861904144287e-01 -3.495517373085021973e-02 -2.828104607760906219e-02 -1.128620442614192143e-05 1.647645331104286015e-05 2.419036477804183960e-01 4.590129014104604721e-03 -5.846982276125345379e-06 -2.197122722864151001e-01 5.110118763695936650e-07 6.997358798980712891e-02 7.900382115622051060e-06 -2.726823140619671904e-06 2.526836033212020993e-05 -5.283985137939453125e-01 -4.998229542252374813e-06 9.517342597246170044e-02 2.041384732365258969e-06 -4.632352101907599717e-08 5.368347838521003723e-02 -3.259579443692928180e-06 3.241891413927078247e-02 -3.659039521153317764e-06 -2.219902853539679199e-06 -5.892184376716613770e-01 6.299888715147972107e-03 2.147981971502304077e-01 -1.552225512568838894e-06 -3.062869382119970396e-06 4.692908078141044825e-06 -9.391069397679530084e-06 1.112645044922828674e-01 1.777244506229180843e-06 -1.207443699240684509e-01 -1.992293447256088257e-02 1.060239810612984002e-05 1.093048012990038842e-05 3.479219685686985031e-06 -2.216714710812084377e-05 1.550123393535614014e-01 -1.607924787094816566e-06 1.119854641729034483e-05 -3.671553134918212891e-01 -8.147277869284152985e-03 2.484189271926879883e-01 6.882377862930297852e-01 -3.908030066668288782e-06 -2.663190960884094238e-01 3.299384415149688721e-01 9.040424227714538574e-02 1.474975049495697021e-01
1.193924276776670013e-06 -3.588177833080408163e-06 2.758863568305969238e-01 -2.545128518249839544e-05 1.003202851279638708e-05 3.710923465405358002e-06 -6.388685960700968280e-06 -2.308989223820390180e-06 -7.665998055017553270e-06 1.663148168518091552e-06 3.121853637821914162e-07 4.102592356503009796e-06 -2.891258873205515556e-06 1.450980789741151966e-06 4.027125669381348416e-06 1.467658307774399873e-06 5.559129267930984497e-02 -1.556236156829982065e-06 -1.243556562258163467e-05 1.574603174958610907e-06 -1.716301085252780467e-06 3.491727056825766340e-06 -3.064980774070136249e-06 -3.105280711679370143e-06 -1.788936629054660443e-06 4.610983978636795655e-06 1.153443083167076111e-01 -2.532455482651130296e-06 -1.906096713355509564e-06 -5.986159067106200382e-06 -1.839674723669304512e-07 2.978392558361520059e-06 1.288574935642827768e-07 1.233098646480357274e-05 -2.619634642542223446e-06 -1.296356458624359220e-06 -3.065126520596095361e-06 -4.435867140273330733e-07 -2.038812681348645128e-06 -3.345909135532565415e-06 4.066107976541388780e-06 -1.326671736023854464e-05 1.190957209473708645e-05 6.279035915213171393e-06 1.975715122171095572e-06 -2.840287379513029009e-06 -5.039693178332527168e-07 -6.980879447837651242e-07 7.182507033576257527e-07 6.320579814200755209e-06 1.484169388277223334e-06 -1.735044497763738036e-05 -2.226790002168854699e-06 2.413671973044984043e-05 8.781607903074473143e-07 -1.989819338632514700e-06 -1.541530946269631386e-05 1.938657760547357611e-06 -5.323598543327534571e-06 7.038763669697800651e-06 -3.990840014012064785e-08 -2.583271634648554027e-05 3.114573701168410480e-06 7.265589386224746704e-02 1.797435652406420559e-05 7.158151333896967117e-07 -9.496009170106844977e-07 -8.465422070003114641e-06 -8.500589956383919343e-07 4.491464278544299304e-05 -2.766333182080416009e-06 6.010410515955300070e-07 -1.384722292423248291e-01 -1.902967095375061035e-01 -5.655574798583984375e-01 1.352181243419181556e-06 3.483626869638101198e-06 -7.675981578358914703e-06 -2.556063009251374751e-06 -3.248661869292845950e-06
5.451208380691241473e-06 -5.635834895656444132e-06 3.568546772003173828e-01 2.113664959324523807e-05 4.107043423573486507e-06 5.358240287023363635e-06 -3.381054739293176681e-06 -5.139406766829779372e-06 -9.430457794223912060e-06 5.768496521341148764e-06 4.340379746281541884e-06 8.355212230526376516e-06 -5.311471795721445233e-06 5.703906026610638946e-06 4.559790795610751957e-06 5.278225216898135841e-06 6.535883992910385132e-02 3.759261744562536478e-06 1.932582745212130249e-05 4.946377430314896628e-06 -5.218190835876157507e-06 6.433260750782210380e-06 -6.109029072831617668e-06 -7.515177458117250353e-06 -4.846352112508611754e-06 3.107807060587219894e-06 2.098914831876754761e-01 -5.207746198720997199e-06 4.988975077867507935e-02 -1.229991721629630774e-05 3.573657295419252478e-06 2.228241783086559735e-06 -7.703908522671554238e-06 3.247121185268042609e-06 -4.906386038783239201e-06 -4.060959781782003120e-06 4.352846190158743411e-06 4.566872576106106862e-06 -3.299438503745477647e-06 -5.511950803338550031e-06 -3.694184670166578144e-06 -6.976154509175103158e-06 1.327234258496901020e-05 1.216380769619718194e-05 3.756378418984240852e-06 -7.056650701997568831e-06 2.102528469549724832e-06 -3.831985850411001593e-06 -6.120116267993580550e-06 7.740880391793325543e-06 -2.292034878337290138e-06 1.133847217715810984e-05 -6.947612746444065124e-06 1.694356251391582191e-05 5.835488991579040885e-06 -5.339598828868474811e-06 8.881222129275556654e-06 2.255472281831316650e-06 -4.310838448873255402e-06 -1.833421265473589301e-05 -6.101629878685344011e-06 7.009574801486451179e-06 5.132839760335627943e-06 3.087400794029235840e-01 5.826418600918259472e-06 6.485486665042117238e-06 -4.446340426511596888e-06 -8.099102160485927016e-06 -5.227450856182258576e-06 7.245342203532345593e-06 -2.552644218667410314e-06 6.457991730712819844e-06 -1.533518433570861816e-01 -1.798443943262100220e-01 -3.329730927944183350e-01 6.125077561591751873e-06 4.462012839212547988e-06 -4.783664735441561788e-06 -5.592040906776674092e-06 -4.954103133059106767e-06
2.532344296923838556e-06 4.502921456150943413e-06 1.309058575316157658e-06 1.147210241470020264e-06 -1.001269265543669462e-05 -3.554810746209113859e-06 1.167263144452590495e-05 2.496247589078848250e-06 3.785187005996704102e-02 1.557998530188342556e-06 -1.048808246850967407e-01 -2.206780209235148504e-06 4.019453285764029715e-07 1.379328409711888526e-06 -4.458727744349744171e-06 2.375228405071538873e-06 -1.709985099296318367e-06 6.803516043873969465e-07 2.950976977444952354e-06 -2.346514236251096008e-07 1.466097728552995250e-06 6.893372983540757559e-07 3.132799065497238189e-06 4.453052497410681099e-06 1.514800942459260114e-06 -2.013585799431893975e-06 -8.492286503314971924e-02 -2.903306040025199763e-08 -7.924250553514866624e-07 4.324009751144330949e-06 -9.094769097828248050e-07 -4.687289219873491675e-06 5.057995622337330133e-06 9.756666258908808231e-06 3.648516667453804985e-06 -1.264399588108062744e-01 3.522176029946422204e-06 -3.106812982878182083e-06 5.924810011492809281e-06 3.590499773054034449e-06 8.071372576523572206e-06 5.127451004227623343e-06 1.737560342007782310e-05 1.046518264047335833e-06 -5.456131930259289220e-06 3.463312623352976516e-06 -9.586806299921590835e-06 6.947500423848396167e-06 1.901822429317689966e-06 -4.199424665785045363e-07 1.252430047316011041e-05 4.808206995221553370e-06 1.908390458993380889e-07 -5.853399215993704274e-06 3.125172853469848633e-02 -4.294869881960039493e-07 1.275435351999476552e-05 -5.972884082439122722e-06 5.796858204121235758e-06 -7.659514267288614064e-07 1.789612042557564564e-06 -1.383577910019084811e-05 7.715854328125715256e-03 -2.604781650006771088e-02 -1.529483415652066469e-05 -5.709839570045005530e-06 6.622121418331516907e-06 9.146548109129071236e-06 5.221444325798074715e-07 1.831829104048665613e-05 9.008045708469580859e-06 -9.277209755964577198e-08 3.620117008686065674e-01 2.930929064750671387e-01 2.900264859199523926e-01 -4.040558451379183680e-06 -1.634768977964995429e-06 -1.442563643649918959e-06 3.390705842321040109e-06 5.374045940698124468e-06
-2.632716132211498916e-06 -3.161552513120113872e-06 2.770004570484161377e-01 1.341988900094293058e-05 4.400462785270065069e-06 1.683966729615349323e-06 -1.085140593204414472e-05 -5.862693228664284106e-07 -1.529751624912023544e-02 -2.812740376612055115e-06 1.304661333560943604e-01 -7.568428665399551392e-02 3.434418141841888428e-02 -5.023264861847565044e-07 1.242779944732319564e-06 -1.183454692363739014e-02 2.269761413335800171e-01 -2.987417951226234436e-02 1.857630195445381105e-05 -2.069613628918887116e-06 -1.567612457620271016e-07 1.722016804706072435e-07 -3.449572204772266559e-06 -5.932943167863413692e-06 -4.637210793134727282e-07 1.354086634819395840e-06 3.321819305419921875e-01 -5.140326493346947245e-07 4.855623046751134098e-06 -1.210228502750396729e-01 2.941357251984300092e-06 3.969116278312867507e-06 2.343444066355004907e-05 1.223955678142374381e-05 -1.048604076459014323e-06 5.092848092317581177e-02 -1.858845280366949737e-05 2.494763975846581161e-06 -4.480580173549242318e-06 -3.512009698170004413e-06 9.483357644057832658e-06 2.110486275341827422e-05 1.206884917337447405e-05 -9.447361662751063704e-06 3.828147328022168949e-06 -4.245924174028914422e-06 4.540623194770887494e-06 -3.804591869993600994e-06 8.497880799041013233e-07 2.784359367069555447e-06 -4.866083600063575432e-06 2.699244532777811401e-06 1.647536829113960266e-02 7.472226023674011230e-02 -3.838952481746673584e-01 1.406295268679969013e-06 -9.830964700086042285e-06 4.476592494029318914e-06 -4.240342150296783075e-06 -8.841416274663060904e-06 7.412407967422041111e-07 -8.755861017561983317e-06 1.178369416265923064e-06 1.785387992858886719e-01 1.021124899125425145e-05 -8.054817953961901367e-06 -4.854832695855293423e-06 -2.930857590399682522e-06 -1.292234287575411145e-06 -2.475425390002783388e-06 7.719918357906863093e-06 -2.455431285852682777e-06 -2.985640764236450195e-01 -3.198418021202087402e-01 -7.453772425651550293e-01 1.560779310239013284e-07 8.565166353946551681e-10 -1.040970255417050794e-05 -9.422574862583132926e-07 -3.178386123181553558e-06
1.590668261997052468e-06 -7.729779099463485181e-06 -2.188294939696788788e-02 1.243130918737733737e-05 1.171374606201425195e-06 5.290309218253241852e-06 -1.212163260788656771e-05 -2.571136519691208377e-06 -4.667341113090515137e-01 1.192709987662965432e-06 2.968215942382812500e-01 6.283240509219467640e-06 9.988506235458771698e-07 2.010458274526172318e-06 3.471677246125182137e-06 8.464455731882480904e-07 -5.713537575502414256e-06 -1.030488192554912530e-07 1.241506652149837464e-06 3.694993210956454277e-06 -1.569034338899655268e-06 -1.108303422370227054e-07 -8.263259587693028152e-06 -8.467453881166875362e-06 -2.241864876850740984e-06 1.974069846255588345e-06 3.549785017967224121e-01 -2.376850716245826334e-06 9.597400776328868233e-07 -1.489191890868823975e-05 4.163232006249018013e-06 1.201963095809333026e-05 9.377454261993989348e-06 7.340634056163253263e-07 -5.784637323813512921e-06 1.409253968631674070e-06 -4.792700110556324944e-06 6.905084319441812113e-06 -1.041947143676225096e-05 -8.989652087620925158e-06 1.504391548223793507e-06 1.800520476535893977e-05 3.794627218667301349e-06 5.475065336213447154e-06 7.947674021124839783e-06 -9.397306712344288826e-06 1.223003710038028657e-05 -1.051371054927585647e-05 -3.721546363522065803e-06 4.517944944382179528e-06 -1.716144834063015878e-05 1.010861706163268536e-05 -6.200944426382193342e-06 3.552231646608561277e-06 4.422593519848305732e-06 -1.433412307960679755e-06 8.617869752924889326e-06 1.037022411765065044e-05 -9.343815690954215825e-06 -3.479461611277656630e-06 -2.945611640825518407e-06 -5.589185093413107097e-06 1.981076366064371541e-06 6.593777239322662354e-02 -1.203384726977674291e-05 -2.721522832871414721e-06 -9.571977898303885013e-06 -1.805466126825194806e-06 -3.140002263535279781e-06 -9.809581570152658969e-06 -1.054992026183754206e-06 4.054024884680984542e-06 -6.007402390241622925e-02 -4.209061861038208008e-01 9.682777090347371995e-06 7.697264663875102997e-06 6.139764082035981119e-06 -1.611303559911902994e-06 -3.400354898985824548e-06 -9.241692168870940804e-06
-3.608553925005253404e-06 -5.853388756804633886e-06 -4.076054319739341736e-03 7.966531484271399677e-06 1.799589153961278498e-05 3.751601980184204876e-06 -7.871743946452625096e-06 -9.386576493852771819e-08 -5.888003706932067871e-01 -4.538400389719754457e-06 7.151672840118408203e-01 4.427669409778900445e-06 3.819407150149345398e-02 -1.841248758137226105e-02 1.187351017506443895e-06 -3.715702518820762634e-02 -1.056787141351378523e-06 -2.986478246748447418e-02 2.727519677137024701e-05 -3.219344307581195608e-06 1.945418944160337560e-06 -1.217854097485542297e-01 -1.037567199091427028e-05 -8.492182132613379508e-06 1.762416559358825907e-06 -3.509769840093213134e-06 4.073705673217773438e-01 1.384766306728124619e-02 1.073185279965400696e-01 -2.542045712471008301e-01 2.875553444027900696e-02 5.925464392930734903e-06 -5.515558314073132351e-06 -8.471253750030882657e-06 -3.190511961292941123e-06 6.667588651180267334e-02 -4.454100235307123512e-07 3.440971795498626307e-06 -5.516545570571906865e-06 -7.801337233104277402e-06 -2.169000072171911597e-05 -2.749680106717278250e-06 9.782826964510604739e-06 6.714885330438846722e-06 4.902184173261048272e-06 -7.092507183551788330e-02 7.950515282573178411e-06 -6.517811470985179767e-06 -7.083179980327258818e-07 1.472940311941783875e-06 -8.495411748299375176e-06 6.922584361745975912e-06 -1.350633283436764032e-06 1.539295315742492676e-01 -1.478257328271865845e-01 9.521898813545703888e-03 -1.106802392314421013e-05 5.570286703004967421e-06 -5.967613560642348602e-06 1.010660525935236365e-05 4.140274540986865759e-07 1.313539178227074444e-05 3.879006271745311096e-08 1.309256404638290405e-01 -1.054307449521729723e-05 -1.704473106656223536e-05 -5.778495506092440337e-06 -3.536203439580276608e-05 6.844618171453475952e-02 -2.824902367137838155e-06 -8.355936188308987767e-06 -4.905052719550440088e-08 -2.811324894428253174e-01 -6.136258244514465332e-01 -1.834954172372817993e-01 3.684064722619950771e-06 3.562340907592442818e-06 -8.587457984685897827e-02 -9.624063750379718840e-07 -4.816291493625612929e-06
-1.146475076675415039e-01 1.934837400913238525e-01 -6.278798580169677734e-01 2.848081567208282650e-05 -1.833146251738071442e-02 -9.574726969003677368e-02 1.069409699994139373e-05 4.494684934616088867e-02 -2.955143153667449951e-02 -1.305953711271286011e-01 1.053469181060791016e-01 -6.270896643400192261e-02 7.761240005493164062e-02 -9.658251656219363213e-06 -8.115885779261589050e-03 -9.315633028745651245e-02 -1.982297599315643311e-01 -2.299827635288238525e-01 -1.856408925959840417e-05 -3.239289671182632446e-02 5.164421349763870239e-02 -6.661564111709594727e-03 3.512819409370422363e-01 2.755395770072937012e-01 1.528273820877075195e-01 -5.232339501380920410e-01 -1.601486802101135254e-01 1.053383797407150269e-01 5.496013909578323364e-02 2.143790423870086670e-01 -7.864079624414443970e-02 -4.487271326070185751e-06 8.598908607382327318e-08 -1.669176708674058318e-05 1.597836017608642578e-01 1.657958026044070721e-03 -6.651371222687885165e-06 -1.522842198610305786e-01 2.155087713617831469e-06 5.322808027267456055e-02 -7.105863915057852864e-07 1.207524383062263951e-05 -1.490498107159510255e-06 -4.445089995861053467e-01 -5.378580681281164289e-06 6.348021328449249268e-02 -7.556541277153883129e-07 2.985427727253409103e-06 3.563366830348968506e-02 8.591729283580207266e-08 -1.152375034507713281e-06 2.209828744526021183e-05 1.473164411436300725e-05 -7.133171558380126953e-01 2.679575085639953613e-01 1.336841583251953125e-01 2.238320303149521351e-05 -3.358411504450486973e-06 6.289817065407987684e-06 -4.193507265881635249e-06 6.604348123073577881e-02 -7.264431587827857584e-06 -7.310039550065994263e-02 -7.238235324621200562e-02 -3.273402398917824030e-06 3.007907253049779683e-06 2.027024514973163605e-03 -1.060928843799047172e-05 1.094530522823333740e-01 4.691400135925505310e-06 3.967974771512672305e-05 -1.479376554489135742e-01 3.422880545258522034e-02 2.972987294197082520e-01 6.026392579078674316e-01 -5.839661753270775080e-06 -2.345426678657531738e-01 2.586302161216735840e-01 3.401282057166099548e-02 1.280424147844314575e-01
8.098776561382692307e-06 5.444582711788825691e-06 4.272446036338806152e-01 -2.158863571821711957e-05 5.267806955089326948e-06 9.223886081599630415e-07 -6.609122010559076443e-06 -6.402410235750721768e-06 4.760654270648956299e-01 1.111687197408173233e-05 -8.844162225723266602e-01 1.823848672211170197e-02 -7.332478463649749756e-02 1.103245267586316913e-05 5.799598511657677591e-06 9.359624236822128296e-03 1.727431081235408783e-03 6.589330041606444865e-06 -6.488869985332712531e-06 7.568797627754975110e-06 -1.055770007951650769e-05 4.614712297916412354e-02 1.125100243370980024e-05 2.766998022707412019e-06 -1.022303786157863215e-05 1.416838075965642929e-02 -1.578825861215591431e-01 -4.438088834285736084e-02 -1.077659800648689270e-02 1.566625360283069313e-05 2.605426061563775875e-06 1.266546178158023395e-06 -1.380746834911406040e-05 3.951736289309337735e-06 1.399138000124366954e-06 -2.953060716390609741e-02 1.321765557804610580e-05 3.554862360033439472e-07 3.646171535365283489e-06 4.162937329965643585e-06 1.283309757127426565e-06 -2.671440597623586655e-06 -1.174125463876407593e-05 -2.247979864478111267e-06 3.238517592762946151e-06 8.409979272983036935e-06 -8.224660632549785078e-06 4.490508217713795602e-06 -1.206605247716652229e-06 6.334903446258977056e-06 1.056636847351910546e-05 -9.401988791069015861e-06 9.537383448332548141e-06 -1.934270694619044662e-04 -8.983231964521110058e-06 -1.801209338009357452e-02 2.014692290686070919e-05 -2.111141839122865349e-08 6.606778697459958494e-07 -7.532785275543574244e-06 -2.901161224144743755e-06 1.835363946156576276e-05 4.971860907971858978e-04 -1.064707860350608826e-01 -1.901105133583769202e-05 1.087401960830902681e-05 8.387153229705290869e-07 -2.569266325735952705e-05 -4.539378359913825989e-02 3.108895180048421025e-05 7.870080298744142056e-04 7.436658255755901337e-03 6.634817272424697876e-02 4.029525371151976287e-05 -2.845217287540435791e-01 1.727341555124439765e-06 1.105106889554008376e-06 -1.986710776691325009e-05 -6.821469469286967069e-06 1.321269337495323271e-06
4.427460680744843557e-06 -1.474271994084119797e-05 -3.529586493968963623e-01 -4.560675733955577016e-06 1.475480496883392334e-01 9.050462722370866686e-06 2.276554369018413126e-05 -3.461966116447001696e-06 -9.496062397956848145e-01 1.575800297359819524e-06 6.698698997497558594e-01 4.344964509073179215e-06 2.851078845560550690e-02 2.533176257202285342e-06 4.702581463789101690e-06 1.334918579232180491e-06 -4.336371552199125290e-03 5.765945388702675700e-06 4.984688075637677684e-06 2.467309059284161776e-06 -1.199205826196703129e-06 -3.074976429343223572e-02 -2.493144529580604285e-05 -1.706845432636328042e-05 -1.473921201977645978e-06 1.757843392624636181e-06 1.595101356506347656e-01 7.947760423121508211e-07 3.399891284061595798e-07 -1.744057387113571167e-01 1.005536432785447687e-05 5.920588137087179348e-06 9.076989954337477684e-06 8.631722266727592796e-06 -1.227317625307478011e-05 9.523164480924606323e-03 3.127222271359642036e-06 1.046721354214241728e-05 -7.674336302443407476e-06 -1.295108086196705699e-05 -3.692675363708985969e-06 -1.487751433160156012e-08 -1.867079845396801829e-05 1.011479049921035767e-01 6.440916422434384003e-06 -1.986240386031568050e-05 9.654630957811605185e-06 -7.267309229064267129e-06 -8.993982191896066070e-06 2.111432877427432686e-06 -1.233313923876266927e-05 -1.195947788801277056e-05 -4.945418186252936721e-05 1.247727349400520325e-01 1.721646913210861385e-05 -8.424017323704902083e-07 -4.298799922253238037e-06 6.546652457473101094e-06 -9.142095223069190979e-06 2.728388608375098556e-07 -7.540068963862722740e-06 -2.079073965433053672e-06 2.965820840472588316e-06 1.021726876497268677e-01 -1.435267495253356174e-05 -1.962554961210116744e-05 -8.858855835569556803e-06 -8.452386282442603260e-06 1.421725755790248513e-06 -6.096843208069913089e-06 -9.872425347566604614e-02 1.156085909315152094e-05 -3.717264905571937561e-02 -2.680894434452056885e-01 2.535046935081481934e-01 8.542731848137918860e-06 1.133219848270528018e-05 -1.505869925022125244e-01 -4.091246410098392516e-06 -1.253461596206761897e-05
4.695429197454359382e-06 -5.367591256799641997e-06 3.084826767444610596e-01 1.325225821346975863e-05 1.200769565912196413e-05 5.907073500566184521e-06 -1.204542240884620696e-05 -4.474473826121538877e-06 -1.452851854264736176e-02 4.221917606628267094e-06 9.887925535440444946e-02 7.049394753266824409e-06 5.800054594874382019e-02 4.816303317056735978e-06 4.875774720858316869e-06 4.517009074334055185e-06 2.543799281120300293e-01 4.288287982490146533e-06 -6.672689778497442603e-06 4.303411060391226783e-06 -4.344627996033523232e-06 4.530252226686570793e-06 -5.081140898255398497e-06 -7.603037829539971426e-06 -4.852216534345643595e-06 3.271698460594052449e-06 2.188720256090164185e-01 -4.272375917935278267e-06 -3.993216068920446560e-06 -2.429750189185142517e-02 5.723017238778993487e-06 4.921164872939698398e-06 8.025698662095237523e-06 1.960779991350136697e-05 -4.051332780363736674e-06 -3.677220547615434043e-06 -6.950140232220292091e-06 6.273556209634989500e-06 -5.536890057555865496e-06 -6.219744136615190655e-06 -8.892853657016530633e-06 -5.134370439918711782e-07 1.802315637178253382e-06 2.397110313177108765e-01 5.121943104313686490e-06 -7.800304956617765129e-06 5.549509296542964876e-06 -5.507801688509061933e-06 -4.287748197384644300e-06 4.662114406528417021e-06 -6.733284863003063947e-06 4.525201802607625723e-06 3.314512968063354492e-02 7.875569909811019897e-02 4.238828296365682036e-06 -2.358515757805434987e-06 1.468229129386600107e-06 6.117190423537977040e-06 -6.354925062623806298e-06 -1.821557088987901807e-05 -4.190756044408772141e-06 -6.151822162792086601e-06 4.471264219318982214e-06 5.924445390701293945e-01 4.751575943373609334e-06 5.596216851699864492e-06 -6.563828719663433731e-06 1.317639544140547514e-05 5.526050552725791931e-02 -2.282423793076304719e-06 -6.747720362909603864e-06 5.531385795620735735e-06 8.607146810390986502e-06 -1.928835362195968628e-01 -2.965638935565948486e-01 5.302634235704317689e-06 6.966182354517513886e-06 -2.054106146097183228e-01 -4.957310920872259885e-06 -4.952892140863696113e-06
-1.999912559986114502e-01 1.939194500446319580e-01 -6.822947263717651367e-01 -5.344471901480574161e-06 -2.407550528005231172e-05 -9.665583074092864990e-02 -1.786458960850723088e-05 1.113848388195037842e-01 -5.276954174041748047e-01 -1.437814682722091675e-01 1.194447576999664307e-01 -1.144827380776405334e-01 4.807114973664283752e-02 -1.621411889791488647e-01 -6.612569838762283325e-02 -1.589831560850143433e-01 -3.840574026107788086e-01 -1.512278914451599121e-01 4.790522325492929667e-06 -1.862011402845382690e-01 1.867551207542419434e-01 -5.499339103698730469e-02 3.410160243511199951e-01 2.744880318641662598e-01 1.940124928951263428e-01 -4.935770332813262939e-01 -1.404731273651123047e-01 1.530841141939163208e-01 5.279627442359924316e-02 1.728049814701080322e-01 -3.419310972094535828e-02 -6.411037594079971313e-02 -2.001730535994283855e-06 -3.473634569672867656e-05 2.300020307302474976e-01 7.532788813114166260e-02 7.461798304575495422e-06 -4.828954860568046570e-02 3.991859557572752237e-06 2.575693465769290924e-02 -2.404762926744297147e-05 2.003311419684905559e-05 5.884910024178680032e-06 -2.357402443885803223e-01 -6.396333446900825948e-06 4.528546705842018127e-02 -1.336077048108563758e-06 2.389825507998466492e-02 1.716294139623641968e-01 -9.346682345494627953e-04 -9.784780559130012989e-07 4.495538632909301668e-06 -2.107821637764573097e-05 -3.679808676242828369e-01 7.791724783601239324e-06 2.811141014099121094e-01 1.010389132716227323e-05 -4.787557372765149921e-06 6.352540367515757680e-06 -1.249464094144059345e-05 1.852042227983474731e-01 8.494586836604867131e-06 -1.467329114675521851e-01 -1.491362899541854858e-01 -5.245074135018512607e-07 -2.663629857124760747e-05 1.180586125701665878e-02 1.764616717991884798e-05 1.330902427434921265e-01 2.426441824354697019e-05 -1.474096461606677622e-05 -2.472840547561645508e-01 -2.627364173531532288e-02 -4.207319766283035278e-02 8.255257010459899902e-01 -5.131705165695166215e-06 -1.031201630830764771e-01 2.075943797826766968e-01 8.842676877975463867e-02 1.037801876664161682e-01
-2.775452685455093160e-06 -2.177199121433659457e-06 2.053364217281341553e-01 1.705117210804019123e-05 2.258354470541235059e-06 1.930354073920170777e-06 -3.383760486030951142e-06 1.582644927111687139e-06 -1.222819015383720398e-01 -4.008528776466846466e-06 2.260235697031021118e-01 -2.627764046192169189e-01 2.427841126918792725e-01 7.601101970067247748e-10 1.592607759448583238e-06 -3.791696624830365181e-03 4.060609042644500732e-01 -1.181342899799346924e-01 1.732110467855818570e-05 -2.023838760578655638e-06 8.229853212833404541e-02 -7.237190402520354837e-07 -3.838109023490687832e-06 -6.032022611179854721e-06 3.060335107147693634e-02 -4.863904450758127496e-06 3.819257318973541260e-01 6.062035936338361353e-06 2.240886241197586060e-01 -9.990320354700088501e-02 9.369919449090957642e-02 4.927312147628981620e-06 7.038261173875071108e-06 2.871371179935522377e-06 -7.868879947636742145e-08 3.224953114986419678e-01 -4.974453986505977809e-06 2.464835688442690298e-06 -5.638163202092982829e-06 -4.795627774001332000e-06 -7.472858669643756002e-06 1.272858389711473137e-05 2.052724084933288395e-06 1.417310068063670769e-05 3.195648332621203735e-06 -7.009903129073791206e-06 6.287466931098606437e-06 -7.101028131728526205e-06 3.847967491310555488e-07 -9.361509233713150024e-02 -7.591661415062844753e-06 -1.793743831512983888e-05 -9.756224699231097475e-07 9.071374734048731625e-06 -1.141054108738899231e-01 1.753652840852737427e-02 -1.939306457643397152e-06 5.347511432773899287e-06 -5.386437806009780616e-06 -3.730269781954120845e-06 1.046748366206884384e-06 -2.400742960162460804e-05 -1.006323322653770447e-01 6.810553669929504395e-01 1.168918151961406693e-05 1.734457873681094497e-05 -6.150671651994343847e-06 -4.183307464700192213e-05 7.738300412893295288e-02 6.233169187908060849e-06 1.278450417885323986e-05 -4.054015789733966812e-08 -4.723745882511138916e-01 -5.548103451728820801e-01 -4.870103001594543457e-01 1.814188749449385796e-06 -1.004428975284099579e-02 -8.149642497301101685e-02 5.558381417358759791e-07 -2.643830839588190429e-06
3.027439303696155548e-02 -5.626492202281951904e-02 -9.943426251411437988e-01 2.183196102123474702e-06 2.774367630481719971e-01 9.299623779952526093e-03 -1.024925950332544744e-06 -3.226855915272608399e-05 -1.555078387260437012e+00 1.463171187788248062e-02 1.223739624023437500e+00 1.643117684579920024e-05 1.733735785819590092e-03 3.172997821820899844e-05 2.940273407148197293e-05 1.867651566863059998e-02 -3.792895972728729248e-01 1.367559432983398438e-01 -8.182973942894022912e-06 4.927430301904678345e-03 -2.965873136417940259e-05 -1.034592278301715851e-03 -1.536275446414947510e-01 -1.148079484701156616e-01 -2.856764331227168441e-05 3.605404123663902283e-02 3.093307316303253174e-01 -1.924141906783916056e-05 -3.023148565262090415e-05 -1.758880615234375000e-01 7.541214674711227417e-02 2.071235394396353513e-05 4.609796633303631097e-06 -1.505506406829226762e-05 -3.807771950960159302e-02 -1.884969606180675328e-05 6.041693268343806267e-06 3.663072362542152405e-02 -2.228495577583089471e-05 -3.051495514228008687e-05 1.315982899541268125e-06 3.136516534141264856e-05 -1.467860784032382071e-06 2.206470668315887451e-01 2.144970676454249769e-05 -1.410531438887119293e-02 2.217360452050343156e-05 -1.962073656613938510e-05 -2.415279299020767212e-02 3.410606586840003729e-05 -2.197560570493806154e-05 -7.355029083555564284e-06 -3.095099031925201416e-01 1.393950879573822021e-01 1.736341230571269989e-02 -1.198958978056907654e-02 1.645372321945615113e-05 2.123604645021259785e-05 -2.471200787113048136e-05 -1.171731673821341246e-05 -2.365546487271785736e-02 9.663558557804208249e-06 2.954742922156583518e-05 1.744603179395198822e-02 -2.307915383426006883e-05 -1.048612148224492557e-06 -2.302161738043650985e-05 -7.201262633316218853e-06 -2.387947461102157831e-05 7.077473128447309136e-06 -3.007934689521789551e-01 1.097747236490249634e-01 -5.632485263049602509e-03 -7.295098900794982910e-01 6.389027833938598633e-01 1.907538622617721558e-01 1.145010814070701599e-01 -2.007348984479904175e-01 -3.104353163507767022e-05 -9.771792218089103699e-03
3.776724042836576700e-06 -1.057267854776000604e-05 -2.062303572893142700e-02 7.856382580939680338e-06 1.326536221313290298e-06 8.537117537343874574e-06 -1.447295471734832972e-05 -1.006936508929356933e-05 -2.190592885017395020e-01 6.040399057383183390e-06 8.004105836153030396e-02 7.314080448850290850e-06 -3.937348083127290010e-06 7.585658750031143427e-06 1.485870234319008887e-05 3.883479621435981244e-06 -8.924695293899276294e-07 4.745890691992826760e-06 5.177065759198740125e-06 6.415280040528159589e-06 -6.800816208851756528e-06 5.458940904645714909e-06 -7.686327990086283535e-06 -9.056479029823094606e-06 -6.820613180025247857e-06 8.504874131176620722e-06 1.331145614385604858e-01 -7.094971806509420276e-06 -6.906601811351720244e-06 -9.193218829750549048e-06 6.046609541954239830e-06 1.593741762917488813e-05 1.141204302257392555e-05 1.240995698026381433e-05 -8.943744433054234833e-06 -3.927376837964402512e-06 1.147855255112517625e-05 9.767677511263173074e-06 -1.907425394165329635e-05 -9.340630640508607030e-06 3.265638042648788542e-06 -1.346429053228348494e-05 1.041529321810230613e-05 4.579482720146188512e-06 1.792024704627692699e-05 -1.166131642094114795e-05 1.458442875446053222e-05 -1.939361027325503528e-05 -7.151981662900652736e-06 7.888858817750588059e-06 -2.353571835556067526e-05 1.119604166888166219e-05 -2.709604814299382269e-06 6.920496616658056155e-06 6.696286618534941226e-06 -4.138734766456764191e-06 -1.237672677234513685e-05 1.477975092711858451e-05 -1.259137115994235501e-05 1.068168057827278972e-05 -6.982014383538626134e-06 -5.255729774944484234e-06 6.898721949255559593e-06 -1.369280425933538936e-06 -1.279848765989299864e-05 9.268175745091866702e-06 -8.056655133259482682e-06 -9.651194886828307062e-06 -6.351085630740271881e-06 1.854788206401281059e-05 7.975377229740843177e-07 6.725114872097037733e-06 1.462040017941035330e-06 -1.697384268045425415e-01 5.524267635337309912e-06 9.175108061754144728e-06 6.997501259320415556e-06 3.383829607628285885e-06 -1.176079604192636907e-05 -1.534834518679417670e-05
